{"learner":{"attributes":{"best_iteration":"99","best_ntree_limit":"500"},"feature_names":["V1","V2","V3","V4","V5","V6","V7","V8","V9","V10","V11","V12","V13","V14","V15","V16","V17","V18","V19","V20","V21","V22","V23","V24","V25","V26","V27","V28","normalizedAmount"],"feature_types":["float","float","float","float","float","float","float","float","float","float","float","float","float","float","float","float","float","float","float","float","float","float","float","float","float","float","float","float","float"],"gradient_booster":{"model":{"gbtree_model_param":{"num_parallel_tree":"5","num_trees":"500","size_leaf_vector":"0"},"tree_info":[0,0,0,0,0,0,0,0,0,0,0,0,0,0,0,0,0,0,0,0,0,0,0,0,0,0,0,0,0,0,0,0,0,0,0,0,0,0,0,0,0,0,0,0,0,0,0,0,0,0,0,0,0,0,0,0,0,0,0,0,0,0,0,0,0,0,0,0,0,0,0,0,0,0,0,0,0,0,0,0,0,0,0,0,0,0,0,0,0,0,0,0,0,0,0,0,0,0,0,0,0,0,0,0,0,0,0,0,0,0,0,0,0,0,0,0,0,0,0,0,0,0,0,0,0,0,0,0,0,0,0,0,0,0,0,0,0,0,0,0,0,0,0,0,0,0,0,0,0,0,0,0,0,0,0,0,0,0,0,0,0,0,0,0,0,0,0,0,0,0,0,0,0,0,0,0,0,0,0,0,0,0,0,0,0,0,0,0,0,0,0,0,0,0,0,0,0,0,0,0,0,0,0,0,0,0,0,0,0,0,0,0,0,0,0,0,0,0,0,0,0,0,0,0,0,0,0,0,0,0,0,0,0,0,0,0,0,0,0,0,0,0,0,0,0,0,0,0,0,0,0,0,0,0,0,0,0,0,0,0,0,0,0,0,0,0,0,0,0,0,0,0,0,0,0,0,0,0,0,0,0,0,0,0,0,0,0,0,0,0,0,0,0,0,0,0,0,0,0,0,0,0,0,0,0,0,0,0,0,0,0,0,0,0,0,0,0,0,0,0,0,0,0,0,0,0,0,0,0,0,0,0,0,0,0,0,0,0,0,0,0,0,0,0,0,0,0,0,0,0,0,0,0,0,0,0,0,0,0,0,0,0,0,0,0,0,0,0,0,0,0,0,0,0,0,0,0,0,0,0,0,0,0,0,0,0,0,0,0,0,0,0,0,0,0,0,0,0,0,0,0,0,0,0,0,0,0,0,0,0,0,0,0,0,0,0,0,0,0,0,0,0,0,0,0,0,0,0,0,0,0,0,0,0,0,0,0,0,0,0,0,0,0,0,0,0,0,0,0,0,0,0,0,0,0,0,0,0,0,0,0,0,0,0,0,0,0,0,0,0,0,0,0,0,0,0,0,0,0,0,0,0,0,0,0,0,0,0,0,0,0,0,0,0,0,0,0,0,0,0],"trees":[{"base_weights":[-1.9954133E0,-1.1363636E0,-3.9978437E-2,3.5E-2,-1.7297298E0,8E-3,-1.8309859E0,-1.8796992E0,-7.692308E-1,-1E-2,-3.8139533E-2,-2.2222223E-2,-0E0],"categories":[],"categories_nodes":[],"categories_segments":[],"categories_sizes":[],"default_left":[0,0,0,0,0,0,0,0,0,0,0,0,0],"id":0,"left_children":[1,3,-1,-1,5,-1,7,9,11,-1,-1,-1,-1],"loss_changes":[2.8613281E1,7.838452E1,0E0,0E0,8.71138E0,0E0,3.9019775E-1,2.9786682E-1,8.547008E-1,0E0,0E0,0E0,0E0],"parents":[2147483647,0,0,1,1,4,4,6,6,7,7,8,8],"right_children":[2,4,-1,-1,6,-1,8,10,12,-1,-1,-1,-1],"split_conditions":[-3.3161056E0,-7.691509E-1,-3.9978437E-2,3.5E-2,-2.5290854E0,8E-3,1.9088846E-1,-2.2923043E0,-6.852373E-1,-1E-2,-3.8139533E-2,-2.2222223E-2,-0E0],"split_indices":[13,6,0,0,9,0,20,8,0,0,0,0,0],"split_type":[0,0,0,0,0,0,0,0,0,0,0,0,0],"sum_hessian":[1.0246E4,4.3E1,1.0203E4,7E0,3.6E1,1.5E0,3.45E1,3.225E1,2.25E0,1E0,3.125E1,1.25E0,1E0],"tree_param":{"num_deleted":"0","num_feature":"29","num_nodes":"13","size_leaf_vector":"0"}},{"base_weights":[-1.9957055E0,-1.0920246E0,-3.9982364E-2,1.4146341E0,-1.8730159E0,3.5675675E-2,-2E-2,-1E-2,-1.9016393E0,-1E-2,-3.8644068E-2],"categories":[],"categories_nodes":[],"categories_segments":[],"categories_sizes":[],"default_left":[0,0,0,0,0,0,0,0,0,0,0],"id":1,"left_children":[1,3,-1,5,7,-1,-1,-1,9,-1,-1],"loss_changes":[2.9414062E1,8.242503E1,0E0,1.0920237E1,2.8714752E-1,0E0,0E0,0E0,3.405075E-1,0E0,0E0],"parents":[2147483647,0,0,1,1,3,3,4,4,8,8],"right_children":[2,4,-1,6,8,-1,-1,-1,10,-1,-1],"split_conditions":[-3.3161056E0,-1.8743901E0,-3.9982364E-2,1.0216749E0,-5.129289E-1,3.5675675E-2,-2E-2,-1E-2,-3.5015085E-1,-1E-2,-3.8644068E-2],"split_indices":[13,11,0,6,6,0,0,0,28,0,0],"split_type":[0,0,0,0,0,0,0,0,0,0,0],"sum_hessian":[1.024475E4,3.975E1,1.0205E4,9.25E0,3.05E1,8.25E0,1E0,1E0,2.95E1,1E0,2.85E1],"tree_param":{"num_deleted":"0","num_feature":"29","num_nodes":"11","size_leaf_vector":"0"}},{"base_weights":[-1.9955995E0,-1.1165644E0,-3.99784E-2,1.5428572E0,-1.7878788E0,-0E0,3.483871E-2,-6.666667E-1,-1.8387097E0,-2E-2,-0E0,-1E-2,-3.7333332E-2],"categories":[],"categories_nodes":[],"categories_segments":[],"categories_sizes":[],"default_left":[0,0,0,0,0,0,0,0,0,0,0,0,0],"id":2,"left_children":[1,3,-1,5,7,-1,-1,9,11,-1,-1,-1,-1],"loss_changes":[2.7621094E1,7.5509735E1,0E0,2.6875572E0,6.5493774E-1,0E0,0E0,6.666666E-1,2.2688293E-1,0E0,0E0,0E0,0E0],"parents":[2147483647,0,0,1,1,3,3,4,4,7,7,8,8],"right_children":[2,4,-1,6,8,-1,-1,10,12,-1,-1,-1,-1],"split_conditions":[-3.3161056E0,-2.5290854E0,-3.99784E-2,1.275513E0,-1.2686261E0,-0E0,3.483871E-2,-1.2771382E0,-3.5015085E-1,-2E-2,-0E0,-1E-2,-3.7333332E-2],"split_indices":[13,9,0,3,24,0,0,0,28,0,0,0,0],"split_type":[0,0,0,0,0,0,0,0,0,0,0,0,0],"sum_hessian":[1.022525E4,3.975E1,1.01855E4,7.75E0,3.2E1,1E0,6.75E0,2E0,3E1,1E0,1E0,1E0,2.9E1],"tree_param":{"num_deleted":"0","num_feature":"29","num_nodes":"13","size_leaf_vector":"0"}},{"base_weights":[-1.996196E0,-1.2228571E0,-3.9986286E-2,3.448276E-2,-1.76E0,4.4444446E-3,-1.8344828E0,-1E-2,-1.8581561E0,-3.816794E-2,-8.5714287E-1,-2.4E-2,-0E0],"categories":[],"categories_nodes":[],"categories_segments":[],"categories_sizes":[],"default_left":[0,0,0,0,0,0,0,0,0,0,0,0,0],"id":3,"left_children":[1,3,-1,-1,5,-1,7,-1,9,-1,11,-1,-1],"loss_changes":[2.2277344E1,7.228887E1,0E0,0E0,5.944214E0,0E0,2.1611786E-1,0E0,1.370163E-1,0E0,1.0285714E0,0E0,0E0],"parents":[2147483647,0,0,1,1,4,4,6,6,8,8,10,10],"right_children":[2,4,-1,-1,6,-1,8,-1,10,-1,12,-1,-1],"split_conditions":[-3.3161056E0,-9.2823726E-1,-3.9986286E-2,3.448276E-2,-2.5290854E0,4.4444446E-3,-3.5015085E-1,-1E-2,1.9088846E-1,-3.816794E-2,-4.339471E-1,-2.4E-2,-0E0],"split_indices":[13,6,0,0,9,0,28,0,20,0,0,0,0],"split_type":[0,0,0,0,0,0,0,0,0,0,0,0,0],"sum_hessian":[1.02515E4,4.275E1,1.020875E4,6.25E0,3.65E1,1.25E0,3.525E1,1E0,3.425E1,3.175E1,2.5E0,1.5E0,1E0],"tree_param":{"num_deleted":"0","num_feature":"29","num_nodes":"13","size_leaf_vector":"0"}},{"base_weights":[-1.9957896E0,-1.1111112E0,-3.9982308E-2,1.5675676E0,-1.8449613E0,3.5151515E-2,-0E0,-1.9E0,-7.692308E-1,-1E-2,-3.8620688E-2,-2.2222223E-2,-0E0],"categories":[],"categories_nodes":[],"categories_segments":[],"categories_sizes":[],"default_left":[0,0,0,0,0,0,0,0,0,0,0,0,0],"id":4,"left_children":[1,3,-1,5,7,-1,-1,9,11,-1,-1,-1,-1],"loss_changes":[2.7828125E1,8.250493E1,0E0,2.7551174E0,4.4789124E-1,0E0,0E0,3.3792877E-1,8.547008E-1,0E0,0E0,0E0,0E0],"parents":[2147483647,0,0,1,1,3,3,4,4,7,7,8,8],"right_children":[2,4,-1,6,8,-1,-1,10,12,-1,-1,-1,-1],"split_conditions":[-3.3161056E0,-2.1529264E0,-3.9982308E-2,-4.0677205E-2,1.9088846E-1,3.5151515E-2,-0E0,-3.5015085E-1,-6.852373E-1,-1E-2,-3.8620688E-2,-2.2222223E-2,-0E0],"split_indices":[13,9,0,6,20,0,0,28,0,0,0,0,0],"split_type":[0,0,0,0,0,0,0,0,0,0,0,0,0],"sum_hessian":[1.0212E4,3.95E1,1.01725E4,8.25E0,3.125E1,7.25E0,1E0,2.9E1,2.25E0,1E0,2.8E1,1.25E0,1E0],"tree_param":{"num_deleted":"0","num_feature":"29","num_nodes":"13","size_leaf_vector":"0"}},{"base_weights":[-1.81453E0,-1.0313922E0,-3.635471E-2,3.23898E-2,-1.5775658E0,7.309104E-3,-1.6705528E0,-3.4316443E-2,-1.3898463E-2],"categories":[],"categories_nodes":[],"categories_segments":[],"categories_sizes":[],"default_left":[0,0,0,0,0,0,0,0,0],"id":5,"left_children":[1,3,-1,-1,5,-1,7,-1,-1],"loss_changes":[2.3589844E1,6.577983E1,0E0,0E0,7.2439804E0,0E0,3.6305237E-1,0E0,0E0],"parents":[2147483647,0,0,1,1,4,4,6,6],"right_children":[2,4,-1,-1,6,-1,8,-1,-1],"split_conditions":[-3.3161056E0,-7.691509E-1,-3.635471E-2,3.23898E-2,-2.5290854E0,7.309104E-3,1.9088846E-1,-3.4316443E-2,-1.3898463E-2],"split_indices":[13,6,0,0,9,0,20,0,0],"split_type":[0,0,0,0,0,0,0,0,0],"sum_hessian":[1.0144407E4,4.266842E1,1.0101739E4,6.9536004E0,3.5714817E1,1.4973152E0,3.4217503E1,3.1975174E1,2.2423298E0],"tree_param":{"num_deleted":"0","num_feature":"29","num_nodes":"9","size_leaf_vector":"0"}},{"base_weights":[-1.8148315E0,-9.949772E-1,-3.6358673E-2,1.3170987E0,-3.434286E-2,3.3064283E-2,-1.2210273E-2],"categories":[],"categories_nodes":[],"categories_segments":[],"categories_sizes":[],"default_left":[0,0,0,0,0,0,0],"id":6,"left_children":[1,3,-1,5,-1,-1,-1],"loss_changes":[2.3992188E1,6.9796646E1,0E0,7.6131E0,0E0,0E0,0E0],"parents":[2147483647,0,0,1,1,3,3],"right_children":[2,4,-1,6,-1,-1,-1],"split_conditions":[-3.3161056E0,-1.8743901E0,-3.6358673E-2,9.51962E-1,-3.434286E-2,3.3064283E-2,-1.2210273E-2],"split_indices":[13,11,0,6,0,0,0],"split_type":[0,0,0,0,0,0,0],"sum_hessian":[1.0143166E4,3.944733E1,1.0103719E4,9.192603E0,3.0254728E1,7.9489126E0,1.2436907E0],"tree_param":{"num_deleted":"0","num_feature":"29","num_nodes":"7","size_leaf_vector":"0"}},{"base_weights":[-1.8147162E0,-1.0175631E0,-3.6354672E-2,1.4187691E0,-1.6338006E0,3.208485E-2,3.4049887E-3,-1.1834473E-2,-3.3639073E-2],"categories":[],"categories_nodes":[],"categories_segments":[],"categories_sizes":[],"default_left":[0,0,0,0,0,0,0,0,0],"id":7,"left_children":[1,3,-1,5,7,-1,-1,-1,-1],"loss_changes":[2.2503906E1,6.305183E1,0E0,1.7418823E0,6.481705E-1,0E0,0E0,0E0,0E0],"parents":[2147483647,0,0,1,1,3,3,4,4],"right_children":[2,4,-1,6,8,-1,-1,-1,-1],"split_conditions":[-3.3161056E0,-2.5290854E0,-3.6354672E-2,8.4765744E-1,-1.2686261E0,3.208485E-2,3.4049887E-3,-1.1834473E-2,-3.3639073E-2],"split_indices":[13,9,0,17,24,0,0,0,0],"split_type":[0,0,0,0,0,0,0,0,0],"sum_hessian":[1.0123865E4,3.9452576E1,1.0084412E4,7.701585E0,3.1750992E1,6.457393E0,1.2441915E0,1.9892964E0,2.9761696E1],"tree_param":{"num_deleted":"0","num_feature":"29","num_nodes":"9","size_leaf_vector":"0"}},{"base_weights":[-1.8152959E0,-1.11334E0,-3.6362637E-2,3.189682E-2,-1.6079543E0,3.9333967E-3,-1.6760486E0,-3.438609E-2,-7.8133625E-1,-3.234934E-3,-2.105886E-2],"categories":[],"categories_nodes":[],"categories_segments":[],"categories_sizes":[],"default_left":[0,0,0,0,0,0,0,0,0,0,0],"id":8,"left_children":[1,3,-1,-1,5,-1,7,-1,9,-1,-1],"loss_changes":[1.8183594E1,6.0730583E1,0E0,0E0,4.902855E0,0E0,4.863739E-2,0E0,4.1729045E-1,0E0,0E0],"parents":[2147483647,0,0,1,1,4,4,6,6,8,8],"right_children":[2,4,-1,-1,6,-1,8,-1,10,-1,-1],"split_conditions":[-3.3161056E0,-9.2823726E-1,-3.6362637E-2,3.189682E-2,-2.5290854E0,3.9333967E-3,1.9088846E-1,-3.438609E-2,9.861765E-1,-3.234934E-3,-2.105886E-2],"split_indices":[13,6,0,0,9,0,20,0,6,0,0],"split_type":[0,0,0,0,0,0,0,0,0,0,0],"sum_hessian":[1.0149855E4,4.242362E1,1.0107432E4,6.2080455E0,3.6215572E1,1.248185E0,3.496739E1,3.247568E1,2.4917061E0,1.245649E0,1.2460573E0],"tree_param":{"num_deleted":"0","num_feature":"29","num_nodes":"11","size_leaf_vector":"0"}},{"base_weights":[-1.8149015E0,-1.0106432E0,-3.6358617E-2,1.4482678E0,-1.6861039E0,3.2463107E-2,3.6585447E-3,-3.474892E-2,-1.3898463E-2],"categories":[],"categories_nodes":[],"categories_segments":[],"categories_sizes":[],"default_left":[0,0,0,0,0,0,0,0,0],"id":9,"left_children":[1,3,-1,5,7,-1,-1,-1,-1],"loss_changes":[2.2800781E1,6.92047E1,0E0,1.7390594E0,4.2087555E-1,0E0,0E0,0E0,0E0],"parents":[2147483647,0,0,1,1,3,3,4,4],"right_children":[2,4,-1,6,8,-1,-1,-1,-1],"split_conditions":[-3.3161056E0,-2.1529264E0,-3.6358617E-2,-3.3427122E0,1.9088846E-1,3.2463107E-2,3.6585447E-3,-3.474892E-2,-1.3898463E-2],"split_indices":[13,9,0,2,20,0,0,0,0],"split_type":[0,0,0,0,0,0,0,0,0],"sum_hessian":[1.0110738E4,3.919679E1,1.0071541E4,8.200394E0,3.0996393E1,6.9561725E0,1.2442212E0,2.8754065E1,2.2423298E0],"tree_param":{"num_deleted":"0","num_feature":"29","num_nodes":"9","size_leaf_vector":"0"}},{"base_weights":[-1.6786094E0,-9.481715E-1,-3.3632323E-2,3.0314432E-2,-1.4581867E0,6.176009E-2,-1.5716242E0,2.1009112E-2,-1.9223958E-2,-3.231999E-2,-7.2246695E-1,-2.030633E-2,-2.1204841E-3],"categories":[],"categories_nodes":[],"categories_segments":[],"categories_sizes":[],"default_left":[0,0,0,0,0,0,0,0,0,0,0,0,0],"id":10,"left_children":[1,3,-1,-1,5,7,9,-1,-1,-1,11,-1,-1],"loss_changes":[2.0109375E1,5.600576E1,0E0,0E0,6.3002853E0,4.5099373E0,9.5458984E-2,0E0,0E0,0E0,5.193316E-1,0E0,0E0],"parents":[2147483647,0,0,1,1,4,4,5,5,6,6,10,10],"right_children":[2,4,-1,-1,6,8,10,-1,-1,-1,12,-1,-1],"split_conditions":[-3.3161056E0,-7.691509E-1,-3.3632323E-2,3.0314432E-2,-1.8743901E0,-2.9726824E-1,1.9088846E-1,2.1009112E-2,-1.9223958E-2,-3.231999E-2,-1.5254762E0,-2.030633E-2,-2.1204841E-3],"split_indices":[13,6,0,0,11,4,20,0,0,0,9,0,0],"split_type":[0,0,0,0,0,0,0,0,0,0,0,0,0],"sum_hessian":[9.882025E3,4.1809624E1,9.840216E3,6.8320317E0,3.4977592E1,2.4608095E0,3.251678E1,1.2376918E0,1.2231177E0,3.0043692E1,2.4730902E0,1.2379348E0,1.2351553E0],"tree_param":{"num_deleted":"0","num_feature":"29","num_nodes":"13","size_leaf_vector":"0"}},{"base_weights":[-1.6789182E0,-9.1645336E-1,-3.363639E-2,1.2402555E0,-3.1880777E-2,3.1104006E-2,-1.1248253E-2],"categories":[],"categories_nodes":[],"categories_segments":[],"categories_sizes":[],"default_left":[0,0,0,0,0,0,0],"id":11,"left_children":[1,3,-1,5,-1,-1,-1],"loss_changes":[2.031836E1,5.9932037E1,0E0,6.576726E0,0E0,0E0,0E0],"parents":[2147483647,0,0,1,1,3,3],"right_children":[2,4,-1,6,-1,-1,-1],"split_conditions":[-3.3161056E0,-1.8743901E0,-3.363639E-2,9.51962E-1,-3.1880777E-2,3.1104006E-2,-1.1248253E-2],"split_indices":[13,11,0,6,0,0,0],"split_type":[0,0,0,0,0,0,0],"sum_hessian":[9.880803E3,3.865843E1,9.842145E3,9.043421E0,2.9615005E1,7.815288E0,1.2281332E0],"tree_param":{"num_deleted":"0","num_feature":"29","num_nodes":"7","size_leaf_vector":"0"}},{"base_weights":[-1.678789E0,-9.368708E-1,-3.3632286E-2,1.3171487E0,-1.5098975E0,3.0032203E-2,2.364281E-3,-1.0440345E-2,-1.556902E0,-3.1698585E-2,-9.751473E-3],"categories":[],"categories_nodes":[],"categories_segments":[],"categories_sizes":[],"default_left":[0,0,0,0,0,0,0,0,0,0,0],"id":12,"left_children":[1,3,-1,5,7,-1,-1,-1,9,-1,-1],"loss_changes":[1.909961E1,5.3233646E1,0E0,1.7191362E0,6.7778015E-1,0E0,0E0,0E0,1.3043213E-1,0E0,0E0],"parents":[2147483647,0,0,1,1,3,3,4,4,8,8],"right_children":[2,4,-1,6,8,-1,-1,-1,10,-1,-1],"split_conditions":[-3.3161056E0,-2.5290854E0,-3.3632286E-2,5.399295E-1,-1.2686261E0,3.0032203E-2,2.364281E-3,-1.0440345E-2,6.5667456E-1,-3.1698585E-2,-9.751473E-3],"split_indices":[13,9,0,24,24,0,0,0,23,0,0],"split_type":[0,0,0,0,0,0,0,0,0,0,0],"sum_hessian":[9.862014E3,3.86751E1,9.823338E3,7.576013E0,3.1099083E1,6.347039E0,1.228974E0,1.9623625E0,2.913672E1,2.7922691E1,1.2140299E0],"tree_param":{"num_deleted":"0","num_feature":"29","num_nodes":"11","size_leaf_vector":"0"}},{"base_weights":[-1.6793642E0,-1.024958E0,-3.364046E-2,2.9873518E-2,-1.4871871E0,3.3261694E-3,-1.5502509E0,-1.5918821E0,-7.105344E-1,-1.0338818E-2,-3.234441E-2,-2.1204841E-3,-1.9943146E-2],"categories":[],"categories_nodes":[],"categories_segments":[],"categories_sizes":[],"default_left":[0,0,0,0,0,0,0,0,0,0,0,0,0],"id":13,"left_children":[1,3,-1,-1,5,-1,7,9,11,-1,-1,-1,-1],"loss_changes":[1.5482422E1,5.178443E1,0E0,0E0,4.06102E0,0E0,1.00486755E-1,5.6251526E-2,4.955616E-1,0E0,0E0,0E0,0E0],"parents":[2147483647,0,0,1,1,4,4,6,6,7,7,8,8],"right_children":[2,4,-1,-1,6,-1,8,10,12,-1,-1,-1,-1],"split_conditions":[-3.3161056E0,-9.2823726E-1,-3.364046E-2,2.9873518E-2,-2.5290854E0,3.3261694E-3,1.9088846E-1,-2.2923043E0,-1.2071403E-1,-1.0338818E-2,-3.234441E-2,-2.1204841E-3,-1.9943146E-2],"split_indices":[13,6,0,0,9,0,20,8,19,0,0,0,0],"split_type":[0,0,0,0,0,0,0,0,0,0,0,0,0],"sum_hessian":[9.887335E3,4.157314E1,9.845762E3,6.1005387E0,3.54726E1,1.2430623E0,3.4229538E1,3.175925E1,2.4702866E0,1.224237E0,3.0535015E1,1.2351553E0,1.2351311E0],"tree_param":{"num_deleted":"0","num_feature":"29","num_nodes":"13","size_leaf_vector":"0"}},{"base_weights":[-1.6789771E0,-9.29351E-1,-3.3636335E-2,1.3532093E0,-1.5604968E0,2.9703188E-3,3.046026E-2,-3.2203346E-2,-1.2557641E-2],"categories":[],"categories_nodes":[],"categories_segments":[],"categories_sizes":[],"default_left":[0,0,0,0,0,0,0,0,0],"id":14,"left_children":[1,3,-1,5,7,-1,-1,-1,-1],"loss_changes":[1.9402344E1,5.888374E1,0E0,1.6295528E0,4.4059753E-1,0E0,0E0,0E0,0E0],"parents":[2147483647,0,0,1,1,3,3,4,4],"right_children":[2,4,-1,6,8,-1,-1,-1,-1],"split_conditions":[-3.3161056E0,-2.1529264E0,-3.3636335E-2,1.4368731E-1,1.9088846E-1,2.9703188E-3,3.046026E-2,-3.2203346E-2,-1.2557641E-2],"split_indices":[13,9,0,26,20,0,0,0,0],"split_type":[0,0,0,0,0,0,0,0,0],"sum_hessian":[9.849208E3,3.8407845E1,9.810801E3,8.071813E0,3.0336033E1,1.228772E0,6.8430405E0,2.811228E1,2.223752E0],"tree_param":{"num_deleted":"0","num_feature":"29","num_nodes":"9","size_leaf_vector":"0"}},{"base_weights":[-1.5730336E0,-8.8121E-1,-3.1518105E-2,2.8601104E-2,-1.3625771E0,7.3024176E-2,-1.4718493E0,2.025734E-2,-1.8210374E-2,-3.0307585E-2,-6.648574E-1,-1.9393269E-2,-1.2116975E-3],"categories":[],"categories_nodes":[],"categories_segments":[],"categories_sizes":[],"default_left":[0,0,0,0,0,0,0,0,0,0,0,0,0],"id":15,"left_children":[1,3,-1,-1,5,7,9,-1,-1,-1,11,-1,-1],"loss_changes":[1.7507812E1,4.8212635E1,0E0,0E0,5.5866165E0,4.0865884E0,1.3430786E-1,0E0,0E0,0E0,5.758264E-1,0E0,0E0],"parents":[2147483647,0,0,1,1,4,4,5,5,6,6,10,10],"right_children":[2,4,-1,-1,6,8,10,-1,-1,-1,12,-1,-1],"split_conditions":[-3.3161056E0,-7.691509E-1,-3.1518105E-2,2.8601104E-2,-1.8743901E0,-2.9726824E-1,1.9088846E-1,2.025734E-2,-1.8210374E-2,-3.0307585E-2,2.0920034E-2,-1.9393269E-2,-1.2116975E-3],"split_indices":[13,6,0,0,11,4,20,0,0,0,27,0,0],"split_type":[0,0,0,0,0,0,0,0,0,0,0,0,0],"sum_hessian":[9.509597E3,4.0583176E1,9.469013E3,6.655626E0,3.3927547E1,2.4232328E0,3.1504316E1,1.2238986E0,1.1993341E0,2.9059029E1,2.4452863E0,1.2234678E0,1.2218186E0],"tree_param":{"num_deleted":"0","num_feature":"29","num_nodes":"13","size_leaf_vector":"0"}},{"base_weights":[-1.5733567E0,-8.5404575E-1,-3.1522334E-2,1.1720042E0,-1.495895E0,2.9434012E-2,-1.0573546E-2,-3.0431012E-2,-9.503884E-3],"categories":[],"categories_nodes":[],"categories_segments":[],"categories_sizes":[],"default_left":[0,0,0,0,0,0,0,0,0],"id":16,"left_children":[1,3,-1,5,7,-1,-1,-1,-1],"loss_changes":[1.7533203E1,5.185795E1,0E0,5.7884235E0,5.469513E-2,0E0,0E0,0E0,0E0],"parents":[2147483647,0,0,1,1,3,3,4,4],"right_children":[2,4,-1,6,8,-1,-1,-1,-1],"split_conditions":[-3.3161056E0,-1.8743901E0,-3.1522334E-2,9.51962E-1,3.615624E0,2.9434012E-2,-1.0573546E-2,-3.0431012E-2,-9.503884E-3],"split_indices":[13,11,0,6,4,0,0,0,0],"split_type":[0,0,0,0,0,0,0,0,0],"sum_hessian":[9.508399E3,3.7529713E1,9.470869E3,8.830267E0,2.8699444E1,7.621786E0,1.208481E0,2.7517101E1,1.1823432E0],"tree_param":{"num_deleted":"0","num_feature":"29","num_nodes":"9","size_leaf_vector":"0"}},{"base_weights":[-1.5732108E0,-8.722991E-1,-3.1518064E-2,1.2329623E0,-1.4110086E0,2.82638E-2,1.7984278E-3,-9.236195E-3,-1.4576687E0,-2.972875E-2,-8.378781E-3],"categories":[],"categories_nodes":[],"categories_segments":[],"categories_sizes":[],"default_left":[0,0,0,0,0,0,0,0,0,0,0],"id":17,"left_children":[1,3,-1,5,7,-1,-1,-1,9,-1,-1],"loss_changes":[1.653711E1,4.547312E1,0E0,1.6014452E0,7.073784E-1,0E0,0E0,0E0,2.5125504E-1,0E0,0E0],"parents":[2147483647,0,0,1,1,3,3,4,4,8,8],"right_children":[2,4,-1,6,8,-1,-1,-1,10,-1,-1],"split_conditions":[-3.3161056E0,-2.5290854E0,-3.1518064E-2,5.399295E-1,-1.2686261E0,2.82638E-2,1.7984278E-3,-9.236195E-3,6.5667456E-1,-2.972875E-2,-8.378781E-3],"split_indices":[13,9,0,24,24,0,0,0,23,0,0],"split_type":[0,0,0,0,0,0,0,0,0,0,0],"sum_hessian":[9.490333E3,3.756138E1,9.452772E3,7.3905587E0,3.017082E1,6.179819E0,1.2107396E0,1.9242082E0,2.8246613E1,2.7065971E1,1.1806403E0],"tree_param":{"num_deleted":"0","num_feature":"29","num_nodes":"11","size_leaf_vector":"0"}},{"base_weights":[-1.573789E0,-9.539843E-1,-3.152656E-2,2.8184801E-2,-1.3904705E0,-1.6233175E-1,-2.9511403E-2,1.3047927E-2,-1.8210374E-2],"categories":[],"categories_nodes":[],"categories_segments":[],"categories_sizes":[],"default_left":[0,0,0,0,0,0,0,0,0],"id":18,"left_children":[1,3,-1,-1,5,7,-1,-1,-1],"loss_changes":[1.3470703E1,4.461779E1,0E0,0E0,3.4614182E0,2.677702E0,0E0,0E0,0E0],"parents":[2147483647,0,0,1,1,4,4,5,5],"right_children":[2,4,-1,-1,6,8,-1,-1,-1],"split_conditions":[-3.3161056E0,-9.2823726E-1,-3.152656E-2,2.8184801E-2,-1.8743901E0,2.5715942E0,-2.9511403E-2,1.3047927E-2,-1.8210374E-2],"split_indices":[13,6,0,0,11,4,0,0,0],"split_type":[0,0,0,0,0,0,0,0,0],"sum_hessian":[9.514704E3,4.0354996E1,9.47435E3,5.944059E0,3.4410934E1,2.4182892E0,3.1992645E1,1.2189549E0,1.1993341E0],"tree_param":{"num_deleted":"0","num_feature":"29","num_nodes":"9","size_leaf_vector":"0"}},{"base_weights":[-1.5734053E0,-8.641128E-1,-3.1522274E-2,1.2716043E0,-1.4598473E0,2.875359E-2,2.3701473E-3,-3.0185355E-2,-1.1340402E-2],"categories":[],"categories_nodes":[],"categories_segments":[],"categories_sizes":[],"default_left":[0,0,0,0,0,0,0,0,0],"id":19,"left_children":[1,3,-1,5,7,-1,-1,-1,-1],"loss_changes":[1.684961E1,5.0551003E1,0E0,1.5304804E0,4.8516846E-1,0E0,0E0,0E0,0E0],"parents":[2147483647,0,0,1,1,3,3,4,4],"right_children":[2,4,-1,6,8,-1,-1,-1,-1],"split_conditions":[-3.3161056E0,-2.1529264E0,-3.1522274E-2,-3.3427122E0,1.9088846E-1,2.875359E-2,2.3701473E-3,-3.0185355E-2,-1.1340402E-2],"split_indices":[13,9,0,2,20,0,0,0,0],"split_type":[0,0,0,0,0,0,0,0,0],"sum_hessian":[9.4779795E3,3.7272316E1,9.440707E3,7.8817205E0,2.9390596E1,6.673735E0,1.2079854E0,2.719485E1,2.1957455E0],"tree_param":{"num_deleted":"0","num_feature":"29","num_nodes":"9","size_leaf_vector":"0"}},{"base_weights":[-1.4889377E0,-8.2525086E-1,-2.9834423E-2,2.7146673E-2,-1.2830064E0,7.6161824E-2,-1.3887688E0,1.9464837E-2,-1.737677E-2,-2.8674321E-2,-5.9885585E-1,-1.0411206E-4,-1.8404603E-2],"categories":[],"categories_nodes":[],"categories_segments":[],"categories_sizes":[],"default_left":[0,0,0,0,0,0,0,0,0,0,0,0,0],"id":20,"left_children":[1,3,-1,-1,5,7,9,-1,-1,-1,11,-1,-1],"loss_changes":[1.5515625E1,4.1805923E1,0E0,0E0,4.944748E0,3.7095377E0,2.5214767E-1,0E0,0E0,0E0,6.441816E-1,0E0,0E0],"parents":[2147483647,0,0,1,1,4,4,5,5,6,6,10,10],"right_children":[2,4,-1,-1,6,8,10,-1,-1,-1,12,-1,-1],"split_conditions":[-3.3161056E0,-7.691509E-1,-2.9834423E-2,2.7146673E-2,-1.8743901E0,-2.9726824E-1,1.9088846E-1,1.9464837E-2,-1.737677E-2,-2.8674321E-2,9.861765E-1,-1.0411206E-4,-1.8404603E-2],"split_indices":[13,6,0,0,11,4,20,0,0,0,6,0,0],"split_type":[0,0,0,0,0,0,0,0,0,0,0,0,0],"sum_hessian":[9.06479E3,3.9100945E1,9.025689E3,6.438222E0,3.2662724E1,2.3783286E0,3.0284395E1,1.204768E0,1.1735606E0,2.7882788E1,2.4016066E0,1.2003988E0,1.2012076E0],"tree_param":{"num_deleted":"0","num_feature":"29","num_nodes":"13","size_leaf_vector":"0"}},{"base_weights":[-1.4892812E0,-8.0249435E-1,-2.9838856E-2,1.1105765E0,-1.4147421E0,2.7998796E-2,-1.0103882E-2,-2.8795753E-2,-8.709967E-3],"categories":[],"categories_nodes":[],"categories_segments":[],"categories_sizes":[],"default_left":[0,0,0,0,0,0,0,0,0],"id":21,"left_children":[1,3,-1,5,7,-1,-1,-1,-1],"loss_changes":[1.5371094E1,4.509465E1,0E0,5.1812773E0,7.416153E-2,0E0,0E0,0E0,0E0],"parents":[2147483647,0,0,1,1,3,3,4,4],"right_children":[2,4,-1,6,8,-1,-1,-1,-1],"split_conditions":[-3.3161056E0,-1.8743901E0,-2.9838856E-2,9.51962E-1,3.615624E0,2.7998796E-2,-1.0103882E-2,-2.8795753E-2,-8.709967E-3],"split_indices":[13,11,0,6,4,0,0,0,0],"split_type":[0,0,0,0,0,0,0,0,0],"sum_hessian":[9.063617E3,3.6159107E1,9.027458E3,8.569217E0,2.758989E1,7.380961E0,1.1882558E0,2.644326E1,1.1466292E0],"tree_param":{"num_deleted":"0","num_feature":"29","num_nodes":"9","size_leaf_vector":"0"}},{"base_weights":[-1.4891133E0,-8.1798196E-1,-2.9834384E-2,1.1612794E0,-1.3281873E0,2.6783168E-2,1.2182593E-3,-8.1637725E-3,-1.3750083E0,-2.8095879E-2,-7.135926E-3],"categories":[],"categories_nodes":[],"categories_segments":[],"categories_sizes":[],"default_left":[0,0,0,0,0,0,0,0,0,0,0],"id":22,"left_children":[1,3,-1,5,7,-1,-1,-1,9,-1,-1],"loss_changes":[1.4603516E1,3.9114788E1,0E0,1.515378E0,7.330551E-1,0E0,0E0,0E0,3.5313034E-1,0E0,0E0],"parents":[2147483647,0,0,1,1,3,3,4,4,8,8],"right_children":[2,4,-1,6,8,-1,-1,-1,10,-1,-1],"split_conditions":[-3.3161056E0,-2.5290854E0,-2.9834384E-2,8.4765744E-1,-1.2686261E0,2.6783168E-2,1.2182593E-3,-8.1637725E-3,6.5667456E-1,-2.8095879E-2,-7.135926E-3],"split_indices":[13,9,0,17,24,0,0,0,23,0,0],"split_type":[0,0,0,0,0,0,0,0,0,0,0],"sum_hessian":[9.046415E3,3.6206654E1,9.010208E3,7.1588645E0,2.9047789E1,5.975835E0,1.18303E0,1.8773457E0,2.7170443E1,2.602934E1,1.1411018E0],"tree_param":{"num_deleted":"0","num_feature":"29","num_nodes":"11","size_leaf_vector":"0"}},{"base_weights":[-1.489702E0,-8.9461416E-1,-2.9843293E-2,2.6751146E-2,-1.3099705E0,-1.4844853E-1,-1.3921613E0,1.2683243E-2,-1.7428325E-2,-1.4176687E0,-9.608272E-3,-7.847612E-3,-2.889807E-2],"categories":[],"categories_nodes":[],"categories_segments":[],"categories_sizes":[],"default_left":[0,0,0,0,0,0,0,0,0,0,0,0,0],"id":23,"left_children":[1,3,-1,-1,5,7,9,-1,-1,11,-1,-1,-1],"loss_changes":[1.1958984E1,3.8728302E1,0E0,0E0,3.0516052E0,2.4621124E0,5.744171E-2,0E0,0E0,2.8131485E-1,0E0,0E0,0E0],"parents":[2147483647,0,0,1,1,4,4,5,5,6,6,9,9],"right_children":[2,4,-1,-1,6,8,10,-1,-1,12,-1,-1,-1],"split_conditions":[-3.3161056E0,-9.2823726E-1,-2.9843293E-2,2.6751146E-2,-1.8743901E0,1.9502363E-1,7.391088E-1,1.2683243E-2,-1.7428325E-2,-1.125339E0,-9.608272E-3,-7.847612E-3,-2.889807E-2],"split_indices":[13,6,0,0,11,17,23,0,0,24,0,0,0],"split_type":[0,0,0,0,0,0,0,0,0,0,0,0,0],"sum_hessian":[9.069657E3,3.888165E1,9.030775E3,5.751607E0,3.313004E1,2.3748424E0,3.0755198E1,1.1993663E0,1.1754761E0,2.9378405E1,1.3767939E0,1.1588632E0,2.8219542E1],"tree_param":{"num_deleted":"0","num_feature":"29","num_nodes":"13","size_leaf_vector":"0"}},{"base_weights":[-1.4893209E0,-8.102609E-1,-2.9838797E-2,1.201948E0,-1.3769656E0,1.8816851E-3,2.7291527E-2,-2.8560983E-2,-1.0028204E-2],"categories":[],"categories_nodes":[],"categories_segments":[],"categories_sizes":[],"default_left":[0,0,0,0,0,0,0,0,0],"id":24,"left_children":[1,3,-1,5,7,-1,-1,-1,-1],"loss_changes":[1.4861328E1,4.373777E1,0E0,1.4289017E0,5.926857E-1,0E0,0E0,0E0,0E0],"parents":[2147483647,0,0,1,1,3,3,4,4],"right_children":[2,4,-1,6,8,-1,-1,-1,-1],"split_conditions":[-3.3161056E0,-2.1529264E0,-2.9838797E-2,1.4368731E-1,1.9088846E-1,1.8816851E-3,2.7291527E-2,-2.8560983E-2,-1.0028204E-2],"split_indices":[13,9,0,26,20,0,0,0,0],"split_type":[0,0,0,0,0,0,0,0,0],"sum_hessian":[9.034612E3,3.5904045E1,8.998709E3,7.643431E0,2.8260614E1,1.1804488E0,6.462982E0,2.6106434E1,2.1541803E0],"tree_param":{"num_deleted":"0","num_feature":"29","num_nodes":"9","size_leaf_vector":"0"}},{"base_weights":[-1.4206243E0,-7.7813274E-1,-2.8467039E-2,2.5907079E-2,-1.2162256E0,7.707765E-2,-1.3193911E0,1.8755784E-2,-1.6669115E-2,-2.7325487E-2,-5.3950393E-1,-1.7545717E-2,9.283727E-4],"categories":[],"categories_nodes":[],"categories_segments":[],"categories_sizes":[],"default_left":[0,0,0,0,0,0,0,0,0,0,0,0,0],"id":25,"left_children":[1,3,-1,-1,5,7,9,-1,-1,-1,11,-1,-1],"loss_changes":[1.3923828E1,3.651616E1,0E0,0E0,4.4074554E0,3.3904648E0,3.5769272E-1,0E0,0E0,0E0,7.038272E-1,0E0,0E0],"parents":[2147483647,0,0,1,1,4,4,5,5,6,6,10,10],"right_children":[2,4,-1,-1,6,8,10,-1,-1,-1,12,-1,-1],"split_conditions":[-3.3161056E0,-7.691509E-1,-2.8467039E-2,2.5907079E-2,-1.8743901E0,-2.9726824E-1,1.9088846E-1,1.8755784E-2,-1.6669115E-2,-2.7325487E-2,-1.5254762E0,-1.7545717E-2,9.283727E-4],"split_indices":[13,6,0,0,11,4,20,0,0,0,9,0,0],"split_type":[0,0,0,0,0,0,0,0,0,0,0,0,0],"sum_hessian":[8.57575E3,3.7464874E1,8.538285E3,6.1936464E0,3.1271227E1,2.3288717E0,2.8942356E1,1.1818013E0,1.1470704E0,2.6591887E1,2.350469E0,1.1755164E0,1.1749529E0],"tree_param":{"num_deleted":"0","num_feature":"29","num_nodes":"13","size_leaf_vector":"0"}},{"base_weights":[-1.4209901E0,-7.590321E-1,-2.8471727E-2,1.0586177E0,-1.3475611E0,2.679826E-2,-9.677775E-3,-7.856522E-3,-1.3726232E0,-2.8107218E-2,-1.0340576E-2],"categories":[],"categories_nodes":[],"categories_segments":[],"categories_sizes":[],"default_left":[0,0,0,0,0,0,0,0,0,0,0],"id":26,"left_children":[1,3,-1,5,7,-1,-1,-1,9,-1,-1],"loss_changes":[1.3658203E1,3.9557632E1,0E0,4.67432E0,1.15615845E-1,0E0,0E0,0E0,9.101868E-3,0E0,0E0],"parents":[2147483647,0,0,1,1,3,3,4,4,8,8],"right_children":[2,4,-1,6,8,-1,-1,-1,10,-1,-1],"split_conditions":[-3.3161056E0,-1.8743901E0,-2.8471727E-2,9.51962E-1,-3.7456995E-1,2.679826E-2,-9.677775E-3,-7.856522E-3,7.391088E-1,-2.8107218E-2,-1.0340576E-2],"split_indices":[13,11,0,6,6,0,0,0,23,0,0],"split_type":[0,0,0,0,0,0,0,0,0,0,0],"sum_hessian":[8.5746045E3,3.4645195E1,8.539959E3,8.278525E0,2.6366669E1,7.112765E0,1.165761E0,1.1009337E0,2.5265736E1,2.3715738E1,1.5499959E0],"tree_param":{"num_deleted":"0","num_feature":"29","num_nodes":"11","size_leaf_vector":"0"}},{"base_weights":[-1.4207987E0,-7.7195245E-1,-2.8466996E-2,1.100722E0,-1.2585384E0,8.594525E-4,2.55071E-2,-7.7692753E-1,-2.7951607E-2,-1.0194626E0,8.545871E-3,-2.4633901E-2,-5.055243E-4],"categories":[],"categories_nodes":[],"categories_segments":[],"categories_sizes":[],"default_left":[0,0,0,0,0,0,0,0,0,0,0,0,0],"id":27,"left_children":[1,3,-1,5,7,-1,-1,9,-1,11,-1,-1,-1],"loss_changes":[1.3072266E1,3.3922768E1,0E0,1.4040947E0,8.4339905E-1,0E0,0E0,2.9783053E0,0E0,1.5601735E0,0E0,0E0,0E0],"parents":[2147483647,0,0,1,1,3,3,4,4,7,7,9,9],"right_children":[2,4,-1,6,8,-1,-1,10,-1,12,-1,-1,-1],"split_conditions":[-3.3161056E0,-2.5290854E0,-2.8466996E-2,1.8271618E-1,9.861765E-1,8.594525E-4,2.55071E-2,1.595047E0,-2.7951607E-2,2.9874492E-1,8.545871E-3,-2.4633901E-2,-5.055243E-4],"split_indices":[13,9,0,26,6,0,0,10,0,23,0,0,0],"split_type":[0,0,0,0,0,0,0,0,0,0,0,0,0],"sum_hessian":[8.558349E3,3.4707706E1,8.523641E3,6.8979864E0,2.7809721E1,1.1540428E0,5.7439437E0,7.705899E0,2.0103823E1,6.541783E0,1.1641159E0,5.194086E0,1.3476971E0],"tree_param":{"num_deleted":"0","num_feature":"29","num_nodes":"13","size_leaf_vector":"0"}},{"base_weights":[-1.4214035E0,-8.442253E-1,-2.8476417E-2,2.552301E-2,-1.2420269E0,-1.3579476E-1,-1.3222241E0,1.2285147E-2,-1.6670926E-2,-1.366765E0,-6.077013E-1,-2.7955465E-2,-8.586462E-3,8.8989566E-4,-1.8895444E-2],"categories":[],"categories_nodes":[],"categories_segments":[],"categories_sizes":[],"default_left":[0,0,0,0,0,0,0,0,0,0,0,0,0,0,0],"id":28,"left_children":[1,3,-1,-1,5,7,9,-1,-1,11,13,-1,-1,-1,-1],"loss_changes":[1.0771484E1,3.3845924E1,0E0,0E0,2.7225304E0,2.252479E0,1.364708E-1,0E0,0E0,2.080841E-1,8.298464E-1,0E0,0E0,0E0,0E0],"parents":[2147483647,0,0,1,1,4,4,5,5,6,6,9,9,10,10],"right_children":[2,4,-1,-1,6,8,10,-1,-1,12,14,-1,-1,-1,-1],"split_conditions":[-3.3161056E0,-9.2823726E-1,-2.8476417E-2,2.552301E-2,-1.8743901E0,1.9502363E-1,1.9088846E-1,1.2285147E-2,-1.6670926E-2,7.391088E-1,-1.2071403E-1,-2.7955465E-2,-8.586462E-3,8.8989566E-4,-1.8895444E-2],"split_indices":[13,6,0,0,11,17,20,0,0,23,19,0,0,0,0],"split_type":[0,0,0,0,0,0,0,0,0,0,0,0,0,0,0],"sum_hessian":[8.580345E3,3.7246983E1,8.543098E3,5.535178E0,3.1711805E1,2.3256269E0,2.9386177E1,1.1784775E0,1.1471493E0,2.6802563E1,2.5836148E0,2.5469059E1,1.3335032E0,1.1760603E0,1.4075546E0],"tree_param":{"num_deleted":"0","num_feature":"29","num_nodes":"15","size_leaf_vector":"0"}},{"base_weights":[-1.4210213E0,-7.6462144E-1,-2.8471665E-2,1.1428587E0,-1.3076819E0,2.6054595E-2,1.4796057E-3,-2.7216325E-2,-8.876574E-3],"categories":[],"categories_nodes":[],"categories_segments":[],"categories_sizes":[],"default_left":[0,0,0,0,0,0,0,0,0],"id":29,"left_children":[1,3,-1,5,7,-1,-1,-1,-1],"loss_changes":[1.32890625E1,3.8158417E1,0E0,1.3351507E0,6.8200684E-1,0E0,0E0,0E0,0E0],"parents":[2147483647,0,0,1,1,3,3,4,4],"right_children":[2,4,-1,6,8,-1,-1,-1,-1],"split_conditions":[-3.3161056E0,-2.1529264E0,-2.8471665E-2,-3.3427122E0,1.9088846E-1,2.6054595E-2,1.4796057E-3,-2.7216325E-2,-8.876574E-3],"split_indices":[13,9,0,2,20,0,0,0,0],"split_type":[0,0,0,0,0,0,0,0,0],"sum_hessian":[8.547156E3,3.4394077E1,8.512762E3,7.3772564E0,2.7016819E1,6.227095E0,1.1501615E0,2.4909395E1,2.1074255E0],"tree_param":{"num_deleted":"0","num_feature":"29","num_nodes":"9","size_leaf_vector":"0"}},{"base_weights":[-1.3642493E0,-7.3754996E-1,-2.7338931E-2,2.482467E-2,-1.1591493E0,7.717256E-2,-1.2604142E0,1.8029401E-2,-1.5980868E-2,-2.6170105E-2,-4.983912E-1,-1.6900063E-2,1.574441E-3],"categories":[],"categories_nodes":[],"categories_segments":[],"categories_sizes":[],"default_left":[0,0,0,0,0,0,0,0,0,0,0,0,0],"id":30,"left_children":[1,3,-1,-1,5,7,9,-1,-1,-1,11,-1,-1],"loss_changes":[1.262207E1,3.2081352E1,0E0,0E0,3.9528465E0,3.0848632E0,3.9310074E-1,0E0,0E0,0E0,7.283143E-1,0E0,0E0],"parents":[2147483647,0,0,1,1,4,4,5,5,6,6,10,10],"right_children":[2,4,-1,-1,6,8,10,-1,-1,-1,12,-1,-1],"split_conditions":[-3.3161056E0,-7.691509E-1,-2.7338931E-2,2.482467E-2,-1.8743901E0,-2.9726824E-1,1.9088846E-1,1.8029401E-2,-1.5980868E-2,-2.6170105E-2,-1.8352516E-1,-1.6900063E-2,1.574441E-3],"split_indices":[13,6,0,0,11,4,20,0,0,0,22,0,0],"split_type":[0,0,0,0,0,0,0,0,0,0,0,0,0],"sum_hessian":[8.0634688E3,3.5730522E1,8.0277383E3,5.934191E0,2.979633E1,2.2738082E0,2.7522522E1,1.1567641E0,1.1170442E0,2.521412E1,2.308401E0,1.1522028E0,1.1561981E0],"tree_param":{"num_deleted":"0","num_feature":"29","num_nodes":"13","size_leaf_vector":"0"}},{"base_weights":[-1.364643E0,-7.0105696E-1,-2.7342297E-2,-2.625051E-2,1.0220677E0,-8.6821045E-4,2.5622997E-2],"categories":[],"categories_nodes":[],"categories_segments":[],"categories_sizes":[],"default_left":[0,0,0,0,0,0,0],"id":31,"left_children":[1,3,-1,-1,5,-1,-1],"loss_changes":[1.2267578E1,3.5033314E1,0E0,0E0,2.5227642E0,0E0,0E0],"parents":[2147483647,0,0,1,1,4,4],"right_children":[2,4,-1,-1,6,-1,-1],"split_conditions":[-1.8743901E0,7.582842E-1,-2.7342297E-2,-2.625051E-2,-1.3871645E0,-8.6821045E-4,2.5622997E-2],"split_indices":[11,10,0,0,12,0,0],"split_type":[0,0,0,0,0,0,0],"sum_hessian":[8.0623423E3,3.0976707E1,8.031365E3,2.303927E1,7.9374356E0,1.7153767E0,6.222059E0],"tree_param":{"num_deleted":"0","num_feature":"29","num_nodes":"7","size_leaf_vector":"0"}},{"base_weights":[-1.3644265E0,-7.32974E-1,-2.7338885E-2,1.0465529E0,-1.1992646E0,2.4411911E-2,4.00471E-4,-7.1490574E-1,-2.6839284E-2,-9.5791215E-1,8.822215E-3,-2.3545908E-2,4.272049E-4],"categories":[],"categories_nodes":[],"categories_segments":[],"categories_sizes":[],"default_left":[0,0,0,0,0,0,0,0,0,0,0,0,0],"id":32,"left_children":[1,3,-1,5,7,-1,-1,9,-1,11,-1,-1,-1],"loss_changes":[1.1793945E1,2.9566845E1,0E0,1.3366184E0,9.414673E-1,0E0,0E0,2.7818809E0,0E0,1.5838051E0,0E0,0E0,0E0],"parents":[2147483647,0,0,1,1,3,3,4,4,7,7,9,9],"right_children":[2,4,-1,6,8,-1,-1,10,-1,12,-1,-1,-1],"split_conditions":[-3.3161056E0,-2.5290854E0,-2.7338885E-2,5.399295E-1,9.861765E-1,2.4411911E-2,4.00471E-4,1.595047E0,-2.6839284E-2,2.9874492E-1,8.822215E-3,-2.3545908E-2,4.272049E-4],"split_indices":[13,9,0,24,6,0,0,10,0,23,0,0,0],"split_type":[0,0,0,0,0,0,0,0,0,0,0,0,0],"sum_hessian":[8.047089E3,3.311972E1,8.013969E3,6.6181483E0,2.6501572E1,5.497093E0,1.121055E0,7.3986225E0,1.910295E1,6.2551045E0,1.1435183E0,4.945063E0,1.3100413E0],"tree_param":{"num_deleted":"0","num_feature":"29","num_nodes":"13","size_leaf_vector":"0"}},{"base_weights":[-1.3650542E0,-8.0159634E-1,-2.7348904E-2,2.4420986E-2,-1.1841799E0,-1.2497577E-1,-1.2629826E0,1.1911206E-2,-1.5980868E-2,-1.2901887E0,-7.6472047E-3,-5.9316573E-3,-2.6390651E-2],"categories":[],"categories_nodes":[],"categories_segments":[],"categories_sizes":[],"default_left":[0,0,0,0,0,0,0,0,0,0,0,0,0],"id":33,"left_children":[1,3,-1,-1,5,7,9,-1,-1,11,-1,-1,-1],"loss_changes":[9.775391E0,2.9698362E1,0E0,0E0,2.4472122E0,2.0645733E0,2.000122E-1,0E0,0E0,4.1483688E-1,0E0,0E0,0E0],"parents":[2147483647,0,0,1,1,4,4,5,5,6,6,9,9],"right_children":[2,4,-1,-1,6,8,10,-1,-1,12,-1,-1,-1],"split_conditions":[-3.3161056E0,-9.2823726E-1,-2.7348904E-2,2.4420986E-2,-1.8743901E0,2.5715942E0,7.391088E-1,1.1911206E-2,-1.5980868E-2,-1.125339E0,-7.6472047E-3,-5.9316573E-3,-2.6390651E-2],"split_indices":[13,6,0,0,11,4,23,0,0,24,0,0,0],"split_type":[0,0,0,0,0,0,0,0,0,0,0,0,0],"sum_hessian":[8.0677725E3,3.550981E1,8.032262E3,5.299704E0,3.0210108E1,2.2710052E0,2.7939102E1,1.1539611E0,1.1170442E0,2.6650667E1,1.2884357E0,1.0831063E0,2.556756E1],"tree_param":{"num_deleted":"0","num_feature":"29","num_nodes":"13","size_leaf_vector":"0"}},{"base_weights":[-1.3646648E0,-7.2549313E-1,-2.7343849E-2,1.0902375E0,-1.2484497E0,2.4956869E-2,1.1524515E-3,-2.6063634E-2,-8.033112E-3],"categories":[],"categories_nodes":[],"categories_segments":[],"categories_sizes":[],"default_left":[0,0,0,0,0,0,0,0,0],"id":34,"left_children":[1,3,-1,5,7,-1,-1,-1,-1],"loss_changes":[1.1994141E1,3.3448067E1,0E0,1.2447224E0,7.141075E-1,0E0,0E0,0E0,0E0],"parents":[2147483647,0,0,1,1,3,3,4,4],"right_children":[2,4,-1,6,8,-1,-1,-1,-1],"split_conditions":[-3.3161056E0,-2.1529264E0,-2.7343849E-2,-3.3427122E0,1.9088846E-1,2.4956869E-2,1.1524515E-3,-2.6063634E-2,-8.033112E-3],"split_indices":[13,9,0,2,20,0,0,0,0],"split_type":[0,0,0,0,0,0,0,0,0],"sum_hessian":[8.0365327E3,3.2791813E1,8.0037407E3,7.090052E0,2.5701761E1,5.970375E0,1.119677E0,2.3635157E1,2.0666049E0],"tree_param":{"num_deleted":"0","num_feature":"29","num_nodes":"9","size_leaf_vector":"0"}},{"base_weights":[-1.3171209E0,-7.0064837E-1,-2.6396243E-2,2.3875833E-2,-1.1082133E0,7.2037525E-2,-1.2076015E0,1.7307283E-2,-1.5407322E-2,-2.5164835E-2,-4.50534E-1,2.3575898E-3,-1.6183784E-2],"categories":[],"categories_nodes":[],"categories_segments":[],"categories_sizes":[],"default_left":[0,0,0,0,0,0,0,0,0,0,0,0,0],"id":35,"left_children":[1,3,-1,-1,5,7,9,-1,-1,-1,11,-1,-1],"loss_changes":[1.1591797E1,2.8288788E1,0E0,0E0,3.5192986E0,2.816111E0,4.6992874E-1,0E0,0E0,0E0,7.586278E-1,0E0,0E0],"parents":[2147483647,0,0,1,1,4,4,5,5,6,6,10,10],"right_children":[2,4,-1,-1,6,8,10,-1,-1,-1,12,-1,-1],"split_conditions":[-3.3161056E0,-7.691509E-1,-2.6396243E-2,2.3875833E-2,-1.8743901E0,-2.9726824E-1,1.9088846E-1,1.7307283E-2,-1.5407322E-2,-2.5164835E-2,-9.226462E-1,2.3575898E-3,-1.6183784E-2],"split_indices":[13,6,0,0,11,4,20,0,0,0,11,0,0],"split_type":[0,0,0,0,0,0,0,0,0,0,0,0,0],"sum_hessian":[7.5435254E3,3.3924957E1,7.5096006E3,5.6647997E0,2.8260157E1,2.2163098E0,2.6043846E1,1.1273661E0,1.0889436E0,2.3790504E1,2.2533426E0,1.1314683E0,1.1218745E0],"tree_param":{"num_deleted":"0","num_feature":"29","num_nodes":"13","size_leaf_vector":"0"}},{"base_weights":[-1.3175443E0,-6.655397E-1,-2.6399754E-2,-2.5283214E-2,9.807984E-1,-4.362224E-3,2.3576051E-2],"categories":[],"categories_nodes":[],"categories_segments":[],"categories_sizes":[],"default_left":[0,0,0,0,0,0,0],"id":36,"left_children":[1,3,-1,-1,5,-1,-1],"loss_changes":[1.1138672E1,3.0983864E1,0E0,0E0,2.3012228E0,0E0,0E0],"parents":[2147483647,0,0,1,1,4,4],"right_children":[2,4,-1,-1,6,-1,-1],"split_conditions":[-1.8743901E0,7.582842E-1,-2.6399754E-2,-2.5283214E-2,-1.7329011E0,-4.362224E-3,2.3576051E-2],"split_indices":[11,10,0,0,12,0,0],"split_type":[0,0,0,0,0,0,0],"sum_hessian":[7.542425E3,2.9180613E1,7.513244E3,2.1569805E1,7.6108084E0,1.0643932E0,6.5464153E0],"tree_param":{"num_deleted":"0","num_feature":"29","num_nodes":"7","size_leaf_vector":"0"}},{"base_weights":[-1.3172982E0,-6.968597E-1,-2.6396198E-2,9.99049E-1,-1.145851E0,2.3442835E-2,6.630905E-5,-6.537546E-1,-2.5881168E-2,-8.9888465E-1,9.132868E-3,-2.2554979E-2,1.4123082E-3],"categories":[],"categories_nodes":[],"categories_segments":[],"categories_sizes":[],"default_left":[0,0,0,0,0,0,0,0,0,0,0,0,0],"id":37,"left_children":[1,3,-1,5,7,-1,-1,9,-1,11,-1,-1,-1],"loss_changes":[1.08125E1,2.5873741E1,0E0,1.2598958E0,1.06073E0,0E0,0E0,2.6077006E0,0E0,1.6216083E0,0E0,0E0,0E0],"parents":[2147483647,0,0,1,1,3,3,4,4,7,7,9,9],"right_children":[2,4,-1,6,8,-1,-1,10,-1,12,-1,-1,-1],"split_conditions":[-3.3161056E0,-2.5290854E0,-2.6396198E-2,8.4765744E-1,9.861765E-1,2.3442835E-2,6.630905E-5,1.595047E0,-2.5881168E-2,2.9874492E-1,9.132868E-3,-2.2554979E-2,1.4123082E-3],"split_indices":[13,9,0,17,6,0,0,10,0,23,0,0,0],"split_type":[0,0,0,0,0,0,0,0,0,0,0,0,0],"sum_hessian":[7.5281973E3,3.147625E1,7.496721E3,6.3324647E0,2.5143785E1,5.2437553E0,1.0887094E0,7.072358E0,1.8071426E1,5.949449E0,1.1229087E0,4.6811657E0,1.2682835E0],"tree_param":{"num_deleted":"0","num_feature":"29","num_nodes":"13","size_leaf_vector":"0"}},{"base_weights":[-1.3179541E0,-7.6243323E-1,-2.6406895E-2,2.3487484E-2,-1.132814E0,-1.2253498E-1,-1.2099978E0,1.1481242E-2,-1.5444353E-2,-1.2388245E0,-6.600994E-3,-5.1215556E-3,-2.538962E-2],"categories":[],"categories_nodes":[],"categories_segments":[],"categories_sizes":[],"default_left":[0,0,0,0,0,0,0,0,0,0,0,0,0],"id":38,"left_children":[1,3,-1,-1,5,7,9,-1,-1,11,-1,-1,-1],"loss_changes":[9.017578E0,2.623211E1,0E0,0E0,2.163723E0,1.8992492E0,2.8697968E-1,0E0,0E0,4.6422958E-1,0E0,0E0,0E0],"parents":[2147483647,0,0,1,1,4,4,5,5,6,6,9,9],"right_children":[2,4,-1,-1,6,8,10,-1,-1,12,-1,-1,-1],"split_conditions":[-3.3161056E0,-9.2823726E-1,-2.6406895E-2,2.3487484E-2,-1.8743901E0,1.9502363E-1,7.391088E-1,1.1481242E-2,-1.5444353E-2,-1.125339E0,-6.600994E-3,-5.1215556E-3,-2.538962E-2],"split_indices":[13,6,0,0,11,17,23,0,0,24,0,0,0],"split_type":[0,0,0,0,0,0,0,0,0,0,0,0,0],"sum_hessian":[7.547541E3,3.371323E1,7.513828E3,5.0636272E0,2.8649603E1,2.2170887E0,2.6432514E1,1.1260846E0,1.0910043E0,2.5199163E1,1.2333512E0,1.0452421E0,2.4153921E1],"tree_param":{"num_deleted":"0","num_feature":"29","num_nodes":"13","size_leaf_vector":"0"}},{"base_weights":[-1.317557E0,-6.896304E-1,-2.6401505E-2,1.0436684E0,-1.1955906E0,7.747756E-4,2.4005758E-2,-2.5059361E-2,-7.121188E-3],"categories":[],"categories_nodes":[],"categories_segments":[],"categories_sizes":[],"default_left":[0,0,0,0,0,0,0,0,0],"id":39,"left_children":[1,3,-1,5,7,-1,-1,-1,-1],"loss_changes":[1.0980469E1,2.942368E1,0E0,1.1801043E0,7.742615E-1,0E0,0E0,0E0,0E0],"parents":[2147483647,0,0,1,1,3,3,4,4],"right_children":[2,4,-1,6,8,-1,-1,-1,-1],"split_conditions":[-3.3161056E0,-2.1529264E0,-2.6401505E-2,1.4368731E-1,1.9088846E-1,7.747756E-4,2.4005758E-2,-2.5059361E-2,-7.121188E-3],"split_indices":[13,9,0,26,20,0,0,0,0],"split_type":[0,0,0,0,0,0,0,0,0],"sum_hessian":[7.5182812E3,3.1128294E1,7.487153E3,6.7933054E0,2.433499E1,1.084175E0,5.7091303E0,2.2317263E1,2.017726E0],"tree_param":{"num_deleted":"0","num_feature":"29","num_nodes":"9","size_leaf_vector":"0"}},{"base_weights":[-1.277298E0,-6.676404E-1,-2.5600016E-2,2.3028063E-2,-1.0628457E0,6.656062E-2,-1.1607838E0,1.6654914E-2,-1.4896694E-2,-2.4287635E-2,-4.057632E-1,-1.5556729E-2,3.1365333E-3],"categories":[],"categories_nodes":[],"categories_segments":[],"categories_sizes":[],"default_left":[0,0,0,0,0,0,0,0,0,0,0,0,0],"id":40,"left_children":[1,3,-1,-1,5,7,9,-1,-1,-1,11,-1,-1],"loss_changes":[1.0725586E1,2.5028406E1,0E0,0E0,3.1437283E0,2.5834916E0,5.417938E-1,0E0,0E0,0E0,7.910535E-1,0E0,0E0],"parents":[2147483647,0,0,1,1,4,4,5,5,6,6,10,10],"right_children":[2,4,-1,-1,6,8,10,-1,-1,-1,12,-1,-1],"split_conditions":[-3.3161056E0,-7.691509E-1,-2.5600016E-2,2.3028063E-2,-1.8743901E0,-2.9726824E-1,1.9088846E-1,1.6654914E-2,-1.4896694E-2,-2.4287635E-2,-1.5254762E0,-1.5556729E-2,3.1365333E-3],"split_indices":[13,6,0,0,11,4,20,0,0,0,9,0,0],"split_type":[0,0,0,0,0,0,0,0,0,0,0,0,0],"sum_hessian":[7.0273643E3,3.2112793E1,6.9952515E3,5.390066E0,2.6722729E1,2.1579533E0,2.4564775E1,1.0963643E0,1.061589E0,2.2368458E1,2.1963174E0,1.0917081E0,1.1046094E0],"tree_param":{"num_deleted":"0","num_feature":"29","num_nodes":"13","size_leaf_vector":"0"}},{"base_weights":[-1.2777529E0,-6.3351387E-1,-2.5603672E-2,-2.4452722E-2,9.450296E-1,2.2791263E-2,-4.351154E-3],"categories":[],"categories_nodes":[],"categories_segments":[],"categories_sizes":[],"default_left":[0,0,0,0,0,0,0],"id":41,"left_children":[1,3,-1,-1,5,-1,-1],"loss_changes":[1.0192383E1,2.7561333E1,0E0,0E0,2.1207933E0,0E0,0E0],"parents":[2147483647,0,0,1,1,4,4],"right_children":[2,4,-1,-1,6,-1,-1],"split_conditions":[-1.8743901E0,7.582842E-1,-2.5603672E-2,-2.4452722E-2,1.7910513E0,2.2791263E-2,-4.351154E-3],"split_indices":[11,10,0,0,4,0,0],"split_type":[0,0,0,0,0,0,0],"sum_hessian":[7.0262905E3,2.739482E1,6.998896E3,2.011372E1,7.2811E0,6.254371E0,1.0267286E0],"tree_param":{"num_deleted":"0","num_feature":"29","num_nodes":"7","size_leaf_vector":"0"}},{"base_weights":[-1.2774742E0,-6.640915E-1,-2.5599968E-2,9.574562E-1,-1.098077E0,2.2592472E-2,-2.3880358E-4,-5.959751E-1,-2.5055088E-2,-8.4391904E-1,9.419507E-3,-2.1666154E-2,2.3462856E-3],"categories":[],"categories_nodes":[],"categories_segments":[],"categories_sizes":[],"default_left":[0,0,0,0,0,0,0,0,0,0,0,0,0],"id":42,"left_children":[1,3,-1,5,7,-1,-1,9,-1,11,-1,-1,-1],"loss_changes":[1.0009766E1,2.2743704E1,0E0,1.1888332E0,1.1781025E0,0E0,0E0,2.4460785E0,0E0,1.6554413E0,0E0,0E0,0E0],"parents":[2147483647,0,0,1,1,3,3,4,4,7,7,9,9],"right_children":[2,4,-1,6,8,-1,-1,10,-1,12,-1,-1,-1],"split_conditions":[-3.3161056E0,-2.5290854E0,-2.5599968E-2,5.399295E-1,9.861765E-1,2.2592472E-2,-2.3880358E-4,1.595047E0,-2.5055088E-2,2.9874492E-1,9.419507E-3,-2.1666154E-2,2.3462856E-3],"split_indices":[13,9,0,24,6,0,0,10,0,23,0,0,0],"split_type":[0,0,0,0,0,0,0,0,0,0,0,0,0],"sum_hessian":[7.01308E3,2.9824886E1,6.9832554E3,6.0422754E0,2.3782612E1,4.9906387E0,1.0516369E0,6.743945E0,1.7038666E1,5.641888E0,1.1020571E0,4.415292E0,1.2265965E0],"tree_param":{"num_deleted":"0","num_feature":"29","num_nodes":"13","size_leaf_vector":"0"}},{"base_weights":[-1.2781646E0,-7.272249E-1,-2.5611445E-2,2.2655968E-2,-1.087094E0,-1.191288E-1,-1.1631411E0,1.109495E-2,-1.4923801E-2,-1.1937811E0,-5.6151035E-3,-4.366409E-3,-1.2259754E0,-9.095272E-3,-2.5261045E-2],"categories":[],"categories_nodes":[],"categories_segments":[],"categories_sizes":[],"default_left":[0,0,0,0,0,0,0,0,0,0,0,0,0,0,0],"id":43,"left_children":[1,3,-1,-1,5,7,9,-1,-1,11,-1,-1,13,-1,-1],"loss_changes":[8.397461E0,2.3261175E1,0E0,0E0,1.9289017E0,1.7492226E0,3.6579514E-1,0E0,0E0,5.0956345E-1,0E0,0E0,1.04473114E-1,0E0,0E0],"parents":[2147483647,0,0,1,1,4,4,5,5,6,6,9,9,12,12],"right_children":[2,4,-1,-1,6,8,10,-1,-1,12,-1,-1,14,-1,-1],"split_conditions":[-3.3161056E0,-9.2823726E-1,-2.5611445E-2,2.2655968E-2,-1.8743901E0,1.9502363E-1,7.391088E-1,1.109495E-2,-1.4923801E-2,-1.125339E0,-5.6151035E-3,-4.366409E-3,-2.1395214E0,-9.095272E-3,-2.5261045E-2],"split_indices":[13,6,0,0,11,17,23,0,0,24,0,0,18,0,0],"split_type":[0,0,0,0,0,0,0,0,0,0,0,0,0,0,0],"sum_hessian":[7.0310957E3,3.1911373E1,6.999184E3,4.8250027E0,2.708637E1,2.1599536E0,2.4926416E1,1.096699E0,1.0632546E0,2.374886E1,1.1775575E0,1.0073806E0,2.2741478E1,1.6516651E0,2.1089813E1],"tree_param":{"num_deleted":"0","num_feature":"29","num_nodes":"15","size_leaf_vector":"0"}},{"base_weights":[-1.2777555E0,-6.568959E-1,-2.5605666E-2,1.002612E0,-1.148469E0,2.3157842E-2,5.2435783E-4,-2.4182227E-2,-6.2224814E-3],"categories":[],"categories_nodes":[],"categories_segments":[],"categories_sizes":[],"default_left":[0,0,0,0,0,0,0,0,0],"id":44,"left_children":[1,3,-1,5,7,-1,-1,-1,-1],"loss_changes":[1.0151367E1,2.5997509E1,0E0,1.105856E0,8.406296E-1,0E0,0E0,0E0,0E0],"parents":[2147483647,0,0,1,1,3,3,4,4],"right_children":[2,4,-1,6,8,-1,-1,-1,-1],"split_conditions":[-3.3161056E0,-2.1529264E0,-2.5605666E-2,-3.3427122E0,1.9088846E-1,2.3157842E-2,5.2435783E-4,-2.4182227E-2,-6.2224814E-3],"split_indices":[13,9,0,2,20,0,0,0,0],"split_type":[0,0,0,0,0,0,0,0,0],"sum_hessian":[7.0037993E3,2.9457184E1,6.9743423E3,6.494093E0,2.296309E1,5.442641E0,1.0514523E0,2.099836E1,1.9647305E0],"tree_param":{"num_deleted":"0","num_feature":"29","num_nodes":"9","size_leaf_vector":"0"}},{"base_weights":[-1.2433372E0,-6.369975E-1,-2.4921421E-2,2.2285003E-2,-1.0218974E0,-2.597166E-1,-1.1852036E0,1.4882727E-2,-8.081774E-1,-2.45439E-2,-4.0072408E-3,-1.8568473E-2,-4.811109E-3],"categories":[],"categories_nodes":[],"categories_segments":[],"categories_sizes":[],"default_left":[0,0,0,0,0,0,0,0,0,0,0,0,0],"id":45,"left_children":[1,3,-1,-1,5,7,9,-1,11,-1,-1,-1,-1],"loss_changes":[1.0021484E1,2.225682E1,0E0,0E0,2.954073E0,3.8524628E0,6.35046E-1,0E0,7.0016384E-2,0E0,0E0,0E0,0E0],"parents":[2147483647,0,0,1,1,4,4,5,5,6,6,8,8],"right_children":[2,4,-1,-1,6,8,10,-1,12,-1,-1,-1,-1],"split_conditions":[-3.3161056E0,-7.691509E-1,-2.4921421E-2,2.2285003E-2,-1.372157E0,4.98025E-1,1.8382382E0,1.4882727E-2,-1.0614477E-2,-2.45439E-2,-4.0072408E-3,-1.8568473E-2,-4.811109E-3],"split_indices":[13,6,0,0,8,15,0,0,22,0,0,0,0],"split_type":[0,0,0,0,0,0,0,0,0,0,0,0,0],"sum_hessian":[6.5232417E3,3.0330044E1,6.4929116E3,5.1235595E0,2.5206484E1,4.904872E0,2.030161E1,1.6069268E0,3.297945E0,1.9235373E1,1.0662388E0,2.19691E0,1.1010352E0],"tree_param":{"num_deleted":"0","num_feature":"29","num_nodes":"13","size_leaf_vector":"0"}},{"base_weights":[-1.2438331E0,-6.3138586E-1,-2.4927564E-2,9.021373E-1,-1.1577142E0,2.324197E-2,-8.379496E-3,-1.1951665E0,-6.3319006E-3,-7.2894203E-3,-2.4462217E-2],"categories":[],"categories_nodes":[],"categories_segments":[],"categories_sizes":[],"default_left":[0,0,0,0,0,0,0,0,0,0,0],"id":46,"left_children":[1,3,-1,5,7,-1,-1,9,-1,-1,-1],"loss_changes":[9.380859E0,2.4469097E1,0E0,3.2267194E0,3.1604767E-1,0E0,0E0,3.5757065E-2,0E0,0E0,0E0],"parents":[2147483647,0,0,1,1,3,3,4,4,7,7],"right_children":[2,4,-1,6,8,-1,-1,10,-1,-1,-1],"split_conditions":[-3.3161056E0,-1.8743901E0,-2.4927564E-2,9.51962E-1,7.391088E-1,2.324197E-2,-8.379496E-3,-1.593302E0,-6.3319006E-3,-7.2894203E-3,-2.4462217E-2],"split_indices":[13,11,0,6,23,0,0,12,0,0,0],"split_type":[0,0,0,0,0,0,0,0,0,0,0],"sum_hessian":[6.522191E3,2.8021944E1,6.494169E3,6.9776573E0,2.1044287E1,5.9309587E0,1.0466985E0,1.9744223E1,1.3000655E0,1.0995972E0,1.8644625E1],"tree_param":{"num_deleted":"0","num_feature":"29","num_nodes":"11","size_leaf_vector":"0"}},{"base_weights":[-1.2435168E0,-6.342318E-1,-2.492137E-2,9.188842E-1,-1.0546662E0,-5.43842E-4,2.1821903E-2,-5.4189086E-1,-2.4326932E-2,-7.93195E-1,9.684643E-3,-2.0874675E-2,3.2054065E-3],"categories":[],"categories_nodes":[],"categories_segments":[],"categories_sizes":[],"default_left":[0,0,0,0,0,0,0,0,0,0,0,0,0],"id":47,"left_children":[1,3,-1,5,7,-1,-1,9,-1,11,-1,-1,-1],"loss_changes":[9.332031E0,2.003104E1,0E0,1.129952E0,1.2840786E0,0E0,0E0,2.2980406E0,0E0,1.682044E0,0E0,0E0,0E0],"parents":[2147483647,0,0,1,1,3,3,4,4,7,7,9,9],"right_children":[2,4,-1,6,8,-1,-1,10,-1,12,-1,-1,-1],"split_conditions":[-3.3161056E0,-2.5290854E0,-2.492137E-2,1.8271618E-1,9.861765E-1,-5.43842E-4,2.1821903E-2,1.595047E0,-2.4326932E-2,2.9874492E-1,9.684643E-3,-2.0874675E-2,3.2054065E-3],"split_indices":[13,9,0,26,6,0,0,10,0,23,0,0,0],"split_type":[0,0,0,0,0,0,0,0,0,0,0,0,0],"sum_hessian":[6.50997E3,2.8192055E1,6.4817783E3,5.753316E0,2.243874E1,1.0156629E0,4.737653E0,6.42218E0,1.601656E1,5.3411064E0,1.0810735E0,4.1547127E0,1.1863937E0],"tree_param":{"num_deleted":"0","num_feature":"29","num_nodes":"13","size_leaf_vector":"0"}},{"base_weights":[-1.2442486E0,-6.9541734E-1,-2.4933731E-2,2.1896776E-2,-1.0458732E0,-5.1409465E-1,-2.4473429E-2,1.278576E-2,-8.4614164E-1,-2.1335483E-2,-9.35004E-4],"categories":[],"categories_nodes":[],"categories_segments":[],"categories_sizes":[],"default_left":[0,0,0,0,0,0,0,0,0,0,0],"id":48,"left_children":[1,3,-1,-1,5,7,-1,-1,9,-1,-1],"loss_changes":[7.866211E0,2.0675537E1,0E0,0E0,1.8806572E0,3.748626E0,0E0,0E0,1.1730537E0,0E0,0E0],"parents":[2147483647,0,0,1,1,4,4,5,5,8,8],"right_children":[2,4,-1,-1,6,8,-1,-1,10,-1,-1],"split_conditions":[-3.3161056E0,-9.2823726E-1,-2.4933731E-2,2.1896776E-2,1.0216749E0,-1.4043612E0,-2.4473429E-2,1.278576E-2,2.9874492E-1,-2.1335483E-2,-9.35004E-4],"split_indices":[13,6,0,0,6,11,0,0,23,0,0],"split_type":[0,0,0,0,0,0,0,0,0,0,0],"sum_hessian":[6.526686E3,3.0128939E1,6.496557E3,4.584679E0,2.5544258E1,7.3756886E0,1.816857E1,1.4418955E0,5.933793E0,4.388172E0,1.5456209E0],"tree_param":{"num_deleted":"0","num_feature":"29","num_nodes":"11","size_leaf_vector":"0"}},{"base_weights":[-1.2438246E0,-6.273107E-1,-2.4927508E-2,9.6518725E-1,-1.1060721E0,1.7536468E-4,2.2406956E-2,-1.170183E0,-5.4178406E-3,-2.4177168E-2,-9.125519E-3],"categories":[],"categories_nodes":[],"categories_segments":[],"categories_sizes":[],"default_left":[0,0,0,0,0,0,0,0,0,0,0],"id":49,"left_children":[1,3,-1,5,7,-1,-1,9,-1,-1,-1],"loss_changes":[9.443359E0,2.302987E1,0E0,1.0575066E0,8.938236E-1,0E0,0E0,1.996994E-2,0E0,0E0,0E0],"parents":[2147483647,0,0,1,1,3,3,4,4,7,7],"right_children":[2,4,-1,6,8,-1,-1,10,-1,-1,-1],"split_conditions":[-3.3161056E0,-2.1529264E0,-2.4927508E-2,1.4368731E-1,1.9088846E-1,1.7536468E-4,2.2406956E-2,7.391088E-1,-5.4178406E-3,-2.4177168E-2,-9.125519E-3],"split_indices":[13,9,0,26,20,0,0,23,0,0,0],"split_type":[0,0,0,0,0,0,0,0,0,0,0],"sum_hessian":[6.5013105E3,2.7805792E1,6.473505E3,6.192326E0,2.1613464E1,1.011834E0,5.1804924E0,1.9700111E1,1.9133533E0,1.8030046E1,1.670065E0],"tree_param":{"num_deleted":"0","num_feature":"29","num_nodes":"11","size_leaf_vector":"0"}},{"base_weights":[-1.2141553E0,-6.101973E-1,-2.4338594E-2,2.1582568E-2,-9.849396E-1,-2.2878662E-1,-1.1511261E0,1.4647444E-2,-7.686871E-1,-2.3906102E-2,-3.3278598E-3,-1.7839773E-2,-4.239582E-3],"categories":[],"categories_nodes":[],"categories_segments":[],"categories_sizes":[],"default_left":[0,0,0,0,0,0,0,0,0,0,0,0,0],"id":50,"left_children":[1,3,-1,-1,5,7,9,-1,11,-1,-1,-1,-1],"loss_changes":[9.374023E0,1.9811342E1,0E0,0E0,2.8482304E0,3.52583E0,6.734619E-1,0E0,9.536362E-2,0E0,0E0,0E0,0E0],"parents":[2147483647,0,0,1,1,4,4,5,5,6,6,8,8],"right_children":[2,4,-1,-1,6,8,10,-1,12,-1,-1,-1,-1],"split_conditions":[-3.3161056E0,-7.691509E-1,-2.4338594E-2,2.1582568E-2,-1.372157E0,4.98025E-1,1.8382382E0,1.4647444E-2,-1.0614477E-2,-2.3906102E-2,-3.3278598E-3,-1.7839773E-2,-4.239582E-3],"split_indices":[13,6,0,0,8,15,0,0,22,0,0,0,0],"split_type":[0,0,0,0,0,0,0,0,0,0,0,0,0],"sum_hessian":[6.036945E3,2.8615547E1,6.0083296E3,4.8540397E0,2.3761507E1,4.7095647E0,1.9051943E1,1.5657105E0,3.1438541E0,1.8029243E1,1.0226984E0,2.0807474E0,1.0631065E0],"tree_param":{"num_deleted":"0","num_feature":"29","num_nodes":"13","size_leaf_vector":"0"}},{"base_weights":[-1.2146966E0,-5.773127E-1,-2.4342703E-2,-2.3080556E-2,8.864706E-1,-1.2322486E-3,2.2421641E-2],"categories":[],"categories_nodes":[],"categories_segments":[],"categories_sizes":[],"default_left":[0,0,0,0,0,0,0],"id":51,"left_children":[1,3,-1,-1,5,-1,-1],"loss_changes":[8.6796875E0,2.2051928E1,0E0,0E0,1.7608991E0,0E0,0E0],"parents":[2147483647,0,0,1,1,4,4],"right_children":[2,4,-1,-1,6,-1,-1],"split_conditions":[-1.8743901E0,7.582842E-1,-2.4342703E-2,-2.3080556E-2,-1.3871645E0,-1.2322486E-3,2.2421641E-2],"split_indices":[11,10,0,0,12,0,0],"split_type":[0,0,0,0,0,0,0],"sum_hessian":[6.0359194E3,2.3910286E1,6.0120093E3,1.7304218E1,6.6060667E0,1.456723E0,5.149344E0],"tree_param":{"num_deleted":"0","num_feature":"29","num_nodes":"7","size_leaf_vector":"0"}},{"base_weights":[-1.2143399E0,-6.084945E-1,-2.4338538E-2,8.8273484E-1,-1.0156795E0,7.038032E-4,2.105316E-2,-4.9920574E-1,-2.3662647E-2,-7.5193197E-1,9.7761545E-3,-2.0209266E-2,3.693117E-3],"categories":[],"categories_nodes":[],"categories_segments":[],"categories_sizes":[],"default_left":[0,0,0,0,0,0,0,0,0,0,0,0,0],"id":52,"left_children":[1,3,-1,5,7,-1,-1,9,-1,11,-1,-1,-1],"loss_changes":[8.704102E0,1.766879E1,0E0,8.932457E-1,1.326086E0,0E0,0E0,2.154421E0,0E0,1.6618063E0,0E0,0E0,0E0],"parents":[2147483647,0,0,1,1,3,3,4,4,7,7,9,9],"right_children":[2,4,-1,6,8,-1,-1,10,-1,12,-1,-1,-1],"split_conditions":[-3.3161056E0,-2.5290854E0,-2.4338538E-2,-7.895606E-1,9.861765E-1,7.038032E-4,2.105316E-2,1.595047E0,-2.3662647E-2,2.9874492E-1,9.7761545E-3,-2.0209266E-2,3.693117E-3],"split_indices":[13,9,0,23,6,0,0,10,0,23,0,0,0],"split_type":[0,0,0,0,0,0,0,0,0,0,0,0,0],"sum_hessian":[6.0246494E3,2.6621948E1,5.9980273E3,5.45956E0,2.1162388E1,1.1133705E0,4.3461895E0,6.15616E0,1.5006228E1,5.0924864E0,1.0636731E0,3.9290519E0,1.1634346E0],"tree_param":{"num_deleted":"0","num_feature":"29","num_nodes":"13","size_leaf_vector":"0"}},{"base_weights":[-1.2151176E0,-6.674746E-1,-2.4351899E-2,2.1181222E-2,-1.0086237E0,-4.7689736E-1,-2.3817439E-2,1.2664373E-2,-8.064404E-1,-2.0676106E-2,-3.6697488E-4],"categories":[],"categories_nodes":[],"categories_segments":[],"categories_sizes":[],"default_left":[0,0,0,0,0,0,0,0,0,0,0],"id":53,"left_children":[1,3,-1,-1,5,7,-1,-1,9,-1,-1],"loss_changes":[7.3828125E0,1.8396297E1,0E0,0E0,1.8622398E0,3.4626164E0,0E0,0E0,1.1747522E0,0E0,0E0],"parents":[2147483647,0,0,1,1,4,4,5,5,8,8],"right_children":[2,4,-1,-1,6,8,-1,-1,10,-1,-1],"split_conditions":[-3.3161056E0,-9.2823726E-1,-2.4351899E-2,2.1181222E-2,1.0216749E0,-1.4043612E0,-2.3817439E-2,1.2664373E-2,2.9874492E-1,-2.0676106E-2,-3.6697488E-4],"split_indices":[13,6,0,0,6,11,0,0,23,0,0],"split_type":[0,0,0,0,0,0,0,0,0,0,0],"sum_hessian":[6.040121E3,2.8419222E1,6.011702E3,4.3417068E0,2.4077515E1,7.0692E0,1.7008316E1,1.4072291E0,5.6619706E0,4.1522584E0,1.5097125E0],"tree_param":{"num_deleted":"0","num_feature":"29","num_nodes":"11","size_leaf_vector":"0"}},{"base_weights":[-1.2146761E0,-6.01706E-1,-2.434517E-2,9.3115574E-1,-1.0682696E0,2.1495814E-2,1.0502763E-3,-1.1365688E0,-4.558477E-3,-2.3622192E-2,-8.7446775E-3],"categories":[],"categories_nodes":[],"categories_segments":[],"categories_sizes":[],"default_left":[0,0,0,0,0,0,0,0,0,0,0],"id":54,"left_children":[1,3,-1,5,7,-1,-1,9,-1,-1,-1],"loss_changes":[8.792969E0,2.0464376E1,0E0,8.127055E-1,9.655647E-1,0E0,0E0,9.0423584E-2,0E0,0E0,0E0],"parents":[2147483647,0,0,1,1,3,3,4,4,7,7],"right_children":[2,4,-1,6,8,-1,-1,10,-1,-1,-1],"split_conditions":[-3.3161056E0,-2.1529264E0,-2.434517E-2,2.046529E-1,1.9088846E-1,2.1495814E-2,1.0502763E-3,4.656422E-1,-4.558477E-3,-2.3622192E-2,-8.7446775E-3],"split_indices":[13,9,0,15,20,0,0,25,0,0,0],"split_type":[0,0,0,0,0,0,0,0,0,0,0],"sum_hessian":[6.0165947E3,2.6223522E1,5.9903716E3,5.886865E0,2.0336657E1,4.8678575E0,1.0190079E0,1.8482027E1,1.8546302E0,1.6727728E1,1.7542998E0],"tree_param":{"num_deleted":"0","num_feature":"29","num_nodes":"11","size_leaf_vector":"0"}},{"base_weights":[-1.1889076E0,-5.843102E-1,-2.3834767E-2,2.09515E-2,-9.5029175E-1,-2.0293552E-1,-1.1192213E0,1.4433531E-2,-7.3425853E-1,-2.3309046E-2,-4.1771336E-3,-3.7352934E-3,-1.721744E-2],"categories":[],"categories_nodes":[],"categories_segments":[],"categories_sizes":[],"default_left":[0,0,0,0,0,0,0,0,0,0,0,0,0],"id":55,"left_children":[1,3,-1,-1,5,7,9,-1,11,-1,-1,-1,-1],"loss_changes":[8.841797E0,1.7679434E1,0E0,0E0,2.719822E0,3.2441037E0,5.4854774E-1,0E0,1.1680102E-1,0E0,0E0,0E0,0E0],"parents":[2147483647,0,0,1,1,4,4,5,5,6,6,8,8],"right_children":[2,4,-1,-1,6,8,10,-1,12,-1,-1,-1,-1],"split_conditions":[-3.3161056E0,-7.691509E-1,-2.3834767E-2,2.09515E-2,-1.372157E0,4.98025E-1,1.8153161E0,1.4433531E-2,9.861765E-1,-2.3309046E-2,-4.1771336E-3,-3.7352934E-3,-1.721744E-2],"split_indices":[13,6,0,0,8,15,0,0,6,0,0,0,0],"split_type":[0,0,0,0,0,0,0,0,0,0,0,0,0],"sum_hessian":[5.572411E3,2.6935057E1,5.545476E3,4.5929694E0,2.2342087E1,4.524903E0,1.7817184E1,1.5205564E0,3.0043466E0,1.6689442E1,1.1277428E0,1.029167E0,1.9751796E0],"tree_param":{"num_deleted":"0","num_feature":"29","num_nodes":"13","size_leaf_vector":"0"}},{"base_weights":[-1.1894952E0,-5.5214703E-1,-2.3839058E-2,-2.2506485E-2,8.615263E-1,-1.1714875E-3,2.1789674E-2],"categories":[],"categories_nodes":[],"categories_segments":[],"categories_sizes":[],"default_left":[0,0,0,0,0,0,0],"id":56,"left_children":[1,3,-1,-1,5,-1,-1],"loss_changes":[8.070801E0,1.9824087E1,0E0,0E0,1.5905771E0,0E0,0E0],"parents":[2147483647,0,0,1,1,4,4],"right_children":[2,4,-1,-1,6,-1,-1],"split_conditions":[-1.8743901E0,7.582842E-1,-2.3839058E-2,-2.2506485E-2,-1.3871645E0,-1.1714875E-3,2.1789674E-2],"split_indices":[11,10,0,0,12,0,0],"split_type":[0,0,0,0,0,0,0],"sum_hessian":[5.5714126E3,2.2269075E1,5.5491436E3,1.5989903E1,6.2791724E0,1.3943261E0,4.884846E0],"tree_param":{"num_deleted":"0","num_feature":"29","num_nodes":"7","size_leaf_vector":"0"}},{"base_weights":[-1.1890917E0,-5.825436E-1,-2.3834707E-2,2.0405393E-2,-9.364906E-1,-3.8934568E-1,-2.315442E-2,1.3480711E-2,-7.603752E-1,-2.033658E-2,1.8615287E-3],"categories":[],"categories_nodes":[],"categories_segments":[],"categories_sizes":[],"default_left":[0,0,0,0,0,0,0,0,0,0,0],"id":57,"left_children":[1,3,-1,-1,5,7,-1,-1,9,-1,-1],"loss_changes":[8.224121E0,1.5758905E1,0E0,0E0,2.199583E0,3.5942566E0,0E0,0E0,1.4648564E0,0E0,0E0],"parents":[2147483647,0,0,1,1,4,4,5,5,8,8],"right_children":[2,4,-1,-1,6,8,-1,-1,10,-1,-1],"split_conditions":[-3.3161056E0,-7.691509E-1,-2.3834707E-2,2.0405393E-2,1.0216749E0,-1.4043612E0,-2.315442E-2,1.3480711E-2,2.1345705E-1,-2.033658E-2,1.8615287E-3],"split_indices":[13,6,0,0,6,11,0,0,25,0,0],"split_type":[0,0,0,0,0,0,0,0,0,0,0],"sum_hessian":[5.561063E3,2.5094038E1,5.535969E3,4.1985908E0,2.0895447E1,6.8108463E0,1.4084601E1,1.5504756E0,5.2603707E0,3.8977141E0,1.3626564E0],"tree_param":{"num_deleted":"0","num_feature":"29","num_nodes":"11","size_leaf_vector":"0"}},{"base_weights":[-1.1899239E0,-6.4028734E-1,-2.384918E-2,2.0561092E-2,-9.7406536E-1,-4.4155067E-1,-2.3227671E-2,1.25148E-2,-7.679833E-1,-2.021754E-2,5.2580068E-5],"categories":[],"categories_nodes":[],"categories_segments":[],"categories_sizes":[],"default_left":[0,0,0,0,0,0,0,0,0,0,0],"id":58,"left_children":[1,3,-1,-1,5,7,-1,-1,9,-1,-1],"loss_changes":[7.0063477E0,1.6460659E1,0E0,0E0,1.8459663E0,3.186545E0,0E0,0E0,1.1999834E0,0E0,0E0],"parents":[2147483647,0,0,1,1,4,4,5,5,8,8],"right_children":[2,4,-1,-1,6,8,-1,-1,10,-1,-1],"split_conditions":[-3.3161056E0,-9.2823726E-1,-2.384918E-2,2.0561092E-2,1.0216749E0,-1.4043612E0,-2.3227671E-2,1.25148E-2,2.78271E-1,-2.021754E-2,5.2580068E-5],"split_indices":[13,6,0,0,6,11,0,0,25,0,0],"split_type":[0,0,0,0,0,0,0,0,0,0,0],"sum_hessian":[5.5753457E3,2.67617E1,5.548584E3,4.1147337E0,2.2646965E1,6.766931E0,1.5880034E1,1.3701715E0,5.3967595E0,3.8663259E0,1.5304337E0],"tree_param":{"num_deleted":"0","num_feature":"29","num_nodes":"11","size_leaf_vector":"0"}},{"base_weights":[-1.1894643E0,-5.7667047E-1,-2.3841893E-2,9.0010995E-1,-1.032632E0,2.0846862E-2,1.12579E-3,-1.1055382E0,-3.7156567E-3,-2.2994293E-2,-7.399693E-3],"categories":[],"categories_nodes":[],"categories_segments":[],"categories_sizes":[],"default_left":[0,0,0,0,0,0,0,0,0,0,0],"id":59,"left_children":[1,3,-1,5,7,-1,-1,9,-1,-1,-1],"loss_changes":[8.264648E0,1.8219929E1,0E0,7.3250675E-1,1.0347271E0,0E0,0E0,1.6900253E-1,0E0,0E0,0E0],"parents":[2147483647,0,0,1,1,3,3,4,4,7,7],"right_children":[2,4,-1,6,8,-1,-1,10,-1,-1,-1],"split_conditions":[-3.3161056E0,-2.1529264E0,-2.3841893E-2,-3.623489E-1,1.9088846E-1,2.0846862E-2,1.12579E-3,7.391088E-1,-3.7156567E-3,-2.2994293E-2,-7.399693E-3],"split_indices":[13,9,0,6,20,0,0,23,0,0,0],"split_type":[0,0,0,0,0,0,0,0,0,0,0],"sum_hessian":[5.5535806E3,2.4678053E1,5.528903E3,5.5921044E0,1.9085949E1,4.5841413E0,1.0079633E0,1.7291805E1,1.7941443E0,1.5780958E1,1.5108461E0],"tree_param":{"num_deleted":"0","num_feature":"29","num_nodes":"11","size_leaf_vector":"0"}},{"base_weights":[-1.1669341E0,-5.597072E-1,-2.3396675E-2,2.0329824E-2,-9.1634524E-1,-1.766939E-1,-1.0893836E0,1.4244657E-2,-7.019132E-1,-2.2766253E-2,-3.5261153E-3,-3.3468185E-3,-1.6605025E-2],"categories":[],"categories_nodes":[],"categories_segments":[],"categories_sizes":[],"default_left":[0,0,0,0,0,0,0,0,0,0,0,0,0],"id":60,"left_children":[1,3,-1,-1,5,7,9,-1,11,-1,-1,-1,-1],"loss_changes":[8.383301E0,1.5722486E1,0E0,0E0,2.621107E0,3.003081E0,5.865803E-1,0E0,1.2683249E-1,0E0,0E0,0E0,0E0],"parents":[2147483647,0,0,1,1,4,4,5,5,6,6,8,8],"right_children":[2,4,-1,-1,6,8,10,-1,12,-1,-1,-1,-1],"split_conditions":[-3.3161056E0,-7.691509E-1,-2.3396675E-2,2.0329824E-2,-1.372157E0,4.98025E-1,1.8153161E0,1.4244657E-2,-1.4698571E-1,-2.2766253E-2,-3.5261153E-3,-3.3468185E-3,-1.6605025E-2],"split_indices":[13,6,0,0,8,15,0,0,24,0,0,0,0],"split_type":[0,0,0,0,0,0,0,0,0,0,0,0,0],"sum_hessian":[5.132106E3,2.5312365E1,5.1067935E3,4.3291287E0,2.0983236E1,4.361436E0,1.66218E1,1.4876091E0,2.873827E0,1.554226E1,1.0795395E0,1.0023987E0,1.8714281E0],"tree_param":{"num_deleted":"0","num_feature":"29","num_nodes":"13","size_leaf_vector":"0"}},{"base_weights":[-1.1675756E0,-5.6398934E-1,-2.3404483E-2,8.2867026E-1,-1.0627692E0,2.1415424E-2,-5.7253153E-3,-1.1079283E0,-3.892142E-3,-6.844706E-3,-2.2751339E-2],"categories":[],"categories_nodes":[],"categories_segments":[],"categories_sizes":[],"default_left":[0,0,0,0,0,0,0,0,0,0,0],"id":61,"left_children":[1,3,-1,5,7,-1,-1,9,-1,-1,-1],"loss_changes":[7.5444336E0,1.7796373E1,0E0,2.1915932E0,5.0453377E-1,0E0,0E0,2.0923615E-3,0E0,0E0,0E0],"parents":[2147483647,0,0,1,1,3,3,4,4,7,7],"right_children":[2,4,-1,6,8,-1,-1,10,-1,-1,-1],"split_conditions":[-3.3161056E0,-1.8743901E0,-2.3404483E-2,1.7910513E0,7.391088E-1,2.1415424E-2,-5.7253153E-3,-1.5633023E0,-3.892142E-3,-6.844706E-3,-2.2751339E-2],"split_indices":[13,11,0,4,23,0,0,12,0,0,0],"split_type":[0,0,0,0,0,0,0,0,0,0,0],"sum_hessian":[5.1311226E3,2.335207E1,5.1077705E3,5.983618E0,1.7368452E1,4.948661E0,1.0349568E0,1.6247147E1,1.1213049E0,1.0730329E0,1.5174114E1],"tree_param":{"num_deleted":"0","num_feature":"29","num_nodes":"11","size_leaf_vector":"0"}},{"base_weights":[-1.167119E0,-5.5805343E-1,-2.3396611E-2,1.979412E-2,-9.02229E-1,-3.5399938E-1,-2.2607798E-2,1.32409865E-2,-7.211776E-1,-1.9619798E-2,2.8869594E-3],"categories":[],"categories_nodes":[],"categories_segments":[],"categories_sizes":[],"default_left":[0,0,0,0,0,0,0,0,0,0,0],"id":62,"left_children":[1,3,-1,-1,5,7,-1,-1,9,-1,-1],"loss_changes":[7.8066406E0,1.4006454E1,0E0,0E0,2.1843262E0,3.2859116E0,0E0,0E0,1.4927106E0,0E0,0E0],"parents":[2147483647,0,0,1,1,4,4,5,5,8,8],"right_children":[2,4,-1,-1,6,8,-1,-1,10,-1,-1],"split_conditions":[-3.3161056E0,-7.691509E-1,-2.3396611E-2,1.979412E-2,1.0216749E0,-1.4043612E0,-2.2607798E-2,1.32409865E-2,2.9874492E-1,-1.9619798E-2,2.8869594E-3],"split_indices":[13,6,0,0,6,11,0,0,23,0,0],"split_type":[0,0,0,0,0,0,0,0,0,0,0],"sum_hessian":[5.1216567E3,2.3617025E1,5.09804E3,3.9551423E0,1.9661882E1,6.527943E0,1.313394E1,1.519669E0,5.008274E0,3.7493846E0,1.2588894E0],"tree_param":{"num_deleted":"0","num_feature":"29","num_nodes":"11","size_leaf_vector":"0"}},{"base_weights":[-1.1680126E0,-6.1462486E-1,-2.3412324E-2,1.9937728E-2,-9.402392E-1,-4.0483376E-1,-2.2690436E-2,1.2327221E-2,-7.294131E-1,-1.9505305E-2,1.0250319E-3],"categories":[],"categories_nodes":[],"categories_segments":[],"categories_sizes":[],"default_left":[0,0,0,0,0,0,0,0,0,0,0],"id":63,"left_children":[1,3,-1,-1,5,7,-1,-1,9,-1,-1],"loss_changes":[6.6796875E0,1.4661795E1,0E0,0E0,1.8575878E0,2.9306164E0,0E0,0E0,1.2280164E0,0E0,0E0],"parents":[2147483647,0,0,1,1,4,4,5,5,8,8],"right_children":[2,4,-1,-1,6,8,-1,-1,10,-1,-1],"split_conditions":[-3.3161056E0,-9.2823726E-1,-2.3412324E-2,1.9937728E-2,1.0216749E0,-1.4043612E0,-2.2690436E-2,1.2327221E-2,2.9874492E-1,-1.9505305E-2,1.0250319E-3],"split_indices":[13,6,0,0,6,11,0,0,23,0,0],"split_type":[0,0,0,0,0,0,0,0,0,0,0],"sum_hessian":[5.134806E3,2.5155268E1,5.109651E3,3.8818562E0,2.127341E1,6.485198E0,1.4788213E1,1.3473134E0,5.1378846E0,3.7177804E0,1.4201044E0],"tree_param":{"num_deleted":"0","num_feature":"29","num_nodes":"11","size_leaf_vector":"0"}},{"base_weights":[-1.1675314E0,-5.531631E-1,-2.3404414E-2,8.720881E-1,-9.9929416E-1,2.0330073E-2,1.6276051E-3,-1.0773661E0,-2.8493127E-3,-2.2553012E-2,-6.917286E-3],"categories":[],"categories_nodes":[],"categories_segments":[],"categories_sizes":[],"default_left":[0,0,0,0,0,0,0,0,0,0,0],"id":64,"left_children":[1,3,-1,5,7,-1,-1,9,-1,-1,-1],"loss_changes":[7.8046875E0,1.6254225E1,0E0,6.368365E-1,1.110218E0,0E0,0E0,2.412262E-1,0E0,0E0,0E0],"parents":[2147483647,0,0,1,1,3,3,4,4,7,7],"right_children":[2,4,-1,6,8,-1,-1,10,-1,-1,-1],"split_conditions":[-3.3161056E0,-2.1529264E0,-2.3404414E-2,-3.6496243E0,1.9088846E-1,2.0330073E-2,1.6276051E-3,4.656422E-1,-2.8493127E-3,-2.2553012E-2,-6.917286E-3],"split_indices":[13,9,0,2,20,0,0,25,0,0,0],"split_type":[0,0,0,0,0,0,0,0,0,0,0],"sum_hessian":[5.1147246E3,2.319247E1,5.091532E3,5.3013883E0,1.7891083E1,4.2412076E0,1.0601803E0,1.6161133E1,1.7299488E0,1.4614926E1,1.5462072E0],"tree_param":{"num_deleted":"0","num_feature":"29","num_nodes":"11","size_leaf_vector":"0"}},{"base_weights":[-1.147711E0,-5.37749E-1,-2.3013765E-2,1.9759314E-2,-8.861077E-1,-1.4989568E-1,-1.0633919E0,1.4033535E-2,-6.676564E-1,-2.2304041E-2,-2.9343532E-3,-3.4928217E-3,-1.5684463E-2],"categories":[],"categories_nodes":[],"categories_segments":[],"categories_sizes":[],"default_left":[0,0,0,0,0,0,0,0,0,0,0,0,0],"id":65,"left_children":[1,3,-1,-1,5,7,9,-1,11,-1,-1,-1,-1],"loss_changes":[7.949707E0,1.4054576E1,0E0,0E0,2.5442028E0,2.7542276E0,6.214466E-1,0E0,7.776952E-2,0E0,0E0,0E0,0E0],"parents":[2147483647,0,0,1,1,4,4,5,5,6,6,8,8],"right_children":[2,4,-1,-1,6,8,10,-1,12,-1,-1,-1,-1],"split_conditions":[-3.3161056E0,-7.691509E-1,-2.3013765E-2,1.9759314E-2,-1.372157E0,4.98025E-1,1.8153161E0,1.4033535E-2,-9.931853E-2,-2.2304041E-2,-2.9343532E-3,-3.4928217E-3,-1.5684463E-2],"split_indices":[13,6,0,0,8,15,0,0,19,0,0,0,0],"split_type":[0,0,0,0,0,0,0,0,0,0,0,0,0],"sum_hessian":[4.717427E3,2.37963E1,4.6936304E3,4.082039E0,1.9714262E1,4.184152E0,1.5530109E1,1.4477658E0,2.7363865E0,1.449432E1,1.0357896E0,1.0009799E0,1.7354066E0],"tree_param":{"num_deleted":"0","num_feature":"29","num_nodes":"13","size_leaf_vector":"0"}},{"base_weights":[-1.1484162E0,-5.46125E-1,-2.3022264E-2,8.071792E-1,-1.0369394E0,2.070088E-2,-4.141527E-3,-1.0849247E0,-3.2079716E-3,-6.456766E-3,-2.2295408E-2],"categories":[],"categories_nodes":[],"categories_segments":[],"categories_sizes":[],"default_left":[0,0,0,0,0,0,0,0,0,0,0],"id":66,"left_children":[1,3,-1,5,7,-1,-1,9,-1,-1,-1],"loss_changes":[7.034668E0,1.6070322E1,0E0,1.7549877E0,5.5228615E-1,0E0,0E0,8.5372925E-3,0E0,0E0,0E0],"parents":[2147483647,0,0,1,1,3,3,4,4,7,7],"right_children":[2,4,-1,6,8,-1,-1,10,-1,-1,-1],"split_conditions":[-3.3161056E0,-1.8743901E0,-2.3022264E-2,7.690189E-1,7.391088E-1,2.070088E-2,-4.141527E-3,-1.5633023E0,-3.2079716E-3,-6.456766E-3,-2.2295408E-2],"split_indices":[13,11,0,6,23,0,0,12,0,0,0],"split_type":[0,0,0,0,0,0,0,0,0,0,0],"sum_hessian":[4.7164614E3,2.193412E1,4.6945273E3,5.666239E0,1.6267881E1,4.6100416E0,1.0561974E0,1.519814E1,1.0697414E0,1.0181231E0,1.41800165E1],"tree_param":{"num_deleted":"0","num_feature":"29","num_nodes":"11","size_leaf_vector":"0"}},{"base_weights":[-1.1479012E0,-5.368513E-1,-2.3013696E-2,1.9213604E-2,-8.7171423E-1,-2.1754911E-2,-2.876134E-1,-7.021929E-1,9.456036E-3,-7.258732E-4,-1.7775368E-2],"categories":[],"categories_nodes":[],"categories_segments":[],"categories_sizes":[],"default_left":[0,0,0,0,0,0,0,0,0,0,0],"id":67,"left_children":[1,3,-1,-1,5,-1,7,9,-1,-1,-1],"loss_changes":[7.3916016E0,1.2485413E1,0E0,0E0,2.148655E0,0E0,2.420959E0,5.5051804E-1,0E0,0E0,0E0],"parents":[2147483647,0,0,1,1,4,4,6,6,7,7],"right_children":[2,4,-1,-1,6,-1,8,10,-1,-1,-1],"split_conditions":[-3.3161056E0,-7.691509E-1,-2.3013696E-2,1.9213604E-2,3.5029747E0,-2.1754911E-2,-8.496816E-2,4.7531357E-1,9.456036E-3,-7.258732E-4,-1.7775368E-2],"split_indices":[13,6,0,0,3,0,20,4,0,0,0],"split_type":[0,0,0,0,0,0,0,0,0,0,0],"sum_hessian":[4.707813E3,2.222776E1,4.685585E3,3.7205067E0,1.8507254E1,1.2880944E1,5.626309E0,3.6907E0,1.935609E0,1.069197E0,2.621503E0],"tree_param":{"num_deleted":"0","num_feature":"29","num_nodes":"11","size_leaf_vector":"0"}},{"base_weights":[-1.1488634E0,-5.92188E-1,-2.3030797E-2,1.9348608E-2,-9.100745E-1,-2.2326676E-2,-3.7896314E-1,-7.682464E-1,9.456036E-3,-5.6824664E-4,-1.8798545E-2],"categories":[],"categories_nodes":[],"categories_segments":[],"categories_sizes":[],"default_left":[0,0,0,0,0,0,0,0,0,0,0],"id":68,"left_children":[1,3,-1,-1,5,-1,7,9,-1,-1,-1],"loss_changes":[6.352051E0,1.3100456E1,0E0,0E0,1.8763409E0,0E0,2.81204E0,6.6549325E-1,0E0,0E0,0E0],"parents":[2147483647,0,0,1,1,4,4,6,6,7,7],"right_children":[2,4,-1,-1,6,-1,8,10,-1,-1,-1],"split_conditions":[-3.3161056E0,-9.2823726E-1,-2.3030797E-2,1.9348608E-2,3.5029747E0,-2.2326676E-2,-8.496816E-2,7.799397E-1,9.456036E-3,-5.6824664E-4,-1.8798545E-2],"split_indices":[13,6,0,0,3,0,20,15,0,0,0],"split_type":[0,0,0,0,0,0,0,0,0,0,0],"sum_hessian":[4.7199033E3,2.3647997E1,4.6962554E3,3.657958E0,1.999004E1,1.3604709E1,6.385331E0,4.4497223E0,1.935609E0,1.0576079E0,3.3921142E0],"tree_param":{"num_deleted":"0","num_feature":"29","num_nodes":"11","size_leaf_vector":"0"}},{"base_weights":[-1.148354E0,-5.321828E-1,-2.3022186E-2,8.452751E-1,-9.6849084E-1,1.9742506E-2,1.5073001E-3,-1.0516486E0,-2.1054377E-3,-2.2043306E-2,-5.826863E-3],"categories":[],"categories_nodes":[],"categories_segments":[],"categories_sizes":[],"default_left":[0,0,0,0,0,0,0,0,0,0,0],"id":69,"left_children":[1,3,-1,5,7,-1,-1,9,-1,-1,-1],"loss_changes":[7.3706055E0,1.4517387E1,0E0,5.8273363E-1,1.1653423E0,0E0,0E0,2.9738045E-1,0E0,0E0,0E0],"parents":[2147483647,0,0,1,1,3,3,4,4,7,7],"right_children":[2,4,-1,6,8,-1,-1,10,-1,-1,-1],"split_conditions":[-3.3161056E0,-2.1529264E0,-2.3022186E-2,-3.6496243E0,1.9088846E-1,1.9742506E-2,1.5073001E-3,7.391088E-1,-2.1054377E-3,-2.2043306E-2,-5.826863E-3],"split_indices":[13,9,0,2,20,0,0,23,0,0,0],"split_type":[0,0,0,0,0,0,0,0,0,0,0],"sum_hessian":[4.7013975E3,2.179341E1,4.679604E3,5.017005E0,1.6776405E1,3.9982305E0,1.0187747E0,1.5103161E1,1.6732436E0,1.3740568E1,1.3625934E0],"tree_param":{"num_deleted":"0","num_feature":"29","num_nodes":"11","size_leaf_vector":"0"}},{"base_weights":[-1.1308031E0,-5.160296E-1,-2.2677584E-2,7.2452676E-1,-9.280695E-1,2.027654E-2,-8.063324E-3,-2.1744242E-2,-3.504447E-1,1.7209049E-1,-1.626081E-2,-8.291336E-3,1.4698927E-2],"categories":[],"categories_nodes":[],"categories_segments":[],"categories_sizes":[],"default_left":[0,0,0,0,0,0,0,0,0,0,0,0,0],"id":70,"left_children":[1,3,-1,5,7,-1,-1,-1,9,11,-1,-1,-1],"loss_changes":[7.6030273E0,1.262975E1,0E0,2.4947436E0,1.2735081E0,0E0,0E0,0E0,1.4363635E0,1.408829E0,0E0,0E0,0E0],"parents":[2147483647,0,0,1,1,3,3,4,4,8,8,9,9],"right_children":[2,4,-1,6,8,-1,-1,-1,10,12,-1,-1,-1],"split_conditions":[-3.3161056E0,-1.8743901E0,-2.2677584E-2,9.51962E-1,5.96707E-2,2.027654E-2,-8.063324E-3,-2.1744242E-2,-3.3895624E-1,-1.5254762E0,-1.626081E-2,-8.291336E-3,1.4698927E-2],"split_indices":[13,11,0,6,0,0,0,0,28,9,0,0,0],"split_type":[0,0,0,0,0,0,0,0,0,0,0,0,0],"sum_hessian":[4.3289727E3,2.2392618E1,4.30658E3,5.3940363E0,1.6998583E1,4.373121E0,1.0209156E0,1.2635216E1,4.3633666E0,2.3438306E0,2.0195358E0,1.2766517E0,1.067179E0],"tree_param":{"num_deleted":"0","num_feature":"29","num_nodes":"13","size_leaf_vector":"0"}},{"base_weights":[-1.1315788E0,-4.838259E-1,-2.2682797E-2,-2.1069067E-2,7.9902357E-1,-1.2031067E-3,2.0211665E-2],"categories":[],"categories_nodes":[],"categories_segments":[],"categories_sizes":[],"default_left":[0,0,0,0,0,0,0],"id":71,"left_children":[1,3,-1,-1,5,-1,-1],"loss_changes":[6.633789E0,1.4574736E1,0E0,0E0,1.2145553E0,0E0,0E0],"parents":[2147483647,0,0,1,1,4,4],"right_children":[2,4,-1,-1,6,-1,-1],"split_conditions":[-1.8743901E0,7.582842E-1,-2.2682797E-2,-2.1069067E-2,-1.3871645E0,-1.2031067E-3,2.0211665E-2],"split_indices":[11,10,0,0,12,0,0],"split_type":[0,0,0,0,0,0,0],"sum_hessian":[4.328023E3,1.7793121E1,4.3102295E3,1.2445657E1,5.347464E0,1.1979694E0,4.1494946E0],"tree_param":{"num_deleted":"0","num_feature":"29","num_nodes":"7","size_leaf_vector":"0"}},{"base_weights":[-1.1309993E0,-5.1587343E-1,-2.2677507E-2,1.8657494E-2,-8.407074E-1,-2.8783825E-1,-2.1690087E-2,1.3113086E-2,-6.521658E-1,-1.8617986E-2,3.998787E-3],"categories":[],"categories_nodes":[],"categories_segments":[],"categories_sizes":[],"default_left":[0,0,0,0,0,0,0,0,0,0,0],"id":72,"left_children":[1,3,-1,-1,5,7,-1,-1,9,-1,-1],"loss_changes":[7.0595703E0,1.1111124E1,0E0,0E0,2.1747828E0,2.8364062E0,0E0,0E0,1.5059252E0,0E0,0E0],"parents":[2147483647,0,0,1,1,4,4,5,5,8,8],"right_children":[2,4,-1,-1,6,8,-1,-1,10,-1,-1],"split_conditions":[-3.3161056E0,-7.691509E-1,-2.2677507E-2,1.8657494E-2,1.0216749E0,-1.4043612E0,-2.1690087E-2,1.3113086E-2,2.9874492E-1,-1.8617986E-2,3.998787E-3],"split_indices":[13,6,0,0,6,11,0,0,23,0,0],"split_type":[0,0,0,0,0,0,0,0,0,0,0],"sum_hessian":[4.3201426E3,2.094388E1,4.2991987E3,3.4930687E0,1.7450811E1,6.007649E0,1.1443163E1,1.4508303E0,4.5568185E0,3.3639584E0,1.1928601E0],"tree_param":{"num_deleted":"0","num_feature":"29","num_nodes":"11","size_leaf_vector":"0"}},{"base_weights":[-1.1320406E0,-5.7033795E-1,-2.2696149E-2,1.8790932E-2,-8.8023967E-1,-3.362912E-1,-2.1793336E-2,1.2250034E-2,-6.600713E-1,-1.8498601E-2,2.2515312E-3],"categories":[],"categories_nodes":[],"categories_segments":[],"categories_sizes":[],"default_left":[0,0,0,0,0,0,0,0,0,0,0],"id":73,"left_children":[1,3,-1,-1,5,7,-1,-1,9,-1,-1],"loss_changes":[6.085449E0,1.1703924E1,0E0,0E0,1.8894787E0,2.5397515E0,0E0,0E0,1.2632272E0,0E0,0E0],"parents":[2147483647,0,0,1,1,4,4,5,5,8,8],"right_children":[2,4,-1,-1,6,8,-1,-1,10,-1,-1],"split_conditions":[-3.3161056E0,-9.2823726E-1,-2.2696149E-2,1.8790932E-2,1.0216749E0,-1.4043612E0,-2.1793336E-2,1.2250034E-2,2.9874492E-1,-1.8498601E-2,2.2515312E-3],"split_indices":[13,6,0,0,6,11,0,0,23,0,0],"split_type":[0,0,0,0,0,0,0,0,0,0,0],"sum_hessian":[4.3312334E3,2.2245417E1,4.308988E3,3.4422984E0,1.880312E1,5.9513507E0,1.28517685E1,1.2873188E0,4.664032E0,3.3266025E0,1.3374295E0],"tree_param":{"num_deleted":"0","num_feature":"29","num_nodes":"11","size_leaf_vector":"0"}},{"base_weights":[-1.1314994E0,-5.120205E-1,-2.2686759E-2,8.211356E-1,-9.3970406E-1,2.4352858E-3,1.9158538E-2,-1.0284505E0,-1.3182764E-3,-2.1695508E-2,-5.3609065E-3],"categories":[],"categories_nodes":[],"categories_segments":[],"categories_sizes":[],"default_left":[0,0,0,0,0,0,0,0,0,0,0],"id":74,"left_children":[1,3,-1,5,7,-1,-1,9,-1,-1,-1],"loss_changes":[7.0078125E0,1.3033562E1,0E0,4.3413115E-1,1.230998E0,0E0,0E0,3.5750198E-1,0E0,0E0,0E0],"parents":[2147483647,0,0,1,1,3,3,4,4,7,7],"right_children":[2,4,-1,6,8,-1,-1,10,-1,-1,-1],"split_conditions":[-3.3161056E0,-2.1529264E0,-2.2686759E-2,-9.8198605E-1,1.9088846E-1,2.4352858E-3,1.9158538E-2,4.656422E-1,-1.3182764E-3,-2.1695508E-2,-5.3609065E-3],"split_indices":[13,9,0,18,20,0,0,25,0,0,0],"split_type":[0,0,0,0,0,0,0,0,0,0,0],"sum_hessian":[4.3142163E3,2.05058E1,4.2937104E3,4.7571282E0,1.57486725E1,1.0874556E0,3.6696727E0,1.4135956E1,1.6127168E0,1.27639265E1,1.3720291E0],"tree_param":{"num_deleted":"0","num_feature":"29","num_nodes":"11","size_leaf_vector":"0"}},{"base_weights":[-1.1158811E0,-4.950034E-1,-2.238122E-2,7.0330185E-1,-8.9882934E-1,1.9815098E-2,-6.7800977E-3,-2.1334752E-2,-3.102434E-1,2.1250384E-1,-1.5763376E-2,-7.731126E-3,1.5049496E-2],"categories":[],"categories_nodes":[],"categories_segments":[],"categories_sizes":[],"default_left":[0,0,0,0,0,0,0,0,0,0,0,0,0],"id":75,"left_children":[1,3,-1,5,7,-1,-1,-1,9,11,-1,-1,-1],"loss_changes":[7.279297E0,1.1283069E1,0E0,2.166164E0,1.3393955E0,0E0,0E0,0E0,1.4570032E0,1.3430682E0,0E0,0E0,0E0],"parents":[2147483647,0,0,1,1,3,3,4,4,8,8,9,9],"right_children":[2,4,-1,6,8,-1,-1,-1,10,12,-1,-1,-1],"split_conditions":[-3.3161056E0,-1.8743901E0,-2.238122E-2,1.569642E0,5.96707E-2,1.9815098E-2,-6.7800977E-3,-2.1334752E-2,-3.3895624E-1,-1.5254762E0,-1.5763376E-2,-7.731126E-3,1.5049496E-2],"split_indices":[13,11,0,4,0,0,0,0,28,9,0,0,0],"split_type":[0,0,0,0,0,0,0,0,0,0,0,0,0],"sum_hessian":[3.9666353E3,2.1010273E1,3.945625E3,5.1088314E0,1.5901443E1,4.043227E0,1.0656039E0,1.1739963E1,4.1614804E0,2.2527835E0,1.9086968E0,1.202647E0,1.0501366E0],"tree_param":{"num_deleted":"0","num_feature":"29","num_nodes":"13","size_leaf_vector":"0"}},{"base_weights":[-1.1167269E0,-5.1032007E-1,-2.2391336E-2,7.6848316E-1,-9.884338E-1,1.9854678E-2,-3.4274044E-3,-2.0820972E-2,-3.372297E-3],"categories":[],"categories_nodes":[],"categories_segments":[],"categories_sizes":[],"default_left":[0,0,0,0,0,0,0,0,0],"id":76,"left_children":[1,3,-1,5,7,-1,-1,-1,-1],"loss_changes":[6.2597656E0,1.3188278E1,0E0,1.4546075E0,4.8154926E-1,0E0,0E0,0E0,0E0],"parents":[2147483647,0,0,1,1,3,3,4,4],"right_children":[2,4,-1,6,8,-1,-1,-1,-1],"split_conditions":[-3.3161056E0,-1.8743901E0,-2.2391336E-2,1.6359054E0,7.02037E-1,1.9854678E-2,-3.4274044E-3,-2.0820972E-2,-3.372297E-3],"split_indices":[13,11,0,4,23,0,0,0,0],"split_type":[0,0,0,0,0,0,0,0,0],"sum_hessian":[3.9657012E3,1.932779E1,3.9463733E3,5.0944424E0,1.4233346E1,4.0676327E0,1.0268095E0,1.3121382E1,1.1119648E0],"tree_param":{"num_deleted":"0","num_feature":"29","num_nodes":"9","size_leaf_vector":"0"}},{"base_weights":[-1.1160752E0,-4.9417815E-1,-2.2381136E-2,1.818409E-2,-8.12148E-1,-2.5751036E-1,-2.1272065E-2,1.2846854E-2,-6.168563E-1,-1.810815E-2,4.455224E-3],"categories":[],"categories_nodes":[],"categories_segments":[],"categories_sizes":[],"default_left":[0,0,0,0,0,0,0,0,0,0,0],"id":77,"left_children":[1,3,-1,-1,5,7,-1,-1,9,-1,-1],"loss_changes":[6.789551E0,9.968215E0,0E0,0E0,2.1516123E0,2.5771396E0,0E0,0E0,1.4929869E0,0E0,0E0],"parents":[2147483647,0,0,1,1,4,4,5,5,8,8],"right_children":[2,4,-1,-1,6,8,-1,-1,10,-1,-1],"split_conditions":[-3.3161056E0,-7.691509E-1,-2.2381136E-2,1.818409E-2,1.0216749E0,-1.4043612E0,-2.1272065E-2,1.2846854E-2,2.9874492E-1,-1.810815E-2,4.455224E-3],"split_indices":[13,6,0,0,6,11,0,0,23,0,0],"split_type":[0,0,0,0,0,0,0,0,0,0,0],"sum_hessian":[3.9585474E3,1.9683813E1,3.9388635E3,3.2925413E0,1.6391273E1,5.744547E0,1.0646726E1,1.4146155E0,4.3299313E0,3.1641505E0,1.1657808E0],"tree_param":{"num_deleted":"0","num_feature":"29","num_nodes":"11","size_leaf_vector":"0"}},{"base_weights":[-1.1172048E0,-5.4822785E-1,-2.2401482E-2,1.8297002E-2,-8.5209364E-1,-2.147761E-2,-3.121852E-1,-7.1717155E-1,1.0291478E-2,-3.3223498E-4,-1.7778907E-2],"categories":[],"categories_nodes":[],"categories_segments":[],"categories_sizes":[],"default_left":[0,0,0,0,0,0,0,0,0,0,0],"id":78,"left_children":[1,3,-1,-1,5,-1,7,9,-1,-1,-1],"loss_changes":[5.867676E0,1.0506079E1,0E0,0E0,1.8960009E0,0E0,2.6577237E0,5.8761716E-1,0E0,0E0,0E0],"parents":[2147483647,0,0,1,1,4,4,6,6,7,7],"right_children":[2,4,-1,-1,6,-1,8,10,-1,-1,-1],"split_conditions":[-3.3161056E0,-9.2823726E-1,-2.2401482E-2,1.8297002E-2,3.5029747E0,-2.147761E-2,-8.496816E-2,-4.6862945E-1,1.0291478E-2,-3.3223498E-4,-1.7778907E-2],"split_indices":[13,6,0,0,3,0,20,24,0,0,0],"split_type":[0,0,0,0,0,0,0,0,0,0,0],"sum_hessian":[3.968705E3,2.0878077E1,3.947827E3,3.2446694E0,1.7633406E1,1.179796E1,5.835446E0,4.005775E0,1.8296705E0,1.0047451E0,3.00103E0],"tree_param":{"num_deleted":"0","num_feature":"29","num_nodes":"11","size_leaf_vector":"0"}},{"base_weights":[-1.116628E0,-4.910518E-1,-2.2391234E-2,7.987296E-1,-9.1096485E-1,2.2953027E-3,1.8660322E-2,-1.0050989E0,-6.869077E-4,-2.1299528E-2,-4.612356E-3],"categories":[],"categories_nodes":[],"categories_segments":[],"categories_sizes":[],"default_left":[0,0,0,0,0,0,0,0,0,0,0],"id":79,"left_children":[1,3,-1,5,7,-1,-1,9,-1,-1,-1],"loss_changes":[6.7070312E0,1.1688295E1,0E0,3.983903E-1,1.2638769E0,0E0,0E0,4.1166687E-1,0E0,0E0,0E0],"parents":[2147483647,0,0,1,1,3,3,4,4,7,7],"right_children":[2,4,-1,6,8,-1,-1,10,-1,-1,-1],"split_conditions":[-3.3161056E0,-2.1529264E0,-2.2391234E-2,-9.8198605E-1,1.9088846E-1,2.2953027E-3,1.8660322E-2,4.656422E-1,-6.869077E-4,-2.1299528E-2,-4.612356E-3],"split_indices":[13,9,0,18,20,0,0,25,0,0,0],"split_type":[0,0,0,0,0,0,0,0,0,0,0],"sum_hessian":[3.953073E3,1.9237741E1,3.9338352E3,4.503356E0,1.4734386E1,1.043435E0,3.459921E0,1.3173241E1,1.5611457E0,1.1879702E1,1.2935389E0],"tree_param":{"num_deleted":"0","num_feature":"29","num_nodes":"11","size_leaf_vector":"0"}},{"base_weights":[-1.1026455E0,-4.7536713E-1,-2.2118904E-2,6.8529797E-1,-8.716988E-1,1.9364377E-2,-6.51385E-3,-2.0964462E-2,-2.7444607E-1,2.4733578E-1,-1.5312604E-2,-7.216275E-3,1.52616175E-2],"categories":[],"categories_nodes":[],"categories_segments":[],"categories_sizes":[],"default_left":[0,0,0,0,0,0,0,0,0,0,0,0,0],"id":80,"left_children":[1,3,-1,5,7,-1,-1,-1,9,11,-1,-1,-1],"loss_changes":[6.989746E0,1.0144463E1,0E0,1.986562E0,1.3898487E0,0E0,0E0,0E0,1.4668746E0,1.2704936E0,0E0,0E0,0E0],"parents":[2147483647,0,0,1,1,3,3,4,4,8,8,9,9],"right_children":[2,4,-1,6,8,-1,-1,-1,10,12,-1,-1,-1],"split_conditions":[-3.3161056E0,-1.8743901E0,-2.2118904E-2,1.569642E0,5.96707E-2,1.9364377E-2,-6.51385E-3,-2.0964462E-2,-3.3895624E-1,-1.5254762E0,-1.5312604E-2,-7.216275E-3,1.52616175E-2],"split_indices":[13,11,0,4,0,0,0,0,28,9,0,0,0],"split_type":[0,0,0,0,0,0,0,0,0,0,0,0,0],"sum_hessian":[3.6299512E3,1.9754166E1,3.610197E3,4.8428073E0,1.4911359E1,3.8169568E0,1.0258505E0,1.0926764E1,3.984596E0,2.1728454E0,1.8117504E0,1.1349514E0,1.0378941E0],"tree_param":{"num_deleted":"0","num_feature":"29","num_nodes":"13","size_leaf_vector":"0"}},{"base_weights":[-1.1035672E0,-4.9323517E-1,-2.2129964E-2,7.5064605E-1,-9.659205E-1,1.9293055E-2,-1.5648818E-3,-2.0432014E-2,-2.8121455E-3],"categories":[],"categories_nodes":[],"categories_segments":[],"categories_sizes":[],"default_left":[0,0,0,0,0,0,0,0,0],"id":81,"left_children":[1,3,-1,5,7,-1,-1,-1,-1],"loss_changes":[5.948242E0,1.1986916E1,0E0,1.1109047E0,5.142698E-1,0E0,0E0,0E0,0E0],"parents":[2147483647,0,0,1,1,3,3,4,4],"right_children":[2,4,-1,6,8,-1,-1,-1,-1],"split_conditions":[-3.3161056E0,-1.8743901E0,-2.2129964E-2,1.569642E0,7.02037E-1,1.9293055E-2,-1.5648818E-3,-2.0432014E-2,-2.8121455E-3],"split_indices":[13,11,0,4,23,0,0,0,0],"split_type":[0,0,0,0,0,0,0,0,0],"sum_hessian":[3.629035E3,1.8153969E1,3.6108809E3,4.8370714E0,1.3316897E1,3.7143059E0,1.1227653E0,1.2252445E1,1.0644523E0],"tree_param":{"num_deleted":"0","num_feature":"29","num_nodes":"9","size_leaf_vector":"0"}},{"base_weights":[-1.1028347E0,-4.7331133E-1,-2.211881E-2,1.7753614E-2,-7.8511244E-1,-2.284159E-1,-2.0893898E-2,1.2721164E-2,-5.845144E-1,-1.7751902E-2,4.762048E-3],"categories":[],"categories_nodes":[],"categories_segments":[],"categories_sizes":[],"default_left":[0,0,0,0,0,0,0,0,0,0,0],"id":82,"left_children":[1,3,-1,-1,5,7,-1,-1,9,-1,-1],"loss_changes":[6.561035E0,8.987938E0,0E0,0E0,2.135168E0,2.3738444E0,0E0,0E0,1.4896781E0,0E0,0E0],"parents":[2147483647,0,0,1,1,4,4,5,5,8,8],"right_children":[2,4,-1,-1,6,8,-1,-1,10,-1,-1],"split_conditions":[-3.3161056E0,-7.691509E-1,-2.211881E-2,1.7753614E-2,1.0216749E0,-1.4043612E0,-2.0893898E-2,1.2721164E-2,2.1345705E-1,-1.7751902E-2,4.762048E-3],"split_indices":[13,6,0,0,6,11,0,0,25,0,0],"split_type":[0,0,0,0,0,0,0,0,0,0,0],"sum_hessian":[3.622548E3,1.8537733E1,3.6040103E3,3.1110873E0,1.5426646E1,5.503615E0,9.923031E0,1.376296E0,4.127319E0,2.9583642E0,1.1689547E0],"tree_param":{"num_deleted":"0","num_feature":"29","num_nodes":"11","size_leaf_vector":"0"}},{"base_weights":[-1.1040671E0,-5.275939E-1,-2.2141056E-2,1.7839115E-2,-8.258697E-1,-2.7365676E-1,-2.1022728E-2,1.1921846E-2,-5.923156E-1,-1.7618045E-2,3.1118665E-3],"categories":[],"categories_nodes":[],"categories_segments":[],"categories_sizes":[],"default_left":[0,0,0,0,0,0,0,0,0,0,0],"id":83,"left_children":[1,3,-1,-1,5,7,-1,-1,9,-1,-1],"loss_changes":[5.6689453E0,9.47138E0,0E0,0E0,1.8975267E0,2.1384048E0,0E0,0E0,1.2628652E0,0E0,0E0],"parents":[2147483647,0,0,1,1,4,4,5,5,8,8],"right_children":[2,4,-1,-1,6,8,-1,-1,10,-1,-1],"split_conditions":[-3.3161056E0,-9.2823726E-1,-2.2141056E-2,1.7839115E-2,1.0216749E0,-1.4043612E0,-2.1022728E-2,1.1921846E-2,2.78271E-1,-1.7618045E-2,3.1118665E-3],"split_indices":[13,6,0,0,6,11,0,0,25,0,0],"split_type":[0,0,0,0,0,0,0,0,0,0,0],"sum_hessian":[3.63184E3,1.9629152E1,3.612211E3,3.0627213E0,1.6566431E1,5.441671E0,1.1124761E1,1.2256761E0,4.2159953E0,2.9138443E0,1.3021507E0],"tree_param":{"num_deleted":"0","num_feature":"29","num_nodes":"11","size_leaf_vector":"0"}},{"base_weights":[-1.1034476E0,-4.7143477E-1,-2.212985E-2,7.7857065E-1,-8.843058E-1,2.1670056E-3,1.8207833E-2,-9.839733E-1,-7.0541406E-5,-2.094492E-2,-3.9662262E-3],"categories":[],"categories_nodes":[],"categories_segments":[],"categories_sizes":[],"default_left":[0,0,0,0,0,0,0,0,0,0,0],"id":84,"left_children":[1,3,-1,5,7,-1,-1,9,-1,-1,-1],"loss_changes":[6.4418945E0,1.0541693E1,0E0,3.6714315E-1,1.297493E0,0E0,0E0,4.5396137E-1,0E0,0E0,0E0],"parents":[2147483647,0,0,1,1,3,3,4,4,7,7],"right_children":[2,4,-1,6,8,-1,-1,10,-1,-1,-1],"split_conditions":[-3.3161056E0,-2.1529264E0,-2.212985E-2,1.8271618E-1,1.9088846E-1,2.1670056E-3,1.8207833E-2,4.656422E-1,-7.0541406E-5,-2.094492E-2,-3.9662262E-3],"split_indices":[13,9,0,26,20,0,0,25,0,0,0],"split_type":[0,0,0,0,0,0,0,0,0,0,0],"sum_hessian":[3.6175015E3,1.8091978E1,3.5994094E3,4.2720876E0,1.381989E1,1.0015973E0,3.2704902E0,1.2309773E1,1.5101174E0,1.1084171E1,1.2256013E0],"tree_param":{"num_deleted":"0","num_feature":"29","num_nodes":"11","size_leaf_vector":"0"}},{"base_weights":[-1.090863E0,-4.562602E-1,-2.188591E-2,6.676973E-1,-8.450987E-1,1.8760284E-2,-5.119884E-3,-2.061168E-2,-2.403022E-1,2.771113E-1,-1.4862882E-2,-6.7183166E-3,1.53014E-2],"categories":[],"categories_nodes":[],"categories_segments":[],"categories_sizes":[],"default_left":[0,0,0,0,0,0,0,0,0,0,0,0,0],"id":85,"left_children":[1,3,-1,5,7,-1,-1,-1,9,11,-1,-1,-1],"loss_changes":[6.730957E0,9.117611E0,0E0,1.6356583E0,1.433053E0,0E0,0E0,0E0,1.4601145E0,1.1855673E0,0E0,0E0,0E0],"parents":[2147483647,0,0,1,1,3,3,4,4,8,8,9,9],"right_children":[2,4,-1,6,8,-1,-1,-1,10,12,-1,-1,-1],"split_conditions":[-3.3161056E0,-1.8743901E0,-2.188591E-2,7.690189E-1,5.96707E-2,1.8760284E-2,-5.119884E-3,-2.061168E-2,-3.3895624E-1,-1.5254762E0,-1.4862882E-2,-6.7183166E-3,1.53014E-2],"split_indices":[13,11,0,6,0,0,0,0,28,9,0,0,0],"split_type":[0,0,0,0,0,0,0,0,0,0,0,0,0],"sum_hessian":[3.3180854E3,1.8571163E1,3.2995142E3,4.5890684E0,1.3982094E1,3.5381327E0,1.0509355E0,1.0161608E1,3.8204863E0,2.1042097E0,1.7162768E0,1.0706861E0,1.0335234E0],"tree_param":{"num_deleted":"0","num_feature":"29","num_nodes":"13","size_leaf_vector":"0"}},{"base_weights":[-1.0918711E0,-4.7705814E-1,-2.1898016E-2,7.3287386E-1,-9.442103E-1,1.8846486E-2,-1.4463986E-3,-2.0063123E-2,-2.274317E-3],"categories":[],"categories_nodes":[],"categories_segments":[],"categories_sizes":[],"default_left":[0,0,0,0,0,0,0,0,0],"id":86,"left_children":[1,3,-1,5,7,-1,-1,-1,-1],"loss_changes":[5.6584473E0,1.0890823E1,0E0,1.0107489E0,5.4459286E-1,0E0,0E0,0E0,0E0],"parents":[2147483647,0,0,1,1,3,3,4,4],"right_children":[2,4,-1,6,8,-1,-1,-1,-1],"split_conditions":[-3.3161056E0,-1.8743901E0,-2.1898016E-2,1.569642E0,7.02037E-1,1.8846486E-2,-1.4463986E-3,-2.0063123E-2,-2.274317E-3],"split_indices":[13,11,0,4,23,0,0,0,0],"split_type":[0,0,0,0,0,0,0,0,0],"sum_hessian":[3.3171826E3,1.7043936E1,3.3001387E3,4.5891495E0,1.2454786E1,3.506672E0,1.0824777E0,1.1435246E1,1.01954E0],"tree_param":{"num_deleted":"0","num_feature":"29","num_nodes":"9","size_leaf_vector":"0"}},{"base_weights":[-1.0910519E0,-4.5351893E-1,-2.1885809E-2,1.7335843E-2,-7.5943387E-1,-2.0189437E-1,-2.0533876E-2,1.2442559E-2,-5.519025E-1,-1.7234243E-2,5.5335844E-3],"categories":[],"categories_nodes":[],"categories_segments":[],"categories_sizes":[],"default_left":[0,0,0,0,0,0,0,0,0,0,0],"id":87,"left_children":[1,3,-1,-1,5,7,-1,-1,9,-1,-1],"loss_changes":[6.3427734E0,8.109699E0,0E0,0E0,2.104E0,2.1519608E0,0E0,0E0,1.5042874E0,0E0,0E0],"parents":[2147483647,0,0,1,1,4,4,5,5,8,8],"right_children":[2,4,-1,-1,6,8,-1,-1,10,-1,-1],"split_conditions":[-3.3161056E0,-7.691509E-1,-2.1885809E-2,1.7335843E-2,1.0216749E0,-1.4043612E0,-2.0533876E-2,1.2442559E-2,2.9874492E-1,-1.7234243E-2,5.5335844E-3],"split_indices":[13,6,0,0,6,11,0,0,23,0,0],"split_type":[0,0,0,0,0,0,0,0,0,0,0],"sum_hessian":[3.3113088E3,1.744856E1,3.29386E3,2.9374132E0,1.45111475E1,5.27086E0,9.240288E0,1.3395938E0,3.9312663E0,2.8322814E0,1.098985E0],"tree_param":{"num_deleted":"0","num_feature":"29","num_nodes":"11","size_leaf_vector":"0"}},{"base_weights":[-1.0923911E0,-5.0722367E-1,-2.191015E-2,1.7411081E-2,-8.0057406E-1,-2.4575019E-1,-2.0674556E-2,1.1678964E-2,-5.601586E-1,-1.7096503E-2,3.8347929E-3],"categories":[],"categories_nodes":[],"categories_segments":[],"categories_sizes":[],"default_left":[0,0,0,0,0,0,0,0,0,0,0],"id":88,"left_children":[1,3,-1,-1,5,7,-1,-1,9,-1,-1],"loss_changes":[5.500244E0,8.559782E0,0E0,0E0,1.8881712E0,1.9475495E0,0E0,0E0,1.275063E0,0E0,0E0],"parents":[2147483647,0,0,1,1,4,4,5,5,8,8],"right_children":[2,4,-1,-1,6,8,-1,-1,10,-1,-1],"split_conditions":[-3.3161056E0,-9.2823726E-1,-2.191015E-2,1.7411081E-2,1.0216749E0,-1.4043612E0,-2.0674556E-2,1.1678964E-2,2.9874492E-1,-1.7096503E-2,3.8347929E-3],"split_indices":[13,6,0,0,6,11,0,0,23,0,0],"split_type":[0,0,0,0,0,0,0,0,0,0,0],"sum_hessian":[3.3198086E3,1.8454206E1,3.3013545E3,2.89406E0,1.5560147E1,5.211838E0,1.0348309E1,1.1966592E0,4.0151787E0,2.7863338E0,1.2288449E0],"tree_param":{"num_deleted":"0","num_feature":"29","num_nodes":"11","size_leaf_vector":"0"}},{"base_weights":[-1.0917273E0,-4.5242903E-1,-2.1897886E-2,7.59102E-1,-8.5820717E-1,3.226389E-3,1.7611148E-2,-9.63729E-1,5.374077E-4,-2.061329E-2,-3.3355602E-3],"categories":[],"categories_nodes":[],"categories_segments":[],"categories_sizes":[],"default_left":[0,0,0,0,0,0,0,0,0,0,0],"id":89,"left_children":[1,3,-1,5,7,-1,-1,9,-1,-1,-1],"loss_changes":[6.20166E0,9.505182E0,0E0,2.2453904E-1,1.3297243E0,0E0,0E0,4.9493313E-1,0E0,0E0,0E0],"parents":[2147483647,0,0,1,1,3,3,4,4,7,7],"right_children":[2,4,-1,6,8,-1,-1,10,-1,-1,-1],"split_conditions":[-3.3161056E0,-2.1529264E0,-2.1897886E-2,-9.1730917E-1,1.9088846E-1,3.226389E-3,1.7611148E-2,4.656422E-1,5.374077E-4,-2.061329E-2,-3.3355602E-3],"split_indices":[13,9,0,18,20,0,0,25,0,0,0],"split_type":[0,0,0,0,0,0,0,0,0,0,0],"sum_hessian":[3.3066648E3,1.7009531E1,3.2896553E3,4.0491776E0,1.2960354E1,1.0769309E0,2.972247E0,1.1500377E1,1.4599771E0,1.0338769E1,1.1616076E0],"tree_param":{"num_deleted":"0","num_feature":"29","num_nodes":"11","size_leaf_vector":"0"}},{"base_weights":[-1.0803343E0,-4.3779635E-1,-2.167824E-2,1.7400546E-2,-7.5048625E-1,-1.1788089E-1,-2.0377245E-2,1.4411413E-2,-6.5709704E-1,-3.183644E-3,-1.5521345E-2],"categories":[],"categories_nodes":[],"categories_segments":[],"categories_sizes":[],"default_left":[0,0,0,0,0,0,0,0,0,0,0],"id":90,"left_children":[1,3,-1,-1,5,7,-1,-1,9,-1,-1],"loss_changes":[6.493164E0,8.202419E0,0E0,0E0,2.5004988E0,3.0634513E0,0E0,0E0,1.13975525E-1,0E0,0E0],"parents":[2147483647,0,0,1,1,4,4,5,5,8,8],"right_children":[2,4,-1,-1,6,8,-1,-1,10,-1,-1],"split_conditions":[-3.3161056E0,-7.691509E-1,-2.167824E-2,1.7400546E-2,-7.1316314E-1,1.3078383E0,-2.0377245E-2,1.4411413E-2,-4.516153E-1,-3.183644E-3,-1.5521345E-2],"split_indices":[13,6,0,0,8,4,0,0,7,0,0],"split_type":[0,0,0,0,0,0,0,0,0,0,0],"sum_hessian":[3.0299976E3,1.7460932E1,3.0125366E3,3.0252876E0,1.4435645E1,4.7286625E0,9.706982E0,1.7191495E0,3.0095131E0,1.0313021E0,1.9782112E0],"tree_param":{"num_deleted":"0","num_feature":"29","num_nodes":"11","size_leaf_vector":"0"}},{"base_weights":[-1.0814396E0,-4.6198276E-1,-2.1691505E-2,7.1550155E-1,-9.2345387E-1,1.8429015E-2,-1.4278261E-3,-1.9695295E-2,-2.6880866E-3],"categories":[],"categories_nodes":[],"categories_segments":[],"categories_sizes":[],"default_left":[0,0,0,0,0,0,0,0,0],"id":91,"left_children":[1,3,-1,5,7,-1,-1,-1,-1],"loss_changes":[5.3847656E0,9.899781E0,0E0,9.329498E-1,4.7972202E-1,0E0,0E0,0E0,0E0],"parents":[2147483647,0,0,1,1,3,3,4,4],"right_children":[2,4,-1,6,8,-1,-1,-1,-1],"split_conditions":[-3.3161056E0,-1.8743901E0,-2.1691505E-2,1.569642E0,6.784373E-1,1.8429015E-2,-1.4278261E-3,-1.9695295E-2,-2.6880866E-3],"split_indices":[13,11,0,4,23,0,0,0,0],"split_type":[0,0,0,0,0,0,0,0,0],"sum_hessian":[3.0291094E3,1.600308E1,3.0131062E3,4.3508983E0,1.1652183E1,3.312846E0,1.0380524E0,1.0581906E1,1.0702767E0],"tree_param":{"num_deleted":"0","num_feature":"29","num_nodes":"9","size_leaf_vector":"0"}},{"base_weights":[-1.0805207E0,-4.3416873E-1,-2.1678127E-2,1.6925065E-2,-7.3390955E-1,-1.9788818E-2,-1.3599864E-1,-5.882622E-1,1.1471674E-2,-1.062573E-3,-1.52163915E-2],"categories":[],"categories_nodes":[],"categories_segments":[],"categories_sizes":[],"default_left":[0,0,0,0,0,0,0,0,0,0,0],"id":92,"left_children":[1,3,-1,-1,5,-1,7,9,-1,-1,-1],"loss_changes":[6.148926E0,7.310584E0,0E0,0E0,2.1051416E0,0E0,2.118033E0,3.1808043E-1,0E0,0E0,0E0],"parents":[2147483647,0,0,1,1,4,4,6,6,7,7],"right_children":[2,4,-1,-1,6,-1,8,10,-1,-1,-1],"split_conditions":[-3.3161056E0,-7.691509E-1,-2.1678127E-2,1.6925065E-2,3.5029747E0,-1.9788818E-2,-8.496816E-2,1.921462E0,1.1471674E-2,-1.062573E-3,-1.52163915E-2],"split_indices":[13,6,0,0,3,0,20,16,0,0,0],"split_type":[0,0,0,0,0,0,0,0,0,0,0],"sum_hessian":[3.0238042E3,1.642992E1,3.0073743E3,2.77073E0,1.3659189E1,9.110689E0,4.5485005E0,2.882358E0,1.6661426E0,1.0217146E0,1.8606434E0],"tree_param":{"num_deleted":"0","num_feature":"29","num_nodes":"11","size_leaf_vector":"0"}},{"base_weights":[-1.0819805E0,-4.8754066E-1,-2.1704793E-2,1.698413E-2,-7.754017E-1,-2.0427015E-2,-2.218344E-1,-6.5170085E-1,1.1471674E-2,-1.3732542E-3,-1.6251225E-2],"categories":[],"categories_nodes":[],"categories_segments":[],"categories_sizes":[],"default_left":[0,0,0,0,0,0,0,0,0,0,0],"id":93,"left_children":[1,3,-1,-1,5,-1,7,9,-1,-1,-1],"loss_changes":[5.3464355E0,7.720349E0,0E0,0E0,1.900506E0,0E0,2.4538891E0,3.584993E-1,0E0,0E0,0E0],"parents":[2147483647,0,0,1,1,4,4,6,6,7,7],"right_children":[2,4,-1,-1,6,-1,8,10,-1,-1,-1],"split_conditions":[-3.3161056E0,-9.2823726E-1,-2.1704793E-2,1.698413E-2,3.5029747E0,-2.0427015E-2,-8.496816E-2,1.3870244E0,1.1471674E-2,-1.3732542E-3,-1.6251225E-2],"split_indices":[13,6,0,0,3,0,20,16,0,0,0],"split_type":[0,0,0,0,0,0,0,0,0,0,0],"sum_hessian":[3.0315684E3,1.735218E1,3.0142163E3,2.7290716E0,1.4623109E1,9.539632E0,5.083477E0,3.4173343E0,1.6661426E0,1.0475044E0,2.36983E0],"tree_param":{"num_deleted":"0","num_feature":"29","num_nodes":"11","size_leaf_vector":"0"}},{"base_weights":[-1.0812674E0,-4.34004E-1,-2.1691356E-2,7.403066E-1,-8.3267725E-1,3.0600443E-3,1.7184887E-2,-9.4400287E-1,1.0540433E-3,-2.0295935E-2,-2.7358097E-3],"categories":[],"categories_nodes":[],"categories_segments":[],"categories_sizes":[],"default_left":[0,0,0,0,0,0,0,0,0,0,0],"id":94,"left_children":[1,3,-1,5,7,-1,-1,9,-1,-1,-1],"loss_changes":[5.9819336E0,8.571091E0,0E0,2.0632434E-1,1.3464127E0,0E0,0E0,5.320091E-1,0E0,0E0,0E0],"parents":[2147483647,0,0,1,1,3,3,4,4,7,7],"right_children":[2,4,-1,6,8,-1,-1,10,-1,-1,-1],"split_conditions":[-3.3161056E0,-2.1529264E0,-2.1691356E-2,-9.1730917E-1,1.9088846E-1,3.0600443E-3,1.7184887E-2,4.656422E-1,1.0540433E-3,-2.0295935E-2,-2.7358097E-3],"split_indices":[13,9,0,18,20,0,0,25,0,0,0],"split_type":[0,0,0,0,0,0,0,0,0,0,0],"sum_hessian":[3.0195264E3,1.5991093E1,3.0035352E3,3.835759E0,1.21553335E1,1.0310293E0,2.8047295E0,1.0738842E1,1.416491E0,9.636539E0,1.1023027E0],"tree_param":{"num_deleted":"0","num_feature":"29","num_nodes":"11","size_leaf_vector":"0"}},{"base_weights":[-1.0708791E0,-4.1924506E-1,-2.1492511E-2,2.9407546E-1,-1.999588E-2,1.7848695E-2,-4.0027663E-1,5.7482184E-3,-1.5957432E-2],"categories":[],"categories_nodes":[],"categories_segments":[],"categories_sizes":[],"default_left":[0,0,0,0,0,0,0,0,0],"id":95,"left_children":[1,3,-1,5,-1,-1,7,-1,-1],"loss_changes":[6.3012695E0,7.519909E0,0E0,3.9310694E0,0E0,0E0,1.5067223E0,0E0,0E0],"parents":[2147483647,0,0,1,1,3,3,6,6],"right_children":[2,4,-1,6,-1,-1,8,-1,-1],"split_conditions":[-3.3161056E0,1.0216749E0,-2.1492511E-2,-1.4043612E0,-1.999588E-2,1.7848695E-2,-3.3895624E-1,5.7482184E-3,-1.5957432E-2],"split_indices":[13,6,0,11,0,0,28,0,0],"split_type":[0,0,0,0,0,0,0,0,0],"sum_hessian":[2.7645298E3,1.6448904E1,2.7480808E3,7.6019E0,8.847004E0,3.9299667E0,3.6719334E0,1.4467444E0,2.225189E0],"tree_param":{"num_deleted":"0","num_feature":"29","num_nodes":"9","size_leaf_vector":"0"}},{"base_weights":[-1.072093E0,-4.469528E-1,-2.1507058E-2,7.024265E-1,-9.041791E-1,1.792293E-2,2.3960953E-5,-1.9378053E-2,-2.1815682E-3],"categories":[],"categories_nodes":[],"categories_segments":[],"categories_sizes":[],"default_left":[0,0,0,0,0,0,0,0,0],"id":96,"left_children":[1,3,-1,5,7,-1,-1,-1,-1],"loss_changes":[5.1533203E0,9.07148E0,0E0,6.959839E-1,5.0782967E-1,0E0,0E0,0E0,0E0],"parents":[2147483647,0,0,1,1,3,3,4,4],"right_children":[2,4,-1,6,8,-1,-1,-1,-1],"split_conditions":[-3.3161056E0,-1.8743901E0,-2.1507058E-2,1.1547766E0,6.784373E-1,1.792293E-2,2.3960953E-5,-1.9378053E-2,-2.1815682E-3],"split_indices":[13,11,0,4,23,0,0,0,0],"split_type":[0,0,0,0,0,0,0,0,0],"sum_hessian":[2.763653E3,1.5053162E1,2.7486E3,4.131382E0,1.092178E1,3.0193071E0,1.1120749E0,9.897502E0,1.0242774E0],"tree_param":{"num_deleted":"0","num_feature":"29","num_nodes":"9","size_leaf_vector":"0"}},{"base_weights":[-1.0710635E0,-4.1483355E-1,-2.149239E-2,2.5162563E-1,-1.987904E-2,1.7538209E-2,-4.1594574E-1,4.0310007E-3,-1.5879853E-2],"categories":[],"categories_nodes":[],"categories_segments":[],"categories_sizes":[],"default_left":[0,0,0,0,0,0,0,0,0],"id":97,"left_children":[1,3,-1,5,-1,-1,7,-1,-1],"loss_changes":[5.9941406E0,6.619665E0,0E0,3.9007242E0,0E0,0E0,1.2747707E0,0E0,0E0],"parents":[2147483647,0,0,1,1,3,3,6,6],"right_children":[2,4,-1,6,-1,-1,8,-1,-1],"split_conditions":[-3.3161056E0,1.0216749E0,