{"learner": {"attributes": {"best_iteration": "509", "best_ntree_limit": "510"}, "feature_names": ["V1", "V2", "V3", "V4", "V5", "V6", "V7", "V8", "V9", "V10", "V11", "V12", "V13", "V14", "V15", "V16", "V17", "V18", "V19", "V20", "V21", "V22", "V23", "V24", "V25", "V26", "V27", "V28", "normalizedAmount"], "feature_types": ["float", "float", "float", "float", "float", "float", "float", "float", "float", "float", "float", "float", "float", "float", "float", "float", "float", "float", "float", "float", "float", "float", "float", "float", "float", "float", "float", "float", "float"], "gradient_booster": {"model": {"gbtree_model_param": {"num_parallel_tree": "1", "num_trees": "510", "size_leaf_vector": "0"}, "tree_info": [0, 0, 0, 0, 0, 0, 0, 0, 0, 0, 0, 0, 0, 0, 0, 0, 0, 0, 0, 0, 0, 0, 0, 0, 0, 0, 0, 0, 0, 0, 0, 0, 0, 0, 0, 0, 0, 0, 0, 0, 0, 0, 0, 0, 0, 0, 0, 0, 0, 0, 0, 0, 0, 0, 0, 0, 0, 0, 0, 0, 0, 0, 0, 0, 0, 0, 0, 0, 0, 0, 0, 0, 0, 0, 0, 0, 0, 0, 0, 0, 0, 0, 0, 0, 0, 0, 0, 0, 0, 0, 0, 0, 0, 0, 0, 0, 0, 0, 0, 0, 0, 0, 0, 0, 0, 0, 0, 0, 0, 0, 0, 0, 0, 0, 0, 0, 0, 0, 0, 0, 0, 0, 0, 0, 0, 0, 0, 0, 0, 0, 0, 0, 0, 0, 0, 0, 0, 0, 0, 0, 0, 0, 0, 0, 0, 0, 0, 0, 0, 0, 0, 0, 0, 0, 0, 0, 0, 0, 0, 0, 0, 0, 0, 0, 0, 0, 0, 0, 0, 0, 0, 0, 0, 0, 0, 0, 0, 0, 0, 0, 0, 0, 0, 0, 0, 0, 0, 0, 0, 0, 0, 0, 0, 0, 0, 0, 0, 0, 0, 0, 0, 0, 0, 0, 0, 0, 0, 0, 0, 0, 0, 0, 0, 0, 0, 0, 0, 0, 0, 0, 0, 0, 0, 0, 0, 0, 0, 0, 0, 0, 0, 0, 0, 0, 0, 0, 0, 0, 0, 0, 0, 0, 0, 0, 0, 0, 0, 0, 0, 0, 0, 0, 0, 0, 0, 0, 0, 0, 0, 0, 0, 0, 0, 0, 0, 0, 0, 0, 0, 0, 0, 0, 0, 0, 0, 0, 0, 0, 0, 0, 0, 0, 0, 0, 0, 0, 0, 0, 0, 0, 0, 0, 0, 0, 0, 0, 0, 0, 0, 0, 0, 0, 0, 0, 0, 0, 0, 0, 0, 0, 0, 0, 0, 0, 0, 0, 0, 0, 0, 0, 0, 0, 0, 0, 0, 0, 0, 0, 0, 0, 0, 0, 0, 0, 0, 0, 0, 0, 0, 0, 0, 0, 0, 0, 0, 0, 0, 0, 0, 0, 0, 0, 0, 0, 0, 0, 0, 0, 0, 0, 0, 0, 0, 0, 0, 0, 0, 0, 0, 0, 0, 0, 0, 0, 0, 0, 0, 0, 0, 0, 0, 0, 0, 0, 0, 0, 0, 0, 0, 0, 0, 0, 0, 0, 0, 0, 0, 0, 0, 0, 0, 0, 0, 0, 0, 0, 0, 0, 0, 0, 0, 0, 0, 0, 0, 0, 0, 0, 0, 0, 0, 0, 0, 0, 0, 0, 0, 0, 0, 0, 0, 0, 0, 0, 0, 0, 0, 0, 0, 0, 0, 0, 0, 0, 0, 0, 0, 0, 0, 0, 0, 0, 0, 0, 0, 0, 0, 0, 0, 0, 0, 0, 0, 0, 0, 0, 0, 0, 0, 0, 0, 0, 0, 0, 0, 0, 0, 0, 0, 0, 0, 0, 0, 0, 0, 0, 0, 0, 0, 0, 0, 0, 0, 0, 0, 0, 0, 0, 0, 0, 0, 0, 0, 0, 0, 0, 0, 0, 0, 0], "trees": [{"base_weights": [-1.9930183, -1.0588236, -0.0063242773, 0.0038017416, -0.0054310593], "categories": [], "categories_nodes": [], "categories_segments": [], "categories_sizes": [], "default_left": [0, 0, 0, 0, 0], "id": 0, "left_children": [1, 3, -1, -1, -1], "loss_changes": [3.4648438, 14.642017, 0.0, 0.0, 0.0], "parents": [2147483647, 0, 0, 1, 1], "right_children": [2, 4, -1, -1, -1], "split_conditions": [-1.8198367, -1.6854643, -0.0063242773, 0.0038017416, -0.0054310593], "split_indices": [11, 6, 0, 0, 0], "split_type": [0, 0, 0, 0, 0], "sum_hessian": [1861.0, 7.5, 1853.5, 1.5, 6.0], "tree_param": {"num_deleted": "0", "num_feature": "29", "num_nodes": "5", "size_leaf_vector": "0"}}, {"base_weights": [-1.9912473, -0.93333334, -0.002323723, -0.0014830773, -0.0], "categories": [], "categories_nodes": [], "categories_segments": [], "categories_sizes": [], "default_left": [0, 0, 0, 0, 0], "id": 1, "left_children": [1, 3, -1, -1, -1], "loss_changes": [0.23754883, 1.1878788, 0.0, 0.0, 0.0], "parents": [2147483647, 0, 0, 1, 1], "right_children": [2, 4, -1, -1, -1], "split_conditions": [-2.4413621, 0.3658282, -0.002323723, -0.0014830773, -0.0], "split_indices": [9, 1, 0, 0, 0], "split_type": [0, 0, 0, 0, 0], "sum_hessian": [684.5, 2.75, 681.75, 1.75, 1.0], "tree_param": {"num_deleted": "0", "num_feature": "29", "num_nodes": "5", "size_leaf_vector": "0"}}, {"base_weights": [-1.9930834, -0.61904764, -0.0172118, -1.7857143, 1.5, -0.015900435, -0.0043063676, 0.01467355, 0.0019139411], "categories": [], "categories_nodes": [], "categories_segments": [], "categories_sizes": [], "default_left": [0, 0, 0, 0, 0, 0, 0, 0, 0], "id": 2, "left_children": [1, 3, -1, 5, 7, -1, -1, -1, -1], "loss_changes": [35.816406, 54.595238, 0.0, 0.16483688, 1.7037029, 0.0, 0.0, 0.0, 0.0], "parents": [2147483647, 0, 0, 1, 1, 3, 3, 4, 4], "right_children": [2, 4, -1, 6, 8, -1, -1, -1, -1], "split_conditions": [-1.9076201, 1.4425006, -0.0172118, -0.04143021, 0.88570327, -0.015900435, -0.0043063676, 0.01467355, 0.0019139411], "split_indices": [11, 3, 0, 1, 19, 0, 0, 0, 0], "split_type": [0, 0, 0, 0, 0, 0, 0, 0, 0], "sum_hessian": [5059.25, 20.0, 5039.25, 13.0, 7.0, 12.0, 1.0, 5.75, 1.25], "tree_param": {"num_deleted": "0", "num_feature": "29", "num_nodes": "9", "size_leaf_vector": "0"}}, {"base_weights": [-1.9950558, -1.0319635, -0.046794746, 1.5, -1.8562875, 1.6923077, -0.011705949, -0.0456532, 0.004256709, 0.042468093, 0.7692308, 0.026013222, -0.0], "categories": [], "categories_nodes": [], "categories_segments": [], "categories_sizes": [], "default_left": [0, 0, 0, 0, 0, 0, 0, 0, 0, 0, 0, 0, 0], "id": 3, "left_children": [1, 3, -1, 5, 7, 9, -1, -1, -1, -1, 11, -1, -1], "loss_changes": [46.984375, 117.056335, 0.0, 6.23077, 8.328644, 0.06439972, 0.0, 0.0, 0.0, 0.0, 0.8547008, 0.0, 0.0], "parents": [2147483647, 0, 0, 1, 1, 3, 3, 4, 4, 5, 5, 10, 10], "right_children": [2, 4, -1, 6, 8, 10, -1, -1, -1, -1, 12, -1, -1], "split_conditions": [-3.5795255, -2.1448512, -0.046794746, 0.84852815, 1.9006305, 0.2842349, -0.011705949, -0.0456532, 0.004256709, 0.042468093, 1.5456078, 0.026013222, -0.0], "split_indices": [13, 9, 0, 15, 3, 23, 0, 0, 0, 0, 1, 0, 0], "split_type": [0, 0, 0, 0, 0, 0, 0, 0, 0, 0, 0, 0, 0], "sum_hessian": [13752.5, 53.75, 13698.75, 13.0, 40.75, 12.0, 1.0, 39.0, 1.75, 9.75, 2.25, 1.25, 1.0], "tree_param": {"num_deleted": "0", "num_feature": "29", "num_nodes": "13", "size_leaf_vector": "0"}}, {"base_weights": [-1.9937943, -0.7482993, -0.1271985, 1.6170213, -1.8415842, 1.7555555, -0.06364197, 0.05091358, -1.8894472, 0.11947511, 0.47619048, -1.9261214, -0.95652175, 0.06853751, -0.33333334, -0.031820986, -0.12321086, 0.031820986, -0.08708902, -0.06364197, 0.031820986], "categories": [], "categories_nodes": [], "categories_segments": [], "categories_sizes": [], "default_left": [0, 0, 0, 0, 0, 0, 0, 0, 0, 0, 0, 0, 0, 0, 0, 0, 0, 0, 0, 0, 0], "id": 4, "left_children": [1, 3, -1, 5, 7, 9, -1, -1, 11, -1, 13, 15, 17, -1, 19, -1, -1, -1, -1, -1, -1], "loss_changes": [224.9375, 383.11536, 0.0, 18.795273, 14.281433, 6.115082, 0.0, 0.0, 1.5619202, 0.0, 2.9120882, 0.3668518, 4.1338677, 0.0, 2.1666667, 0.0, 0.0, 0.0, 0.0, 0.0, 0.0], "parents": [2147483647, 0, 0, 1, 1, 3, 3, 4, 4, 5, 5, 8, 8, 10, 10, 11, 11, 12, 12, 14, 14], "right_children": [2, 4, -1, 6, 8, 10, -1, -1, 12, -1, 14, 16, 18, -1, 20, -1, -1, -1, -1, -1, -1], "split_conditions": [-3.371298, -2.4504738, -0.1271985, 1.0239905, -2.287355, -3.3815567, -0.06364197, 0.05091358, 0.36053914, 0.11947511, 0.47598672, -3.0469804, -1.8355397, 0.06853751, 0.07661212, -0.031820986, -0.12321086, 0.031820986, -0.08708902, -0.06364197, 0.031820986], "split_indices": [13, 11, 0, 6, 6, 2, 0, 0, 20, 0, 20, 5, 8, 0, 22, 0, 0, 0, 0, 0, 0], "split_type": [0, 0, 0, 0, 0, 0, 0, 0, 0, 0, 0, 0, 0, 0, 0, 0, 0, 0, 0, 0, 0], "sum_hessian": [37384.25, 146.0, 37238.25, 46.0, 100.0, 44.0, 2.0, 1.5, 98.5, 39.75, 4.25, 93.75, 4.75, 2.25, 2.0, 1.0, 92.75, 1.0, 3.75, 1.0, 1.0], "tree_param": {"num_deleted": "0", "num_feature": "29", "num_nodes": "21", "size_leaf_vector": "0"}}, {"base_weights": [-1.8136319, -0.679754, -0.11570561, 1.4896961, -1.6846654, 1.619226, -0.059953894, 0.030362029, -1.738993, 0.1103029, 0.43050036, -0.031187447, -0.11178862, 0.06516729, -0.022628997], "categories": [], "categories_nodes": [], "categories_segments": [], "categories_sizes": [], "default_left": [0, 0, 0, 0, 0, 0, 0, 0, 0, 0, 0, 0, 0, 0, 0], "id": 5, "left_children": [1, 3, -1, 5, 7, 9, -1, -1, 11, -1, 13, -1, -1, -1, -1], "loss_changes": [185.07031, 320.69006, 0.0, 16.245651, 12.598999, 5.31398, 0.0, 0.0, 1.2842407, 0.0, 2.8104136, 0.0, 0.0, 0.0, 0.0], "parents": [2147483647, 0, 0, 1, 1, 3, 3, 4, 4, 5, 5, 8, 8, 10, 10], "right_children": [2, 4, -1, 6, 8, 10, -1, -1, 12, -1, 14, -1, -1, -1, -1], "split_conditions": [-3.371298, -2.4504738, -0.11570561, 1.0239905, -1.6612539, -3.3815567, -0.059953894, 0.030362029, -2.6037543, 0.1103029, 0.47598672, -0.031187447, -0.11178862, 0.06516729, -0.022628997], "split_indices": [13, 11, 0, 6, 6, 2, 0, 0, 9, 0, 20, 0, 0, 0, 0], "split_type": [0, 0, 0, 0, 0, 0, 0, 0, 0, 0, 0, 0, 0, 0, 0], "sum_hessian": [37016.227, 144.9473, 36871.28, 45.733418, 99.213875, 43.7378, 1.9956154, 2.2414963, 96.972374, 39.49386, 4.2439413, 1.7430553, 95.229324, 2.2457762, 1.9981654], "tree_param": {"num_deleted": "0", "num_feature": "29", "num_nodes": "15", "size_leaf_vector": "0"}}, {"base_weights": [-1.8141714, -0.9164745, -0.042554237, 1.433238, -1.6859097, 1.603148, -0.003938128, -0.04164845, 0.00643184, 0.04031999, 0.01697867], "categories": [], "categories_nodes": [], "categories_segments": [], "categories_sizes": [], "default_left": [0, 0, 0, 0, 0, 0, 0, 0, 0, 0, 0], "id": 6, "left_children": [1, 3, -1, 5, 7, 9, -1, -1, -1, -1, -1], "loss_changes": [40.64453, 100.62773, 0.0, 4.0629597, 8.036919, 0.0782814, 0.0, 0.0, 0.0, 0.0, 0.0], "parents": [2147483647, 0, 0, 1, 1, 3, 3, 4, 4, 5, 5], "right_children": [2, 4, -1, 6, 8, 10, -1, -1, -1, -1, -1], "split_conditions": [-3.5795255, -2.1448512, -0.042554237, 0.823373, 1.9006305, 0.2842349, -0.003938128, -0.04164845, 0.00643184, 0.04031999, 0.01697867], "split_indices": [13, 9, 0, 15, 3, 23, 0, 0, 0, 0, 0], "split_type": [0, 0, 0, 0, 0, 0, 0, 0, 0, 0, 0], "sum_hessian": [13616.226, 53.32193, 13562.904, 12.940704, 40.381226, 11.698463, 1.2422408, 38.64037, 1.7408571, 9.454696, 2.2437677], "tree_param": {"num_deleted": "0", "num_feature": "29", "num_nodes": "11", "size_leaf_vector": "0"}}, {"base_weights": [-1.8120807, -0.9249623, -0.005750679, 0.0038266038, -0.00493989], "categories": [], "categories_nodes": [], "categories_segments": [], "categories_sizes": [], "default_left": [0, 0, 0, 0, 0], "id": 7, "left_children": [1, 3, -1, -1, -1], "loss_changes": [3.3764648, 13.301825, 0.0, 0.0, 0.0], "parents": [2147483647, 0, 0, 1, 1], "right_children": [2, 4, -1, -1, -1], "split_conditions": [-1.4902478, -1.6854643, -0.005750679, 0.0038266038, -0.00493989], "split_indices": [16, 6, 0, 0, 0], "split_type": [0, 0, 0, 0, 0], "sum_hessian": [1842.5627, 7.4405303, 1835.1222, 1.4982778, 5.9422526], "tree_param": {"num_deleted": "0", "num_feature": "29", "num_nodes": "5", "size_leaf_vector": "0"}}, {"base_weights": [-1.8104931, -0.8297913, -0.0021129001, -0.00020204688, -0.0012674307], "categories": [], "categories_nodes": [], "categories_segments": [], "categories_sizes": [], "default_left": [0, 0, 0, 0, 0], "id": 8, "left_children": [1, 3, -1, -1, -1], "loss_changes": [0.31054688, 0.44208455, 0.0, 0.0, 0.0], "parents": [2147483647, 0, 0, 1, 1], "right_children": [2, 4, -1, -1, -1], "split_conditions": [-2.4413621, -0.65948886, -0.0021129001, -0.00020204688, -0.0012674307], "split_indices": [9, 2, 0, 0, 0], "split_type": [0, 0, 0, 0, 0], "sum_hessian": [677.71497, 2.7258573, 674.9891, 1.2405394, 1.4853177], "tree_param": {"num_deleted": "0", "num_feature": "29", "num_nodes": "5", "size_leaf_vector": "0"}}, {"base_weights": [-1.8123593, -0.5363954, -0.015652133, -0.013980695, 1.4253147, 0.014034972, 0.0015316737], "categories": [], "categories_nodes": [], "categories_segments": [], "categories_sizes": [], "default_left": [0, 0, 0, 0, 0, 0, 0], "id": 9, "left_children": [1, 3, -1, -1, 5, -1, -1], "loss_changes": [30.765625, 46.744892, 0.0, 0.0, 1.7388325, 0.0, 0.0], "parents": [2147483647, 0, 0, 1, 1, 4, 4], "right_children": [2, 4, -1, -1, 6, -1, -1], "split_conditions": [-1.9076201, 1.4425006, -0.015652133, -0.013980695, 0.88570327, 0.014034972, 0.0015316737], "split_indices": [11, 3, 0, 0, 19, 0, 0], "split_type": [0, 0, 0, 0, 0, 0, 0], "sum_hessian": [5009.127, 19.83909, 4989.2876, 12.877171, 6.9619203, 5.71924, 1.2426797], "tree_param": {"num_deleted": "0", "num_feature": "29", "num_nodes": "7", "size_leaf_vector": "0"}}, {"base_weights": [-1.748256, -0.5117506, -0.015098807, -0.013484779, 1.3819909, 0.013637632, 0.0013978662], "categories": [], "categories_nodes": [], "categories_segments": [], "categories_sizes": [], "default_left": [0, 0, 0, 0, 0, 0, 0], "id": 10, "left_children": [1, 3, -1, -1, 5, -1, -1], "loss_changes": [28.694336, 43.459606, 0.0, 0.0, 1.6910782, 0.0, 0.0], "parents": [2147483647, 0, 0, 1, 1, 4, 4], "right_children": [2, 4, -1, -1, 6, -1, -1], "split_conditions": [-1.9076201, 1.4425006, -0.015098807, -0.013484779, 0.88570327, 0.013637632, 0.0013978662], "split_indices": [11, 3, 0, 0, 19, 0, 0], "split_type": [0, 0, 0, 0, 0, 0, 0], "sum_hessian": [4960.4077, 19.690672, 4940.7173, 12.761641, 6.929032, 5.690934, 1.2380975], "tree_param": {"num_deleted": "0", "num_feature": "29", "num_nodes": "7", "size_leaf_vector": "0"}}, {"base_weights": [-1.6779296, -0.6271321, -0.10705037, 1.3831418, -1.5625796, 1.5059519, -0.0567719, 0.02974272, -1.6147145, 0.10275354, 0.39196312, -0.029350532, -0.10380517, 0.06208196, -0.02344927], "categories": [], "categories_nodes": [], "categories_segments": [], "categories_sizes": [], "default_left": [0, 0, 0, 0, 0, 0, 0, 0, 0, 0, 0, 0, 0, 0, 0], "id": 11, "left_children": [1, 3, -1, 5, 7, 9, -1, -1, 11, -1, 13, -1, -1, -1, -1], "loss_changes": [155.91406, 271.4461, 0.0, 14.197861, 11.146423, 4.6929398, 0.0, 0.0, 1.0593414, 0.0, 2.6805394, 0.0, 0.0, 0.0, 0.0], "parents": [2147483647, 0, 0, 1, 1, 3, 3, 4, 4, 5, 5, 8, 8, 10, 10], "right_children": [2, 4, -1, 6, 8, 10, -1, -1, 12, -1, 14, -1, -1, -1, -1], "split_conditions": [-3.371298, -2.4504738, -0.10705037, 1.0239905, -1.6612539, -3.3815567, -0.0567719, 0.02974272, -2.6037543, 0.10275354, 0.47598672, -0.029350532, -0.10380517, 0.06208196, -0.02344927], "split_indices": [13, 11, 0, 6, 6, 2, 0, 0, 9, 0, 20, 0, 0, 0, 0], "split_type": [0, 0, 0, 0, 0, 0, 0, 0, 0, 0, 0, 0, 0, 0, 0], "sum_hessian": [36063.36, 142.19809, 35921.16, 45.00465, 97.193436, 43.020588, 1.9840611, 2.2343082, 94.95913, 38.78959, 4.230997, 1.736586, 93.22254, 2.23392, 1.9970769], "tree_param": {"num_deleted": "0", "num_feature": "29", "num_nodes": "15", "size_leaf_vector": "0"}}, {"base_weights": [-1.7300043, -0.86672145, -0.04058085, 1.3753017, -1.6060195, 1.5374064, -0.0035715268, -0.039732356, 0.006591756, 0.7087015, 0.03907445, 0.023538535, 0.002205522], "categories": [], "categories_nodes": [], "categories_segments": [], "categories_sizes": [], "default_left": [0, 0, 0, 0, 0, 0, 0, 0, 0, 0, 0, 0, 0], "id": 12, "left_children": [1, 3, -1, 5, 7, 9, -1, -1, -1, 11, -1, -1, -1], "loss_changes": [37.214844, 91.29472, 0.0, 3.6689014, 7.506027, 0.19414139, 0.0, 0.0, 0.0, 0.53764296, 0.0, 0.0, 0.0], "parents": [2147483647, 0, 0, 1, 1, 3, 3, 4, 4, 5, 5, 9, 9], "right_children": [2, 4, -1, 6, 8, 10, -1, -1, -1, 12, -1, -1, -1], "split_conditions": [-3.5795255, -2.1448512, -0.04058085, 0.823373, 1.9006305, -2.7245605, -0.0035715268, -0.039732356, 0.006591756, -0.15545015, 0.03907445, 0.023538535, 0.002205522], "split_indices": [13, 9, 0, 15, 3, 8, 0, 0, 0, 19, 0, 0, 0], "split_type": [0, 0, 0, 0, 0, 0, 0, 0, 0, 0, 0, 0, 0], "sum_hessian": [13430.786, 52.746433, 13378.04, 12.866555, 39.87988, 11.626711, 1.2398435, 38.140392, 1.7394838, 2.4682856, 9.158426, 1.2355517, 1.2327337], "tree_param": {"num_deleted": "0", "num_feature": "29", "num_nodes": "13", "size_leaf_vector": "0"}}, {"base_weights": [-1.7553946, -0.8866353, -0.0055709276, 0.0037708767, -0.004784024], "categories": [], "categories_nodes": [], "categories_segments": [], "categories_sizes": [], "default_left": [0, 0, 0, 0, 0], "id": 13, "left_children": [1, 3, -1, -1, -1], "loss_changes": [3.2685547, 12.662188, 0.0, 0.0, 0.0], "parents": [2147483647, 0, 0, 1, 1], "right_children": [2, 4, -1, -1, -1], "split_conditions": [-1.8198367, -1.6854643, -0.0055709276, 0.0037708767, -0.004784024], "split_indices": [11, 6, 0, 0, 0], "split_type": [0, 0, 0, 0, 0], "sum_hessian": [1827.1208, 7.391322, 1819.7296, 1.4965079, 5.8948145], "tree_param": {"num_deleted": "0", "num_feature": "29", "num_nodes": "5", "size_leaf_vector": "0"}}, {"base_weights": [-1.7566235, -0.7997613, -0.0020500612, -0.00018740042, -0.0012273857], "categories": [], "categories_nodes": [], "categories_segments": [], "categories_sizes": [], "default_left": [0, 0, 0, 0, 0], "id": 14, "left_children": [1, 3, -1, -1, -1], "loss_changes": [0.3137207, 0.43122602, 0.0, 0.0, 0.0], "parents": [2147483647, 0, 0, 1, 1], "right_children": [2, 4, -1, -1, -1], "split_conditions": [-2.4413621, 0.5672715, -0.0020500612, -0.00018740042, -0.0012273857], "split_indices": [9, 5, 0, 0, 0], "split_type": [0, 0, 0, 0, 0], "sum_hessian": [672.3611, 2.7075925, 669.6535, 1.2334654, 1.4741272], "tree_param": {"num_deleted": "0", "num_feature": "29", "num_nodes": "5", "size_leaf_vector": "0"}}, {"base_weights": [-1.6421827, -0.79607624, -0.005212148, 0.0037323174, -0.004461229], "categories": [], "categories_nodes": [], "categories_segments": [], "categories_sizes": [], "default_left": [0, 0, 0, 0, 0], "id": 15, "left_children": [1, 3, -1, -1, -1], "loss_changes": [3.2104492, 11.602074, 0.0, 0.0, 0.0], "parents": [2147483647, 0, 0, 1, 1], "right_children": [2, 4, -1, -1, -1], "split_conditions": [-1.8198367, -1.6854643, -0.005212148, 0.0037323174, -0.004461229], "split_indices": [11, 6, 0, 0, 0], "split_type": [0, 0, 0, 0, 0], "sum_hessian": [1776.7148, 7.228617, 1769.4862, 1.4919466, 5.7366705], "tree_param": {"num_deleted": "0", "num_feature": "29", "num_nodes": "5", "size_leaf_vector": "0"}}, {"base_weights": [-1.6454028, -0.73076034, -0.0019203599, -0.00014836228, -0.001139361], "categories": [], "categories_nodes": [], "categories_segments": [], "categories_sizes": [], "default_left": [0, 0, 0, 0, 0], "id": 16, "left_children": [1, 3, -1, -1, -1], "loss_changes": [0.34594727, 0.41873682, 0.0, 0.0, 0.0], "parents": [2147483647, 0, 0, 1, 1], "right_children": [2, 4, -1, -1, -1], "split_conditions": [-1.7843223, 0.4068808, -0.0019203599, -0.00014836228, -0.001139361], "split_indices": [11, 2, 0, 0, 0], "split_type": [0, 0, 0, 0, 0], "sum_hessian": [654.47424, 2.6445682, 651.82965, 1.2082329, 1.4363352], "tree_param": {"num_deleted": "0", "num_feature": "29", "num_nodes": "5", "size_leaf_vector": "0"}}, {"base_weights": [-1.630238, -0.45066836, -0.014080752, -0.012534626, 1.3264205, 0.013137305, 0.0011841034], "categories": [], "categories_nodes": [], "categories_segments": [], "categories_sizes": [], "default_left": [0, 0, 0, 0, 0, 0, 0], "id": 17, "left_children": [1, 3, -1, -1, 5, -1, -1], "loss_changes": [25.581055, 38.03367, 0.0, 0.0, 1.6412096, 0.0, 0.0], "parents": [2147483647, 0, 0, 1, 1, 4, 4], "right_children": [2, 4, -1, -1, 6, -1, -1], "split_conditions": [-1.9076201, 1.4425006, -0.014080752, -0.012534626, 0.88570327, 0.013137305, 0.0011841034], "split_indices": [11, 3, 0, 0, 19, 0, 0], "split_type": [0, 0, 0, 0, 0, 0, 0], "sum_hessian": [4809.787, 19.221092, 4790.566, 12.394697, 6.826396, 5.6056137, 1.2207824], "tree_param": {"num_deleted": "0", "num_feature": "29", "num_nodes": "7", "size_leaf_vector": "0"}}, {"base_weights": [-1.5204808, -0.560037, -1.5243279, 1.2482027, -1.4111524, -1.3549182, -0.097035125, 1.3626158, -0.051627293, 0.044447545, -1.4528733, 0.67645633, -1.4824005, 1.4661078, 0.34364957, -0.09473803, -0.618034, 1.409125, -0.057734836, -0.030564569, -0.095083065, 1.5132326, 0.7345428, -0.032062273, 0.8167396, 0.023329463, -0.06272463, 0.0056721186, 0.11939057, 0.098020226, 0.03225077, -0.0055217724, 0.06809354, 0.0077246013, 0.07077565], "categories": [], "categories_nodes": [], "categories_segments": [], "categories_sizes": [], "default_left": [0, 0, 0, 0, 0, 0, 0, 0, 0, 0, 0, 0, 0, 0, 0, 0, 0, 0, 0, 0, 0, 0, 0, 0, 0, 0, 0, 0, 0, 0, 0, 0, 0, 0, 0], "id": 18, "left_children": [1, 3, 5, 7, 9, 11, -1, 13, -1, -1, 15, 17, 19, 21, 23, -1, 25, 27, -1, -1, -1, 29, 31, -1, 33, -1, -1, -1, -1, -1, -1, -1, -1, -1, -1], "loss_changes": [123.96094, 211.59344, 0.0703125, 11.5119705, 9.215271, 22.59021, 0.0, 3.9479218, 0.0, 0.0, 1.8155212, 7.78656, 0.20036316, 0.19906616, 2.495588, 0.0, 2.3422132, 2.4373913, 0.0, 0.0, 0.0, 0.16268158, 1.2619185, 0.0, 0.628515, 0.0, 0.0, 0.0, 0.0, 0.0, 0.0, 0.0, 0.0, 0.0, 0.0], "parents": [2147483647, 0, 0, 1, 1, 2, 2, 3, 3, 4, 4, 5, 5, 7, 7, 10, 10, 11, 11, 12, 12, 13, 13, 14, 14, 16, 16, 17, 17, 21, 21, 22, 22, 24, 24], "right_children": [2, 4, 6, 8, 10, 12, -1, 14, -1, -1, 16, 18, 20, 22, 24, -1, 26, 28, -1, -1, -1, 30, 32, -1, 34, -1, -1, -1, -1, -1, -1, -1, -1, -1, -1], "split_conditions": [-3.371298, -2.4504738, -1.6188716, 1.0239905, -2.287355, -3.1514113, -0.097035125, -3.3815567, -0.051627293, 0.044447545, 0.36053914, -1.4412483, -2.4504738, 1.557637, -0.33092004, -0.09473803, -0.33581793, -0.12415086, -0.057734836, -0.030564569, -0.095083065, -3.7620974, -0.06040292, -0.032062273, -1.7779944, 0.023329463, -0.06272463, 0.0056721186, 0.11939057, 0.098020226, 0.03225077, -0.0055217724, 0.06809354, 0.0077246013, 0.07077565], "split_indices": [13, 11, 16, 6, 6, 11, 0, 2, 0, 0, 20, 9, 11, 12, 28, 0, 28, 19, 0, 0, 0, 2, 26, 0, 8, 0, 0, 0, 0, 0, 0, 0, 0, 0, 0], "split_type": [0, 0, 0, 0, 0, 0, 0, 0, 0, 0, 0, 0, 0, 0, 0, 0, 0, 0, 0, 0, 0, 0, 0, 0, 0, 0, 0, 0, 0, 0, 0, 0, 0, 0, 0], "sum_hessian": [33776.207, 135.34126, 33640.863, 43.166084, 92.17518, 82.360725, 33558.504, 41.214706, 1.9513783, 1.4823611, 90.69282, 4.6091776, 77.75155, 37.016304, 4.1984015, 86.219055, 4.473763, 3.2265942, 1.3825833, 1.3771901, 76.37436, 33.772324, 3.2439785, 1.4808595, 2.7175422, 1.2168076, 3.2569554, 1.1541554, 2.0724387, 32.37518, 1.3971443, 1.1555923, 2.0883863, 1.2307844, 1.4867578], "tree_param": {"num_deleted": "0", "num_feature": "29", "num_nodes": "35", "size_leaf_vector": "0"}}, {"base_weights": [-1.5994526, -0.77651656, -0.037521377, 1.3081621, -1.4778725, 1.4570099, -0.0026332184, -0.036761973, 0.008096697, 0.037598692, 0.6541079, 0.022408484, 0.00060497643], "categories": [], "categories_nodes": [], "categories_segments": [], "categories_sizes": [], "default_left": [0, 0, 0, 0, 0, 0, 0, 0, 0, 0, 0, 0, 0], "id": 19, "left_children": [1, 3, -1, 5, 7, 9, -1, -1, -1, -1, 11, -1, -1], "loss_changes": [32.878906, 78.149025, 0.0, 3.0509262, 7.1915665, 0.43609238, 0.0, 0.0, 0.0, 0.0, 0.66681004, 0.0, 0.0], "parents": [2147483647, 0, 0, 1, 1, 3, 3, 4, 4, 5, 5, 10, 10], "right_children": [2, 4, -1, 6, 8, 10, -1, -1, -1, -1, 12, -1, -1], "split_conditions": [-3.5795255, -2.1448512, -0.037521377, 0.823373, 1.9006305, 0.76791936, -0.0026332184, -0.036761973, 0.008096697, 0.037598692, -8.717339, 0.022408484, 0.00060497643], "split_indices": [13, 9, 0, 15, 3, 27, 0, 0, 0, 0, 0, 0, 0], "split_type": [0, 0, 0, 0, 0, 0, 0, 0, 0, 0, 0, 0, 0], "sum_hessian": [12914.676, 51.12751, 12863.548, 12.653029, 38.47448, 11.429856, 1.2231734, 36.75232, 1.7221634, 8.797528, 2.6323278, 1.4226692, 1.2096586], "tree_param": {"num_deleted": "0", "num_feature": "29", "num_nodes": "13", "size_leaf_vector": "0"}}, {"base_weights": [-1.4959236, -0.7005782, -0.03509598, 1.0146208, -0.034502033, 1.4510628, -0.55520266, 0.037696082, 0.580147, 0.008541842, -0.024234515, 0.02079898, -0.00041650728], "categories": [], "categories_nodes": [], "categories_segments": [], "categories_sizes": [], "default_left": [0, 0, 0, 0, 0, 0, 0, 0, 0, 0, 0, 0, 0], "id": 20, "left_children": [1, 3, -1, 5, -1, 7, 9, -1, 11, -1, -1, -1, -1], "loss_changes": [29.519531, 67.80932, 0.0, 11.856827, 0.0, 0.85261154, 2.246442, 0.0, 0.67105174, 0.0, 0.0, 0.0, 0.0], "parents": [2147483647, 0, 0, 1, 1, 3, 3, 5, 5, 6, 6, 8, 8], "right_children": [2, 4, -1, 6, -1, 8, 10, -1, 12, -1, -1, -1, -1], "split_conditions": [-3.5795255, -1.7944183, -0.03509598, 0.97490937, -0.034502033, 0.76791936, 1.4387041, 0.037696082, -8.717339, 0.008541842, -0.024234515, 0.02079898, -0.00041650728], "split_indices": [13, 9, 0, 4, 0, 27, 1, 0, 0, 0, 0, 0, 0], "split_type": [0, 0, 0, 0, 0, 0, 0, 0, 0, 0, 0, 0, 0], "sum_hessian": [12229.061, 49.008663, 12180.052, 15.129901, 33.878765, 11.897744, 3.232157, 9.34265, 2.5550938, 1.1902294, 2.0419276, 1.3654293, 1.1896646], "tree_param": {"num_deleted": "0", "num_feature": "29", "num_nodes": "13", "size_leaf_vector": "0"}}, {"base_weights": [-1.5485628, -0.7306881, -0.0049153524, 0.0035881503, -0.0042029694], "categories": [], "categories_nodes": [], "categories_segments": [], "categories_sizes": [], "default_left": [0, 0, 0, 0, 0], "id": 21, "left_children": [1, 3, -1, -1, -1], "loss_changes": [2.9819336, 10.408985, 0.0, 0.0, 0.0], "parents": [2147483647, 0, 0, 1, 1], "right_children": [2, 4, -1, -1, -1], "split_conditions": [-1.8198367, -1.6854643, -0.0049153524, 0.0035881503, -0.0042029694], "split_indices": [11, 6, 0, 0, 0], "split_type": [0, 0, 0, 0, 0], "sum_hessian": [1709.0332, 7.0207314, 1702.0125, 1.4831628, 5.5375686], "tree_param": {"num_deleted": "0", "num_feature": "29", "num_nodes": "5", "size_leaf_vector": "0"}}, {"base_weights": [-1.5529702, -0.66748995, -0.0018125988, -0.0010583751, -0.00011265528], "categories": [], "categories_nodes": [], "categories_segments": [], "categories_sizes": [], "default_left": [0, 0, 0, 0, 0], "id": 22, "left_children": [1, 3, -1, -1, -1], "loss_changes": [0.38256836, 0.4012879, 0.0, 0.0, 0.0], "parents": [2147483647, 0, 0, 1, 1], "right_children": [2, 4, -1, -1, -1], "split_conditions": [-2.4413621, -0.21419863, -0.0018125988, -0.0010583751, -0.00011265528], "split_indices": [9, 10, 0, 0, 0], "split_type": [0, 0, 0, 0, 0], "sum_hessian": [630.443, 2.55872, 627.8843, 1.3838369, 1.1748832], "tree_param": {"num_deleted": "0", "num_feature": "29", "num_nodes": "5", "size_leaf_vector": "0"}}, {"base_weights": [-1.5337536, -0.40552264, -0.01324845, -0.011760181, 1.2585762, 0.012618436, 0.00067926705], "categories": [], "categories_nodes": [], "categories_segments": [], "categories_sizes": [], "default_left": [0, 0, 0, 0, 0, 0, 0], "id": 23, "left_children": [1, 3, -1, -1, 5, -1, -1], "loss_changes": [22.703125, 33.0456, 0.0, 0.0, 1.7590551, 0.0, 0.0], "parents": [2147483647, 0, 0, 1, 1, 4, 4], "right_children": [2, 4, -1, -1, 6, -1, -1], "split_conditions": [-1.9076201, 1.4425006, -0.01324845, -0.011760181, 0.88570327, 0.012618436, 0.00067926705], "split_indices": [11, 3, 0, 0, 19, 0, 0], "split_type": [0, 0, 0, 0, 0, 0, 0], "sum_hessian": [4607.923, 18.611315, 4589.3115, 11.9167385, 6.6945763, 5.491373, 1.2032032], "tree_param": {"num_deleted": "0", "num_feature": "29", "num_nodes": "7", "size_leaf_vector": "0"}}, {"base_weights": [-1.4054096, -0.51075494, -1.4090676, 1.1336048, -1.2942972, -1.2383798, -0.08970017, 1.2429402, -0.047555536, 0.027950227, -1.3441796, 0.49540406, -0.08781208, 1.345451, 0.29747772, -0.51896083, -1.3720593, 0.090750426, -0.5918417, 1.3911833, 0.65944827, 0.055394366, -0.026253657, -0.06050631, 0.008704142, -0.7126635, -0.08870649, 0.0056425915, -0.0591465, 0.09019999, 0.029120713, 0.06433947, -0.009725703, -0.066397674, 0.012255154], "categories": [], "categories_nodes": [], "categories_segments": [], "categories_sizes": [], "default_left": [0, 0, 0, 0, 0, 0, 0, 0, 0, 0, 0, 0, 0, 0, 0, 0, 0, 0, 0, 0, 0, 0, 0, 0, 0, 0, 0, 0, 0, 0, 0, 0, 0, 0, 0], "id": 24, "left_children": [1, 3, 5, 7, 9, 11, -1, 13, -1, -1, 15, 17, -1, 19, 21, 23, 25, -1, 27, 29, 31, -1, -1, -1, -1, 33, -1, -1, -1, -1, -1, -1, -1, -1, -1], "loss_changes": [100.296875, 165.43008, 0.26171875, 9.483994, 8.083481, 19.534668, 0.0, 3.4467354, 0.0, 0.0, 1.2315369, 7.454691, 0.0, 0.1971283, 2.460678, 1.3670257, 0.17137146, 0.0, 0.9368285, 0.14170074, 1.3312749, 0.0, 0.0, 0.0, 0.0, 1.5894489, 0.0, 0.0, 0.0, 0.0, 0.0, 0.0, 0.0, 0.0, 0.0], "parents": [2147483647, 0, 0, 1, 1, 2, 2, 3, 3, 4, 4, 5, 5, 7, 7, 10, 10, 11, 11, 13, 13, 14, 14, 15, 15, 16, 16, 18, 18, 19, 19, 20, 20, 25, 25], "right_children": [2, 4, 6, 8, 10, 12, -1, 14, -1, -1, 16, 18, -1, 20, 22, 24, 26, -1, 28, 30, 32, -1, -1, -1, -1, 34, -1, -1, -1, -1, -1, -1, -1, -1, -1], "split_conditions": [-3.371298, -2.4504738, -1.6188716, 1.0239905, -1.6612539, -2.5516953, -0.08970017, -3.3815567, -0.047555536, 0.027950227, -0.33629578, 0.08354268, -0.08781208, 1.557637, 0.47598672, 0.13802859, -1.3344228, 0.090750426, -1.5798343, -3.7620974, -0.10355986, 0.055394366, -0.026253657, -0.06050631, 0.008704142, 1.7256349, -0.08870649, 0.0056425915, -0.0591465, 0.09019999, 0.029120713, 0.06433947, -0.009725703, -0.066397674, 0.012255154], "split_indices": [13, 11, 16, 6, 6, 11, 0, 2, 0, 0, 28, 27, 0, 12, 20, 25, 14, 0, 8, 2, 24, 0, 0, 0, 0, 0, 0, 0, 0, 0, 0, 0, 0, 0, 0], "split_type": [0, 0, 0, 0, 0, 0, 0, 0, 0, 0, 0, 0, 0, 0, 0, 0, 0, 0, 0, 0, 0, 0, 0, 0, 0, 0, 0, 0, 0, 0, 0, 0, 0, 0, 0], "sum_hessian": [30863.928, 126.25833, 30737.668, 40.602413, 85.65592, 75.89261, 30661.775, 38.692337, 1.9100738, 2.1775925, 83.478325, 5.5340776, 70.358536, 34.52585, 4.1664906, 3.369115, 80.10921, 2.814061, 2.7200165, 31.40433, 3.1215193, 2.180791, 1.9856994, 1.7602091, 1.6089061, 3.6392949, 76.46992, 1.1462628, 1.5737537, 30.045635, 1.3586937, 2.0079556, 1.1135639, 2.5539355, 1.0853593], "tree_param": {"num_deleted": "0", "num_feature": "29", "num_nodes": "35", "size_leaf_vector": "0"}}, {"base_weights": [-1.3312645, -0.471637, -1.3348463, 1.0553764, -1.2100332, -1.161747, -0.08497715, 1.1450092, -0.061411683, 0.02594458, -1.2601551, 0.5748269, -1.2928908, 1.2322075, -0.031337153, -0.4742073, -1.2882395, 1.1928031, -0.05345934, -0.027001714, -0.08298813, 0.8363682, 0.08553782, -0.056842472, 0.0086828265, -0.65390265, -0.08337421, 0.0032110622, 0.10113273, -0.07385463, 1.1787703, -0.063425876, 0.015341097, 0.061734606, -0.07161426, 0.08107257, 0.017827725], "categories": [], "categories_nodes": [], "categories_segments": [], "categories_sizes": [], "default_left": [0, 0, 0, 0, 0, 0, 0, 0, 0, 0, 0, 0, 0, 0, 0, 0, 0, 0, 0, 0, 0, 0, 0, 0, 0, 0, 0, 0, 0, 0, 0, 0, 0, 0, 0, 0, 0], "id": 25, "left_children": [1, 3, 5, 7, 9, 11, -1, 13, -1, -1, 15, 17, 19, 21, -1, 23, 25, 27, -1, -1, -1, 29, -1, -1, -1, 31, -1, -1, -1, 33, 35, -1, -1, -1, -1, -1, -1], "loss_changes": [86.13672, 134.8616, 0.3515625, 8.194496, 7.026558, 16.908493, 0.0, 6.0243874, 0.0, 0.0, 1.114212, 5.9648695, 0.08565521, 0.48340225, 0.0, 1.2165272, 0.17932129, 1.8953333, 0.0, 0.0, 0.0, 3.4052243, 0.0, 0.0, 0.0, 1.6159631, 0.0, 0.0, 0.0, 5.318535, 0.3094616, 0.0, 0.0, 0.0, 0.0, 0.0, 0.0], "parents": [2147483647, 0, 0, 1, 1, 2, 2, 3, 3, 4, 4, 5, 5, 7, 7, 10, 10, 11, 11, 12, 12, 13, 13, 15, 15, 16, 16, 17, 17, 21, 21, 25, 25, 29, 29, 30, 30], "right_children": [2, 4, 6, 8, 10, 12, -1, 14, -1, -1, 16, 18, 20, 22, -1, 24, 26, 28, -1, -1, -1, 30, -1, -1, -1, 32, -1, -1, -1, 34, 36, -1, -1, -1, -1, -1, -1], "split_conditions": [-3.371298, -2.4504738, -1.6188716, 1.8811939, -1.6612539, -3.1514113, -0.08497715, -2.148996, -0.061411683, 0.02594458, -0.33629578, -1.4412483, -2.4504738, 2.9581912, -0.031337153, -0.038730837, -1.3344228, -0.26565027, -0.05345934, -0.027001714, -0.08298813, -0.33092004, 0.08553782, -0.056842472, 0.0086828265, 0.102357484, -0.08337421, 0.0032110622, 0.10113273, 0.2625669, 0.52251464, -0.063425876, 0.015341097, 0.061734606, -0.07161426, 0.08107257, 0.017827725], "split_indices": [13, 11, 16, 15, 6, 11, 0, 2, 0, 0, 28, 9, 11, 3, 0, 20, 14, 25, 0, 0, 0, 28, 0, 0, 0, 25, 0, 0, 0, 21, 0, 0, 0, 0, 0, 0, 0], "split_type": [0, 0, 0, 0, 0, 0, 0, 0, 0, 0, 0, 0, 0, 0, 0, 0, 0, 0, 0, 0, 0, 0, 0, 0, 0, 0, 0, 0, 0, 0, 0, 0, 0, 0, 0, 0, 0], "sum_hessian": [28178.908, 117.47425, 28061.434, 38.15008, 79.324165, 69.98112, 27991.453, 36.94429, 1.2057914, 2.1694958, 77.15467, 4.676246, 65.30487, 35.31129, 1.6329998, 3.2789137, 73.875755, 3.3638797, 1.3123664, 1.3184125, 63.986458, 9.646678, 25.664612, 1.6702865, 1.6086272, 3.48554, 70.39021, 1.1567388, 2.207141, 2.8512847, 6.7953935, 2.4382796, 1.0472603, 1.4696059, 1.3816788, 5.767395, 1.0279984], "tree_param": {"num_deleted": "0", "num_feature": "29", "num_nodes": "37", "size_leaf_vector": "0"}}, {"base_weights": [-1.4284712, -0.65587926, -0.033516023, 1.0044614, -0.03319018, 1.4176602, -0.49926358, 0.037115946, 0.51969224, 0.009307377, -0.023101099, 0.0195772, -0.00133633], "categories": [], "categories_nodes": [], "categories_segments": [], "categories_sizes": [], "default_left": [0, 0, 0, 0, 0, 0, 0, 0, 0, 0, 0, 0, 0], "id": 26, "left_children": [1, 3, -1, 5, -1, 7, 9, -1, 11, -1, -1, -1, -1], "loss_changes": [26.93164, 62.58569, 0.0, 10.521052, 0.0, 1.0808716, 2.203845, 0.0, 0.68269587, 0.0, 0.0, 0.0, 0.0], "parents": [2147483647, 0, 0, 1, 1, 3, 3, 5, 5, 6, 6, 8, 8], "right_children": [2, 4, -1, 6, -1, 8, 10, -1, 12, -1, -1, -1, -1], "split_conditions": [-3.5795255, -1.7944183, -0.033516023, 0.97490937, -0.03319018, 0.76791936, 1.4387041, 0.037115946, -8.717339, 0.009307377, -0.023101099, 0.0195772, -0.00133633], "split_indices": [13, 9, 0, 4, 0, 27, 1, 0, 0, 0, 0, 0, 0], "split_type": [0, 0, 0, 0, 0, 0, 0, 0, 0, 0, 0, 0, 0], "sum_hessian": [11601.42, 47.356037, 11554.064, 14.793783, 32.562256, 11.649836, 3.1439478, 9.171652, 2.4781833, 1.1720692, 1.9718786, 1.3096688, 1.1685146], "tree_param": {"num_deleted": "0", "num_feature": "29", "num_nodes": "13", "size_leaf_vector": "0"}}, {"base_weights": [-1.4883187, -0.6721068, -0.0047246334, 0.0035965068, -0.0040271296], "categories": [], "categories_nodes": [], "categories_segments": [], "categories_sizes": [], "default_left": [0, 0, 0, 0, 0], "id": 27, "left_children": [1, 3, -1, -1, -1], "loss_changes": [3.0217285, 9.928888, 0.0, 0.0, 0.0], "parents": [2147483647, 0, 0, 1, 1], "right_children": [2, 4, -1, -1, -1], "split_conditions": [-3.449334, -1.6854643, -0.0047246334, 0.0035965068, -0.0040271296], "split_indices": [13, 6, 0, 0, 0], "split_type": [0, 0, 0, 0, 0], "sum_hessian": [1649.1154, 6.8380284, 1642.2772, 1.479429, 5.3585997], "tree_param": {"num_deleted": "0", "num_feature": "29", "num_nodes": "5", "size_leaf_vector": "0"}}, {"base_weights": [-1.4937567, -0.62167126, -0.0017435983, -8.111462e-05, -0.0010047089], "categories": [], "categories_nodes": [], "categories_segments": [], "categories_sizes": [], "default_left": [0, 0, 0, 0, 0], "id": 28, "left_children": [1, 3, -1, -1, -1], "loss_changes": [0.42236328, 0.40261376, 0.0, 0.0, 0.0], "parents": [2147483647, 0, 0, 1, 1], "right_children": [2, 4, -1, -1, -1], "split_conditions": [-2.4413621, -0.72993135, -0.0017435983, -8.111462e-05, -0.0010047089], "split_indices": [9, 13, 0, 0, 0], "split_type": [0, 0, 0, 0, 0], "sum_hessian": [609.3038, 2.483915, 606.8198, 1.145118, 1.3387971], "tree_param": {"num_deleted": "0", "num_feature": "29", "num_nodes": "5", "size_leaf_vector": "0"}}, {"base_weights": [-1.4713874, -0.37293094, -0.012710722, -1.3085407, 1.222466, -0.011731575, -0.0034994949, 0.012336279, 0.00044038825], "categories": [], "categories_nodes": [], "categories_segments": [], "categories_sizes": [], "default_left": [0, 0, 0, 0, 0, 0, 0, 0, 0], "id": 29, "left_children": [1, 3, -1, 5, 7, -1, -1, -1, -1], "loss_changes": [20.939453, 30.075672, 0.0, 0.051195145, 1.7874002, 0.0, 0.0, 0.0, 0.0], "parents": [2147483647, 0, 0, 1, 1, 3, 3, 4, 4], "right_children": [2, 4, -1, 6, 8, -1, -1, -1, -1], "split_conditions": [-1.9076201, 1.4425006, -0.012710722, -0.54517686, 0.88570327, -0.011731575, -0.0034994949, 0.012336279, 0.00044038825], "split_indices": [11, 3, 0, 12, 19, 0, 0, 0, 0], "split_type": [0, 0, 0, 0, 0, 0, 0, 0, 0], "sum_hessian": [4427.0776, 18.077253, 4409.0005, 11.508168, 6.569085, 10.381902, 1.1262665, 5.3819914, 1.1870936], "tree_param": {"num_deleted": "0", "num_feature": "29", "num_nodes": "9", "size_leaf_vector": "0"}}, {"base_weights": [-1.4411719, -0.36025706, -0.01245009, -1.2790598, 1.192973, -0.003343153, -0.011476789, 0.0120653855, 0.00038675606], "categories": [], "categories_nodes": [], "categories_segments": [], "categories_sizes": [], "default_left": [0, 0, 0, 0, 0, 0, 0, 0, 0], "id": 30, "left_children": [1, 3, -1, 5, 7, -1, -1, -1, -1], "loss_changes": [19.910156, 28.281384, 0.0, 0.06696892, 1.7238293, 0.0, 0.0, 0.0, 0.0], "parents": [2147483647, 0, 0, 1, 1, 3, 3, 4, 4], "right_children": [2, 4, -1, 6, 8, -1, -1, -1, -1], "split_conditions": [-1.9076201, 1.4425006, -0.01245009, -0.106317654, 0.88570327, -0.003343153, -0.011476789, 0.0120653855, 0.00038675606], "split_indices": [11, 3, 0, 14, 19, 0, 0, 0, 0], "split_type": [0, 0, 0, 0, 0, 0, 0, 0, 0], "sum_hessian": [4321.9556, 17.748001, 4304.2075, 11.262351, 6.4856505, 1.1054116, 10.156939, 5.3047976, 1.180853], "tree_param": {"num_deleted": "0", "num_feature": "29", "num_nodes": "9", "size_leaf_vector": "0"}}, {"base_weights": [-1.2880715, -0.44527915, -1.2916386, 1.006857, -1.1577713, -1.1115757, -0.08222856, 1.0964303, -0.059330296, 0.025582163, -1.2089976, 0.57711065, -1.2475189, 1.1839714, -0.030633016, -0.42957544, -1.2382373, 1.1644241, -0.051363736, -0.024926927, -0.08013899, 0.78874624, 0.08266549, -0.054569807, 0.010731974, -0.6033338, -1.2609686, 0.0039117574, 0.097895004, -0.08995603, 1.1290385, 0.016812896, -0.06053018, -0.081057906, -0.028138027, 0.059944868, -0.06996156, 0.077982366, 0.015950836], "categories": [], "categories_nodes": [], "categories_segments": [], "categories_sizes": [], "default_left": [0, 0, 0, 0, 0, 0, 0, 0, 0, 0, 0, 0, 0, 0, 0, 0, 0, 0, 0, 0, 0, 0, 0, 0, 0, 0, 0, 0, 0, 0, 0, 0, 0, 0, 0, 0, 0, 0, 0], "id": 31, "left_children": [1, 3, 5, 7, 9, 11, -1, 13, -1, -1, 15, 17, 19, 21, -1, 23, 25, 27, -1, -1, -1, 29, -1, -1, -1, 31, 33, -1, -1, 35, 37, -1, -1, -1, -1, -1, -1, -1, -1], "loss_changes": [78.30078, 117.15363, 0.49609375, 7.5242233, 6.5320435, 16.008217, 0.0, 5.575493, 0.0, 0.0, 1.1434555, 5.52925, 0.12697601, 0.54845047, 0.0, 1.2168814, 0.25416565, 1.7083478, 0.0, 0.0, 0.0, 3.1955476, 0.0, 0.0, 0.0, 1.5631032, 0.13261414, 0.0, 0.0, 5.0084853, 0.3300066, 0.0, 0.0, 0.0, 0.0, 0.0, 0.0, 0.0, 0.0], "parents": [2147483647, 0, 0, 1, 1, 2, 2, 3, 3, 4, 4, 5, 5, 7, 7, 10, 10, 11, 11, 12, 12, 13, 13, 15, 15, 16, 16, 17, 17, 21, 21, 25, 25, 26, 26, 29, 29, 30, 30], "right_children": [2, 4, 6, 8, 10, 12, -1, 14, -1, -1, 16, 18, 20, 22, -1, 24, 26, 28, -1, -1, -1, 30, -1, -1, -1, 32, 34, -1, -1, 36, 38, -1, -1, -1, -1, -1, -1, -1, -1], "split_conditions": [-3.371298, -2.4504738, -1.6188716, 1.8811939, -1.6612539, -3.1514113, -0.08222856, -2.148996, -0.059330296, 0.025582163, -0.33629578, -1.4412483, -2.4504738, 2.9581912, -0.030633016, 0.13802859, -1.3344228, -0.63812536, -0.051363736, -0.024926927, -0.08013899, -0.33092004, 0.08266549, -0.054569807, 0.010731974, -1.861052, 0.9116359, 0.0039117574, 0.097895004, 0.2625669, 0.5560536, 0.016812896, -0.06053018, -0.081057906, -0.028138027, 0.059944868, -0.06996156, 0.077982366, 0.015950836], "split_indices": [13, 11, 16, 15, 6, 11, 0, 2, 0, 0, 28, 9, 11, 3, 0, 25, 14, 5, 0, 0, 0, 28, 0, 0, 0, 18, 20, 0, 0, 21, 19, 0, 0, 0, 0, 0, 0, 0, 0], "split_type": [0, 0, 0, 0, 0, 0, 0, 0, 0, 0, 0, 0, 0, 0, 0, 0, 0, 0, 0, 0, 0, 0, 0, 0, 0, 0, 0, 0, 0, 0, 0, 0, 0, 0, 0, 0, 0, 0, 0], "sum_hessian": [26236.023, 111.10508, 26124.92, 36.434494, 74.670586, 65.59656, 26059.322, 35.24117, 1.1933262, 2.1566885, 72.5139, 4.6454577, 60.9511, 33.62509, 1.616077, 3.1893337, 69.32457, 3.373034, 1.2724237, 1.2867602, 59.66434, 9.347232, 24.277859, 1.6067299, 1.5826038, 3.3482225, 65.97634, 1.1485112, 2.224523, 2.8147187, 6.532513, 1.0269254, 2.3212972, 64.422806, 1.5535413, 1.4248688, 1.3898498, 5.5312314, 1.0012817], "tree_param": {"num_deleted": "0", "num_feature": "29", "num_nodes": "39", "size_leaf_vector": "0"}}, {"base_weights": [-1.392677, -0.6304035, -0.03267764, 0.97515345, -0.032307938, 1.3735384, -0.47559628, 0.03598771, 0.49964422, 0.0092489, -0.022451336, 0.019071016, -0.0014809954], "categories": [], "categories_nodes": [], "categories_segments": [], "categories_sizes": [], "default_left": [0, 0, 0, 0, 0, 0, 0, 0, 0, 0, 0, 0, 0], "id": 32, "left_children": [1, 3, -1, 5, -1, 7, 9, -1, 11, -1, -1, -1, -1], "loss_changes": [25.52539, 58.006714, 0.0, 9.652316, 0.0, 1.0154171, 2.1032166, 0.0, 0.6629035, 0.0, 0.0, 0.0, 0.0], "parents": [2147483647, 0, 0, 1, 1, 3, 3, 5, 5, 6, 6, 8, 8], "right_children": [2, 4, -1, 6, -1, 8, 10, -1, 12, -1, -1, -1, -1], "split_conditions": [-3.5795255, -1.7944183, -0.03267764, 0.97490937, -0.032307938, 0.76791936, 1.4387041, 0.03598771, -8.717339, 0.0092489, -0.022451336, 0.019071016, -0.0014809954], "split_indices": [13, 9, 0, 4, 0, 27, 1, 0, 0, 0, 0, 0, 0], "split_type": [0, 0, 0, 0, 0, 0, 0, 0, 0, 0, 0, 0, 0], "sum_hessian": [11195.423, 46.080715, 11149.342, 14.570481, 31.510235, 11.473114, 3.0973675, 9.024513, 2.4486003, 1.1709654, 1.9264022, 1.2834148, 1.1651855], "tree_param": {"num_deleted": "0", "num_feature": "29", "num_nodes": "13", "size_leaf_vector": "0"}}, {"base_weights": [-1.4606282, -0.6504325, -0.0046368884, 0.00353914, -0.0039423043], "categories": [], "categories_nodes": [], "categories_segments": [], "categories_sizes": [], "default_left": [0, 0, 0, 0, 0], "id": 33, "left_children": [1, 3, -1, -1, -1], "loss_changes": [2.9550781, 9.505283, 0.0, 0.0, 0.0], "parents": [2147483647, 0, 0, 1, 1], "right_children": [2, 4, -1, -1, -1], "split_conditions": [-3.449334, -1.6854643, -0.0046368884, 0.00353914, -0.0039423043], "split_indices": [13, 6, 0, 0, 0], "split_type": [0, 0, 0, 0, 0], "sum_hessian": [1616.317, 6.730172, 1609.5868, 1.4711589, 5.259013], "tree_param": {"num_deleted": "0", "num_feature": "29", "num_nodes": "5", "size_leaf_vector": "0"}}, {"base_weights": [-1.4671098, -0.6034617, -0.001712532, -7.232073e-05, -0.0009798292], "categories": [], "categories_nodes": [], "categories_segments": [], "categories_sizes": [], "default_left": [0, 0, 0, 0, 0], "id": 34, "left_children": [1, 3, -1, -1, -1], "loss_changes": [0.42089844, 0.39056158, 0.0, 0.0, 0.0], "parents": [2147483647, 0, 0, 1, 1], "right_children": [2, 4, -1, -1, -1], "split_conditions": [-2.4413621, 0.21490003, -0.001712532, -7.232073e-05, -0.0009798292], "split_indices": [9, 11, 0, 0, 0], "split_type": [0, 0, 0, 0, 0], "sum_hessian": [598.0224, 2.444833, 595.5776, 1.1297594, 1.3150736], "tree_param": {"num_deleted": "0", "num_feature": "29", "num_nodes": "5", "size_leaf_vector": "0"}}, {"base_weights": [-1.4051048, -0.5910589, -0.0044612153, 0.0035209777, -0.0037655614], "categories": [], "categories_nodes": [], "categories_segments": [], "categories_sizes": [], "default_left": [0, 0, 0, 0, 0], "id": 35, "left_children": [1, 3, -1, -1, -1], "loss_changes": [2.9973145, 8.93058, 0.0, 0.0, 0.0], "parents": [2147483647, 0, 0, 1, 1], "right_children": [2, 4, -1, -1, -1], "split_conditions": [-3.449334, -1.6854643, -0.0044612153, 0.0035209777, -0.0037655614], "split_indices": [13, 6, 0, 0, 0], "split_type": [0, 0, 0, 0, 0], "sum_hessian": [1539.0354, 6.4806366, 1532.5547, 1.4602263, 5.0204105], "tree_param": {"num_deleted": "0", "num_feature": "29", "num_nodes": "5", "size_leaf_vector": "0"}}, {"base_weights": [-1.411952, -0.55939126, -0.0016482639, -4.512223e-05, -0.00092511537], "categories": [], "categories_nodes": [], "categories_segments": [], "categories_sizes": [], "default_left": [0, 0, 0, 0, 0], "id": 36, "left_children": [1, 3, -1, -1, -1], "loss_changes": [0.4432373, 0.37797928, 0.0, 0.0, 0.0], "parents": [2147483647, 0, 0, 1, 1], "right_children": [2, 4, -1, -1, -1], "split_conditions": [-2.4413621, -0.11736423, -0.0016482639, -4.512223e-05, -0.00092511537], "split_indices": [9, 16, 0, 0, 0], "split_type": [0, 0, 0, 0, 0], "sum_hessian": [570.61743, 2.3473468, 568.2701, 1.0907519, 1.2565948], "tree_param": {"num_deleted": "0", "num_feature": "29", "num_nodes": "5", "size_leaf_vector": "0"}}, {"base_weights": [-1.3852197, -0.33021346, -0.011967758, -1.222734, 1.146791, -0.010993792, -0.00302319, 0.011720693, 3.2664757e-05], "categories": [], "categories_nodes": [], "categories_segments": [], "categories_sizes": [], "default_left": [0, 0, 0, 0, 0, 0, 0, 0, 0], "id": 37, "left_children": [1, 3, -1, 5, 7, -1, -1, -1, -1], "loss_changes": [18.205078, 25.146896, 0.0, 0.10042, 1.7811222, 0.0, 0.0, 0.0, 0.0], "parents": [2147483647, 0, 0, 1, 1, 3, 3, 4, 4], "right_children": [2, 4, -1, 6, 8, -1, -1, -1, -1], "split_conditions": [-1.9076201, 1.4425006, -0.011967758, 0.09004941, 0.88570327, -0.010993792, -0.00302319, 0.011720693, 3.2664757e-05], "split_indices": [11, 3, 0, 27, 19, 0, 0, 0, 0], "split_type": [0, 0, 0, 0, 0, 0, 0, 0, 0], "sum_hessian": [4091.8616, 17.012178, 4074.8494, 10.71157, 6.3006077, 9.652399, 1.059171, 5.146205, 1.154403], "tree_param": {"num_deleted": "0", "num_feature": "29", "num_nodes": "9", "size_leaf_vector": "0"}}, {"base_weights": [-1.2338513, -0.4135543, -1.2374122, 0.9393418, -1.0896313, -1.0464618, -0.07877946, 1.0281222, -0.0554412, 0.023884995, -1.1424466, 0.44169927, -0.0765651, 1.1162721, -0.02862839, -1.1878734, -0.5173802, 1.195557, -0.5138925, 0.7226707, 0.07869296, -0.016451126, -1.1998346, -0.8775552, 0.034678124, 0.08873991, 0.025528379, -0.053811215, 0.007920675, 0.93377155, -0.029301582, -0.49167284, -1.2277455, -0.061807316, -0.017822677, 0.07166065, -0.017275257, -0.054795686, 0.018966317, -0.079141885, -0.031758457], "categories": [], "categories_nodes": [], "categories_segments": [], "categories_sizes": [], "default_left": [0, 0, 0, 0, 0, 0, 0, 0, 0, 0, 0, 0, 0, 0, 0, 0, 0, 0, 0, 0, 0, 0, 0, 0, 0, 0, 0, 0, 0, 0, 0, 0, 0, 0, 0, 0, 0, 0, 0, 0, 0], "id": 38, "left_children": [1, 3, 5, 7, 9, 11, -1, 13, -1, -1, 15, 17, -1, 19, -1, 21, 23, 25, 27, 29, -1, -1, 31, 33, -1, -1, -1, -1, -1, 35, -1, 37, 39, -1, -1, -1, -1, -1, -1, -1, -1], "loss_changes": [67.59375, 94.57658, 0.6640625, 6.4600525, 5.7413025, 14.520004, 0.0, 4.8612175, 0.0, 0.0, 1.2742615, 5.258342, 0.0, 0.61416245, 0.0, 0.37065125, 2.8803668, 0.057312965, 0.8551322, 2.8928542, 0.0, 0.0, 0.5860214, 0.011729717, 0.0, 0.0, 0.0, 0.0, 0.0, 2.3208838, 0.0, 1.4087045, 0.038635254, 0.0, 0.0, 0.0, 0.0, 0.0, 0.0, 0.0, 0.0], "parents": [2147483647, 0, 0, 1, 1, 2, 2, 3, 3, 4, 4, 5, 5, 7, 7, 10, 10, 11, 11, 13, 13, 15, 15, 16, 16, 17, 17, 18, 18, 19, 19, 22, 22, 23, 23, 29, 29, 31, 31, 32, 32], "right_children": [2, 4, 6, 8, 10, 12, -1, 14, -1, -1, 16, 18, -1, 20, -1, 22, 24, 26, 28, 30, -1, -1, 32, 34, -1, -1, -1, -1, -1, 36, -1, 38, 40, -1, -1, -1, -1, -1, -1, -1, -1], "split_conditions": [-3.371298, -2.4504738, -1.6188716, 1.8811939, -1.6612539, -2.5516953, -0.07877946, -2.148996, -0.0554412, 0.023884995, 0.19264135, 0.08354268, -0.0765651, 2.9581912, -0.02862839, -2.6037543, 2.9581912, -4.0860596, -2.148996, 1.4953154, 0.07869296, -0.016451126, -1.3344228, 0.13079102, 0.034678124, 0.08873991, 0.025528379, -0.053811215, 0.007920675, 1.2490288, -0.029301582, -0.014472556, 0.7740268, -0.061807316, -0.017822677, 0.07166065, -0.017275257, -0.054795686, 0.018966317, -0.079141885, -0.031758457], "split_indices": [13, 11, 16, 15, 6, 11, 0, 2, 0, 0, 20, 27, 0, 3, 0, 9, 3, 2, 2, 18, 0, 0, 14, 7, 0, 0, 0, 0, 0, 12, 0, 26, 23, 0, 0, 0, 0, 0, 0, 0, 0], "split_type": [0, 0, 0, 0, 0, 0, 0, 0, 0, 0, 0, 0, 0, 0, 0, 0, 0, 0, 0, 0, 0, 0, 0, 0, 0, 0, 0, 0, 0, 0, 0, 0, 0, 0, 0, 0, 0, 0, 0, 0, 0], "sum_hessian": [23315.684, 101.28155, 23214.402, 33.618416, 67.66314, 59.025867, 23155.377, 32.458862, 1.1595521, 2.142096, 65.52104, 5.446531, 53.579334, 30.86283, 1.5960331, 60.242516, 5.278525, 2.904265, 2.5422657, 8.861598, 22.001232, 1.0527824, 59.18973, 4.0718217, 1.2067032, 1.7189385, 1.1853266, 1.4594756, 1.08279, 7.6986394, 1.1629591, 2.9502892, 56.239445, 2.9796119, 1.0922098, 6.696341, 1.0022984, 1.9486371, 1.0016522, 54.35426, 1.8851851], "tree_param": {"num_deleted": "0", "num_feature": "29", "num_nodes": "41", "size_leaf_vector": "0"}}, {"base_weights": [-1.335926, -0.59378713, -0.031348825, 0.9475731, -0.0311413, 1.3233429, -0.42765674, 0.41302118, 0.03470075, 0.009670057, -0.021415498, 0.019173305, -0.00476767], "categories": [], "categories_nodes": [], "categories_segments": [], "categories_sizes": [], "default_left": [0, 0, 0, 0, 0, 0, 0, 0, 0, 0, 0, 0, 0], "id": 39, "left_children": [1, 3, -1, 5, -1, 7, 9, 11, -1, -1, -1, -1, -1], "loss_changes": [23.09375, 52.324593, 0.0, 8.384101, 0.0, 1.1412716, 2.0167465, 0.96478164, 0.0, 0.0, 0.0, 0.0, 0.0], "parents": [2147483647, 0, 0, 1, 1, 3, 3, 5, 5, 6, 6, 7, 7], "right_children": [2, 4, -1, 6, -1, 8, 10, 12, -1, -1, -1, -1, -1], "split_conditions": [-3.5795255, -1.7944183, -0.031348825, 0.97490937, -0.0311413, -2.7245605, 1.4387041, 2.0097823, 0.03470075, 0.009670057, -0.021415498, 0.019173305, -0.00476767], "split_indices": [13, 9, 0, 4, 0, 8, 1, 18, 0, 0, 0, 0, 0], "split_type": [0, 0, 0, 0, 0, 0, 0, 0, 0, 0, 0, 0, 0], "sum_hessian": [10428.181, 43.990543, 10384.19, 14.128909, 29.861635, 11.126435, 3.0024738, 2.187881, 8.938554, 1.1571652, 1.8453085, 1.121551, 1.0663301], "tree_param": {"num_deleted": "0", "num_feature": "29", "num_nodes": "13", "size_leaf_vector": "0"}}, {"base_weights": [-1.2868106, -0.54284734, -0.030200487, 0.9343003, -0.029861685, 1.2833138, -0.3645125, 0.034181762, 0.37038398, 0.0103888465, -0.020186227, 0.016642487, -0.0034964727], "categories": [], "categories_nodes": [], "categories_segments": [], "categories_sizes": [], "default_left": [0, 0, 0, 0, 0, 0, 0, 0, 0, 0, 0, 0, 0], "id": 40, "left_children": [1, 3, -1, 5, -1, 7, 9, -1, 11, -1, -1, -1, -1], "loss_changes": [21.865234, 46.995785, 0.0, 7.090315, 0.0, 1.3525162, 1.940663, 0.0, 0.6800548, 0.0, 0.0, 0.0, 0.0], "parents": [2147483647, 0, 0, 1, 1, 3, 3, 5, 5, 6, 6, 8, 8], "right_children": [2, 4, -1, 6, -1, 8, 10, -1, 12, -1, -1, -1, -1], "split_conditions": [-3.5795255, -1.7944183, -0.030200487, 0.97490937, -0.029861685, 0.76791936, 1.4387041, 0.034181762, -8.717339, 0.0103888465, -0.020186227, 0.016642487, -0.0034964727], "split_indices": [13, 9, 0, 4, 0, 27, 1, 0, 0, 0, 0, 0, 0], "split_type": [0, 0, 0, 0, 0, 0, 0, 0, 0, 0, 0, 0, 0], "sum_hessian": [9620.235, 41.32403, 9578.912, 13.609502, 27.71453, 10.736383, 2.8731184, 8.493207, 2.2431762, 1.1362811, 1.7368373, 1.1331292, 1.1100469], "tree_param": {"num_deleted": "0", "num_feature": "29", "num_nodes": "13", "size_leaf_vector": "0"}}, {"base_weights": [-1.3552103, -0.53175855, -0.0043034656, 0.0035044814, -0.0035982647], "categories": [], "categories_nodes": [], "categories_segments": [], "categories_sizes": [], "default_left": [0, 0, 0, 0, 0], "id": 41, "left_children": [1, 3, -1, -1, -1], "loss_changes": [3.0603027, 8.380006, 0.0, 0.0, 0.0], "parents": [2147483647, 0, 0, 1, 1], "right_children": [2, 4, -1, -1, -1], "split_conditions": [-3.449334, -1.6854643, -0.0043034656, 0.0035044814, -0.0035982647], "split_indices": [13, 6, 0, 0, 0], "split_type": [0, 0, 0, 0, 0], "sum_hessian": [1454.3297, 6.2004433, 1448.1293, 1.4465138, 4.7539296], "tree_param": {"num_deleted": "0", "num_feature": "29", "num_nodes": "5", "size_leaf_vector": "0"}}, {"base_weights": [-1.3621639, -0.51568013, -0.0015902781, -1.7262897e-05, -0.0008720348], "categories": [], "categories_nodes": [], "categories_segments": [], "categories_sizes": [], "default_left": [0, 0, 0, 0, 0], "id": 42, "left_children": [1, 3, -1, -1, -1], "loss_changes": [0.46929932, 0.36645132, 0.0, 0.0, 0.0], "parents": [2147483647, 0, 0, 1, 1], "right_children": [2, 4, -1, -1, -1], "split_conditions": [-2.4413621, -1.0011787, -0.0015902781, -1.7262897e-05, -0.0008720348], "split_indices": [9, 12, 0, 0, 0], "split_type": [0, 0, 0, 0, 0], "sum_hessian": [540.448, 2.2396402, 538.2084, 1.0477796, 1.1918607], "tree_param": {"num_deleted": "0", "num_feature": "29", "num_nodes": "5", "size_leaf_vector": "0"}}, {"base_weights": [-1.3354595, -0.29919228, -0.011539162, -1.1727526, 1.1086658, -0.0027278054, -0.010568958, 0.011420065, -0.00021027114], "categories": [], "categories_nodes": [], "categories_segments": [], "categories_sizes": [], "default_left": [0, 0, 0, 0, 0, 0, 0, 0, 0], "id": 43, "left_children": [1, 3, -1, 5, 7, -1, -1, -1, -1], "loss_changes": [16.801758, 22.50409, 0.0, 0.1292324, 1.7842627, 0.0, 0.0, 0.0, 0.0], "parents": [2147483647, 0, 0, 1, 1, 3, 3, 4, 4], "right_children": [2, 4, -1, 6, 8, -1, -1, -1, -1], "split_conditions": [-1.9076201, 1.4425006, -0.011539162, -0.106317654, 0.88570327, -0.0027278054, -0.010568958, 0.011420065, -0.00021027114], "split_indices": [11, 3, 0, 14, 19, 0, 0, 0, 0], "split_type": [0, 0, 0, 0, 0, 0, 0, 0, 0], "sum_hessian": [3842.262, 16.241056, 3826.021, 10.125371, 6.1156855, 1.0123984, 9.112973, 4.988791, 1.1268945], "tree_param": {"num_deleted": "0", "num_feature": "29", "num_nodes": "9", "size_leaf_vector": "0"}}, {"base_weights": [-1.1897339, -0.3833521, -1.1933414, 0.8772294, -1.0287619, -0.98752713, -0.075977415, 0.96574056, -0.05222364, 0.0226595, -1.0840701, 0.4331996, -0.07349841, 1.055369, -0.027143216, -0.28599122, -1.1192389, 0.95012677, -0.051938973, 0.64943296, 0.07553245, 0.016476417, -0.048815217, -0.48910576, -1.1452863, -0.024984874, 0.09567085, -0.17108363, 1.0026709, 0.016469961, -0.053283073, -1.1602784, -0.021122614, 0.053474583, -0.06712357, 0.070301, 0.014290506, -0.6696109, -0.07606879, -0.061214667, 0.01971816], "categories": [], "categories_nodes": [], "categories_segments": [], "categories_sizes": [], "default_left": [0, 0, 0, 0, 0, 0, 0, 0, 0, 0, 0, 0, 0, 0, 0, 0, 0, 0, 0, 0, 0, 0, 0, 0, 0, 0, 0, 0, 0, 0, 0, 0, 0, 0, 0, 0, 0, 0, 0, 0, 0], "id": 44, "left_children": [1, 3, 5, 7, 9, 11, -1, 13, -1, -1, 15, 17, -1, 19, -1, 21, 23, 25, -1, 27, -1, -1, -1, 29, 31, -1, -1, 33, 35, -1, -1, 37, -1, -1, -1, -1, -1, 39, -1, -1, -1], "loss_changes": [59.103516, 76.290375, 0.8496094, 5.588764, 5.115036, 13.248226, 0.0, 4.2927914, 0.0, 0.0, 1.3532867, 4.893924, 0.0, 0.78858566, 0.0, 1.2102145, 0.37145996, 4.2836046, 0.0, 2.8834164, 0.0, 0.0, 0.0, 1.2577301, 0.2705078, 0.0, 0.0, 4.1658826, 0.28245878, 0.0, 0.0, 0.09887695, 0.0, 0.0, 0.0, 0.0, 0.0, 1.9468706, 0.0, 0.0, 0.0], "parents": [2147483647, 0, 0, 1, 1, 2, 2, 3, 3, 4, 4, 5, 5, 7, 7, 10, 10, 11, 11, 13, 13, 15, 15, 16, 16, 17, 17, 19, 19, 23, 23, 24, 24, 27, 27, 28, 28, 31, 31, 37, 37], "right_children": [2, 4, 6, 8, 10, 12, -1, 14, -1, -1, 16, 18, -1, 20, -1, 22, 24, 26, -1, 28, -1, -1, -1, 30, 32, -1, -1, 34, 36, -1, -1, 38, -1, -1, -1, -1, -1, 40, -1, -1, -1], "split_conditions": [-3.371298, -2.4504738, -1.6188716, 1.8811939, -1.6612539, -2.5516953, -0.075977415, -2.148996, -0.05222364, 0.0226595, -0.33629578, -1.4412483, -0.07349841, 2.9581912, -0.027143216, 1.6178727, -1.3344228, -1.5517905, -0.051938973, -0.33092004, 0.07553245, 0.016476417, -0.048815217, -0.7535227, 0.9116359, -0.024984874, 0.09567085, 0.2625669, -0.6684313, 0.016469961, -0.053283073, -0.07715178, -0.021122614, 0.053474583, -0.06712357, 0.070301, 0.014290506, -0.2788872, -0.07606879, -0.061214667, 0.01971816], "split_indices": [13, 11, 16, 15, 6, 11, 0, 2, 0, 0, 28, 9, 0, 3, 0, 17, 14, 5, 0, 28, 0, 0, 0, 12, 20, 0, 0, 21, 0, 0, 0, 6, 0, 0, 0, 0, 0, 6, 0, 0, 0], "split_type": [0, 0, 0, 0, 0, 0, 0, 0, 0, 0, 0, 0, 0, 0, 0, 0, 0, 0, 0, 0, 0, 0, 0, 0, 0, 0, 0, 0, 0, 0, 0, 0, 0, 0, 0, 0, 0, 0, 0, 0, 0], "sum_hessian": [20472.953, 91.660645, 20381.291, 30.916645, 60.744003, 52.618404, 20328.674, 29.794567, 1.1220771, 2.1240673, 58.619934, 5.3773537, 47.24105, 28.219818, 1.5747503, 2.8595984, 55.760338, 3.9729483, 1.4044056, 8.356538, 19.86328, 1.5573509, 1.3022474, 2.998516, 52.76182, 1.2438478, 2.7291005, 2.6700644, 5.6864734, 1.0339167, 1.9645994, 51.388176, 1.3736432, 1.2679565, 1.402108, 4.6566777, 1.0297955, 4.760393, 46.627785, 3.680224, 1.0801693], "tree_param": {"num_deleted": "0", "num_feature": "29", "num_nodes": "41", "size_leaf_vector": "0"}}, {"base_weights": [-1.1590489, -0.3631816, -1.162709, 0.82913077, -0.9831408, -0.9476873, -0.07402969, 0.91816545, -0.049785133, 0.033735365, -1.0310041, 0.35975292, -0.07158147, 1.0091159, -0.02514792, -1.0993906, -0.28010052, 0.9704146, -0.5715141, 0.6058803, 0.07296545, -0.45001605, -1.1293368, -0.6324276, 0.038764853, 0.08153285, 0.001869886, -0.04332479, -0.010633623, -0.16146442, 0.9510981, -0.051737525, 0.0156424, -0.07303409, -0.024203973, 0.011015662, -0.058376443, 0.050925247, -0.061645985, 0.067037106, 0.013223753], "categories": [], "categories_nodes": [], "categories_segments": [], "categories_sizes": [], "default_left": [0, 0, 0, 0, 0, 0, 0, 0, 0, 0, 0, 0, 0, 0, 0, 0, 0, 0, 0, 0, 0, 0, 0, 0, 0, 0, 0, 0, 0, 0, 0, 0, 0, 0, 0, 0, 0, 0, 0, 0, 0], "id": 45, "left_children": [1, 3, 5, 7, 9, 11, -1, 13, -1, -1, 15, 17, -1, 19, -1, 21, 23, 25, 27, 29, -1, 31, 33, 35, -1, -1, -1, -1, -1, 37, 39, -1, -1, -1, -1, -1, -1, -1, -1, -1, -1], "loss_changes": [52.61914, 63.506077, 0.89453125, 4.95858, 4.620968, 11.628506, 0.0, 3.799139, 0.0, 0.0, 2.509735, 4.2741036, 0.0, 0.7958622, 0.0, 0.46309662, 2.2405088, 1.2256975, 0.02850306, 2.5265512, 0.0, 1.175659, 0.20684052, 1.2444725, 0.0, 0.0, 0.0, 0.0, 0.0, 3.5962095, 0.2617426, 0.0, 0.0, 0.0, 0.0, 0.0, 0.0, 0.0, 0.0, 0.0, 0.0], "parents": [2147483647, 0, 0, 1, 1, 2, 2, 3, 3, 4, 4, 5, 5, 7, 7, 10, 10, 11, 11, 13, 13, 15, 15, 16, 16, 17, 17, 18, 18, 19, 19, 21, 21, 22, 22, 23, 23, 29, 29, 30, 30], "right_children": [2, 4, 6, 8, 10, 12, -1, 14, -1, -1, 16, 18, -1, 20, -1, 22, 24, 26, 28, 30, -1, 32, 34, 36, -1, -1, -1, -1, -1, 38, 40, -1, -1, -1, -1, -1, -1, -1, -1, -1, -1], "split_conditions": [-3.371298, -2.4504738, -1.6188716, 1.8811939, -2.287355, -1.4412483, -0.07402969, -2.148996, -0.049785133, 0.033735365, 0.19264135, -3.1514113, -0.07158147, 2.9581912, -0.02514792, -1.3344228, -0.19974662, 0.41294393, -0.096838385, -0.33092004, 0.07296545, 0.07343105, 0.7740268, 0.59461087, 0.038764853, 0.08153285, 0.001869886, -0.04332479, -0.010633623, 0.2625669, -0.6684313, -0.051737525, 0.0156424, -0.07303409, -0.024203973, 0.011015662, -0.058376443, 0.050925247, -0.061645985, 0.067037106, 0.013223753], "split_indices": [13, 11, 16, 15, 6, 9, 0, 2, 0, 0, 20, 11, 0, 3, 0, 14, 0, 24, 14, 28, 0, 25, 23, 15, 0, 0, 0, 0, 0, 21, 0, 0, 0, 0, 0, 0, 0, 0, 0, 0, 0], "split_type": [0, 0, 0, 0, 0, 0, 0, 0, 0, 0, 0, 0, 0, 0, 0, 0, 0, 0, 0, 0, 0, 0, 0, 0, 0, 0, 0, 0, 0, 0, 0, 0, 0, 0, 0, 0, 0, 0, 0, 0, 0], "sum_hessian": [18207.979, 83.81087, 18124.168, 28.555405, 55.25546, 47.48282, 18076.686, 27.467926, 1.0874784, 1.3852482, 53.870213, 5.540477, 41.94234, 25.905523, 1.562403, 48.94829, 4.9219193, 3.3208513, 2.2196257, 7.957999, 17.947525, 2.864306, 46.083984, 3.7319865, 1.1899328, 2.2248673, 1.095984, 1.2096256, 1.01, 2.634455, 5.323544, 1.7717869, 1.092519, 44.468956, 1.6150293, 1.0774057, 2.6545808, 1.2061425, 1.4283124, 4.31314, 1.0104043], "tree_param": {"num_deleted": "0", "num_feature": "29", "num_nodes": "41", "size_leaf_vector": "0"}}, {"base_weights": [-1.2528107, -0.53749245, -0.029404636, 0.9169567, -0.029474376, 1.2541814, -0.33479118, 0.033634037, 0.3213979, 0.011002844, -0.019738577, 0.015796024, -0.0043077255], "categories": [], "categories_nodes": [], "categories_segments": [], "categories_sizes": [], "default_left": [0, 0, 0, 0, 0, 0, 0, 0, 0, 0, 0, 0, 0], "id": 46, "left_children": [1, 3, -1, 5, -1, 7, 9, -1, 11, -1, -1, -1, -1], "loss_changes": [19.592773, 44.37138, 0.0, 6.4284935, 0.0, 1.4823952, 1.9548678, 0.0, 0.6878616, 0.0, 0.0, 0.0, 0.0], "parents": [2147483647, 0, 0, 1, 1, 3, 3, 5, 5, 6, 6, 8, 8], "right_children": [2, 4, -1, 6, -1, 8, 10, -1, 12, -1, -1, -1, -1], "split_conditions": [-3.5795255, -1.7944183, -0.029404636, 0.97490937, -0.029474376, 0.76791936, 1.4387041, 0.033634037, -8.717339, 0.011002844, -0.019738577, 0.015796024, -0.0043077255], "split_indices": [13, 9, 0, 4, 0, 27, 1, 0, 0, 0, 0, 0, 0], "split_type": [0, 0, 0, 0, 0, 0, 0, 0, 0, 0, 0, 0, 0], "sum_hessian": [8968.555, 40.18565, 8928.369, 13.234345, 26.951303, 10.424114, 2.8102314, 8.267045, 2.1570694, 1.1170837, 1.6931479, 1.072399, 1.0846704], "tree_param": {"num_deleted": "0", "num_feature": "29", "num_nodes": "13", "size_leaf_vector": "0"}}, {"base_weights": [-1.3211685, -0.48213652, -0.0041960254, 0.0035255013, -0.003479988], "categories": [], "categories_nodes": [], "categories_segments": [], "categories_sizes": [], "default_left": [0, 0, 0, 0, 0], "id": 47, "left_children": [1, 3, -1, -1, -1], "loss_changes": [3.1867676, 8.0888, 0.0, 0.0, 0.0], "parents": [2147483647, 0, 0, 1, 1], "right_children": [2, 4, -1, -1, -1], "split_conditions": [-3.449334, -1.6854643, -0.0041960254, 0.0035255013, -0.003479988], "split_indices": [13, 6, 0, 0, 0], "split_type": [0, 0, 0, 0, 0], "sum_hessian": [1386.9204, 5.9854183, 1380.9349, 1.4436802, 4.541738], "tree_param": {"num_deleted": "0", "num_feature": "29", "num_nodes": "5", "size_leaf_vector": "0"}}, {"base_weights": [-1.3283601, -0.4810389, -0.0015509449, 8.232734e-06, -0.0008337793], "categories": [], "categories_nodes": [], "categories_segments": [], "categories_sizes": [], "default_left": [0, 0, 0, 0, 0], "id": 48, "left_children": [1, 3, -1, -1, -1], "loss_changes": [0.5038452, 0.36610323, 0.0, 0.0, 0.0], "parents": [2147483647, 0, 0, 1, 1], "right_children": [2, 4, -1, -1, -1], "split_conditions": [-2.4413621, 0.048117884, -0.0015509449, 8.232734e-06, -0.0008337793], "split_indices": [9, 17, 0, 0, 0], "split_type": [0, 0, 0, 0, 0], "sum_hessian": [516.5539, 2.154585, 514.3993, 1.0138994, 1.1406854], "tree_param": {"num_deleted": "0", "num_feature": "29", "num_nodes": "5", "size_leaf_vector": "0"}}, {"base_weights": [-1.301434, -0.28050527, -0.011246124, -1.1398867, 1.0785049, -0.010235324, -0.0029741826, 0.011202272, -0.0004562189], "categories": [], "categories_nodes": [], "categories_segments": [], "categories_sizes": [], "default_left": [0, 0, 0, 0, 0, 0, 0, 0, 0], "id": 49, "left_children": [1, 3, -1, 5, 7, -1, -1, -1, -1], "loss_changes": [15.708008, 20.652811, 0.0, 0.0010356903, 1.8175297, 0.0, 0.0, 0.0, 0.0], "parents": [2147483647, 0, 0, 1, 1, 3, 3, 4, 4], "right_children": [2, 4, -1, 6, 8, -1, -1, -1, -1], "split_conditions": [-1.9076201, 1.4425006, -0.011246124, 0.65952367, 0.88570327, -0.010235324, -0.0029741826, 0.011202272, -0.0004562189], "split_indices": [11, 3, 0, 18, 19, 0, 0, 0, 0], "split_type": [0, 0, 0, 0, 0, 0, 0, 0, 0], "sum_hessian": [3642.7078, 15.630962, 3627.077, 9.674469, 5.956494, 8.650695, 1.0237738, 4.8539243, 1.1025699], "tree_param": {"num_deleted": "0", "num_feature": "29", "num_nodes": "9", "size_leaf_vector": "0"}}, {"base_weights": [-1.2841464, -0.27216965, -0.011097176, -1.1207745, 1.056973, -0.0028757232, -0.010071542, 0.011013777, -0.0004970157], "categories": [], "categories_nodes": [], "categories_segments": [], "categories_sizes": [], "default_left": [0, 0, 0, 0, 0, 0, 0, 0, 0], "id": 50, "left_children": [1, 3, -1, 5, 7, -1, -1, -1, -1], "loss_changes": [15.073242, 19.529999, 0.0, 0.0077724457, 1.7680378, 0.0, 0.0, 0.0, 0.0], "parents": [2147483647, 0, 0, 1, 1, 3, 3, 4, 4], "right_children": [2, 4, -1, 6, 8, -1, -1, -1, -1], "split_conditions": [-1.9076201, 1.4425006, -0.011097176, -1.8502977, 0.88570327, -0.0028757232, -0.010071542, 0.011013777, -0.0004970157], "split_indices": [11, 3, 0, 4, 19, 0, 0, 0, 0], "split_type": [0, 0, 0, 0, 0, 0, 0, 0, 0], "sum_hessian": [3531.2773, 15.264824, 3516.0125, 9.412246, 5.8525777, 1.0053575, 8.406889, 4.7584915, 1.0940863], "tree_param": {"num_deleted": "0", "num_feature": "29", "num_nodes": "9", "size_leaf_vector": "0"}}, {"base_weights": [-1.140062, -0.34539667, -1.1437962, 0.8646805, -0.91889066, -0.915137, -0.0728286, 0.96230096, -0.030013558, 0.0526075, -0.98999006, 0.40918794, -0.06986261, 1.048312, 0.1327589, -1.0639228, -0.25788534, 0.86111104, -0.047325704, 0.385297, 1.132058, -0.04028428, 0.045577027, -0.011486568, -1.0937517, -0.66521853, 0.03779931, -0.022876237, 0.08609462, 0.05988717, -0.04049805, 0.0742366, 0.017763523, -0.35184765, -1.1292049, 0.0050330022, -0.05734162, 0.020324826, -0.04763599, -0.073177256, -0.022106597], "categories": [], "categories_nodes": [], "categories_segments": [], "categories_sizes": [], "default_left": [0, 0, 0, 0, 0, 0, 0, 0, 0, 0, 0, 0, 0, 0, 0, 0, 0, 0, 0, 0, 0, 0, 0, 0, 0, 0, 0, 0, 0, 0, 0, 0, 0, 0, 0, 0, 0, 0, 0, 0, 0], "id": 51, "left_children": [1, 3, 5, 7, 9, 11, -1, 13, -1, -1, 15, 17, -1, 19, 21, 23, 25, 27, -1, 29, 31, -1, -1, -1, 33, 35, -1, -1, -1, -1, -1, -1, -1, 37, 39, -1, -1, -1, -1, -1, -1], "loss_changes": [49.103516, 55.931225, 1.0507812, 3.8535652, 7.568241, 11.331429, 0.0, 1.617218, 0.0, 0.0, 2.5789146, 3.8607416, 0.0, 0.7941971, 1.9979019, 1.0558891, 2.5307908, 3.4293132, 0.0, 2.870282, 0.23677063, 0.0, 0.0, 0.0, 0.8075981, 0.88479304, 0.0, 0.0, 0.0, 0.0, 0.0, 0.0, 0.0, 1.1820103, 0.2981987, 0.0, 0.0, 0.0, 0.0, 0.0, 0.0], "parents": [2147483647, 0, 0, 1, 1, 2, 2, 3, 3, 4, 4, 5, 5, 7, 7, 10, 10, 11, 11, 13, 13, 14, 14, 15, 15, 16, 16, 17, 17, 19, 19, 20, 20, 24, 24, 25, 25, 33, 33, 34, 34], "right_children": [2, 4, 6, 8, 10, 12, -1, 14, -1, -1, 16, 18, -1, 20, 22, 24, 26, 28, -1, 30, 32, -1, -1, -1, 34, 36, -1, -1, -1, -1, -1, -1, -1, 38, 40, -1, -1, -1, -1, -1, -1], "split_conditions": [-3.371298, -2.6037543, -1.6188716, 1.0239905, -2.6426468, -2.5516953, -0.0728286, 1.557637, -0.030013558, 0.0526075, 0.19264135, -1.4412483, -0.06986261, 1.4838563, 0.81141865, -2.9430926, 2.3085296, -1.5517905, -0.047325704, 0.25432783, -0.46680492, -0.04028428, 0.045577027, -0.011486568, -1.3344228, 0.8807446, 0.03779931, -0.022876237, 0.08609462, 0.05988717, -0.04049805, 0.0742366, 0.017763523, -0.31093025, 0.7740268, 0.0050330022, -0.05734162, 0.020324826, -0.04763599, -0.073177256, -0.022106597], "split_indices": [13, 9, 16, 6, 6, 11, 0, 12, 0, 0, 20, 9, 0, 3, 20, 11, 3, 5, 0, 27, 8, 0, 0, 0, 14, 10, 0, 0, 0, 0, 0, 0, 0, 28, 23, 0, 0, 0, 0, 0, 0], "split_type": [0, 0, 0, 0, 0, 0, 0, 0, 0, 0, 0, 0, 0, 0, 0, 0, 0, 0, 0, 0, 0, 0, 0, 0, 0, 0, 0, 0, 0, 0, 0, 0, 0, 0, 0, 0, 0, 0, 0, 0, 0], "sum_hessian": [16679.89, 78.45087, 16601.44, 25.062029, 53.388832, 43.999313, 16557.44, 23.616611, 1.4454181, 1.6736684, 51.715164, 5.1813965, 38.817917, 21.159018, 2.4575927, 46.559994, 5.155171, 3.9039946, 1.2774019, 3.0009995, 18.15802, 1.0259473, 1.4316454, 1.7510276, 44.808968, 3.6356852, 1.5194856, 1.1982896, 2.705705, 1.9948578, 1.0061414, 17.100466, 1.0575525, 2.541842, 42.267124, 1.034542, 2.6011431, 1.0165329, 1.525309, 40.72237, 1.5447567], "tree_param": {"num_deleted": "0", "num_feature": "29", "num_nodes": "41", "size_leaf_vector": "0"}}, {"base_weights": [-1.2338811, -0.5196993, -0.028962186, 0.8952402, -0.028932845, 1.2226115, -0.31713948, 0.0062475326, 0.03275418, 0.010881877, -0.019264342], "categories": [], "categories_nodes": [], "categories_segments": [], "categories_sizes": [], "default_left": [0, 0, 0, 0, 0, 0, 0, 0, 0, 0, 0], "id": 52, "left_children": [1, 3, -1, 5, -1, 7, 9, -1, -1, -1, -1], "loss_changes": [18.88086, 41.468872, 0.0, 5.9307137, 0.0, 1.515646, 1.8705964, 0.0, 0.0, 0.0, 0.0], "parents": [2147483647, 0, 0, 1, 1, 3, 3, 5, 5, 6, 6], "right_children": [2, 4, -1, 6, -1, 8, 10, -1, -1, -1, -1], "split_conditions": [-3.5795255, -1.7944183, -0.028962186, 0.97490937, -0.028932845, -2.7245605, 1.4387041, 0.0062475326, 0.03275418, 0.010881877, -0.019264342], "split_indices": [13, 9, 0, 4, 0, 8, 1, 0, 0, 0, 0], "split_type": [0, 0, 0, 0, 0, 0, 0, 0, 0, 0, 0], "sum_hessian": [8568.808, 38.834133, 8529.974, 12.965732, 25.868399, 10.202401, 2.763331, 1.9813637, 8.221038, 1.1170256, 1.6463053], "tree_param": {"num_deleted": "0", "num_feature": "29", "num_nodes": "11", "size_leaf_vector": "0"}}, {"base_weights": [-1.3048096, -0.4657115, -0.004144272, 0.0034776016, -0.0034222081], "categories": [], "categories_nodes": [], "categories_segments": [], "categories_sizes": [], "default_left": [0, 0, 0, 0, 0], "id": 53, "left_children": [1, 3, -1, -1, -1], "loss_changes": [3.1447754, 7.7795906, 0.0, 0.0, 0.0], "parents": [2147483647, 0, 0, 1, 1], "right_children": [2, 4, -1, -1, -1], "split_conditions": [-3.449334, -1.6854643, -0.004144272, 0.0034776016, -0.0034222081], "split_indices": [13, 6, 0, 0, 0], "split_type": [0, 0, 0, 0, 0], "sum_hessian": [1351.3408, 5.8636503, 1345.477, 1.4325628, 4.4310875], "tree_param": {"num_deleted": "0", "num_feature": "29", "num_nodes": "5", "size_leaf_vector": "0"}}, {"base_weights": [-1.3124282, -0.0005445295, -0.0015323907], "categories": [], "categories_nodes": [], "categories_segments": [], "categories_sizes": [], "default_left": [0, 0, 0], "id": 54, "left_children": [1, -1, -1], "loss_changes": [0.503479, 0.0, 0.0], "parents": [2147483647, 0, 0], "right_children": [2, -1, -1], "split_conditions": [-2.4413621, -0.0005445295, -0.0015323907], "split_indices": [9, 0, 0], "split_type": [0, 0, 0], "sum_hessian": [504.22043, 2.1115243, 502.1089], "tree_param": {"num_deleted": "0", "num_feature": "29", "num_nodes": "3", "size_leaf_vector": "0"}}, {"base_weights": [-1.2714816, -0.4268056, -0.0040389304, 0.0034030965, -0.003298787], "categories": [], "categories_nodes": [], "categories_segments": [], "categories_sizes": [], "default_left": [0, 0, 0, 0, 0], "id": 55, "left_children": [1, 3, -1, -1, -1], "loss_changes": [3.0959473, 7.1916327, 0.0, 0.0, 0.0], "parents": [2147483647, 0, 0, 1, 1], "right_children": [2, 4, -1, -1, -1], "split_conditions": [-3.449334, -1.6854643, -0.0040389304, 0.0034030965, -0.003298787], "split_indices": [13, 6, 0, 0, 0], "split_type": [0, 0, 0, 0, 0], "sum_hessian": [1271.9222, 5.585095, 1266.3372, 1.4049124, 4.180183], "tree_param": {"num_deleted": "0", "num_feature": "29", "num_nodes": "5", "size_leaf_vector": "0"}}, {"base_weights": [-1.2788943, -0.0005119069, -0.0014933265], "categories": [], "categories_nodes": [], "categories_segments": [], "categories_sizes": [], "default_left": [0, 0, 0], "id": 56, "left_children": [1, -1, -1], "loss_changes": [0.48919678, 0.0, 0.0], "parents": [2147483647, 0, 0], "right_children": [2, -1, -1], "split_conditions": [-2.4413621, -0.0005119069, -0.0014933265], "split_indices": [9, 0, 0], "split_type": [0, 0, 0], "sum_hessian": [475.78918, 2.0096285, 473.77957], "tree_param": {"num_deleted": "0", "num_feature": "29", "num_nodes": "3", "size_leaf_vector": "0"}}, {"base_weights": [-1.2515666, -0.26112947, -0.010816346, -1.087576, 1.0066321, -0.009832704, -0.002853908, 0.01060337, -0.0007579075], "categories": [], "categories_nodes": [], "categories_segments": [], "categories_sizes": [], "default_left": [0, 0, 0, 0, 0, 0, 0, 0, 0], "id": 57, "left_children": [1, 3, -1, 5, 7, -1, -1, -1, -1], "loss_changes": [13.695801, 17.331482, 0.0, 0.02495575, 1.7388005, 0.0, 0.0, 0.0, 0.0], "parents": [2147483647, 0, 0, 1, 1, 3, 3, 4, 4], "right_children": [2, 4, -1, 6, 8, -1, -1, -1, -1], "split_conditions": [-1.9076201, 1.4425006, -0.010816346, -0.59990096, 0.88570327, -0.009832704, -0.002853908, 0.01060337, -0.0007579075], "split_indices": [11, 3, 0, 12, 19, 0, 0, 0, 0], "split_type": [0, 0, 0, 0, 0, 0, 0, 0, 0], "sum_hessian": [3300.7966, 14.496915, 3286.2998, 8.861974, 5.6349416, 7.794938, 1.0670358, 4.5724864, 1.062455], "tree_param": {"num_deleted": "0", "num_feature": "29", "num_nodes": "9", "size_leaf_vector": "0"}}, {"base_weights": [-1.1153663, -0.31886795, -1.1192508, 0.6815969, -0.95283645, -0.8729638, -0.071269885, 0.8769336, -0.7514301, -0.3968086, -1.0655326, 0.38625973, -1.0709778, 0.977814, -0.005951252, -0.05634363, -0.011621359, 0.3923315, -0.06413164, -0.0692671, -0.008511721, 0.81816405, -0.042177323, -0.0698254, -0.4451025, 0.29270607, 1.0597723, 0.045486752, -0.05350657, 0.10491017, -0.5720098, -0.020507708, 0.08069779, -0.0044691046, -0.037805185, 0.05175142, -0.03416678, 0.06932882, 0.020118952, -0.043810952, -0.009579747], "categories": [], "categories_nodes": [], "categories_segments": [], "categories_sizes": [], "default_left": [0, 0, 0, 0, 0, 0, 0, 0, 0, 0, 0, 0, 0, 0, 0, 0, 0, 0, 0, 0, 0, 0, 0, 0, 0, 0, 0, 0, 0, 0, 0, 0, 0, 0, 0, 0, 0, 0, 0, 0, 0], "id": 58, "left_children": [1, 3, 5, 7, 9, 11, -1, 13, 15, 17, 19, 21, 23, 25, 27, -1, -1, 29, -1, -1, -1, 31, -1, -1, 33, 35, 37, -1, -1, -1, 39, -1, -1, -1, -1, -1, -1, -1, -1, -1, -1], "loss_changes": [44.625, 46.28964, 1.1816406, 8.635119, 2.3633766, 10.397615, 0.0, 2.2803364, 0.13967896, 4.775754, 0.6291084, 3.3402476, 0.08297348, 0.9770317, 2.7743685, 0.0, 0.0, 6.617469, 0.0, 0.0, 0.0, 2.8822997, 0.0, 0.0, 0.13038248, 2.090618, 0.09770012, 0.0, 0.0, 0.0, 0.06279755, 0.0, 0.0, 0.0, 0.0, 0.0, 0.0, 0.0, 0.0, 0.0, 0.0], "parents": [2147483647, 0, 0, 1, 1, 2, 2, 3, 3, 4, 4, 5, 5, 7, 7, 8, 8, 9, 9, 10, 10, 11, 11, 12, 12, 13, 13, 14, 14, 17, 17, 21, 21, 24, 24, 25, 25, 26, 26, 30, 30], "right_children": [2, 4, 6, 8, 10, 12, -1, 14, 16, 18, 20, 22, 24, 26, 28, -1, -1, 30, -1, -1, -1, 32, -1, -1, 34, 36, 38, -1, -1, -1, 40, -1, -1, -1, -1, -1, -1, -1, -1, -1, -1], "split_conditions": [-3.371298, -1.927018, -1.6188716, 1.1078103, 0.22662362, -1.4412483, -0.071269885, 1.557637, -0.024059653, -0.15347897, 0.3659317, -2.5516953, 2.8064413, 1.4838563, -1.9355286, -0.05634363, -0.011621359, -0.32610178, -0.06413164, -0.0692671, -0.008511721, -1.5517905, -0.042177323, -0.0698254, 0.42660317, 0.39390612, -0.09214092, 0.045486752, -0.05350657, 0.10491017, 0.12118039, -0.020507708, 0.08069779, -0.0044691046, -0.037805185, 0.05175142, -0.03416678, 0.06932882, 0.020118952, -0.043810952, -0.009579747], "split_indices": [13, 11, 16, 6, 6, 9, 0, 12, 19, 14, 20, 11, 28, 3, 6, 0, 0, 28, 0, 0, 0, 5, 0, 0, 12, 26, 8, 0, 0, 0, 24, 0, 0, 0, 0, 0, 0, 0, 0, 0, 0], "split_type": [0, 0, 0, 0, 0, 0, 0, 0, 0, 0, 0, 0, 0, 0, 0, 0, 0, 0, 0, 0, 0, 0, 0, 0, 0, 0, 0, 0, 0, 0, 0, 0, 0, 0, 0, 0, 0, 0, 0, 0, 0], "sum_hessian": [14537.858, 70.9578, 14466.9, 27.494167, 43.463634, 39.040844, 14427.859, 24.537502, 2.9566655, 8.086575, 35.37706, 5.1758113, 33.865032, 21.924803, 2.6126988, 1.9429282, 1.0137372, 3.6845937, 4.401981, 34.366077, 1.010982, 3.8221464, 1.3536648, 31.782495, 2.0825367, 2.8310251, 19.093779, 1.4793731, 1.1333257, 1.2921257, 2.392468, 1.1614163, 2.6607301, 1.010477, 1.0720599, 1.7517616, 1.0792634, 17.916126, 1.1776508, 1.3785344, 1.0139335], "tree_param": {"num_deleted": "0", "num_feature": "29", "num_nodes": "41", "size_leaf_vector": "0"}}, {"base_weights": [-1.203151, -0.48357436, -0.028244877, 0.87925625, -0.028050523, 1.1854261, -0.26913616, 0.0051945318, 0.032030176, 0.011309769, -0.018304622], "categories": [], "categories_nodes": [], "categories_segments": [], "categories_sizes": [], "default_left": [0, 0, 0, 0, 0, 0, 0, 0, 0, 0, 0], "id": 59, "left_children": [1, 3, -1, 5, -1, 7, 9, -1, -1, -1, -1], "loss_changes": [17.976562, 37.424976, 0.0, 5.0388727, 0.0, 1.5946255, 1.781743, 0.0, 0.0, 0.0, 0.0], "parents": [2147483647, 0, 0, 1, 1, 3, 3, 5, 5, 6, 6], "right_children": [2, 4, -1, 6, -1, 8, 10, -1, -1, -1, -1], "split_conditions": [-3.5795255, -1.7944183, -0.028244877, 0.97490937, -0.028050523, -2.7245605, 1.4387041, 0.0051945318, 0.032030176, 0.011309769, -0.018304622], "split_indices": [13, 9, 0, 4, 0, 8, 1, 0, 0, 0, 0], "split_type": [0, 0, 0, 0, 0, 0, 0, 0, 0, 0, 0], "sum_hessian": [7858.636, 36.349323, 7822.287, 12.423756, 23.925566, 9.783228, 2.6405284, 1.9122139, 7.8710136, 1.0937183, 1.5468102], "tree_param": {"num_deleted": "0", "num_feature": "29", "num_nodes": "11", "size_leaf_vector": "0"}}, {"base_weights": [-1.1756256, -0.45439824, -0.027602375, 0.8552295, -0.027263688, 1.1388329, -0.21988106, 0.031250466, 0.0043143616, 0.011785732, -0.017372077], "categories": [], "categories_nodes": [], "categories_segments": [], "categories_sizes": [], "default_left": [0, 0, 0, 0, 0, 0, 0, 0, 0, 0, 0], "id": 60, "left_children": [1, 3, -1, 5, -1, 7, 9, -1, -1, -1, -1], "loss_changes": [16.81543, 33.386044, 0.0, 4.159832, 0.0, 1.6822281, 1.7007942, 0.0, 0.0, 0.0, 0.0], "parents": [2147483647, 0, 0, 1, 1, 3, 3, 5, 5, 6, 6], "right_children": [2, 4, -1, 6, -1, 8, 10, -1, -1, -1, -1], "split_conditions": [-3.5795255, -1.7944183, -0.027602375, 0.97490937, -0.027263688, 0.76791936, 1.4387041, 0.031250466, 0.0043143616, 0.011785732, -0.017372077], "split_indices": [13, 9, 0, 4, 0, 27, 1, 0, 0, 0, 0], "split_type": [0, 0, 0, 0, 0, 0, 0, 0, 0, 0, 0], "sum_hessian": [7151.218, 33.828117, 7117.3896, 11.821781, 22.006334, 9.30733, 2.5144513, 7.3914366, 1.9158938, 1.0692085, 1.4452426], "tree_param": {"num_deleted": "0", "num_feature": "29", "num_nodes": "11", "size_leaf_vector": "0"}}, {"base_weights": [-1.2405256, -0.3931587, -0.0039411113, 0.003300462, -0.0031848664], "categories": [], "categories_nodes": [], "categories_segments": [], "categories_sizes": [], "default_left": [0, 0, 0, 0, 0], "id": 61, "left_children": [1, 3, -1, -1, -1], "loss_changes": [3.0059814, 6.589506, 0.0, 0.0, 0.0], "parents": [2147483647, 0, 0, 1, 1], "right_children": [2, 4, -1, -1, -1], "split_conditions": [-3.449334, -1.6854643, -0.0039411113, 0.003300462, -0.0031848664], "split_indices": [13, 6, 0, 0, 0], "split_type": [0, 0, 0, 0, 0], "sum_hessian": [1189.0814, 5.309726, 1183.7717, 1.3778713, 3.9318552], "tree_param": {"num_deleted": "0", "num_feature": "29", "num_nodes": "5", "size_leaf_vector": "0"}}, {"base_weights": [-1.2475312, -0.000468697, -0.0014568748], "categories": [], "categories_nodes": [], "categories_segments": [], "categories_sizes": [], "default_left": [0, 0, 0], "id": 62, "left_children": [1, -1, -1], "loss_changes": [0.52111816, 0.0, 0.0], "parents": [2147483647, 0, 0], "right_children": [2, -1, -1], "split_conditions": [-2.4413621, -0.000468697, -0.0014568748], "split_indices": [9, 0, 0], "split_type": [0, 0, 0], "sum_hessian": [445.97934, 1.9027339, 444.0766], "tree_param": {"num_deleted": "0", "num_feature": "29", "num_nodes": "3", "size_leaf_vector": "0"}}, {"base_weights": [-1.2216332, -0.24993572, -0.010558524, -0.009615335, 0.87332124, -0.0004616044, 0.010503129], "categories": [], "categories_nodes": [], "categories_segments": [], "categories_sizes": [], "default_left": [0, 0, 0, 0, 0, 0, 0], "id": 63, "left_children": [1, 3, -1, -1, 5, -1, -1], "loss_changes": [12.458496, 15.297587, 0.0, 0.0, 2.3016396, 0.0, 0.0], "parents": [2147483647, 0, 0, 1, 1, 4, 4], "right_children": [2, 4, -1, -1, 6, -1, -1], "split_conditions": [-1.9076201, 0.65046245, -0.010558524, -0.009615335, -0.22352171, -0.0004616044, 0.010503129], "split_indices": [11, 10, 0, 0, 21, 0, 0], "split_type": [0, 0, 0, 0, 0, 0, 0], "sum_hessian": [3063.4678, 13.715931, 3049.752, 7.7464585, 5.969472, 1.8529855, 4.1164865], "tree_param": {"num_deleted": "0", "num_feature": "29", "num_nodes": "7", "size_leaf_vector": "0"}}, {"base_weights": [-1.0943353, -0.29477927, -1.0983933, 0.7783129, -0.8318821, -0.8333061, -0.06994636, 0.8696905, -0.02386952, -0.9453657, 0.2617786, 0.37905183, -1.042511, 0.96166027, 0.08380653, -0.35610357, -1.0546056, -0.31389534, 0.06016773, 0.7761327, -0.0399784, -0.06819748, -0.026053935, 0.2971541, 1.0590533, 0.042374518, -0.039417036, 0.38630402, -0.8377233, -0.026262885, -0.068558484, 0.022432515, -0.047152314, -0.018530942, 0.07585895, 0.05389515, -0.038443692, 0.07007377, 0.016331095, -0.018735372, 0.05952856, -0.01598953, -0.058813054], "categories": [], "categories_nodes": [], "categories_segments": [], "categories_sizes": [], "default_left": [0, 0, 0, 0, 0, 0, 0, 0, 0, 0, 0, 0, 0, 0, 0, 0, 0, 0, 0, 0, 0, 0, 0, 0, 0, 0, 0, 0, 0, 0, 0, 0, 0, 0, 0, 0, 0, 0, 0, 0, 0, 0, 0], "id": 64, "left_children": [1, 3, 5, 7, 9, 11, -1, 13, -1, 15, 17, 19, 21, 23, 25, 27, 29, 31, -1, 33, -1, -1, -1, 35, 37, -1, -1, 39, 41, -1, -1, -1, -1, -1, -1, -1, -1, -1, -1, -1, -1, -1, -1], "loss_changes": [40.458008, 38.017212, 1.2939453, 2.6600008, 5.670376, 9.404852, 0.0, 1.4242077, 0.0, 2.1865807, 2.2215092, 2.8716893, 0.12379074, 0.88537407, 1.7533818, 3.089188, 0.036197662, 1.2302423, 0.0, 2.4431674, 0.0, 0.0, 0.0, 2.3744118, 0.24949265, 0.0, 0.0, 1.6685742, 0.021530151, 0.0, 0.0, 0.0, 0.0, 0.0, 0.0, 0.0, 0.0, 0.0, 0.0, 0.0, 0.0, 0.0, 0.0], "parents": [2147483647, 0, 0, 1, 1, 2, 2, 3, 3, 4, 4, 5, 5, 7, 7, 9, 9, 10, 10, 11, 11, 12, 12, 13, 13, 14, 14, 15, 15, 16, 16, 17, 17, 19, 19, 23, 23, 24, 24, 27, 27, 28, 28], "right_children": [2, 4, 6, 8, 10, 12, -1, 14, -1, 16, 18, 20, 22, 24, 26, 28, 30, 32, -1, 34, -1, -1, -1, 36, 38, -1, -1, 40, 42, -1, -1, -1, -1, -1, -1, -1, -1, -1, -1, -1, -1, -1, -1], "split_conditions": [-3.371298, -2.6037543, -1.6188716, 1.0239905, 0.3719291, -1.4412483, -0.06994636, 1.557637, -0.02386952, 0.22662362, 3.8628695, -2.5516953, 2.8064413, 1.4838563, 0.25199023, -0.6276773, -1.3627387, 1.0202293, 0.06016773, -1.5517905, -0.0399784, -0.06819748, -0.026053935, 0.25432783, -0.63977724, 0.042374518, -0.039417036, -0.031907476, -0.102607846, -0.026262885, -0.068558484, 0.022432515, -0.047152314, -0.018530942, 0.07585895, 0.05389515, -0.038443692, 0.07007377, 0.016331095, -0.018735372, 0.05952856, -0.01598953, -0.058813054], "split_indices": [13, 9, 16, 6, 20, 9, 0, 12, 0, 6, 3, 11, 28, 3, 24, 11, 14, 4, 0, 5, 0, 0, 0, 27, 8, 0, 0, 12, 7, 0, 0, 0, 0, 0, 0, 0, 0, 0, 0, 0, 0, 0, 0], "split_type": [0, 0, 0, 0, 0, 0, 0, 0, 0, 0, 0, 0, 0, 0, 0, 0, 0, 0, 0, 0, 0, 0, 0, 0, 0, 0, 0, 0, 0, 0, 0, 0, 0, 0, 0, 0, 0, 0, 0, 0, 0, 0, 0], "sum_hessian": [12568.122, 63.837414, 12504.284, 21.14405, 42.693363, 34.522774, 12469.762, 19.819761, 1.3242899, 38.80261, 3.8907552, 4.9610806, 29.561693, 17.543077, 2.2766836, 6.734607, 32.068, 2.405753, 1.4850024, 3.722853, 1.2382276, 27.60187, 1.959823, 2.7603662, 14.782711, 1.2746938, 1.0019896, 2.727746, 4.006861, 1.7477891, 30.320213, 1.0076933, 1.3980595, 1.1278349, 2.5950181, 1.7520392, 1.008327, 13.693695, 1.0890155, 1.4249831, 1.302763, 1.0162803, 2.990581], "tree_param": {"num_deleted": "0", "num_feature": "29", "num_nodes": "43", "size_leaf_vector": "0"}}, {"base_weights": [-1.0790608, -0.27766347, -1.0832795, 0.5595113, -0.91687626, -0.8054927, -0.06898737, 0.7655817, -0.0562544, -0.9661381, 0.00019545185, 0.37032783, -1.0170857, 0.85783225, -0.012977262, -0.006766522, -1.0141515, 0.058057554, -0.40076077, -0.066726126, -0.4475952, 0.94345087, 0.07037725, -1.0409303, -0.012926147, -0.040915623, 0.0026823212, -0.038251083, -0.0036374128, 0.07232943, 0.5576321, 0.040629867, -0.03724998, -0.023832852, -0.067938626, 0.061794117, -0.36562473, 0.023079323, -0.05677299], "categories": [], "categories_nodes": [], "categories_segments": [], "categories_sizes": [], "default_left": [0, 0, 0, 0, 0, 0, 0, 0, 0, 0, 0, 0, 0, 0, 0, 0, 0, 0, 0, 0, 0, 0, 0, 0, 0, 0, 0, 0, 0, 0, 0, 0, 0, 0, 0, 0, 0, 0, 0], "id": 65, "left_children": [1, 3, 5, 7, 9, 11, -1, 13, -1, 15, -1, 17, 19, 21, -1, -1, 23, -1, 25, -1, 27, 29, 31, 33, -1, -1, -1, -1, -1, -1, 35, -1, -1, -1, -1, -1, 37, -1, -1], "loss_changes": [37.073242, 32.210663, 1.3017578, 8.489643, 1.5422859, 8.3411045, 0.0, 2.2785425, 0.0, 1.2232666, 0.0, 2.7120314, 0.020238876, 1.3945656, 0.0, 0.0, 0.44929123, 0.0, 0.35016242, 0.0, 0.15588975, 0.8159809, 1.5676066, 0.11765289, 0.0, 0.0, 0.0, 0.0, 0.0, 0.0, 3.5813332, 0.0, 0.0, 0.0, 0.0, 0.0, 1.6043926, 0.0, 0.0], "parents": [2147483647, 0, 0, 1, 1, 2, 2, 3, 3, 4, 4, 5, 5, 7, 7, 9, 9, 11, 11, 12, 12, 13, 13, 16, 16, 18, 18, 20, 20, 21, 21, 22, 22, 23, 23, 30, 30, 36, 36], "right_children": [2, 4, 6, 8, 10, 12, -1, 14, -1, 16, -1, 18, 20, 22, -1, -1, 24, -1, 26, -1, 28, 30, 32, 34, -1, -1, -1, -1, -1, -1, 36, -1, -1, -1, -1, -1, 38, -1, -1], "split_conditions": [-3.371298, -0.037198335, -1.6188716, -0.33454514, 0.3659317, -2.5516953, -0.06898737, -0.36862633, -0.0562544, -3.1514113, 0.00019545185, 0.08354268, 2.8064413, 1.557637, -0.012977262, -0.006766522, 0.7740268, 0.058057554, -3.7620974, -0.066726126, 0.038024247, 0.30005488, -5.7977653, -1.3627387, -0.012926147, -0.040915623, 0.0026823212, -0.038251083, -0.0036374128, 0.07232943, -3.7620974, 0.040629867, -0.03724998, -0.023832852, -0.067938626, 0.061794117, 0.27827305, 0.023079323, -0.05677299], "split_indices": [13, 6, 16, 11, 20, 11, 0, 9, 0, 11, 0, 27, 28, 12, 0, 0, 23, 0, 2, 0, 22, 27, 2, 14, 0, 0, 0, 0, 0, 0, 2, 0, 0, 0, 0, 0, 7, 0, 0], "split_type": [0, 0, 0, 0, 0, 0, 0, 0, 0, 0, 0, 0, 0, 0, 0, 0, 0, 0, 0, 0, 0, 0, 0, 0, 0, 0, 0, 0, 0, 0, 0, 0, 0, 0, 0, 0, 0, 0, 0], "sum_hessian": [11053.759, 58.233257, 10995.525, 25.266499, 32.96676, 31.012043, 10964.514, 22.520924, 2.7455747, 31.243502, 1.7232556, 4.615204, 26.39684, 20.669338, 1.8515848, 1.8224101, 29.421091, 2.6028426, 2.0123613, 24.22135, 2.17549, 18.46371, 2.2056289, 28.206337, 1.2147537, 1.0091162, 1.0032452, 1.1745317, 1.0009581, 11.0092535, 7.454457, 1.1959137, 1.0097151, 1.6606301, 26.545708, 5.1135144, 2.3409424, 1.1127456, 1.2281969], "tree_param": {"num_deleted": "0", "num_feature": "29", "num_nodes": "39", "size_leaf_vector": "0"}}, {"base_weights": [-1.1558784, -0.42420828, -0.027142862, 0.85542977, -0.026689764, 1.1201117, -0.17000133, 0.0029097016, 0.030862125, 0.01252652, -0.016601643], "categories": [], "categories_nodes": [], "categories_segments": [], "categories_sizes": [], "default_left": [0, 0, 0, 0, 0, 0, 0, 0, 0, 0, 0], "id": 66, "left_children": [1, 3, -1, 5, -1, 7, 9, -1, -1, -1, -1], "loss_changes": [16.333984, 31.07055, 0.0, 3.5444107, 0.0, 1.7999496, 1.6730859, 0.0, 0.0, 0.0, 0.0], "parents": [2147483647, 0, 0, 1, 1, 3, 3, 5, 5, 6, 6], "right_children": [2, 4, -1, 6, -1, 8, 10, -1, -1, -1, -1], "split_conditions": [-3.5795255, -1.7944183, -0.027142862, 0.97490937, -0.026689764, -2.7245605, 1.4387041, 0.0029097016, 0.030862125, 0.01252652, -0.016601643], "split_indices": [13, 9, 0, 4, 0, 8, 1, 0, 0, 0, 0], "split_type": [0, 0, 0, 0, 0, 0, 0, 0, 0, 0, 0], "sum_hessian": [6600.1636, 31.85644, 6568.307, 11.357513, 20.498926, 8.953996, 2.4035172, 1.755775, 7.198221, 1.0447371, 1.3587801], "tree_param": {"num_deleted": "0", "num_feature": "29", "num_nodes": "11", "size_leaf_vector": "0"}}, {"base_weights": [-1.2188096, -0.36685708, -0.0038725554, 0.003222515, -0.0030984774], "categories": [], "categories_nodes": [], "categories_segments": [], "categories_sizes": [], "default_left": [0, 0, 0, 0, 0], "id": 67, "left_children": [1, 3, -1, -1, -1], "loss_changes": [2.9505615, 6.148135, 0.0, 0.0, 0.0], "parents": [2147483647, 0, 0, 1, 1], "right_children": [2, 4, -1, -1, -1], "split_conditions": [-3.449334, -1.6854643, -0.0038725554, 0.003222515, -0.0030984774], "split_indices": [13, 6, 0, 0, 0], "split_type": [0, 0, 0, 0, 0], "sum_hessian": [1125.2424, 5.0923805, 1120.15, 1.3563912, 3.735989], "tree_param": {"num_deleted": "0", "num_feature": "29", "num_nodes": "5", "size_leaf_vector": "0"}}, {"base_weights": [-1.2256198, -0.00044316475, -0.0014313814], "categories": [], "categories_nodes": [], "categories_segments": [], "categories_sizes": [], "default_left": [0, 0, 0], "id": 68, "left_children": [1, -1, -1], "loss_changes": [0.51641846, 0.0, 0.0], "parents": [2147483647, 0, 0], "right_children": [2, -1, -1], "split_conditions": [-2.4413621, -0.00044316475, -0.0014313814], "split_indices": [9, 0, 0], "split_type": [0, 0, 0], "sum_hessian": [423.06888, 1.8205165, 421.24838], "tree_param": {"num_deleted": "0", "num_feature": "29", "num_nodes": "3", "size_leaf_vector": "0"}}, {"base_weights": [-1.2005224, -0.24599013, -0.010376575, -0.009431095, 0.8364509, -0.0006630799, 0.010153301], "categories": [], "categories_nodes": [], "categories_segments": [], "categories_sizes": [], "default_left": [0, 0, 0, 0, 0, 0, 0], "id": 69, "left_children": [1, 3, -1, -1, 5, -1, -1], "loss_changes": [11.450195, 13.866124, 0.0, 0.0, 2.205502, 0.0, 0.0], "parents": [2147483647, 0, 0, 1, 1, 4, 4], "right_children": [2, 4, -1, -1, 6, -1, -1], "split_conditions": [-1.9076201, 0.65046245, -0.010376575, -0.009431095, -0.22352171, -0.0006630799, 0.010153301], "split_indices": [11, 10, 0, 0, 21, 0, 0], "split_type": [0, 0, 0, 0, 0, 0, 0], "sum_hessian": [2879.604, 13.091281, 2866.5127, 7.3301554, 5.7611256, 1.7821708, 3.9789546], "tree_param": {"num_deleted": "0", "num_feature": "29", "num_nodes": "7", "size_leaf_vector": "0"}}, {"base_weights": [-1.1896597, -0.23651974, -0.010283356, -0.009306891, 0.8239783, -0.00073926785, 0.010032567], "categories": [], "categories_nodes": [], "categories_segments": [], "categories_sizes": [], "default_left": [0, 0, 0, 0, 0, 0, 0], "id": 70, "left_children": [1, 3, -1, -1, 5, -1, -1], "loss_changes": [11.144531, 13.215219, 0.0, 0.0, 2.1683707, 0.0, 0.0], "parents": [2147483647, 0, 0, 1, 1, 4, 4], "right_children": [2, 4, -1, -1, 6, -1, -1], "split_conditions": [-1.9076201, 0.65046245, -0.010283356, -0.009306891, -0.22352171, -0.00073926785, 0.010032567], "split_indices": [11, 10, 0, 0, 21, 0, 0], "split_type": [0, 0, 0, 0, 0, 0, 0], "sum_hessian": [2779.8013, 12.768581, 2767.0327, 7.0992002, 5.669381, 1.749108, 3.920273], "tree_param": {"num_deleted": "0", "num_feature": "29", "num_nodes": "7", "size_leaf_vector": "0"}}, {"base_weights": [-1.0693058, -0.26004553, -1.0736969, 0.5467151, -0.8915089, -0.77796614, -0.0683814, 0.74495125, -0.054475445, -0.9438303, 0.001387702, 0.36969233, -1.0051202, 0.9476904, 0.25269726, -0.0057419175, -0.9957445, 0.7222916, -0.036882255, -0.06618226, -0.022111874, 0.06707458, 0.18286341, 0.67087895, -0.04531139, -1.0247109, -0.011287367, -0.0165317, 0.070211634, 0.050118174, -0.03341313, 0.071161985, -0.034757353, -0.021914301, -0.067066975], "categories": [], "categories_nodes": [], "categories_segments": [], "categories_sizes": [], "default_left": [0, 0, 0, 0, 0, 0, 0, 0, 0, 0, 0, 0, 0, 0, 0, 0, 0, 0, 0, 0, 0, 0, 0, 0, 0, 0, 0, 0, 0, 0, 0, 0, 0, 0, 0], "id": 71, "left_children": [1, 3, 5, 7, 9, 11, -1, 13, -1, 15, -1, 17, 19, 21, 23, -1, 25, 27, -1, -1, -1, -1, 29, 31, -1, 33, -1, -1, -1, -1, -1, -1, -1, -1, -1], "loss_changes": [35.47168, 28.819876, 1.4521484, 7.5997944, 1.5295105, 8.119757, 0.0, 2.0032425, 0.0, 1.2346554, 0.0, 2.306862, 0.21260452, 1.071125, 3.6722696, 0.0, 0.4838066, 1.9920502, 0.0, 0.0, 0.0, 0.0, 1.7432755, 3.8980997, 0.0, 0.1699543, 0.0, 0.0, 0.0, 0.0, 0.0, 0.0, 0.0, 0.0, 0.0], "parents": [2147483647, 0, 0, 1, 1, 2, 2, 3, 3, 4, 4, 5, 5, 7, 7, 9, 9, 11, 11, 12, 12, 13, 13, 14, 14, 16, 16, 17, 17, 22, 22, 23, 23, 25, 25], "right_children": [2, 4, 6, 8, 10, 12, -1, 14, -1, 16, -1, 18, 20, 22, 24, -1, 26, 28, -1, -1, -1, -1, 30, 32, -1, 34, -1, -1, -1, -1, -1, -1, -1, -1, -1], "split_conditions": [-3.371298, -0.037198335, -1.6188716, -0.33454514, 0.3659317, -1.4412483, -0.0683814, -1.6044632, -0.054475445, -3.1514113, 0.001387702, -2.5516953, 2.8064413, -3.3815567, 0.47598672, -0.0057419175, 0.7740268, -1.5517905, -0.036882255, -0.06618226, -0.022111874, 0.06707458, 0.15129167, -0.0046570017, -0.04531139, -1.3627387, -0.011287367, -0.0165317, 0.070211634, 0.050118174, -0.03341313, 0.071161985, -0.034757353, -0.021914301, -0.067066975], "split_indices": [13, 6, 16, 11, 20, 9, 0, 6, 0, 11, 0, 11, 28, 2, 20, 0, 23, 5, 0, 0, 0, 0, 7, 5, 0, 14, 0, 0, 0, 0, 0, 0, 0, 0, 0], "split_type": [0, 0, 0, 0, 0, 0, 0, 0, 0, 0, 0, 0, 0, 0, 0, 0, 0, 0, 0, 0, 0, 0, 0, 0, 0, 0, 0, 0, 0, 0, 0, 0, 0, 0, 0], "sum_hessian": [10059.865, 54.614964, 10005.25, 24.038048, 30.576916, 28.721182, 9976.529, 21.472345, 2.565702, 28.888552, 1.6883643, 4.641792, 24.07939, 14.553254, 6.9190917, 1.8131667, 27.075384, 3.558873, 1.0829191, 22.317472, 1.7619185, 12.446276, 2.1069784, 5.039176, 1.8799157, 25.906336, 1.1690499, 1.0835607, 2.4753122, 1.0756932, 1.0312852, 3.7442908, 1.2948853, 1.5891484, 24.317186], "tree_param": {"num_deleted": "0", "num_feature": "29", "num_nodes": "35", "size_leaf_vector": "0"}}, {"base_weights": [-1.1447618, -0.4108014, -0.026883932, 0.83811945, -0.02634691, 1.0959347, -0.15713517, 0.030521546, 0.002835115, 0.012355528, -0.016243117], "categories": [], "categories_nodes": [], "categories_segments": [], "categories_sizes": [], "default_left": [0, 0, 0, 0, 0, 0, 0, 0, 0, 0, 0], "id": 72, "left_children": [1, 3, -1, 5, -1, 7, 9, -1, -1, -1, -1], "loss_changes": [15.829102, 29.206316, 0.0, 3.2766132, 0.0, 1.8135595, 1.6025312, 0.0, 0.0, 0.0, 0.0], "parents": [2147483647, 0, 0, 1, 1, 3, 3, 5, 5, 6, 6], "right_children": [2, 4, -1, 6, -1, 8, 10, -1, -1, -1, -1], "split_conditions": [-3.5795255, -1.7944183, -0.026883932, 0.97490937, -0.02634691, 0.76791936, 1.4387041, 0.030521546, 0.002835115, 0.012355528, -0.016243117], "split_indices": [13, 9, 0, 4, 0, 27, 1, 0, 0, 0, 0], "split_type": [0, 0, 0, 0, 0, 0, 0, 0, 0, 0, 0], "sum_hessian": [6272.094, 30.669775, 6241.4243, 11.098602, 19.571175, 8.734752, 2.3638504, 6.9222617, 1.8124897, 1.0458134, 1.318037], "tree_param": {"num_deleted": "0", "num_feature": "29", "num_nodes": "11", "size_leaf_vector": "0"}}, {"base_weights": [-1.2082295, -0.35521233, -0.0038391366, 0.0031765131, -0.0030550298], "categories": [], "categories_nodes": [], "categories_segments": [], "categories_sizes": [], "default_left": [0, 0, 0, 0, 0], "id": 73, "left_children": [1, 3, -1, -1, -1], "loss_changes": [2.90271, 5.9097548, 0.0, 0.0, 0.0], "parents": [2147483647, 0, 0, 1, 1], "right_children": [2, 4, -1, -1, -1], "split_conditions": [-3.449334, -1.6854643, -0.0038391366, 0.0031765131, -0.0030550298], "split_indices": [13, 6, 0, 0, 0], "split_type": [0, 0, 0, 0, 0], "sum_hessian": [1092.3596, 4.9764433, 1087.3832, 1.3409331, 3.6355102], "tree_param": {"num_deleted": "0", "num_feature": "29", "num_nodes": "5", "size_leaf_vector": "0"}}, {"base_weights": [-1.2152014, -0.0004317751, -0.0014192568], "categories": [], "categories_nodes": [], "categories_segments": [], "categories_sizes": [], "default_left": [0, 0, 0], "id": 74, "left_children": [1, -1, -1], "loss_changes": [0.50946045, 0.0, 0.0], "parents": [2147483647, 0, 0], "right_children": [2, -1, -1], "split_conditions": [-2.4413621, -0.0004317751, -0.0014192568], "split_indices": [9, 0, 0], "split_type": [0, 0, 0], "sum_hessian": [411.53964, 1.7795181, 409.7601], "tree_param": {"num_deleted": "0", "num_feature": "29", "num_nodes": "3", "size_leaf_vector": "0"}}, {"base_weights": [-1.1861529, -0.31107008, -0.0037698438, 0.003178955, -0.002960941], "categories": [], "categories_nodes": [], "categories_segments": [], "categories_sizes": [], "default_left": [0, 0, 0, 0, 0], "id": 75, "left_children": [1, 3, -1, -1, -1], "loss_changes": [3.0059814, 5.6457353, 0.0, 0.0, 0.0], "parents": [2147483647, 0, 0, 1, 1], "right_children": [2, 4, -1, -1, -1], "split_conditions": [-3.449334, -1.6854643, -0.0037698438, 0.003178955, -0.002960941], "split_indices": [13, 6, 0, 0, 0], "split_type": [0, 0, 0, 0, 0], "sum_hessian": [1020.01917, 4.74396, 1015.2752, 1.3302929, 3.413667], "tree_param": {"num_deleted": "0", "num_feature": "29", "num_nodes": "5", "size_leaf_vector": "0"}}, {"base_weights": [-1.1927477, -0.00039372224, -0.0013932202], "categories": [], "categories_nodes": [], "categories_segments": [], "categories_sizes": [], "default_left": [0, 0, 0], "id": 76, "left_children": [1, -1, -1], "loss_changes": [0.5429077, 0.0, 0.0], "parents": [2147483647, 0, 0], "right_children": [2, -1, -1], "split_conditions": [-2.4413621, -0.00039372224, -0.0013932202], "split_indices": [9, 0, 0], "split_type": [0, 0, 0], "sum_hessian": [385.3232, 1.685276, 383.6379], "tree_param": {"num_deleted": "0", "num_feature": "29", "num_nodes": "3", "size_leaf_vector": "0"}}, {"base_weights": [-1.1687325, -0.21189025, -0.010104205, -0.009104971, 0.8140884, -0.00095633493, 0.009950879], "categories": [], "categories_nodes": [], "categories_segments": [], "categories_sizes": [], "default_left": [0, 0, 0, 0, 0, 0, 0], "id": 77, "left_children": [1, 3, -1, -1, 5, -1, -1], "loss_changes": [10.696533, 12.23856, 0.0, 0.0, 2.177802, 0.0, 0.0], "parents": [2147483647, 0, 0, 1, 1, 4, 4], "right_children": [2, 4, -1, -1, 6, -1, -1], "split_conditions": [-1.9076201, 0.65046245, -0.010104205, -0.009104971, -0.22352171, -0.00095633493, 0.009950879], "split_indices": [11, 10, 0, 0, 21, 0, 0], "split_type": [0, 0, 0, 0, 0, 0, 0], "sum_hessian": [2576.6162, 12.120014, 2564.4963, 6.628599, 5.491415, 1.6616724, 3.8297427], "tree_param": {"num_deleted": "0", "num_feature": "29", "num_nodes": "7", "size_leaf_vector": "0"}}, {"base_weights": [-1.0563068, -0.24446364, -1.0609109, 0.5158355, -0.85410947, -0.74190784, -0.06757302, 0.7046765, -0.05196356, -0.91086304, 0.0021724377, 0.37960783, -0.97899324, 0.9116874, 0.23172612, -0.0045581535, -0.9687702, 0.055765856, -0.02282679, -0.06473128, -0.024333721, 0.06536766, 0.16103806, 0.6400966, -0.042101238, -0.0077638105, -1.0019175, 0.04794571, -0.03225227, 0.067393795, -0.03268544, -0.019713692, -0.06586508], "categories": [], "categories_nodes": [], "categories_segments": [], "categories_sizes": [], "default_left": [0, 0, 0, 0, 0, 0, 0, 0, 0, 0, 0, 0, 0, 0, 0, 0, 0, 0, 0, 0, 0, 0, 0, 0, 0, 0, 0, 0, 0, 0, 0, 0, 0], "id": 78, "left_children": [1, 3, 5, 7, 9, 11, -1, 13, -1, 15, -1, 17, 19, 21, 23, -1, 25, -1, -1, -1, -1, -1, 27, 29, -1, -1, 31, -1, -1, -1, -1, -1, -1], "loss_changes": [32.239258, 23.769798, 1.5771484, 6.3675923, 1.4582138, 7.4149075, 0.0, 1.8154345, 0.0, 1.2255383, 0.0, 2.273372, 0.114824295, 1.0526218, 3.2114413, 0.0, 0.5751591, 0.0, 0.0, 0.0, 0.0, 0.0, 1.5920143, 3.323995, 0.0, 0.0, 0.22261429, 0.0, 0.0, 0.0, 0.0, 0.0, 0.0], "parents": [2147483647, 0, 0, 1, 1, 2, 2, 3, 3, 4, 4, 5, 5, 7, 7, 9, 9, 11, 11, 12, 12, 13, 13, 14, 14, 16, 16, 22, 22, 23, 23, 26, 26], "right_children": [2, 4, 6, 8, 10, 12, -1, 14, -1, 16, -1, 18, 20, 22, 24, -1, 26, -1, -1, -1, -1, -1, 28, 30, -1, -1, 32, -1, -1, -1, -1, -1, -1], "split_conditions": [-3.371298, -0.037198335, -1.6188716, -0.33454514, 0.3659317, -2.5516953, -0.06757302, -1.6044632, -0.05196356, -3.1514113, 0.0021724377, 0.08354268, 2.8064413, -3.3815567, 0.47598672, -0.0045581535, 0.22662362, 0.055765856, -0.02282679, -0.06473128, -0.024333721, 0.06536766, 0.15129167, -0.0046570017, -0.042101238, -0.0077638105, -1.3627387, 0.04794571, -0.03225227, 0.067393795, -0.03268544, -0.019713692, -0.06586508], "split_indices": [13, 6, 16, 11, 20, 11, 0, 6, 0, 11, 0, 27, 28, 2, 20, 0, 6, 0, 0, 0, 0, 0, 7, 5, 0, 0, 14, 0, 0, 0, 0, 0, 0], "split_type": [0, 0, 0, 0, 0, 0, 0, 0, 0, 0, 0, 0, 0, 0, 0, 0, 0, 0, 0, 0, 0, 0, 0, 0, 0, 0, 0, 0, 0, 0, 0, 0, 0], "sum_hessian": [8693.8545, 49.33129, 8644.523, 22.021633, 27.309656, 25.488934, 8619.034, 19.700447, 2.321186, 25.64559, 1.6640656, 4.3430934, 21.14584, 13.057504, 6.642943, 1.7996935, 23.845898, 2.4847562, 1.858337, 19.213434, 1.9324057, 10.998022, 2.059482, 4.753296, 1.8896472, 1.0745959, 22.771301, 1.0235356, 1.0359465, 3.5474625, 1.2058334, 1.5093585, 21.261944], "tree_param": {"num_deleted": "0", "num_feature": "29", "num_nodes": "33", "size_leaf_vector": "0"}}, {"base_weights": [-1.1262654, -0.37357196, -0.026455529, 0.83947337, -0.025784085, 1.2868444, 0.21853076, 0.033486247, 0.005682408, 0.020624949, -0.4800958, 0.0030769259, -0.018094672], "categories": [], "categories_nodes": [], "categories_segments": [], "categories_sizes": [], "default_left": [0, 0, 0, 0, 0, 0, 0, 0, 0, 0, 0, 0, 0], "id": 79, "left_children": [1, 3, -1, 5, -1, 7, 9, -1, -1, -1, 11, -1, -1], "loss_changes": [15.618652, 27.114536, 0.0, 2.9667006, 0.0, 0.6401768, 3.2462943, 0.0, 0.0, 0.0, 0.74909496, 0.0, 0.0], "parents": [2147483647, 0, 0, 1, 1, 3, 3, 5, 5, 6, 6, 10, 10], "right_children": [2, 4, -1, 6, -1, 8, 10, -1, -1, -1, 12, -1, -1], "split_conditions": [-3.5795255, -1.7944183, -0.026455529, 1.5456078, -0.025784085, 0.6732538, -0.75359356, 0.033486247, 0.005682408, 0.020624949, -3.4624453, 0.0030769259, -0.018094672], "split_indices": [13, 9, 0, 1, 0, 24, 12, 0, 0, 0, 4, 0, 0], "split_type": [0, 0, 0, 0, 0, 0, 0, 0, 0, 0, 0, 0, 0], "sum_hessian": [5700.046, 28.667105, 5671.3784, 10.691906, 17.9752, 5.5912027, 5.1007032, 4.590593, 1.0006096, 2.4842134, 2.61649, 1.0255765, 1.5909133], "tree_param": {"num_deleted": "0", "num_feature": "29", "num_nodes": "13", "size_leaf_vector": "0"}}, {"base_weights": [-1.0447319, -0.22177662, -1.049656, 0.49416608, -0.81617385, -0.7028417, -0.06686367, 0.6724721, -0.049439546, -0.8773858, 0.002827753, 0.38078853, -0.96023923, 0.8808256, 0.21826223, -0.0037278582, -0.9414976, -0.026161492, 0.74250996, -0.063934065, -0.01729384, 0.06392083, 0.009085158, -0.05049898, 0.5334649, -0.97868484, -0.0053306976, 0.06392017, 0.00040063573, 0.89091885, -0.02494043, -0.017574878, -0.06467385, 0.072432324, 0.0034709482], "categories": [], "categories_nodes": [], "categories_segments": [], "categories_sizes": [], "default_left": [0, 0, 0, 0, 0, 0, 0, 0, 0, 0, 0, 0, 0, 0, 0, 0, 0, 0, 0, 0, 0, 0, 0, 0, 0, 0, 0, 0, 0, 0, 0, 0, 0, 0, 0], "id": 80, "left_children": [1, 3, 5, 7, 9, 11, -1, 13, -1, 15, -1, 17, 19, 21, 23, -1, 25, -1, 27, -1, -1, -1, -1, -1, 29, 31, -1, -1, -1, 33, -1, -1, -1, -1, -1], "loss_changes": 