{"learner": {"attributes": {"best_iteration": "509", "best_ntree_limit": "510"}, "feature_names": ["V1", "V2", "V3", "V4", "V5", "V6", "V7", "V8", "V9", "V10", "V11", "V12", "V13", "V14", "V15", "V16", "V17", "V18", "V19", "V20", "V21", "V22", "V23", "V24", "V25", "V26", "V27", "V28", "normalizedAmount"], "feature_types": ["float", "float", "float", "float", "float", "float", "float", "float", "float", "float", "float", "float", "float", "float", "float", "float", "float", "float", "float", "float", "float", "float", "float", "float", "float", "float", "float", "float", "float"], "gradient_booster": {"model": {"gbtree_model_param": {"num_parallel_tree": "1", "num_trees": "510", "size_leaf_vector": "0"}, "tree_info": [0, 0, 0, 0, 0, 0, 0, 0, 0, 0, 0, 0, 0, 0, 0, 0, 0, 0, 0, 0, 0, 0, 0, 0, 0, 0, 0, 0, 0, 0, 0, 0, 0, 0, 0, 0, 0, 0, 0, 0, 0, 0, 0, 0, 0, 0, 0, 0, 0, 0, 0, 0, 0, 0, 0, 0, 0, 0, 0, 0, 0, 0, 0, 0, 0, 0, 0, 0, 0, 0, 0, 0, 0, 0, 0, 0, 0, 0, 0, 0, 0, 0, 0, 0, 0, 0, 0, 0, 0, 0, 0, 0, 0, 0, 0, 0, 0, 0, 0, 0, 0, 0, 0, 0, 0, 0, 0, 0, 0, 0, 0, 0, 0, 0, 0, 0, 0, 0, 0, 0, 0, 0, 0, 0, 0, 0, 0, 0, 0, 0, 0, 0, 0, 0, 0, 0, 0, 0, 0, 0, 0, 0, 0, 0, 0, 0, 0, 0, 0, 0, 0, 0, 0, 0, 0, 0, 0, 0, 0, 0, 0, 0, 0, 0, 0, 0, 0, 0, 0, 0, 0, 0, 0, 0, 0, 0, 0, 0, 0, 0, 0, 0, 0, 0, 0, 0, 0, 0, 0, 0, 0, 0, 0, 0, 0, 0, 0, 0, 0, 0, 0, 0, 0, 0, 0, 0, 0, 0, 0, 0, 0, 0, 0, 0, 0, 0, 0, 0, 0, 0, 0, 0, 0, 0, 0, 0, 0, 0, 0, 0, 0, 0, 0, 0, 0, 0, 0, 0, 0, 0, 0, 0, 0, 0, 0, 0, 0, 0, 0, 0, 0, 0, 0, 0, 0, 0, 0, 0, 0, 0, 0, 0, 0, 0, 0, 0, 0, 0, 0, 0, 0, 0, 0, 0, 0, 0, 0, 0, 0, 0, 0, 0, 0, 0, 0, 0, 0, 0, 0, 0, 0, 0, 0, 0, 0, 0, 0, 0, 0, 0, 0, 0, 0, 0, 0, 0, 0, 0, 0, 0, 0, 0, 0, 0, 0, 0, 0, 0, 0, 0, 0, 0, 0, 0, 0, 0, 0, 0, 0, 0, 0, 0, 0, 0, 0, 0, 0, 0, 0, 0, 0, 0, 0, 0, 0, 0, 0, 0, 0, 0, 0, 0, 0, 0, 0, 0, 0, 0, 0, 0, 0, 0, 0, 0, 0, 0, 0, 0, 0, 0, 0, 0, 0, 0, 0, 0, 0, 0, 0, 0, 0, 0, 0, 0, 0, 0, 0, 0, 0, 0, 0, 0, 0, 0, 0, 0, 0, 0, 0, 0, 0, 0, 0, 0, 0, 0, 0, 0, 0, 0, 0, 0, 0, 0, 0, 0, 0, 0, 0, 0, 0, 0, 0, 0, 0, 0, 0, 0, 0, 0, 0, 0, 0, 0, 0, 0, 0, 0, 0, 0, 0, 0, 0, 0, 0, 0, 0, 0, 0, 0, 0, 0, 0, 0, 0, 0, 0, 0, 0, 0, 0, 0, 0, 0, 0, 0, 0, 0, 0, 0, 0, 0, 0, 0, 0, 0, 0, 0, 0, 0, 0, 0, 0, 0, 0, 0, 0, 0, 0, 0, 0, 0, 0, 0, 0, 0, 0, 0, 0, 0, 0, 0, 0, 0, 0, 0, 0, 0, 0, 0], "trees": [{"base_weights": [-1.9912473, -0.93333334, -0.002323723, -0.0014830773, -0.0], "categories": [], "categories_nodes": [], "categories_segments": [], "categories_sizes": [], "default_left": [0, 0, 0, 0, 0], "id": 0, "left_children": [1, 3, -1, -1, -1], "loss_changes": [0.23754883, 1.1878788, 0.0, 0.0, 0.0], "parents": [2147483647, 0, 0, 1, 1], "right_children": [2, 4, -1, -1, -1], "split_conditions": [-2.4413621, 0.3658282, -0.002323723, -0.0014830773, -0.0], "split_indices": [9, 1, 0, 0, 0], "split_type": [0, 0, 0, 0, 0], "sum_hessian": [684.5, 2.75, 681.75, 1.75, 1.0], "tree_param": {"num_deleted": "0", "num_feature": "29", "num_nodes": "5", "size_leaf_vector": "0"}}, {"base_weights": [-1.9930183, -1.0588236, -0.0063242773, 0.0038017416, -0.0054310593], "categories": [], "categories_nodes": [], "categories_segments": [], "categories_sizes": [], "default_left": [0, 0, 0, 0, 0], "id": 1, "left_children": [1, 3, -1, -1, -1], "loss_changes": [3.4648438, 14.642017, 0.0, 0.0, 0.0], "parents": [2147483647, 0, 0, 1, 1], "right_children": [2, 4, -1, -1, -1], "split_conditions": [-1.8198367, -1.6854643, -0.0063242773, 0.0038017416, -0.0054310593], "split_indices": [11, 6, 0, 0, 0], "split_type": [0, 0, 0, 0, 0], "sum_hessian": [1861.0, 7.5, 1853.5, 1.5, 6.0], "tree_param": {"num_deleted": "0", "num_feature": "29", "num_nodes": "5", "size_leaf_vector": "0"}}, {"base_weights": [-1.9930834, -0.61904764, -0.0172118, -1.7857143, 1.5, -0.015900435, -0.0043063676, 0.01467355, 0.0019139411], "categories": [], "categories_nodes": [], "categories_segments": [], "categories_sizes": [], "default_left": [0, 0, 0, 0, 0, 0, 0, 0, 0], "id": 2, "left_children": [1, 3, -1, 5, 7, -1, -1, -1, -1], "loss_changes": [35.816406, 54.595238, 0.0, 0.16483688, 1.7037029, 0.0, 0.0, 0.0, 0.0], "parents": [2147483647, 0, 0, 1, 1, 3, 3, 4, 4], "right_children": [2, 4, -1, 6, 8, -1, -1, -1, -1], "split_conditions": [-1.9076201, 1.4425006, -0.0172118, -0.04143021, 0.88570327, -0.015900435, -0.0043063676, 0.01467355, 0.0019139411], "split_indices": [11, 3, 0, 1, 19, 0, 0, 0, 0], "split_type": [0, 0, 0, 0, 0, 0, 0, 0, 0], "sum_hessian": [5059.25, 20.0, 5039.25, 13.0, 7.0, 12.0, 1.0, 5.75, 1.25], "tree_param": {"num_deleted": "0", "num_feature": "29", "num_nodes": "9", "size_leaf_vector": "0"}}, {"base_weights": [-1.9950558, -1.0319635, -0.046794746, 1.5, -1.8562875, 1.6923077, -0.011705949, -0.0456532, 0.004256709, 0.042468093, 0.7692308, 0.026013222, -0.0], "categories": [], "categories_nodes": [], "categories_segments": [], "categories_sizes": [], "default_left": [0, 0, 0, 0, 0, 0, 0, 0, 0, 0, 0, 0, 0], "id": 3, "left_children": [1, 3, -1, 5, 7, 9, -1, -1, -1, -1, 11, -1, -1], "loss_changes": [46.984375, 117.056335, 0.0, 6.23077, 8.328644, 0.06439972, 0.0, 0.0, 0.0, 0.0, 0.8547008, 0.0, 0.0], "parents": [2147483647, 0, 0, 1, 1, 3, 3, 4, 4, 5, 5, 10, 10], "right_children": [2, 4, -1, 6, 8, 10, -1, -1, -1, -1, 12, -1, -1], "split_conditions": [-3.5795255, -2.1448512, -0.046794746, 0.84852815, 1.9006305, 0.2842349, -0.011705949, -0.0456532, 0.004256709, 0.042468093, 1.5456078, 0.026013222, -0.0], "split_indices": [13, 9, 0, 15, 3, 23, 0, 0, 0, 0, 1, 0, 0], "split_type": [0, 0, 0, 0, 0, 0, 0, 0, 0, 0, 0, 0, 0], "sum_hessian": [13752.5, 53.75, 13698.75, 13.0, 40.75, 12.0, 1.0, 39.0, 1.75, 9.75, 2.25, 1.25, 1.0], "tree_param": {"num_deleted": "0", "num_feature": "29", "num_nodes": "13", "size_leaf_vector": "0"}}, {"base_weights": [-1.9937943, -0.7482993, -0.1271985, 1.6170213, -1.8415842, 1.7555555, -0.06364197, 0.05091358, -1.8894472, 0.11947511, 0.47619048, -1.9261214, -0.95652175, 0.06853751, -0.33333334, -0.031820986, -0.12321086, 0.031820986, -0.08708902, -0.06364197, 0.031820986], "categories": [], "categories_nodes": [], "categories_segments": [], "categories_sizes": [], "default_left": [0, 0, 0, 0, 0, 0, 0, 0, 0, 0, 0, 0, 0, 0, 0, 0, 0, 0, 0, 0, 0], "id": 4, "left_children": [1, 3, -1, 5, 7, 9, -1, -1, 11, -1, 13, 15, 17, -1, 19, -1, -1, -1, -1, -1, -1], "loss_changes": [224.9375, 383.11536, 0.0, 18.795273, 14.281433, 6.115082, 0.0, 0.0, 1.5619202, 0.0, 2.9120882, 0.3668518, 4.1338677, 0.0, 2.1666667, 0.0, 0.0, 0.0, 0.0, 0.0, 0.0], "parents": [2147483647, 0, 0, 1, 1, 3, 3, 4, 4, 5, 5, 8, 8, 10, 10, 11, 11, 12, 12, 14, 14], "right_children": [2, 4, -1, 6, 8, 10, -1, -1, 12, -1, 14, 16, 18, -1, 20, -1, -1, -1, -1, -1, -1], "split_conditions": [-3.371298, -2.4504738, -0.1271985, 1.0239905, -2.287355, -3.3815567, -0.06364197, 0.05091358, 0.36053914, 0.11947511, 0.47598672, -3.0469804, -1.8355397, 0.06853751, 0.07661212, -0.031820986, -0.12321086, 0.031820986, -0.08708902, -0.06364197, 0.031820986], "split_indices": [13, 11, 0, 6, 6, 2, 0, 0, 20, 0, 20, 5, 8, 0, 22, 0, 0, 0, 0, 0, 0], "split_type": [0, 0, 0, 0, 0, 0, 0, 0, 0, 0, 0, 0, 0, 0, 0, 0, 0, 0, 0, 0, 0], "sum_hessian": [37384.25, 146.0, 37238.25, 46.0, 100.0, 44.0, 2.0, 1.5, 98.5, 39.75, 4.25, 93.75, 4.75, 2.25, 2.0, 1.0, 92.75, 1.0, 3.75, 1.0, 1.0], "tree_param": {"num_deleted": "0", "num_feature": "29", "num_nodes": "21", "size_leaf_vector": "0"}}, {"base_weights": [-1.8136319, -0.679754, -0.11570561, 1.4896961, -1.6846654, 1.619226, -0.059953894, 0.030362029, -1.738993, 0.1103029, 0.43050036, -0.031187447, -0.11178862, 0.06516729, -0.022628997], "categories": [], "categories_nodes": [], "categories_segments": [], "categories_sizes": [], "default_left": [0, 0, 0, 0, 0, 0, 0, 0, 0, 0, 0, 0, 0, 0, 0], "id": 5, "left_children": [1, 3, -1, 5, 7, 9, -1, -1, 11, -1, 13, -1, -1, -1, -1], "loss_changes": [185.07031, 320.69006, 0.0, 16.245651, 12.598999, 5.31398, 0.0, 0.0, 1.2842407, 0.0, 2.8104136, 0.0, 0.0, 0.0, 0.0], "parents": [2147483647, 0, 0, 1, 1, 3, 3, 4, 4, 5, 5, 8, 8, 10, 10], "right_children": [2, 4, -1, 6, 8, 10, -1, -1, 12, -1, 14, -1, -1, -1, -1], "split_conditions": [-3.371298, -2.4504738, -0.11570561, 1.0239905, -1.6612539, -3.3815567, -0.059953894, 0.030362029, -2.6037543, 0.1103029, 0.47598672, -0.031187447, -0.11178862, 0.06516729, -0.022628997], "split_indices": [13, 11, 0, 6, 6, 2, 0, 0, 9, 0, 20, 0, 0, 0, 0], "split_type": [0, 0, 0, 0, 0, 0, 0, 0, 0, 0, 0, 0, 0, 0, 0], "sum_hessian": [37016.227, 144.9473, 36871.28, 45.733418, 99.213875, 43.7378, 1.9956154, 2.2414963, 96.972374, 39.49386, 4.2439413, 1.7430553, 95.229324, 2.2457762, 1.9981654], "tree_param": {"num_deleted": "0", "num_feature": "29", "num_nodes": "15", "size_leaf_vector": "0"}}, {"base_weights": [-1.8141714, -0.9164745, -0.042554237, 1.433238, -1.6859097, 1.603148, -0.003938128, -0.04164845, 0.00643184, 0.04031999, 0.01697867], "categories": [], "categories_nodes": [], "categories_segments": [], "categories_sizes": [], "default_left": [0, 0, 0, 0, 0, 0, 0, 0, 0, 0, 0], "id": 6, "left_children": [1, 3, -1, 5, 7, 9, -1, -1, -1, -1, -1], "loss_changes": [40.64453, 100.62773, 0.0, 4.0629597, 8.036919, 0.0782814, 0.0, 0.0, 0.0, 0.0, 0.0], "parents": [2147483647, 0, 0, 1, 1, 3, 3, 4, 4, 5, 5], "right_children": [2, 4, -1, 6, 8, 10, -1, -1, -1, -1, -1], "split_conditions": [-3.5795255, -2.1448512, -0.042554237, 0.823373, 1.9006305, 0.2842349, -0.003938128, -0.04164845, 0.00643184, 0.04031999, 0.01697867], "split_indices": [13, 9, 0, 15, 3, 23, 0, 0, 0, 0, 0], "split_type": [0, 0, 0, 0, 0, 0, 0, 0, 0, 0, 0], "sum_hessian": [13616.226, 53.32193, 13562.904, 12.940704, 40.381226, 11.698463, 1.2422408, 38.64037, 1.7408571, 9.454696, 2.2437677], "tree_param": {"num_deleted": "0", "num_feature": "29", "num_nodes": "11", "size_leaf_vector": "0"}}, {"base_weights": [-1.8104931, -0.8297913, -0.0021129001, -0.00020204688, -0.0012674307], "categories": [], "categories_nodes": [], "categories_segments": [], "categories_sizes": [], "default_left": [0, 0, 0, 0, 0], "id": 7, "left_children": [1, 3, -1, -1, -1], "loss_changes": [0.31054688, 0.44208455, 0.0, 0.0, 0.0], "parents": [2147483647, 0, 0, 1, 1], "right_children": [2, 4, -1, -1, -1], "split_conditions": [-2.4413621, -0.65948886, -0.0021129001, -0.00020204688, -0.0012674307], "split_indices": [9, 2, 0, 0, 0], "split_type": [0, 0, 0, 0, 0], "sum_hessian": [677.71497, 2.7258573, 674.9891, 1.2405394, 1.4853177], "tree_param": {"num_deleted": "0", "num_feature": "29", "num_nodes": "5", "size_leaf_vector": "0"}}, {"base_weights": [-1.8120807, -0.9249623, -0.005750679, 0.0038266038, -0.00493989], "categories": [], "categories_nodes": [], "categories_segments": [], "categories_sizes": [], "default_left": [0, 0, 0, 0, 0], "id": 8, "left_children": [1, 3, -1, -1, -1], "loss_changes": [3.3764648, 13.301825, 0.0, 0.0, 0.0], "parents": [2147483647, 0, 0, 1, 1], "right_children": [2, 4, -1, -1, -1], "split_conditions": [-1.4902478, -1.6854643, -0.005750679, 0.0038266038, -0.00493989], "split_indices": [16, 6, 0, 0, 0], "split_type": [0, 0, 0, 0, 0], "sum_hessian": [1842.5627, 7.4405303, 1835.1222, 1.4982778, 5.9422526], "tree_param": {"num_deleted": "0", "num_feature": "29", "num_nodes": "5", "size_leaf_vector": "0"}}, {"base_weights": [-1.8123593, -0.5363954, -0.015652133, -0.013980695, 1.4253147, 0.014034972, 0.0015316737], "categories": [], "categories_nodes": [], "categories_segments": [], "categories_sizes": [], "default_left": [0, 0, 0, 0, 0, 0, 0], "id": 9, "left_children": [1, 3, -1, -1, 5, -1, -1], "loss_changes": [30.765625, 46.744892, 0.0, 0.0, 1.7388325, 0.0, 0.0], "parents": [2147483647, 0, 0, 1, 1, 4, 4], "right_children": [2, 4, -1, -1, 6, -1, -1], "split_conditions": [-1.9076201, 1.4425006, -0.015652133, -0.013980695, 0.88570327, 0.014034972, 0.0015316737], "split_indices": [11, 3, 0, 0, 19, 0, 0], "split_type": [0, 0, 0, 0, 0, 0, 0], "sum_hessian": [5009.127, 19.83909, 4989.2876, 12.877171, 6.9619203, 5.71924, 1.2426797], "tree_param": {"num_deleted": "0", "num_feature": "29", "num_nodes": "7", "size_leaf_vector": "0"}}, {"base_weights": [-1.7553946, -0.8866353, -0.0055709276, 0.0037708767, -0.004784024], "categories": [], "categories_nodes": [], "categories_segments": [], "categories_sizes": [], "default_left": [0, 0, 0, 0, 0], "id": 10, "left_children": [1, 3, -1, -1, -1], "loss_changes": [3.2685547, 12.662188, 0.0, 0.0, 0.0], "parents": [2147483647, 0, 0, 1, 1], "right_children": [2, 4, -1, -1, -1], "split_conditions": [-1.8198367, -1.6854643, -0.0055709276, 0.0037708767, -0.004784024], "split_indices": [11, 6, 0, 0, 0], "split_type": [0, 0, 0, 0, 0], "sum_hessian": [1827.1208, 7.391322, 1819.7296, 1.4965079, 5.8948145], "tree_param": {"num_deleted": "0", "num_feature": "29", "num_nodes": "5", "size_leaf_vector": "0"}}, {"base_weights": [-1.748256, -0.5117506, -0.015098807, -0.013484779, 1.3819909, 0.013637632, 0.0013978662], "categories": [], "categories_nodes": [], "categories_segments": [], "categories_sizes": [], "default_left": [0, 0, 0, 0, 0, 0, 0], "id": 11, "left_children": [1, 3, -1, -1, 5, -1, -1], "loss_changes": [28.694336, 43.459606, 0.0, 0.0, 1.6910782, 0.0, 0.0], "parents": [2147483647, 0, 0, 1, 1, 4, 4], "right_children": [2, 4, -1, -1, 6, -1, -1], "split_conditions": [-1.9076201, 1.4425006, -0.015098807, -0.013484779, 0.88570327, 0.013637632, 0.0013978662], "split_indices": [11, 3, 0, 0, 19, 0, 0], "split_type": [0, 0, 0, 0, 0, 0, 0], "sum_hessian": [4960.4077, 19.690672, 4940.7173, 12.761641, 6.929032, 5.690934, 1.2380975], "tree_param": {"num_deleted": "0", "num_feature": "29", "num_nodes": "7", "size_leaf_vector": "0"}}, {"base_weights": [-1.6779296, -0.6271321, -0.10705037, 1.3831418, -1.5625796, 1.5059519, -0.0567719, 0.02974272, -1.6147145, 0.10275354, 0.39196312, -0.029350532, -0.10380517, 0.06208196, -0.02344927], "categories": [], "categories_nodes": [], "categories_segments": [], "categories_sizes": [], "default_left": [0, 0, 0, 0, 0, 0, 0, 0, 0, 0, 0, 0, 0, 0, 0], "id": 12, "left_children": [1, 3, -1, 5, 7, 9, -1, -1, 11, -1, 13, -1, -1, -1, -1], "loss_changes": [155.91406, 271.4461, 0.0, 14.197861, 11.146423, 4.6929398, 0.0, 0.0, 1.0593414, 0.0, 2.6805394, 0.0, 0.0, 0.0, 0.0], "parents": [2147483647, 0, 0, 1, 1, 3, 3, 4, 4, 5, 5, 8, 8, 10, 10], "right_children": [2, 4, -1, 6, 8, 10, -1, -1, 12, -1, 14, -1, -1, -1, -1], "split_conditions": [-3.371298, -2.4504738, -0.10705037, 1.0239905, -1.6612539, -3.3815567, -0.0567719, 0.02974272, -2.6037543, 0.10275354, 0.47598672, -0.029350532, -0.10380517, 0.06208196, -0.02344927], "split_indices": [13, 11, 0, 6, 6, 2, 0, 0, 9, 0, 20, 0, 0, 0, 0], "split_type": [0, 0, 0, 0, 0, 0, 0, 0, 0, 0, 0, 0, 0, 0, 0], "sum_hessian": [36063.36, 142.19809, 35921.16, 45.00465, 97.193436, 43.020588, 1.9840611, 2.2343082, 94.95913, 38.78959, 4.230997, 1.736586, 93.22254, 2.23392, 1.9970769], "tree_param": {"num_deleted": "0", "num_feature": "29", "num_nodes": "15", "size_leaf_vector": "0"}}, {"base_weights": [-1.7300043, -0.86672145, -0.04058085, 1.3753017, -1.6060195, 1.5374064, -0.0035715268, -0.039732356, 0.006591756, 0.7087015, 0.03907445, 0.023538535, 0.002205522], "categories": [], "categories_nodes": [], "categories_segments": [], "categories_sizes": [], "default_left": [0, 0, 0, 0, 0, 0, 0, 0, 0, 0, 0, 0, 0], "id": 13, "left_children": [1, 3, -1, 5, 7, 9, -1, -1, -1, 11, -1, -1, -1], "loss_changes": [37.214844, 91.29472, 0.0, 3.6689014, 7.506027, 0.19414139, 0.0, 0.0, 0.0, 0.53764296, 0.0, 0.0, 0.0], "parents": [2147483647, 0, 0, 1, 1, 3, 3, 4, 4, 5, 5, 9, 9], "right_children": [2, 4, -1, 6, 8, 10, -1, -1, -1, 12, -1, -1, -1], "split_conditions": [-3.5795255, -2.1448512, -0.04058085, 0.823373, 1.9006305, -2.7245605, -0.0035715268, -0.039732356, 0.006591756, -0.15545015, 0.03907445, 0.023538535, 0.002205522], "split_indices": [13, 9, 0, 15, 3, 8, 0, 0, 0, 19, 0, 0, 0], "split_type": [0, 0, 0, 0, 0, 0, 0, 0, 0, 0, 0, 0, 0], "sum_hessian": [13430.786, 52.746433, 13378.04, 12.866555, 39.87988, 11.626711, 1.2398435, 38.140392, 1.7394838, 2.4682856, 9.158426, 1.2355517, 1.2327337], "tree_param": {"num_deleted": "0", "num_feature": "29", "num_nodes": "13", "size_leaf_vector": "0"}}, {"base_weights": [-1.7566235, -0.7997613, -0.0020500612, -0.00018740042, -0.0012273857], "categories": [], "categories_nodes": [], "categories_segments": [], "categories_sizes": [], "default_left": [0, 0, 0, 0, 0], "id": 14, "left_children": [1, 3, -1, -1, -1], "loss_changes": [0.3137207, 0.43122602, 0.0, 0.0, 0.0], "parents": [2147483647, 0, 0, 1, 1], "right_children": [2, 4, -1, -1, -1], "split_conditions": [-2.4413621, 0.5672715, -0.0020500612, -0.00018740042, -0.0012273857], "split_indices": [9, 5, 0, 0, 0], "split_type": [0, 0, 0, 0, 0], "sum_hessian": [672.3611, 2.7075925, 669.6535, 1.2334654, 1.4741272], "tree_param": {"num_deleted": "0", "num_feature": "29", "num_nodes": "5", "size_leaf_vector": "0"}}, {"base_weights": [-1.6392019, -0.7256632, -0.0019131358, -0.00014489423, -0.0011334402], "categories": [], "categories_nodes": [], "categories_segments": [], "categories_sizes": [], "default_left": [0, 0, 0, 0, 0], "id": 15, "left_children": [1, 3, -1, -1, -1], "loss_changes": [0.35498047, 0.41963828, 0.0, 0.0, 0.0], "parents": [2147483647, 0, 0, 1, 1], "right_children": [2, 4, -1, -1, -1], "split_conditions": [-1.7843223, 0.4068808, -0.0019131358, -0.00014489423, -0.0011334402], "split_indices": [11, 2, 0, 0, 0], "split_type": [0, 0, 0, 0, 0], "sum_hessian": [653.1553, 2.63941, 650.5158, 1.20629, 1.43312], "tree_param": {"num_deleted": "0", "num_feature": "29", "num_nodes": "5", "size_leaf_vector": "0"}}, {"base_weights": [-1.6360257, -0.7908877, -0.00519264, 0.0037322093, -0.0044434746], "categories": [], "categories_nodes": [], "categories_segments": [], "categories_sizes": [], "default_left": [0, 0, 0, 0, 0], "id": 16, "left_children": [1, 3, -1, -1, -1], "loss_changes": [3.2080078, 11.5475, 0.0, 0.0, 0.0], "parents": [2147483647, 0, 0, 1, 1], "right_children": [2, 4, -1, -1, -1], "split_conditions": [-1.8198367, -1.6854643, -0.00519264, 0.0037322093, -0.0044434746], "split_indices": [11, 6, 0, 0, 0], "split_type": [0, 0, 0, 0, 0], "sum_hessian": [1773.0785, 7.2162538, 1765.8622, 1.4909642, 5.72529], "tree_param": {"num_deleted": "0", "num_feature": "29", "num_nodes": "5", "size_leaf_vector": "0"}}, {"base_weights": [-1.6242135, -0.44872126, -0.014028748, -0.012483474, 1.319768, 0.013070335, 0.0011870267], "categories": [], "categories_nodes": [], "categories_segments": [], "categories_sizes": [], "default_left": [0, 0, 0, 0, 0, 0, 0], "id": 17, "left_children": [1, 3, -1, -1, 5, -1, -1], "loss_changes": [25.364258, 37.64482, 0.0, 0.0, 1.6189222, 0.0, 0.0], "parents": [2147483647, 0, 0, 1, 1, 4, 4], "right_children": [2, 4, -1, -1, 6, -1, -1], "split_conditions": [-1.9076201, 1.4425006, -0.014028748, -0.012483474, 0.88570327, 0.013070335, 0.0011870267], "split_indices": [11, 3, 0, 0, 19, 0, 0], "split_type": [0, 0, 0, 0, 0, 0, 0], "sum_hessian": [4799.524, 19.190657, 4780.333, 12.370967, 6.8196893, 5.5988135, 1.2208755], "tree_param": {"num_deleted": "0", "num_feature": "29", "num_nodes": "7", "size_leaf_vector": "0"}}, {"base_weights": [-1.5156407, -0.5576454, -1.5194806, 1.2431798, -1.4059204, -1.3503464, -0.096726604, 1.3580089, -0.05195021, 0.0445702, -1.4477137, 0.6714553, -1.4777163, 1.461745, 0.33879623, -0.09441093, -0.61370325, 1.4057633, -0.058005147, -0.030398795, -0.09478493, 1.5090574, 0.7290105, -0.03267811, 0.81628424, 0.02326778, -0.062378746, 0.005395658, 0.119353265, 0.09773685, 0.032452967, -0.0059858947, 0.06788746, 0.007837821, 0.07062559], "categories": [], "categories_nodes": [], "categories_segments": [], "categories_sizes": [], "default_left": [0, 0, 0, 0, 0, 0, 0, 0, 0, 0, 0, 0, 0, 0, 0, 0, 0, 0, 0, 0, 0, 0, 0, 0, 0, 0, 0, 0, 0, 0, 0, 0, 0, 0, 0], "id": 18, "left_children": [1, 3, 5, 7, 9, 11, -1, 13, -1, -1, 15, 17, 19, 21, 23, -1, 25, 27, -1, -1, -1, 29, 31, -1, 33, -1, -1, -1, -1, -1, -1, -1, -1, -1, -1], "loss_changes": [123.046875, 209.55128, 0.0703125, 11.535278, 9.195358, 22.404846, 0.0, 3.9598923, 0.0, 0.0, 1.8170166, 7.808239, 0.20202637, 0.21526337, 2.5329208, 0.0, 2.319733, 2.4646893, 0.0, 0.0, 0.0, 0.14177704, 1.2776995, 0.0, 0.6190033, 0.0, 0.0, 0.0, 0.0, 0.0, 0.0, 0.0, 0.0, 0.0, 0.0], "parents": [2147483647, 0, 0, 1, 1, 2, 2, 3, 3, 4, 4, 5, 5, 7, 7, 10, 10, 11, 11, 12, 12, 13, 13, 14, 14, 16, 16, 17, 17, 21, 21, 22, 22, 24, 24], "right_children": [2, 4, 6, 8, 10, 12, -1, 14, -1, -1, 16, 18, 20, 22, 24, -1, 26, 28, -1, -1, -1, 30, 32, -1, 34, -1, -1, -1, -1, -1, -1, -1, -1, -1, -1], "split_conditions": [-3.371298, -2.4504738, -1.6188716, 1.0239905, -2.287355, -3.1514113, -0.096726604, -3.3815567, -0.05195021, 0.0445702, 0.36053914, -1.4412483, -2.4504738, 1.557637, -0.33092004, -0.09441093, -0.33581793, -0.12415086, -0.058005147, -0.030398795, -0.09478493, -3.7620974, -0.06040292, -0.03267811, -1.7779944, 0.02326778, -0.062378746, 0.005395658, 0.119353265, 0.09773685, 0.032452967, -0.0059858947, 0.06788746, 0.007837821, 0.07062559], "split_indices": [13, 11, 16, 6, 6, 11, 0, 2, 0, 0, 20, 9, 11, 12, 28, 0, 28, 19, 0, 0, 0, 2, 26, 0, 8, 0, 0, 0, 0, 0, 0, 0, 0, 0, 0], "split_type": [0, 0, 0, 0, 0, 0, 0, 0, 0, 0, 0, 0, 0, 0, 0, 0, 0, 0, 0, 0, 0, 0, 0, 0, 0, 0, 0, 0, 0, 0, 0, 0, 0, 0, 0], "sum_hessian": [33678.133, 135.0331, 33543.098, 43.090214, 91.94288, 82.150444, 33460.95, 41.137146, 1.9530658, 1.4823128, 90.46057, 4.6154575, 77.53499, 36.942883, 4.194265, 85.99505, 4.4655223, 3.2292774, 1.3861802, 1.374927, 76.16006, 33.70695, 3.235932, 1.4790212, 2.7152438, 1.2165838, 3.2489383, 1.1565626, 2.0727148, 32.307423, 1.399527, 1.15132, 2.0846121, 1.2298957, 1.4853482], "tree_param": {"num_deleted": "0", "num_feature": "29", "num_nodes": "35", "size_leaf_vector": "0"}}, {"base_weights": [-1.5937285, -0.7721522, -0.037387274, 1.3052167, -1.4718473, 1.452745, -0.0024915359, -0.03662758, 0.008244113, 0.037522033, 0.6474127, 0.022302596, 0.00045717764], "categories": [], "categories_nodes": [], "categories_segments": [], "categories_sizes": [], "default_left": [0, 0, 0, 0, 0, 0, 0, 0, 0, 0, 0, 0, 0], "id": 19, "left_children": [1, 3, -1, 5, 7, 9, -1, -1, -1, -1, 11, -1, -1], "loss_changes": [32.71289, 77.54224, 0.0, 2.994852, 7.206291, 0.46171188, 0.0, 0.0, 0.0, 0.0, 0.67637944, 0.0, 0.0], "parents": [2147483647, 0, 0, 1, 1, 3, 3, 4, 4, 5, 5, 10, 10], "right_children": [2, 4, -1, 6, 8, 10, -1, -1, -1, -1, 12, -1, -1], "split_conditions": [-3.5795255, -2.1448512, -0.037387274, 0.823373, 1.9006305, 0.76791936, -0.0024915359, -0.03662758, 0.008244113, 0.037522033, -8.717339, 0.022302596, 0.00045717764], "split_indices": [13, 9, 0, 15, 3, 27, 0, 0, 0, 0, 0, 0, 0], "split_type": [0, 0, 0, 0, 0, 0, 0, 0, 0, 0, 0, 0, 0], "sum_hessian": [12884.08, 51.026054, 12833.054, 12.638225, 38.38783, 11.416032, 1.2221929, 36.667774, 1.7200569, 8.789419, 2.6266122, 1.4194528, 1.2071594], "tree_param": {"num_deleted": "0", "num_feature": "29", "num_nodes": "13", "size_leaf_vector": "0"}}, {"base_weights": [-1.4006128, -0.5077893, -1.4042675, 1.1287047, -1.2887174, -1.2336075, -0.08939468, 1.2383174, -0.04770061, 0.028190052, -1.338764, 0.4904958, -0.08751015, 1.3411223, 0.29334778, -0.5124601, -1.366779, 0.09047347, -0.5954546, 1.3871578, 0.6531697, 0.054997463, -0.026238525, -0.060179498, 0.009035364, -0.7057911, -0.0883781, 0.005433381, -0.059310142, 0.0899326, 0.029230408, 0.064003795, -0.0100187175, -0.06606867, 0.0126786595], "categories": [], "categories_nodes": [], "categories_segments": [], "categories_sizes": [], "default_left": [0, 0, 0, 0, 0, 0, 0, 0, 0, 0, 0, 0, 0, 0, 0, 0, 0, 0, 0, 0, 0, 0, 0, 0, 0, 0, 0, 0, 0, 0, 0, 0, 0, 0, 0], "id": 20, "left_children": [1, 3, 5, 7, 9, 11, -1, 13, -1, -1, 15, 17, -1, 19, 21, 23, 25, -1, 27, 29, 31, -1, -1, -1, -1, 33, -1, -1, -1, -1, -1, -1, -1, -1, -1], "loss_changes": [99.5, 163.46695, 0.26171875, 9.46907, 8.070877, 19.343979, 0.0, 3.4512062, 0.0, 0.0, 1.2466431, 7.4609346, 0.0, 0.21546555, 2.4358776, 1.3695642, 0.18870544, 0.0, 0.93279016, 0.12854767, 1.3330044, 0.0, 0.0, 0.0, 0.0, 1.597264, 0.0, 0.0, 0.0, 0.0, 0.0, 0.0, 0.0, 0.0, 0.0], "parents": [2147483647, 0, 0, 1, 1, 2, 2, 3, 3, 4, 4, 5, 5, 7, 7, 10, 10, 11, 11, 13, 13, 14, 14, 15, 15, 16, 16, 18, 18, 19, 19, 20, 20, 25, 25], "right_children": [2, 4, 6, 8, 10, 12, -1, 14, -1, -1, 16, 18, -1, 20, 22, 24, 26, -1, 28, 30, 32, -1, -1, -1, -1, 34, -1, -1, -1, -1, -1, -1, -1, -1, -1], "split_conditions": [-3.371298, -2.4504738, -1.6188716, 1.0239905, -1.6612539, -2.5516953, -0.08939468, -3.3815567, -0.04770061, 0.028190052, -0.33629578, 0.08354268, -0.08751015, 1.557637, 0.47598672, 0.13802859, -1.3344228, 0.09047347, -1.5798343, -3.7620974, -0.10355986, 0.054997463, -0.026238525, -0.060179498, 0.009035364, 1.7256349, -0.0883781, 0.005433381, -0.059310142, 0.0899326, 0.029230408, 0.064003795, -0.0100187175, -0.06606867, 0.0126786595], "split_indices": [13, 11, 16, 6, 6, 11, 0, 2, 0, 0, 28, 27, 0, 12, 20, 25, 14, 0, 8, 2, 24, 0, 0, 0, 0, 0, 0, 0, 0, 0, 0, 0, 0, 0, 0], "split_type": [0, 0, 0, 0, 0, 0, 0, 0, 0, 0, 0, 0, 0, 0, 0, 0, 0, 0, 0, 0, 0, 0, 0, 0, 0, 0, 0, 0, 0, 0, 0, 0, 0, 0, 0], "sum_hessian": [30711.436, 125.77181, 30585.664, 40.485676, 85.28613, 75.56429, 30510.1, 38.57513, 1.9105449, 2.1750855, 83.111046, 5.541603, 70.02269, 34.41215, 4.1629796, 3.358039, 79.75301, 2.8171043, 2.7244985, 31.301214, 3.1109354, 2.1771185, 1.9858613, 1.7529463, 1.6050926, 3.6229608, 76.13005, 1.1479745, 1.5765241, 29.941063, 1.360152, 2.0003374, 1.1105982, 2.5422847, 1.080676], "tree_param": {"num_deleted": "0", "num_feature": "29", "num_nodes": "35", "size_leaf_vector": "0"}}, {"base_weights": [-1.4898669, -0.6954375, -0.034954153, 1.0143422, -0.034356188, 1.4479494, -0.5479618, 0.037658215, 0.5720457, 0.0086719, -0.024103124, 0.020668639, -0.0005876667], "categories": [], "categories_nodes": [], "categories_segments": [], "categories_sizes": [], "default_left": [0, 0, 0, 0, 0, 0, 0, 0, 0, 0, 0, 0, 0], "id": 21, "left_children": [1, 3, -1, 5, -1, 7, 9, -1, 11, -1, -1, -1, -1], "loss_changes": [29.353516, 67.28083, 0.0, 11.697348, 0.0, 0.89034843, 2.248661, 0.0, 0.6802697, 0.0, 0.0, 0.0, 0.0], "parents": [2147483647, 0, 0, 1, 1, 3, 3, 5, 5, 6, 6, 8, 8], "right_children": [2, 4, -1, 6, -1, 8, 10, -1, 12, -1, -1, -1, -1], "split_conditions": [-3.5795255, -1.7944183, -0.034954153, 0.97490937, -0.034356188, 0.76791936, 1.4387041, 0.037658215, -8.717339, 0.0086719, -0.024103124, 0.020668639, -0.0005876667], "split_indices": [13, 9, 0, 4, 0, 27, 1, 0, 0, 0, 0, 0, 0], "split_type": [0, 0, 0, 0, 0, 0, 0, 0, 0, 0, 0, 0, 0], "sum_hessian": [12179.241, 48.84265, 12130.398, 15.096106, 33.746548, 11.873805, 3.222301, 9.327605, 2.5461996, 1.1878431, 2.034458, 1.3599938, 1.1862059], "tree_param": {"num_deleted": "0", "num_feature": "29", "num_nodes": "13", "size_leaf_vector": "0"}}, {"base_weights": [-1.5460987, -0.66173136, -0.0018045941, -0.0010521783, -0.00010810049], "categories": [], "categories_nodes": [], "categories_segments": [], "categories_sizes": [], "default_left": [0, 0, 0, 0, 0], "id": 22, "left_children": [1, 3, -1, -1, -1], "loss_changes": [0.390625, 0.40354013, 0.0, 0.0, 0.0], "parents": [2147483647, 0, 0, 1, 1], "right_children": [2, 4, -1, -1, -1], "split_conditions": [-2.4413621, -0.21419863, -0.0018045941, -0.0010521783, -0.00010810049], "split_indices": [9, 10, 0, 0, 0], "split_type": [0, 0, 0, 0, 0], "sum_hessian": [628.24603, 2.5507152, 625.6953, 1.3790609, 1.1716543], "tree_param": {"num_deleted": "0", "num_feature": "29", "num_nodes": "5", "size_leaf_vector": "0"}}, {"base_weights": [-1.5417713, -0.72474796, -0.004893837, 0.0035817367, -0.0041817175], "categories": [], "categories_nodes": [], "categories_segments": [], "categories_sizes": [], "default_left": [0, 0, 0, 0, 0], "id": 23, "left_children": [1, 3, -1, -1, -1], "loss_changes": [2.977539, 10.326054, 0.0, 0.0, 0.0], "parents": [2147483647, 0, 0, 1, 1], "right_children": [2, 4, -1, -1, -1], "split_conditions": [-1.8198367, -1.6854643, -0.004893837, 0.0035817367, -0.0041817175], "split_indices": [11, 6, 0, 0, 0], "split_type": [0, 0, 0, 0, 0], "sum_hessian": [1702.9856, 6.999753, 1695.9858, 1.4816655, 5.5180874], "tree_param": {"num_deleted": "0", "num_feature": "29", "num_nodes": "5", "size_leaf_vector": "0"}}, {"base_weights": [-1.5271864, -0.40322113, -0.0131917745, -0.011702379, 1.2509104, 0.012545522, 0.00067270576], "categories": [], "categories_nodes": [], "categories_segments": [], "categories_sizes": [], "default_left": [0, 0, 0, 0, 0, 0, 0], "id": 24, "left_children": [1, 3, -1, -1, 5, -1, -1], "loss_changes": [22.466797, 32.612682, 0.0, 0.0, 1.7395935, 0.0, 0.0], "parents": [2147483647, 0, 0, 1, 1, 4, 4], "right_children": [2, 4, -1, -1, 6, -1, -1], "split_conditions": [-1.9076201, 1.4425006, -0.0131917745, -0.011702379, 0.88570327, 0.012545522, 0.00067270576], "split_indices": [11, 3, 0, 0, 19, 0, 0], "split_type": [0, 0, 0, 0, 0, 0, 0], "sum_hessian": [4590.939, 18.558563, 4572.3804, 11.87662, 6.681942, 5.4789186, 1.2030234], "tree_param": {"num_deleted": "0", "num_feature": "29", "num_nodes": "7", "size_leaf_vector": "0"}}, {"base_weights": [-1.5099277, -0.70130086, -0.0047929017, 0.0035239763, -0.0040876474], "categories": [], "categories_nodes": [], "categories_segments": [], "categories_sizes": [], "default_left": [0, 0, 0, 0, 0], "id": 25, "left_children": [1, 3, -1, -1, -1], "loss_changes": [2.8989258, 9.871759, 0.0, 0.0, 0.0], "parents": [2147483647, 0, 0, 1, 1], "right_children": [2, 4, -1, -1, -1], "split_conditions": [-1.8198367, -1.6854643, -0.0047929017, 0.0035239763, -0.0040876474], "split_indices": [11, 6, 0, 0, 0], "split_type": [0, 0, 0, 0, 0], "sum_hessian": [1672.2566, 6.898514, 1665.3582, 1.4731961, 5.425318], "tree_param": {"num_deleted": "0", "num_feature": "29", "num_nodes": "5", "size_leaf_vector": "0"}}, {"base_weights": [-1.4921472, -0.38916057, -0.012889466, -1.3254833, 1.2191085, -0.011871528, -0.0036296588, 0.01225279, 0.0006094824], "categories": [], "categories_nodes": [], "categories_segments": [], "categories_sizes": [], "default_left": [0, 0, 0, 0, 0, 0, 0, 0, 0], "id": 26, "left_children": [1, 3, -1, 5, 7, -1, -1, -1, -1], "loss_changes": [21.283203, 30.607132, 0.0, 0.023797989, 1.6767845, 0.0, 0.0, 0.0, 0.0], "parents": [2147483647, 0, 0, 1, 1, 3, 3, 4, 4], "right_children": [2, 4, -1, 6, 8, -1, -1, -1, -1], "split_conditions": [-1.9076201, 1.4425006, -0.012889466, -0.54517686, 0.88570327, -0.011871528, -0.0036296588, 0.01225279, 0.0006094824], "split_indices": [11, 3, 0, 12, 19, 0, 0, 0, 0], "split_type": [0, 0, 0, 0, 0, 0, 0, 0, 0], "sum_hessian": [4492.2676, 18.252283, 4474.015, 11.647199, 6.6050835, 10.507853, 1.1393462, 5.407772, 1.1973115], "tree_param": {"num_deleted": "0", "num_feature": "29", "num_nodes": "9", "size_leaf_vector": "0"}}, {"base_weights": [-1.3461828, -0.47588822, -1.3497971, 1.0751307, -1.2262985, -1.1744204, -0.08592895, 1.1822428, -0.045257244, 0.027941655, -1.2770514, 0.629438, -1.307413, 1.2860405, 0.2678613, -0.46417287, -1.3057998, 1.2638786, -0.053069375, -0.025892826, -0.08394716, 1.3331189, 0.6056247, 0.052878495, -0.026491223, -0.057196338, 0.010505468, -0.6514886, -0.084526956, 0.0044586593, 0.10669888, 0.08651753, 0.027336845, -0.012291926, 0.061502546, -0.06342064, 0.015785016], "categories": [], "categories_nodes": [], "categories_segments": [], "categories_sizes": [], "default_left": [0, 0, 0, 0, 0, 0, 0, 0, 0, 0, 0, 0, 0, 0, 0, 0, 0, 0, 0, 0, 0, 0, 0, 0, 0, 0, 0, 0, 0, 0, 0, 0, 0, 0, 0, 0, 0], "id": 27, "left_children": [1, 3, 5, 7, 9, 11, -1, 13, -1, -1, 15, 17, 19, 21, 23, 25, 27, 29, -1, -1, -1, 31, 33, -1, -1, -1, -1, 35, -1, -1, -1, -1, -1, -1, -1, -1, -1], "loss_changes": [89.89453, 141.66072, 0.3984375, 8.465046, 7.46859, 18.15319, 0.0, 3.259327, 0.0, 0.0, 1.2533264, 6.2856417, 0.17203522, 0.27650833, 2.3232813, 1.3157738, 0.2511902, 2.0149856, 0.0, 0.0, 0.0, 0.14896011, 1.3456783, 0.0, 0.0, 0.0, 0.0, 1.6389692, 0.0, 0.0, 0.0, 0.0, 0.0, 0.0, 0.0, 0.0, 0.0], "parents": [2147483647, 0, 0, 1, 1, 2, 2, 3, 3, 4, 4, 5, 5, 7, 7, 10, 10, 11, 11, 12, 12, 13, 13, 14, 14, 15, 15, 16, 16, 17, 17, 21, 21, 22, 22, 27, 27], "right_children": [2, 4, 6, 8, 10, 12, -1, 14, -1, -1, 16, 18, 20, 22, 24, 26, 28, 30, -1, -1, -1, 32, 34, -1, -1, -1, -1, 36, -1, -1, -1, -1, -1, -1, -1, -1, -1], "split_conditions": [-3.371298, -2.4504738, -1.6188716, 1.0239905, -1.6612539, -3.1514113, -0.08592895, -3.3815567, -0.045257244, 0.027941655, -0.33629578, -1.4412483, -2.4504738, 1.557637, 0.47598672, 0.13802859, -1.3344228, -0.26565027, -0.053069375, -0.025892826, -0.08394716, -3.7620974, 0.15112661, 0.052878495, -0.026491223, -0.057196338, 0.010505468, 0.102357484, -0.084526956, 0.0044586593, 0.10669888, 0.08651753, 0.027336845, -0.012291926, 0.061502546, -0.06342064, 0.015785016], "split_indices": [13, 11, 16, 6, 6, 11, 0, 2, 0, 0, 28, 9, 11, 12, 20, 25, 14, 25, 0, 0, 0, 2, 18, 0, 0, 0, 0, 25, 0, 0, 0, 0, 0, 0, 0, 0, 0], "split_type": [0, 0, 0, 0, 0, 0, 0, 0, 0, 0, 0, 0, 0, 0, 0, 0, 0, 0, 0, 0, 0, 0, 0, 0, 0, 0, 0, 0, 0, 0, 0, 0, 0, 0, 0, 0, 0], "sum_hessian": [28780.822, 119.57928, 28661.242, 38.849247, 80.73003, 71.23954, 28590.004, 36.97047, 1.8787783, 2.1612983, 78.568726, 4.6353016, 66.60424, 32.83651, 4.13396, 3.2694402, 75.299286, 3.3284788, 1.3068228, 1.3086946, 65.29555, 29.814365, 3.022144, 2.1500156, 1.9839442, 1.6805923, 1.5888478, 3.4844282, 71.81486, 1.1554959, 2.172983, 28.480194, 1.3341722, 1.0848248, 1.9373193, 2.440477, 1.0439512], "tree_param": {"num_deleted": "0", "num_feature": "29", "num_nodes": "37", "size_leaf_vector": "0"}}, {"base_weights": [-1.4474056, -0.66659474, -0.033959292, 0.9838962, -0.033343684, 1.401261, -0.5218359, 0.036463834, 0.55027884, 0.00864434, -0.023383109, 0.020111497, -0.00075300527], "categories": [], "categories_nodes": [], "categories_segments": [], "categories_sizes": [], "default_left": [0, 0, 0, 0, 0, 0, 0, 0, 0, 0, 0, 0, 0], "id": 28, "left_children": [1, 3, -1, 5, -1, 7, 9, -1, 11, -1, -1, -1, -1], "loss_changes": [27.664062, 62.203003, 0.0, 10.716562, 0.0, 0.8330116, 2.14392, 0.0, 0.660292, 0.0, 0.0, 0.0, 0.0], "parents": [2147483647, 0, 0, 1, 1, 3, 3, 5, 5, 6, 6, 8, 8], "right_children": [2, 4, -1, 6, -1, 8, 10, -1, 12, -1, -1, -1, -1], "split_conditions": [-3.5795255, -1.7944183, -0.033959292, 0.97490937, -0.033343684, 0.76791936, 1.4387041, 0.036463834, -8.717339, 0.00864434, -0.023383109, 0.020111497, -0.00075300527], "split_indices": [13, 9, 0, 4, 0, 27, 1, 0, 0, 0, 0, 0, 0], "split_type": [0, 0, 0, 0, 0, 0, 0, 0, 0, 0, 0, 0, 0], "sum_hessian": [11794.27, 47.62375, 11746.6455, 14.889095, 32.734653, 11.712078, 3.1770172, 9.193945, 2.5181332, 1.1863567, 1.9906604, 1.33538, 1.1827531], "tree_param": {"num_deleted": "0", "num_feature": "29", "num_nodes": "13", "size_leaf_vector": "0"}}, {"base_weights": [-1.5155472, -0.6418356, -0.0017689696, -9.8117045e-05, -0.0010252773], "categories": [], "categories_nodes": [], "categories_segments": [], "categories_sizes": [], "default_left": [0, 0, 0, 0, 0], "id": 29, "left_children": [1, 3, -1, -1, -1], "loss_changes": [0.3897705, 0.39234602, 0.0, 0.0, 0.0], "parents": [2147483647, 0, 0, 1, 1], "right_children": [2, 4, -1, -1, -1], "split_conditions": [-2.4413621, -0.72993135, -0.0017689696, -9.8117045e-05, -0.0010252773], "split_indices": [9, 13, 0, 0, 0], "split_type": [0, 0, 0, 0, 0], "sum_hessian": [617.6788, 2.5141337, 615.1646, 1.1570874, 1.3570462], "tree_param": {"num_deleted": "0", "num_feature": "29", "num_nodes": "5", "size_leaf_vector": "0"}}, {"base_weights": [-1.4486954, -0.591114, -0.0016910592, -6.7549765e-05, -0.000961651], "categories": [], "categories_nodes": [], "categories_segments": [], "categories_sizes": [], "default_left": [0, 0, 0, 0, 0], "id": 30, "left_children": [1, 3, -1, -1, -1], "loss_changes": [0.41589355, 0.37832916, 0.0, 0.0, 0.0], "parents": [2147483647, 0, 0, 1, 1], "right_children": [2, 4, -1, -1, -1], "split_conditions": [-2.4413621, 0.21490003, -0.0016910592, -6.7549765e-05, -0.000961651], "split_indices": [9, 11, 0, 0, 0], "split_type": [0, 0, 0, 0, 0], "sum_hessian": [589.51306, 2.4139352, 587.0991, 1.1173345, 1.2966006], "tree_param": {"num_deleted": "0", "num_feature": "29", "num_nodes": "5", "size_leaf_vector": "0"}}, {"base_weights": [-1.4425306, -0.63522524, -0.0045795506, 0.0035043522, -0.0038837087], "categories": [], "categories_nodes": [], "categories_segments": [], "categories_sizes": [], "default_left": [0, 0, 0, 0, 0], "id": 31, "left_children": [1, 3, -1, -1, -1], "loss_changes": [2.9172363, 9.221328, 0.0, 0.0, 0.0], "parents": [2147483647, 0, 0, 1, 1], "right_children": [2, 4, -1, -1, -1], "split_conditions": [-3.449334, -1.6854643, -0.0045795506, 0.0035043522, -0.0038837087], "split_indices": [13, 6, 0, 0, 0], "split_type": [0, 0, 0, 0, 0], "sum_hessian": [1592.8853, 6.6472006, 1586.2382, 1.4625483, 5.1846523], "tree_param": {"num_deleted": "0", "num_feature": "29", "num_nodes": "5", "size_leaf_vector": "0"}}, {"base_weights": [-1.4239124, -0.35599303, -0.01230108, 1.1737728, -1.259451, 0.011703348, 0.00076985394, -0.0113814855, -0.0028628947], "categories": [], "categories_nodes": [], "categories_segments": [], "categories_sizes": [], "default_left": [0, 0, 0, 0, 0, 0, 0, 0, 0], "id": 32, "left_children": [1, 3, -1, 5, 7, -1, -1, -1, -1], "loss_changes": [19.179688, 27.08268, 0.0, 1.3628826, 0.2581463, 0.0, 0.0, 0.0, 0.0], "parents": [2147483647, 0, 0, 1, 1, 3, 3, 4, 4], "right_children": [2, 4, -1, 6, 8, -1, -1, -1, -1], "split_conditions": [-1.9076201, -3.6181154, -0.01230108, 0.88570327, 0.30779883, 0.011703348, 0.00076985394, -0.0113814855, -0.0028628947], "split_indices": [11, 13, 0, 19, 23, 0, 0, 0, 0], "split_type": [0, 0, 0, 0, 0, 0, 0, 0, 0], "sum_hessian": [4256.0586, 17.525976, 4238.5327, 6.396316, 11.129661, 5.247623, 1.1486932, 10.032982, 1.0966791], "tree_param": {"num_deleted": "0", "num_feature": "29", "num_nodes": "9", "size_leaf_vector": "0"}}, {"base_weights": [-1.3772771, -0.61969894, -0.03231692, 0.96022487, -0.03192058, 1.3519862, -0.46518558, 0.035444114, 0.48878422, 0.009206888, -0.022163434, 0.01882417, -0.0015951658], "categories": [], "categories_nodes": [], "categories_segments": [], "categories_sizes": [], "default_left": [0, 0, 0, 0, 0, 0, 0, 0, 0, 0, 0, 0, 0], "id": 33, "left_children": [1, 3, -1, 5, -1, 7, 9, -1, 11, -1, -1, -1, -1], "loss_changes": [24.871094, 55.89881, 0.0, 9.2601185, 0.0, 0.9907074, 2.057116, 0.0, 0.65745217, 0.0, 0.0, 0.0, 0.0], "parents": [2147483647, 0, 0, 1, 1, 3, 3, 5, 5, 6, 6, 8, 8], "right_children": [2, 4, -1, 6, -1, 8, 10, -1, 12, -1, -1, -1, -1], "split_conditions": [-3.5795255, -1.7944183, -0.03231692, 0.97490937, -0.03192058, 0.76791936, 1.4387041, 0.035444114, -8.717339, 0.009206888, -0.022163434, 0.01882417, -0.0015951658], "split_indices": [13, 9, 0, 4, 0, 27, 1, 0, 0, 0, 0, 0, 0], "split_type": [0, 0, 0, 0, 0, 0, 0, 0, 0, 0, 0, 0, 0], "sum_hessian": [11002.994, 45.457466, 10957.537, 14.456436, 31.001032, 11.3802, 3.0762353, 8.947629, 2.4325714, 1.1712568, 1.9049785, 1.2699493, 1.162622], "tree_param": {"num_deleted": "0", "num_feature": "29", "num_nodes": "13", "size_leaf_vector": "0"}}, {"base_weights": [-1.2766927, -0.43595165, -1.2802695, 0.996241, -1.1429067, -1.0964235, -0.081505634, 1.0880065, -0.060574804, 0.026441975, -1.1950189, 0.4735919, -0.07944176, 1.1767656, -0.032237243, -0.40781638, -1.2250208, 0.08253378, -0.54085684, 0.7776038, 0.08226164, -0.05362627, 0.011907309, -0.5818614, -1.248362, 0.00673405, -0.055451605, -0.13445045, 1.1305971, -0.059629936, 0.018070146, -0.0802767, -0.026923778, 0.06047717, -0.075306594, 0.016232325, 0.07809202], "categories": [], "categories_nodes": [], "categories_segments": [], "categories_sizes": [], "default_left": [0, 0, 0, 0, 0, 0, 0, 0, 0, 0, 0, 0, 0, 0, 0, 0, 0, 0, 0, 0, 0, 0, 0, 0, 0, 0, 0, 0, 0, 0, 0, 0, 0, 0, 0, 0, 0], "id": 34, "left_children": [1, 3, 5, 7, 9, 11, -1, 13, -1, -1, 15, 17, -1, 19, -1, 21, 23, -1, 25, 27, -1, -1, -1, 29, 31, -1, -1, 33, 35, -1, -1, -1, -1, -1, -1, -1, -1], "loss_changes": [76.640625, 112.78186, 0.578125, 7.645401, 6.529686, 16.154396, 0.0, 5.6598244, 0.0, 0.0, 1.204277, 6.1148396, 0.0, 0.57543564, 0.0, 1.2305416, 0.30941772, 0.0, 0.8635098, 3.4356189, 0.0, 0.0, 0.0, 1.5847493, 0.17230988, 0.0, 0.0, 5.379018, 0.31698895, 0.0, 0.0, 0.0, 0.0, 0.0, 0.0, 0.0, 0.0], "parents": [2147483647, 0, 0, 1, 1, 2, 2, 3, 3, 4, 4, 5, 5, 7, 7, 10, 10, 11, 11, 13, 13, 15, 15, 16, 16, 18, 18, 19, 19, 23, 23, 24, 24, 27, 27, 28, 28], "right_children": [2, 4, 6, 8, 10, 12, -1, 14, -1, -1, 16, 18, -1, 20, -1, 22, 24, -1, 26, 28, -1, -1, -1, 30, 32, -1, -1, 34, 36, -1, -1, -1, -1, -1, -1, -1, -1], "split_conditions": [-3.371298, -2.4504738, -1.6188716, 1.8811939, -1.6612539, -2.5516953, -0.081505634, -2.148996, -0.060574804, 0.026441975, -0.33629578, 0.08354268, -0.07944176, 2.9581912, -0.032237243, -0.038730837, -1.3344228, 0.08253378, -0.50973135, -0.33092004, 0.08226164, -0.05362627, 0.011907309, 1.7256349, 0.9116359, 0.00673405, -0.055451605, 0.2625669, -2.2566779, -0.059629936, 0.018070146, -0.0802767, -0.026923778, 0.06047717, -0.075306594, 0.016232325, 0.07809202], "split_indices": [13, 11, 16, 15, 6, 11, 0, 2, 0, 0, 28, 27, 0, 3, 0, 20, 14, 0, 24, 28, 0, 0, 0, 0, 20, 0, 0, 21, 4, 0, 0, 0, 0, 0, 0, 0, 0], "split_type": [0, 0, 0, 0, 0, 0, 0, 0, 0, 0, 0, 0, 0, 0, 0, 0, 0, 0, 0, 0, 0, 0, 0, 0, 0, 0, 0, 0, 0, 0, 0, 0, 0, 0, 0, 0, 0], "sum_hessian": [25670.305, 109.26539, 25561.04, 35.975277, 73.290115, 64.28577, 25496.752, 34.778477, 1.196801, 2.1458864, 71.144226, 5.482003, 58.80377, 33.192833, 1.5856447, 3.1476505, 67.996574, 2.8725088, 2.6094942, 9.19916, 23.993671, 1.5779727, 1.569678, 3.2893083, 64.70727, 1.1123965, 1.4970978, 2.7396474, 6.4595118, 2.2743225, 1.0149859, 63.182312, 1.5249567, 1.3929789, 1.3466684, 1.002643, 5.456869], "tree_param": {"num_deleted": "0", "num_feature": "29", "num_nodes": "37", "size_leaf_vector": "0"}}, {"base_weights": [-1.3197368, -0.57970655, -0.030969966, 0.9334145, -0.030704742, 1.3023553, -0.41480145, 0.38729036, 0.034259476, 0.009736803, -0.021124866, 0.018712204, -0.0052626254], "categories": [], "categories_nodes": [], "categories_segments": [], "categories_sizes": [], "default_left": [0, 0, 0, 0, 0, 0, 0, 0, 0, 0, 0, 0, 0], "id": 35, "left_children": [1, 3, -1, 5, -1, 7, 9, 11, -1, -1, -1, -1, -1], "loss_changes": [22.533203, 50.11046, 0.0, 7.9894333, 0.0, 1.2009354, 1.985477, 0.9752511, 0.0, 0.0, 0.0, 0.0, 0.0], "parents": [2147483647, 0, 0, 1, 1, 3, 3, 5, 5, 6, 6, 7, 7], "right_children": [2, 4, -1, 6, -1, 8, 10, 12, -1, -1, -1, -1, -1], "split_conditions": [-3.5795255, -1.7944183, -0.030969966, 0.97490937, -0.030704742, -2.7245605, 1.4387041, 2.0097823, 0.034259476, 0.009736803, -0.021124866, 0.018712204, -0.0052626254], "split_indices": [13, 9, 0, 4, 0, 8, 1, 18, 0, 0, 0, 0, 0], "split_type": [0, 0, 0, 0, 0, 0, 0, 0, 0, 0, 0, 0, 0], "sum_hessian": [10177.686, 43.149307, 10134.536, 13.975947, 29.173359, 10.999844, 2.9761038, 2.1551445, 8.844699, 1.1549848, 1.821119, 1.1053456, 1.0497988], "tree_param": {"num_deleted": "0", "num_feature": "29", "num_nodes": "13", "size_leaf_vector": "0"}}, {"base_weights": [-1.2225742, -0.40383357, -1.2261541, 0.9248643, -1.073389, -1.0288405, -0.07806405, 1.0165455, -0.056751873, 0.024793923, -1.1273909, 0.4668954, -0.07577387, 1.1064774, -0.030447494, -1.1740243, -0.49363652, 1.0093695, -0.053199746, 0.70559233, 0.07824076, -0.014823124, -1.1865801, -0.87167364, 0.03438983, -0.026325297, 0.10229418, -0.14491178, 1.0536679, -0.47187567, -1.2152152, -0.061992764, -0.016684532, 0.057210617, -0.070152186, 0.07377692, 0.014474858, -0.053651545, 0.019054985, -0.078377165, -0.030321077], "categories": [], "categories_nodes": [], "categories_segments": [], "categories_sizes": [], "default_left": [0, 0, 0, 0, 0, 0, 0, 0, 0, 0, 0, 0, 0, 0, 0, 0, 0, 0, 0, 0, 0, 0, 0, 0, 0, 0, 0, 0, 0, 0, 0, 0, 0, 0, 0, 0, 0, 0, 0, 0, 0], "id": 36, "left_children": [1, 3, 5, 7, 9, 11, -1, 13, -1, -1, 15, 17, -1, 19, -1, 21, 23, 25, -1, 27, -1, -1, 29, 31, -1, -1, -1, 33, 35, 37, 39, -1, -1, -1, -1, -1, -1, -1, -1, -1, -1], "loss_changes": [65.83984, 89.972885, 0.7734375, 6.577528, 5.729904, 14.698662, 0.0, 4.9501457, 0.0, 0.0, 1.3367767, 5.3830686, 0.0, 0.6756935, 0.0, 0.42871857, 2.8826978, 4.908982, 0.0, 3.023085, 0.0, 0.0, 0.62670135, 0.050534487, 0.0, 0.0, 0.0, 4.6834493, 0.34707355, 1.3670471, 0.08529663, 0.0, 0.0, 0.0, 0.0, 0.0, 0.0, 0.0, 0.0, 0.0, 0.0], "parents": [2147483647, 0, 0, 1, 1, 2, 2, 3, 3, 4, 4, 5, 5, 7, 7, 10, 10, 11, 11, 13, 13, 15, 15, 16, 16, 17, 17, 19, 19, 22, 22, 23, 23, 27, 27, 28, 28, 29, 29, 30, 30], "right_children": [2, 4, 6, 8, 10, 12, -1, 14, -1, -1, 16, 18, -1, 20, -1, 22, 24, 26, -1, 28, -1, -1, 30, 32, -1, -1, -1, 34, 36, 38, 40, -1, -1, -1, -1, -1, -1, -1, -1, -1, -1], "split_conditions": [-3.371298, -2.4504738, -1.6188716, 1.8811939, -1.6612539, -2.5516953, -0.07806405, -2.148996, -0.056751873, 0.024793923, 0.19264135, -1.4412483, -0.07577387, 2.9581912, -0.030447494, -2.6037543, -0.19974662, -1.5517905, -0.053199746, -0.33092004, 0.07824076, -0.014823124, -1.3344228, -0.1779498, 0.03438983, -0.026325297, 0.10229418, 0.2625669, -0.6684313, -0.014472556, 0.7740268, -0.061992764, -0.016684532, 0.057210617, -0.070152186, 0.07377692, 0.014474858, -0.053651545, 0.019054985, -0.078377165, -0.030321077], "split_indices": [13, 11, 16, 15, 6, 11, 0, 2, 0, 0, 20, 9, 0, 3, 0, 9, 0, 5, 0, 28, 0, 0, 14, 7, 0, 0, 0, 21, 0, 26, 23, 0, 0, 0, 0, 0, 0, 0, 0, 0, 0], "split_type": [0, 0, 0, 0, 0, 0, 0, 0, 0, 0, 0, 0, 0, 0, 0, 0, 0, 0, 0, 0, 0, 0, 0, 0, 0, 0, 0, 0, 0, 0, 0, 0, 0, 0, 0, 0, 0, 0, 0, 0, 0], "sum_hessian": [22631.871, 99.018486, 22532.854, 33.050396, 65.968094, 57.4435, 22475.41, 31.88178, 1.1686158, 2.1271334, 63.840958, 5.4228473, 52.020653, 30.317831, 1.5639498, 58.67126, 5.1696973, 3.987678, 1.435169, 8.695983, 21.62185, 1.029845, 57.641415, 3.9006019, 1.2690954, 1.2710778, 2.7166004, 2.6948757, 6.0011077, 2.8938115, 54.747604, 2.8273895, 1.0732124, 1.3184156, 1.3764601, 4.963737, 1.0373704, 1.890895, 1.0029166, 52.911972, 1.8356314], "tree_param": {"num_deleted": "0", "num_feature": "29", "num_nodes": "41", "size_leaf_vector": "0"}}, {"base_weights": [-1.3918713, -0.54473436, -0.0016248532, -3.9723305e-05, -0.00090330926], "categories": [], "categories_nodes": [], "categories_segments": [], "categories_sizes": [], "default_left": [0, 0, 0, 0, 0], "id": 37, "left_children": [1, 3, -1, -1, -1], "loss_changes": [0.43774414, 0.36245143, 0.0, 0.0, 0.0], "parents": [2147483647, 0, 0, 1, 1], "right_children": [2, 4, -1, -1, -1], "split_conditions": [-2.4413621, -0.11736423, -0.0016248532, -3.9723305e-05, -0.00090330926], "split_indices": [9, 16, 0, 0, 0], "split_type": [0, 0, 0, 0, 0], "sum_hessian": [559.1123, 2.304504, 556.8078, 1.073579, 1.230925], "tree_param": {"num_deleted": "0", "num_feature": "29", "num_nodes": "5", "size_leaf_vector": "0"}}, {"base_weights": [-1.3854082, -0.57375157, -0.004398831, 0.003479874, -0.0037007786], "categories": [], "categories_nodes": [], "categories_segments": [], "categories_sizes": [], "default_left": [0, 0, 0, 0, 0], "id": 38, "left_children": [1, 3, -1, -1, -1], "loss_changes": [2.9499512, 8.6080475, 0.0, 0.0, 0.0], "parents": [2147483647, 0, 0, 1, 1], "right_children": [2, 4, -1, -1, -1], "split_conditions": [-3.449334, -1.6854643, -0.004398831, 0.003479874, -0.0037007786], "split_indices": [13, 6, 0, 0, 0], "split_type": [0, 0, 0, 0, 0], "sum_hessian": [1507.4232, 6.369952, 1501.0532, 1.4480902, 4.921862], "tree_param": {"num_deleted": "0", "num_feature": "29", "num_nodes": "5", "size_leaf_vector": "0"}}, {"base_weights": [-1.3666241, -0.3247249, -0.011807316, -1.2052858, 1.1232425, -0.0029324237, -0.01084048, 0.011515021, -2.8191886e-05], "categories": [], "categories_nodes": [], "categories_segments": [], "categories_sizes": [], "default_left": [0, 0, 0, 0, 0, 0, 0, 0, 0], "id": 39, "left_children": [1, 3, -1, 5, 7, -1, -1, -1, -1], "loss_changes": [17.452637, 23.96066, 0.0, 0.102617264, 1.7433996, 0.0, 0.0, 0.0, 0.0], "parents": [2147483647, 0, 0, 1, 1, 3, 3, 4, 4], "right_children": [2, 4, -1, 6, 8, -1, -1, -1, -1], "split_conditions": [-1.9076201, 1.4425006, -0.011807316, -0.106317654, 0.88570327, -0.0029324237, -0.01084048, 0.011515021, -2.8191886e-05], "split_indices": [11, 3, 0, 14, 19, 0, 0, 0, 0], "split_type": [0, 0, 0, 0, 0, 0, 0, 0, 0], "sum_hessian": [4003.8171, 16.730522, 3987.0867, 10.507895, 6.222626, 1.0397356, 9.46816, 5.0732546, 1.1493719], "tree_param": {"num_deleted": "0", "num_feature": "29", "num_nodes": "9", "size_leaf_vector": "0"}}, {"base_weights": [-1.3285012, -0.30547705, -0.011478816, 1.09833, -1.1649226, 0.011096583, 0.0002615622, -0.010603858, -0.0021898777], "categories": [], "categories_nodes": [], "categories_segments": [], "categories_sizes": [], "default_left": [0, 0, 0, 0, 0, 0, 0, 0, 0], "id": 40, "left_children": [1, 3, -1, 5, 7, -1, -1, -1, -1], "loss_changes": [16.21582, 21.927961, 0.0, 1.3845139, 0.35678864, 0.0, 0.0, 0.0, 0.0], "parents": [2147483647, 0, 0, 1, 1, 3, 3, 4, 4], "right_children": [2, 4, -1, 6, 8, -1, -1, -1, -1], "split_conditions": [-1.9076201, -3.6181154, -0.011478816, 0.88570327, 0.4122884, 0.011096583, 0.0002615622, -0.010603858, -0.0021898777], "split_indices": [11, 13, 0, 19, 20, 0, 0, 0, 0], "split_type": [0, 0, 0, 0, 0, 0, 0, 0, 0], "sum_hessian": [3803.2158, 16.114435, 3787.1016, 6.0137315, 10.100702, 4.9299555, 1.0837762, 9.087519, 1.0131844], "tree_param": {"num_deleted": "0", "num_feature": "29", "num_nodes": "9", "size_leaf_vector": "0"}}, {"base_weights": [-1.2809105, -0.5361107, -0.030062625, 0.9340499, -0.029713934, 1.2801243, -0.35593286, 0.33591503, 0.033954706, 0.010606976, -0.020077936, 0.017950378, -0.006410379], "categories": [], "categories_nodes": [], "categories_segments": [], "categories_sizes": [], "default_left": [0, 0, 0, 0, 0, 0, 0, 0, 0, 0, 0, 0, 0], "id": 41, "left_children": [1, 3, -1, 5, -1, 7, 9, 11, -1, -1, -1, -1, -1], "loss_changes": [21.732422, 46.41248, 0.0, 6.946227, 0.0, 1.3899441, 1.9542136, 1.0203788, 0.0, 0.0, 0.0, 0.0, 0.0], "parents": [2147483647, 0, 0, 1, 1, 3, 3, 5, 5, 6, 6, 7, 7], "right_children": [2, 4, -1, 6, -1, 8, 10, 12, -1, -1, -1, -1, -1], "split_conditions": [-3.5795255, -1.7944183, -0.030062625, 0.97490937, -0.029713934, -2.7245605, 1.4387041, 2.0097823, 0.033954706, 0.010606976, -0.020077936, 0.017950378, -0.006410379], "split_indices": [13, 9, 0, 4, 0, 8, 1, 18, 0, 0, 0, 0, 0], "split_type": [0, 0, 0, 0, 0, 0, 0, 0, 0, 0, 0, 0, 0], "sum_hessian": [9512.927, 40.965023, 9471.962, 13.538872, 27.426153, 10.681026, 2.8578453, 2.0853827, 8.595643, 1.1309443, 1.726901, 1.0710998, 1.014283], "tree_param": {"num_deleted": "0", "num_feature": "29", "num_nodes": "13", "size_leaf_vector": "0"}}, {"base_weights": [-1.186001, -0.3815331, -1.1896095, 0.87130845, -1.0229583, -0.98418915, -0.075739846, 0.9633065, -0.053883214, 0.0228692, -1.0786293, 0.41775808, -0.07322416, 1.0542024, -0.02820483, -0.277338, -1.1141871, 0.9118442, -0.05069719, 0.65615726, 0.075261764, 0.01660018, -0.04820591, -0.71598595, -1.1700844, -0.024739645, 0.09227774, 0.87554705, -0.030750202, 0.33364677, -0.06822045, -0.020423051, -0.075615145, 0.06828304, -0.012036468, -0.01612455, 0.049290862], "categories": [], "categories_nodes": [], "categories_segments": [], "categories_sizes": [], "default_left": [0, 0, 0, 0, 0, 0, 0, 0, 0, 0, 0, 0, 0, 0, 0, 0, 0, 0, 0, 0, 0, 0, 0, 0, 0, 0, 0, 0, 0, 0, 0, 0, 0, 0, 0, 0, 0], "id": 42, "left_children": [1, 3, 5, 7, 9, 11, -1, 13, -1, -1, 15, 17, -1, 19, -1, 21, 23, 25, -1, 27, -1, -1, -1, 29, 31, -1, -1, 33, -1, 35, -1, -1, -1, -1, -1, -1, -1], "loss_changes": [58.216797, 74.59642, 0.82421875, 5.809511, 5.0911064, 12.841072, 0.0, 4.3611794, 0.0, 0.0, 1.3721619, 4.539542, 0.0, 0.70113754, 0.0, 1.1893953, 0.41240692, 4.0514145, 0.0, 2.7465687, 0.0, 0.0, 0.0, 3.9035115, 0.34942627, 0.0, 0.0, 1.9156551, 0.0, 1.0155576, 0.0, 0.0, 0.0, 0.0, 0.0, 0.0, 0.0], "parents": [2147483647, 0, 0, 1, 1, 2, 2, 3, 3, 4, 4, 5, 5, 7, 7, 10, 10, 11, 11, 13, 13, 15, 15, 16, 16, 17, 17, 19, 19, 23, 23, 24, 24, 27, 27, 29, 29], "right_children": [2, 4, 6, 8, 10, 12, -1, 14, -1, -1, 16, 18, -1, 20, -1, 22, 24, 26, -1, 28, -1, -1, -1, 30, 32, -1, -1, 34, -1, 36, -1, -1, -1, -1, -1, -1, -1], "split_conditions": [-3.371298, -2.4504738, -1.6188716, 1.8811939, -1.6612539, -2.5516953, -0.075739846, -2.148996, -0.053883214, 0.0228692, -0.33629578, -1.4412483, -0.07322416, 2.9581912, -0.02820483, 1.6178727, -1.861052, -1.5517905, -0.05069719, 1.4953154, 0.075261764, 0.01660018, -0.04820591, -0.15238471, -2.1898568, -0.024739645, 0.09227774, 3.1280565, -0.030750202, -0.34506604, -0.06822045, -0.020423051, -0.075615145, 0.06828304, -0.012036468, -0.01612455, 0.049290862], "split_indices": [13, 11, 16, 15, 6, 11, 0, 2, 0, 0, 28, 9, 0, 3, 0, 17, 18, 5, 0, 18, 0, 0, 0, 19, 9, 0, 0, 1, 0, 7, 0, 0, 0, 0, 0, 0, 0], "split_type": [0, 0, 0, 0, 0, 0, 0, 0, 0, 0, 0, 0, 0, 0, 0, 0, 0, 0, 0, 0, 0, 0, 0, 0, 0, 0, 0, 0, 0, 0, 0, 0, 0, 0, 0, 0, 0], "sum_hessian": [20208.438, 90.71818, 20117.719, 30.597086, 60.12109, 51.99242, 20065.727, 29.45883, 1.1382575, 2.1164043, 58.004684, 5.355306, 46.637115, 27.90585, 1.55298, 2.8385215, 55.166164, 3.9836085, 1.3716975, 8.295673, 19.610176, 1.5536816, 1.2848399, 8.490502, 46.675663, 1.247079, 2.7365294, 7.1503315, 1.1453418, 2.166031, 6.3244715, 1.3622676, 45.313393, 6.025525, 1.1248064, 1.1114283, 1.0546026], "tree_param": {"num_deleted": "0", "num_feature": "29", "num_nodes": "37", "size_leaf_vector": "0"}}, {"base_weights": [-1.3544326, -0.5084499, -0.0015812747, -1.3069859e-05, -0.0008628877], "categories": [], "categories_nodes": [], "categories_segments": [], "categories_sizes": [], "default_left": [0, 0, 0, 0, 0], "id": 43, "left_children": [1, 3, -1, -1, -1], "loss_changes": [0.4734497, 0.3632142, 0.0, 0.0, 0.0], "parents": [2147483647, 0, 0, 1, 1], "right_children": [2, 4, -1, -1, -1], "split_conditions": [-2.4413621, -1.0011787, -0.0015812747, -1.3069859e-05, -0.0008628877], "split_indices": [9, 12, 0, 0, 0], "split_type": [0, 0, 0, 0, 0], "sum_hessian": [535.24817, 2.2198608, 533.0283, 1.0399077, 1.179953], "tree_param": {"num_deleted": "0", "num_feature": "29", "num_nodes": "5", "size_leaf_vector": "0"}}, {"base_weights": [-1.3476937, -0.5244022, -0.0042797015, 0.0035046176, -0.003579711], "categories": [], "categories_nodes": [], "categories_segments": [], "categories_sizes": [], "default_left": [0, 0, 0, 0, 0], "id": 44, "left_children": [1, 3, -1, -1, -1], "loss_changes": [3.0549316, 8.324943, 0.0, 0.0, 0.0], "parents": [2147483647, 0, 0, 1, 1], "right_children": [2, 4, -1, -1, -1], "split_conditions": [-3.449334, -1.6854643, -0.0042797015, 0.0035046176, -0.003579711], "split_indices": [13, 6, 0, 0, 0], "split_type": [0, 0, 0, 0, 0], "sum_hessian": [1440.1416, 6.1655636, 1433.9761, 1.4456404, 4.7199235], "tree_param": {"num_deleted": "0", "num_feature": "29", "num_nodes": "5", "size_leaf_vector": "0"}}, {"base_weights": [-1.3153021, -0.0005487949, -0.001535724], "categories": [], "categories_nodes": [], "categories_segments": [], "categories_sizes": [], "default_left": [0, 0, 0], "id": 45, "left_children": [1, -1, -1], "loss_changes": [0.49542236, 0.0, 0.0], "parents": [2147483647, 0, 0], "right_children": [2, -1, -1], "split_conditions": [-2.4413621, -0.0005487949, -0.001535724], "split_indices": [9, 0, 0], "split_type": [0, 0, 0], "sum_hessian": [506.49384, 2.1168995, 504.37695], "tree_param": {"num_deleted": "0", "num_feature": "29", "num_nodes": "3", "size_leaf_vector": "0"}}, {"base_weights": [-1.3084921, -0.47336617, -0.0041558836, 0.0034926105, -0.0034452716], "categories": [], "categories_nodes": [], "categories_segments": [], "categories_sizes": [], "default_left": [0, 0, 0, 0, 0], "id": 46, "left_children": [1, 3, -1, -1, -1], "loss_changes": [3.118164, 7.8808117, 0.0, 0.0, 0.0], "parents": [2147483647, 0, 0, 1, 1], "right_children": [2, 4, -1, -1, -1], "split_conditions": [-3.449334, -1.6854643, -0.0041558836, 0.0034926105, -0.0034452716], "split_indices": [13, 6, 0, 0, 0], "split_type": [0, 0, 0, 0, 0], "sum_hessian": [1359.4951, 5.9048467, 1353.5902, 1.4329158, 4.4719305], "tree_param": {"num_deleted": "0", "num_feature": "29", "num_nodes": "5", "size_leaf_vector": "0"}}, {"base_weights": [-1.2896954, -0.27999866, -0.011144778, 1.0663134, -1.1250939, 0.0108767925, -3.7930946e-05, -0.010213901, -0.0024235796], "categories": [], "categories_nodes": [], "categories_segments": [], "categories_sizes": [], "default_left": [0, 0, 0, 0, 0, 0, 0, 0, 0], "id": 47, "left_children": [1, 3, -1, 5, 7, -1, -1, -1, -1], "loss_changes": [15.105469, 19.841118, 0.0, 1.4433937, 0.20771503, 0.0, 0.0, 0.0, 0.0], "parents": [2147483647, 0, 0, 1, 1, 3, 3, 4, 4], "right_children": [2, 4, -1, 6, 8, -1, -1, -1, -1], "split_conditions": [-1.9076201, -3.6181154, -0.011144778, 0.88570327, 0.65952367, 0.0108767925, -3.7930946e-05, -0.010213901, -0.0024235796], "split_indices": [11, 13, 0, 19, 18, 0, 0, 0, 0], "split_type": [0, 0, 0, 0, 0, 0, 0, 0, 0], "sum_hessian": [3567.6436, 15.384285, 3552.2593, 5.8318543, 9.552431, 4.7756815, 1.056173, 8.53186, 1.0205709], "tree_param": {"num_deleted": "0", "num_feature": "29", "num_nodes": "9", "size_leaf_vector": "0"}}, {"base_weights": [-1.2430326, -0.52883476, -0.029176032, 0.9039376, -0.02919943, 1.2373575, -0.32882765, 0.03326077, 0.30090532, 0.010939079, -0.019565456, 0.015446609, -0.00463777], "categories": [], "categories_nodes": [], "categories_segments": [], "categories_sizes": [], "default_left": [0, 0, 0, 0, 0, 0, 0, 0, 0, 0, 0, 0, 0], "id": 48, "left_children": [1, 3, -1, 5, -1, 7, 9, -1, 11, -1, -1, -1, -1], "loss_changes": [19.205078, 42.82112, 0.0, 6.2054615, 0.0, 1.5148239, 1.9211365, 0.0, 0.6895933, 0.0, 0.0, 0.0, 0.0], "parents": [2147483647, 0, 0, 1, 1, 3, 3, 5, 5, 6, 6, 8, 8], "right_children": [2, 4, -1, 6, -1, 8, 10, -1, 12, -1, -1, -1, -1], "split_conditions": [-3.5795255, -1.7944183, -0.029176032, 0.97490937, -0.02919943, 0.76791936, 1.4387041, 0.03326077, -8.717339, 0.010939079, -0.019565456, 0.015446609, -0.00463777], "split_indices": [13, 9, 0, 4, 0, 27, 1, 0, 0, 0, 0, 0, 0], "split_type": [0, 0, 0, 0, 0, 0, 0, 0, 0, 0, 0, 0, 0], "sum_hessian": [8765.427, 39.508423, 8725.919, 13.1075, 26.400923, 10.314157, 2.793344, 8.193169, 2.1209874, 1.1170944, 1.6762495, 1.0463074, 1.0746801], "tree_param": {"num_deleted": "0", "num_feature": "29", "num_nodes": "13", "size_leaf_vector": "0"}}, {"base_weights": [-1.1528307, -0.35539925, -1.1565256, 0.8193603, -0.97168577, -0.9364193, -0.073637046, 0.9104533, -0.05047441, 0.021395924, -1.0299345, 0.40809733, -0.070801035, 1.0026757, -0.026468217, -1.084884, -0.3698956, 0.8612073, -0.047564268, 0.5922227, 0.072757214, -0.59144723, -0.07239129, -0.7605499, 0.038743436, -0.02218833, 0.085819036, -0.19617328, 0.9504382, 0.029909505, -0.061433047, -0.05488915, -0.0143360505, 0.051679447, -0.06593135, 0.013316576, 0.067010395], "categories": [], "categories_nodes": [], "categories_segments": [], "categories_sizes": [], "default_left": [0, 0, 0, 0, 0, 0, 0, 0, 0, 0, 0, 0, 0, 0, 0, 0, 0, 0, 0, 0, 0, 0, 0, 0, 0, 0, 0, 0, 0, 0, 0, 0, 0, 0, 0, 0, 0], "id": 49, "left_children": [1, 3, 5, 7, 9, 11, -1, 13, -1, -1, 15, 17, -1, 19, -1, 21, 23, 25, -1, 27, -1, 29, -1, 31, -1, -1, -1, 33, 35, -1, -1, -1, -1, -1, -1, -1, -1], "loss_changes": [51.80078, 61.013317, 0.95703125, 5.0055313, 4.537197, 11.648937, 0.0, 3.8502922, 0.0, 0.0, 1.5177803, 3.8935437, 0.0, 0.8538532, 0.0, 0.58143234, 2.5978296, 3.3725727, 0.0, 2.6840968, 0.0, 3.1273632, 0.0, 0.04769683, 0.0, 0.0, 0.0, 3.8824291, 0.2546172, 0.0, 0.0, 0.0, 0.0, 0.0, 0.0, 0.0, 0.0], "parents": [2147483647, 0, 0, 1, 1, 2, 2, 3, 3, 4, 4, 5, 5, 7, 7, 10, 10, 11, 11, 13, 13, 15, 15, 16, 16, 17, 17, 19, 19, 21, 21, 23, 23, 27, 27, 28, 28], "right_children": [2, 4, 6, 8, 10, 12, -1, 14, -1, -1, 16, 18, -1, 20, -1, 22, 24, 26, -1, 28, -1, 30, -1, 32, -1, -1, -1, 34, 36, -1, -1, -1, -1, -1, -1, -1, -1], "split_conditions": [-3.371298, -2.4504738, -1.6188716, 1.8811939, -1.6612539, -2.5516953, -0.073637046, -2.148996, -0.05047441, 0.021395924, 0.19264135, -1.4412483, -0.070801035, 2.9581912, -0.026468217, 0.22662362, 2.9581912, -1.5517905, -0.047564268, -0.33092004, 0.072757214, -0.33470297, -0.07239129, 0.48395705, 0.038743436, -0.02218833, 0.085819036, 0.2625669, -1.9461601, 0.029909505, -0.061433047, -0.05488915, -0.0143360505, 0.051679447, -0.06593135, 0.013316576, 0.067010395], "split_indices": [13, 11, 16, 15, 6, 11, 0, 2, 0, 0, 20, 9, 0, 3, 0, 6, 3, 5, 0, 28, 0, 28, 0, 12, 0, 0, 0, 21, 4, 0, 0, 0, 0, 0, 0, 0, 0], "split_type": [0, 0, 0, 0, 0, 0, 0, 0, 0, 0, 0, 0, 0, 0, 0, 0, 0, 0, 0, 0, 0, 0, 0, 0, 0, 0, 0, 0, 0, 0, 0, 0, 0, 0, 0, 0, 0], "sum_hessian": [17719.824, 82.174194, 17637.65, 28.162186, 54.01201, 46.289993, 17591.361, 27.06837, 1.0938151, 2.099506, 51.912502, 5.207373, 41.08262, 25.5368, 1.5315702, 47.328632, 4.58387, 3.9234765, 1.2838966, 7.8438663, 17.692934, 5.7381325, 41.5905, 3.4354248, 1.1484452, 1.2081509, 2.7153256, 2.591843, 5.2520237, 1.4276518, 4.3104806, 2.3724887, 1.062936, 1.1928493, 1.3989937, 1.0074949, 4.244529], "tree_param": {"num_deleted": "0", "num_feature": "29", "num_nodes": "37", "size_leaf_vector": "0"}}, {"base_weights": [-1.2087835, -0.48874265, -0.028376773, 0.89045554, -0.028262047, 1.2019514, -0.2767871, 0.0052057663, 0.032442186, 0.011296205, -0.018515673], "categories": [], "categories_nodes": [], "categories_segments": [], "categories_sizes": [], "default_left": [0, 0, 0, 0, 0, 0, 0, 0, 0, 0, 0], "id": 50, "left_children": [1, 3, -1, 5, -1, 7, 9, -1, -1, -1, -1], "loss_changes": [18.308594, 38.694336, 0.0, 5.269864, 0.0, 1.6550465, 1.815369, 0.0, 0.0, 0.0, 0.0], "parents": [2147483647, 0, 0, 1, 1, 3, 3, 5, 5, 6, 6], "right_children": [2, 4, -1, 6, -1, 8, 10, -1, -1, -1, -1], "split_conditions": [-3.5795255, -1.7944183, -0.028376773, 0.97490937, -0.028262047, -2.7245605, 1.4387041, 0.0052057663, 0.032442186, 0.011296205, -0.018515673], "split_indices": [13, 9, 0, 4, 0, 8, 1, 0, 0, 0, 0], "split_type": [0, 0, 0, 0, 0, 0, 0, 0, 0, 0, 0], "sum_hessian": [7995.291, 36.966873, 7958.324, 12.578928, 24.387943, 9.905708, 2.6732192, 1.9137819, 7.9919267, 1.1040248, 1.5691944], "tree_param": {"num_deleted": "0", "num_feature": "29", "num_nodes": "11", "size_leaf_vector": "0"}}, {"base_weights": [-1.1246107, -0.33199975, -1.1284138, 0.837982, -0.8932551, -0.8898937, -0.071851425, 0.93395853, -0.028150802, 0.051417418, -0.9646681, 0.3882504, -1.0821203, 1.0234714, 0.11018902, -1.042663, -0.22229226, 0.92837477, -0.03266288, -0.0704557, -0.4721509, 0.3604957, 1.1113985, 0.044869713, -0.041406173, -0.011205714, -1.0732341, -0.63000154, 0.03778252, 0.07735245, 0.001797488, -0.03903265, -0.0054529216, 0.058872458, -0.040406067, 0.07311203, 0.01753599, -0.2739691, -1.1125606, 0.0065831025, -0.05563645, -0.04330035, 0.021296669, -0.072229184, -0.018458981], "categories": [], "categories_nodes": [], "categories_segments": [], "categories_sizes": [], "default_left": [0, 0, 0, 0, 0, 0, 0, 0, 0, 0, 0, 0, 0, 0, 0, 0, 0, 0, 0, 0, 0, 0, 0, 0, 0, 0, 0, 0, 0, 0, 0, 0, 0, 0, 0, 0, 0, 0, 0, 0, 0, 0, 0, 0, 0], "id": 51, "left_children": [1, 3, 5, 7, 9, 11, -1, 13, -1, -1, 15, 17, 19, 21, 23, 25, 27, 29, -1, -1, 31, 33, 35, -1, -1, -1, 37, 39, -1, -1, -1, -1, -1, -1, -1, -1, -1, 41, 43, -1, -1, -1, -1, -1, -1], "loss_changes": [45.927734, 49.84535, 1.109375, 3.4550323, 6.9766693, 10.699345, 0.0, 1.6090183, 0.0, 0.0, 2.6293182, 3.498003, 0.034641266, 0.82006645, 2.0015876, 0.9884758, 2.3596966, 1.0603385, 0.0, 0.0, 0.12108952, 2.7970366, 0.24648857, 0.0, 0.0, 0.0, 1.0384064, 0.89021015, 0.0, 0.0, 0.0, 0.0, 0.0, 0.0, 0.0, 0.0, 0.0, 1.0514946, 0.41420364, 0.0, 0.0, 0.0, 0.0, 0.0, 0.0], "parents": [2147483647, 0, 0, 1, 1, 2, 2, 3, 3, 4, 4, 5, 5, 7, 7, 10, 10, 11, 11, 12, 12, 13, 13, 14, 14, 15, 15, 16, 16, 17, 17, 20, 20, 21, 21, 22, 22, 26, 26, 27, 27, 37, 37, 38, 38], "right_children": [2, 4, 6, 8, 10, 12, -1, 14, -1, -1, 16, 18, 20, 22, 24, 26, 28, 30, -1, -1, 32, 34, 36, -1, -1, -1, 38, 40, -1, -1, -1, -1, -1, -1, -1, -1, -1, 42, 44, -1, -1, -1, -1, -1, -1], "split_conditions": [-3.371298, -2.6037543, -1.6188716, 1.0239905, -2.6426468, -1.4412483, -0.071851425, 1.557637, -0.028150802, 0.051417418, 0.19264135, -3.1514113, 2.8064413, 1.4838563, 0.25199023, -2.9430926, 2.3085296, 0.41294393, -0.03266288, -0.0704557, -1.0764825, 0.25432783, -0.63977724, 0.044869713, -0.041406173, -0.011205714, -1.3344228, 0.8807446, 0.03778252, 0.07735245, 0.001797488, -0.03903265, -0.0054529216, 0.058872458, -0.040406067, 0.07311203, 0.01753599, 0.07343105, 0.7740268, 0.0065831025, -0.05563645, -0.04330035, 0.021296669, -0.072229184, -0.018458981], "split_indices": [13, 9, 16, 6, 6, 9, 0, 12, 0, 0, 20, 11, 28, 3, 24, 11, 3, 24, 0, 0, 20, 27, 8, 0, 0, 0, 14, 10, 0, 0, 0, 0, 0, 0, 0, 0, 0, 25, 23, 0, 0, 0, 0, 0, 0], "split_type": [0, 0, 0, 0, 0, 0, 0, 0, 0, 0, 0, 0, 0, 0, 0, 0, 0, 0, 0, 0, 0, 0, 0, 0, 0, 0, 0, 0, 0, 0, 0, 0, 0, 0, 0, 0, 0, 0, 0, 0, 0, 0, 0, 0, 0], "sum_hessian": [15359.205, 73.76765, 15285.437, 23.75513, 50.01252, 40.837574, 15244.6, 22.350206, 1.4049237, 1.5993817, 48.413136, 5.2055206, 35.632053, 19.94095, 2.4092565, 43.444332, 4.9688053, 3.2365155, 1.969005, 33.449287, 2.1827645, 2.9321682, 17.008783, 1.3932335, 1.0160229, 1.7107201, 41.733612, 3.465248, 1.503557, 2.1883547, 1.0481607, 1.1688496, 1.0139151, 1.916078, 1.0160904, 15.921894, 1.0868882, 2.330734, 39.402878, 1.0095761, 2.455672, 1.326805, 1.0039289, 37.98987, 1.4130107], "tree_param": {"num_deleted": "0", "num_feature": "29", "num_nodes": "45", "size_leaf_vector": "0"}}, {"base_weights": [-1.2783136, -0.00050443655, -0.001492686], "categories": [], "categories_nodes": [], "categories_segments": [], "categories_sizes": [], "default_left": [0, 0, 0], "id": 52, "left_children": [1, -1, -1], "loss_changes": [0.5163574, 0.0, 0.0], "parents": [2147483647, 0, 0], "right_children": [2, -1, -1], "split_conditions": [-2.4413621, -0.00050443655, -0.001492686], "split_indices": [9, 0, 0], "split_type": [0, 0, 0], "sum_hessian": [475.29828, 2.0040858, 473.2942], "tree_param": {"num_deleted": "0", "num_feature": "29", "num_nodes": "3", "size_leaf_vector": "0"}}, {"base_weights": [-1.2716936, -0.42177278, -0.004039755, 0.0034710104, -0.0033118315], "categories": [], "categories_nodes": [], "categories_segments": [], "categories_sizes": [], "default_left": [0, 0, 0, 0, 0], "id": 53, "left_children": [1, 3, -1, -1, -1], "loss_changes": [3.1791992, 7.408945, 0.0, 0.0, 0.0], "parents": [2147483647, 0, 0, 1, 1], "right_children": [2, 4, -1, -1, -1], "split_conditions": [-3.449334, -1.6854643, -0.004039755, 0.0034710104, -0.0033118315], "split_indices": [13, 6, 0, 0, 0], "split_type": [0, 0, 0, 0, 0], "sum_hessian": [1272.5745, 5.619629, 1266.9548, 1.4163336, 4.203295], "tree_param": {"num_deleted": "0", "num_feature": "29", "num_nodes": "5", "size_leaf_vector": "0"}}, {"base_weights": [-1.2536564, -0.25794247, -0.010834551, -1.093836, 1.0246618, -0.009882196, -0.0028950507, 0.01079351, -0.00079784], "categories": [], "categories_nodes": [], "categories_segments": [], "categories_sizes": [], "default_left": [0, 0, 0, 0, 0, 0, 0, 0, 0], "id": 54, "left_children": [1, 3, -1, 5, 7, -1, -1, -1, -1], "loss_changes": [13.920898, 17.80715, 0.0, 0.016330719, 1.8160357, 0.0, 0.0, 0.0, 0.0], "parents": [2147483647, 0, 0, 1, 1, 3, 3, 4, 4], "right_children": [2, 4, -1, 6, 8, -1, -1, -1, -1], "split_conditions": [-1.9076201, 1.4425006, -0.010834551, 0.079936884, 0.88570327, -0.009882196, -0.0028950507, 0.01079351, -0.00079784], "split_indices": [11, 3, 0, 27, 19, 0, 0, 0, 0], "split_type": [0, 0, 0, 0, 0, 0, 0, 0, 0], "sum_hessian": [3316.5615, 14.563862, 3301.9976, 8.906518, 5.6573434, 7.838171, 1.068347, 4.595666, 1.0616772], "tree_param": {"num_deleted": "0", "num_feature": "29", "num_nodes": "9", "size_leaf_vector": "0"}}, {"base_weights": [-1.2290275, -0.25186056, -0.010622238, 0.9942509, -1.0616225, -3.235691e-05, 0.010204911, -0.009734818, -0.002216085], "categories": [], "categories_nodes": [], "categories_segments": [], "categories_sizes": [], "default_left": [0, 0, 0, 0, 0, 0, 0, 0, 0], "id": 55, "left_children": [1, 3, -1, 5, 7, -1, -1, -1, -1], "loss_changes": [12.791504, 16.109241, 0.0, 1.2205133, 0.23524666, 0.0, 0.0, 0.0, 0.0], "parents": [2147483647, 0, 0, 1, 1, 3, 3, 4, 4], "right_children": [2, 4, -1, 6, 8, -1, -1, -1, -1], "split_conditions": [-1.9076201, -3.6181154, -0.010622238, -0.27470437, 0.3360413, -3.235691e-05, 0.010204911, -0.009734818, -0.002216085], "split_indices": [11, 13, 0, 25, 21, 0, 0, 0, 0], "split_type": [0, 0, 0, 0, 0, 0, 0, 0, 0], "sum_hessian": [3124.5073, 13.918655, 3110.5886, 5.3925056, 8.52615, 1.0219685, 4.370537, 7.482181, 1.0439689], "tree_param": {"num_deleted": "0", "num_feature": "29", "num_nodes": "9", "size_leaf_vector": "0"}}, {"base_weights": [-1.1849573, -0.45450532, -0.027821561, 0.8897321, -0.02756811, 1.1806395, -0.22361623, 0.00410855, 0.03214302, 0.012103024, -0.017667055], "categories": [], "categories_nodes": [], "categories_segments": [], "categories_sizes": [], "default_left": [0, 0, 0, 0, 0, 0, 0, 0, 0, 0, 0], "id": 56, "left_children": [1, 3, -1, 5, -1, 7, 9, -1, -1, -1, -1], "loss_changes": [17.810547, 35.892662, 0.0, 4.5097065, 0.0, 1.7986946, 1.7886528, 0.0, 0.0, 0.0, 0.0], "parents": [2147483647, 0, 0, 1, 1, 3, 3, 5, 5, 6, 6], "right_children": [2, 4, -1, 6, -1, 8, 10, -1, -1, -1, -1], "split_conditions": [-3.5795255, -1.7944183, -0.027821561, 0.97490937, -0.02756811, -2.7245605, 1.4387041, 0.00410855, 0.03214302, 0.012103024, -0.017667055], "split_indices": [13, 9, 0, 4, 0, 8, 1, 0, 0, 0, 0], "split_type": [0, 0, 0, 0, 0, 0, 0, 0, 0, 0, 0], "sum_hessian": [7400.5376, 34.852028, 7365.6855, 12.108802, 22.743227, 9.552407, 2.556394, 1.8411461, 7.7112613, 1.0785751, 1.477819], "tree_param": {"num_deleted": "0", "num_feature": "29", "num_nodes": "11", "size_leaf_vector": "0"}}, {"base_weights": [-1.1047438, -0.31291485, -1.1086711, 0.7962143, -0.85453016, -0.8564511, -0.070597865, 0.89228624, -0.02627578, -0.96641076, 0.285261, 0.38909236, -0.06702956, 0.9842718, 0.095272325, -0.38830343, -1.0710845, 0.052219603, -0.027736707, 0.061809175, -0.42663416, 0.3353525, 1.0767338, 0.043057278, -0.03937427, 0.35358864, -0.8653127, -0.027248913, -0.06952358, -0.042729024, 0.0029781994, 0.05629172, -0.037506323, 0.07110433, 0.01617909, 0.056681797, -0.037091814, -0.06134083, -0.01478352], "categories": [], "categories_nodes": [], "categories_segments": [], "categories_sizes": [], "default_left": [0, 0, 0, 0, 0, 0, 0, 0, 0, 0, 0, 0, 0, 0, 0, 0, 0, 0, 0, 0, 0, 0, 0, 0, 0, 0, 0, 0, 0, 0, 0, 0, 0, 0, 0, 0, 0, 0, 0], "id": 57, "left_children": [1, 3, 5, 7, 9, 11, -1, 13, -1, 15, 17, 19, -1, 21, 23, 25, 27, -1, -1, -1, 29, 31, 33, -1, -1, 35, 37, -1, -1, -1, -1, -1, -1, -1, -1, -1, -1, -1, -1], "loss_changes": [41.808594, 41.70761, 1.1816406, 3.0314627, 6.1888733, 9.67244, 0.0, 1.4864902, 0.0, 2.1530838, 2.255381, 3.2093806, 0.0, 0.79195976, 1.8036542, 3.1643524, 0.017467499, 0.0, 0.0, 0.0, 0.395975, 2.4757895, 0.26151848, 0.0, 0.0, 2.465697, 0.10082793, 0.0, 0.0, 0.0, 0.0, 0.0, 0.0, 0.0, 0.0, 0.0, 0.0, 0.0, 0.0], "parents": [2147483647, 0, 0, 1, 1, 2, 2, 3, 3, 4, 4, 5, 5, 7, 7, 9, 9, 10, 10, 11, 11, 13, 13, 14, 14, 15, 15, 16, 16, 20, 20, 21, 21, 22, 22, 25, 25, 26, 26], "right_children": [2, 4, 6, 8, 10, 12, -1, 14, -1, 16, 18, 20, -1, 22, 24, 26, 28, -1, -1, -1, 30, 32, 34, -1, -1, 36, 38, -1, -1, -1, -1, -1, -1, -1, -1, -1, -1, -1, -1], "split_conditions": [-3.371298, -2.6037543, -1.6188716, 1.0239905, 0.3719291, -2.5516953, -0.070597865, 1.557637, -0.02627578, 0.22662362, -1.4590188, 0.08354268, -0.06702956, 1.4838563, -0.3151343, -0.6276773, -1.3627387, 0.052219603, -0.027736707, 0.061809175, -3.0788107, 0.25432783, -0.63977724, 0.043057278, -0.03937427, 1.306458, 1.253545, -0.027248913, -0.06952358, -0.042729024, 0.0029781994, 0.05629172, -0.037506323, 0.07110433, 0.01617909, 0.056681797, -0.037091814, -0.06134083, -0.01478352], "split_indices": [13, 9, 16, 6, 20, 11, 0, 12, 0, 6, 11, 27, 0, 3, 23, 11, 14, 0, 0, 0, 0, 27, 8, 0, 0, 4, 10, 0, 0, 0, 0, 0, 0, 0, 0, 0, 0, 0, 0], "split_type": [0, 0, 0, 0, 0, 0, 0, 0, 0, 0, 0, 0, 0, 0, 0, 0, 0, 0, 0, 0, 0, 0, 0, 0, 0, 0, 0, 0, 0, 0, 0, 0, 0, 0, 0, 0, 0, 0, 0], "sum_hessian": [13555.101, 67.2966, 13487.805, 21.92603, 45.370575, 36.792007, 13451.013, 20.554789, 1.37124, 41.453648, 3.9169269, 4.8862405, 31.905767, 18.217329, 2.337461, 7.077066, 34.37658, 2.1689904, 1.7479366, 2.7402086, 2.1460319, 2.849039, 15.368289, 1.317322, 1.0201389, 2.87082, 4.206246, 1.7806841, 32.595898, 1.1390113, 1.0070207, 1.8147465, 1.0342925, 14.305194, 1.0630953, 1.8555255, 1.0152947, 3.1875026, 1.018743], "tree_param": {"num_deleted": "0", "num_feature": "29", "num_nodes": "39", "size_leaf_vector": "0"}}, {"base_weights": [-1.2532862, -0.00047562242, -0.0014635623], "categories": [], "categories_nodes": [], "categories_segments": [], "categories_sizes": [], "default_left": [0, 0, 0], "id": 58, "left_children": [1, -1, -1], "loss_changes": [0.5180054, 0.0, 0.0], "parents": [2147483647, 0, 0], "right_children": [2, -1, -1], "split_conditions": [-2.4413621, -0.00047562242, -0.0014635623], "split_indices": [9, 0, 0], "split_type": [0, 0, 0], "sum_hessian": [451.70563, 1.9198625, 449.78577], "tree_param": {"num_deleted": "0", "num_feature": "29", "num_nodes": "3", "size_leaf_vector": "0"}}, {"base_weights": [-1.2467293, -0.38851503, -0.0039609503, 0.003422328, -0.0032149437], "categories": [], "categories_nodes": [], "categories_segments": [], "categories_sizes": [], "default_left": [0, 0, 0, 0, 0], "id": 59, "left_children": [1, 3, -1, -1, -1], "loss_changes": [3.166748, 6.973463, 0.0, 0.0, 0.0], "parents": [2147483647, 0, 0, 1, 1], "right_children": [2, 4, -1, -1, -1], "split_conditions": [-3.449334, -1.6854643, -0.0039609503, 0.003422328, -0.0032149437], "split_indices": [13, 6, 0, 0, 0], "split_type": [0, 0, 0, 0, 0], "sum_hessian": [1206.5862, 5.389501, 1201.1967, 1.3943932, 3.995108], "tree_param": {"num_deleted": "0", "num_feature": "29", "num_nodes": "5", "size_leaf_vector": "0"}}, {"base_weights": [-1.2265723, -0.00044632296, -0.0014324654], "categories": [], "categories_nodes": [], "categories_segments": [], "categories_sizes": [], "default_left": [0, 0, 0], "id": 60, "left_children": [1, -1, -1], "loss_changes": [0.50494385, 0.0, 0.0], "parents": [2147483647, 0, 0], "right_children": [2, -1, -1], "split_conditions": [-2.4413621, -0.00044632296, -0.0014324654], "split_indices": [9, 0, 0], "split_type": [0, 0, 0], "sum_hessian": [424.0683, 1.8195708, 422.24875], "tree_param": {"num_deleted": "0", "num_feature": "29", "num_nodes": "3", "size_leaf_vector": "0"}}, {"base_weights": [-1.2202643, -0.3573337, -0.0038773865, 0.0033161587, -0.0031095725], "categories": [], "categories_nodes": [], "categories_segments": [], "categories_sizes": [], "default_left": [0, 0, 0, 0, 0], "id": 61, "left_children": [1, 3, -1, -1, -1], "loss_changes": [3.0881348, 6.3969812, 0.0, 0.0, 0.0], "parents": [2147483647, 0, 0, 1, 1], "right_children": [2, 4, -1, -1, -1], "split_conditions": [-3.449334, -1.6854643, -0.0038773865, 0.0033161587, -0.0031095725], "split_indices": [13, 6, 0, 0, 0], "split_type": [0, 0, 0, 0, 0], "sum_hessian": [1129.868, 5.1269, 1124.7411, 1.3694581, 3.757442], "tree_param": {"num_deleted": "0", "num_feature": "29", "num_nodes": "5", "size_leaf_vector": "0"}}, {"base_weights": [-1.203386, -0.24132425, -0.010401428, -0.008952718, 0.9379068, 0.010276511, -0.0009550201], "categories": [], "categories_nodes": [], "categories_segments": [], "categories_sizes": [], "default_left": [0, 0, 0, 0, 0, 0, 0], "id": 62, "left_children": [1, 3, -1, -1, 5, -1, -1], "loss_changes": [11.714844, 14.306753, 0.0, 0.0, 1.8037362, 0.0, 0.0], "parents": [2147483647, 0, 0, 1, 1, 4, 4], "right_children": [2, 4, -1, -1, 6, -1, -1], "split_conditions": [-1.9076201, 1.4425006, -0.010401428, -0.008952718, 3.3054302, 0.010276511, -0.0009550201], "split_indices": [11, 3, 0, 0, 7, 0, 0], "split_type": [0, 0, 0, 0, 0, 0, 0], "sum_hessian": [2905.4749, 13.164657, 2892.3103, 7.9215517, 5.2431045, 4.1060495, 1.137055], "tree_param": {"num_deleted": "0", "num_feature": "29", "num_nodes": "7", "size_leaf_vector": "0"}}, {"base_weights": [-1.1611438, -0.42448723, -0.027266635, 0.8739036, -0.026879765, 1.1446693, -0.17638609, 0.003143512, 0.031449027, 0.012564364, -0.01682383], "categories": [], "categories_nodes": [], "categories_segments": [], "categories_sizes": [], "default_left": [0, 0, 0, 0, 0, 0, 0, 0, 0, 0, 0], "id": 63, "left_children": [1, 3, -1, 5, -1, 7, 9, -1, -1, -1, -1], "loss_changes": [16.942383, 32.528984, 0.0, 3.7782469, 0.0, 1.852972, 1.717212, 0.0, 0.0, 0.0, 0.0], "parents": [2147483647, 0, 0, 1, 1, 3, 3, 5, 5, 6, 6], "right_children": [2, 4, -1, 6, -1, 8, 10, -1, -1, -1, -1], "split_conditions": [-3.5795255, -1.7944183, -0.027266635, 0.97490937, -0.026879765, -2.7245605, 1.4387041, 0.003143512, 0.031449027, 0.012564364, -0.01682383], "split_indices": [13, 9, 0, 4, 0, 8, 1, 0, 0, 0, 0], "split_type": [0, 0, 0, 0, 0, 0, 0, 0, 0, 0, 0], "sum_hessian": [6752.4243, 32.553497, 6719.871, 11.575827, 20.97767, 9.1317835, 2.4440436, 1.7755474, 7.356236, 1.0601315, 1.3839122], "tree_param": {"num_deleted": "0", "num_feature": "29", "num_nodes": "11", "size_leaf_vector": "0"}}, {"base_weights": [-1.0861474, -0.2894794, -1.0902679, 0.56781304, -0.9328478, -0.81579345, -0.06943124, 0.781624, -0.058402915, -0.98110837, 0.0010592449, 0.39208892, -1.0315769, 0.87292707, -0.012717, -0.007868241, -1.0268168, 0.75799835, -0.03791595, -0.067629546, -0.023700206, 0.95866555, 0.0758264, -1.052877, -0.013048445, -0.01931224, 0.07478723, 0.073048815, 0.5821343, -0.039125696, 0.041954525, -0.02354537, -0.068654336, 0.06296313, -0.34581006, 0.03294001, -0.060636587], "categories": [], "categories_nodes": [], "categories_segments": [], "categories_sizes": [], "default_left": [0, 0, 0, 0, 0, 0, 0, 0, 0, 0, 0, 0, 0, 0, 0, 0, 0, 0, 0, 0, 0, 0, 0, 0, 0, 0, 0, 0, 0, 0, 0, 0, 0, 0, 0, 0, 0], "id": 64, "left_children": [1, 3, 5, 7, 9, 11, -1, 13, -1, 15, -1, 17, 19, 21, -1, -1, 23, 25, -1, -1, -1, 27, 29, 31, -1, -1, -1, -1, 33, -1, -1, -1, -1, -1, 35, -1, -1], "loss_changes": [38.307617, 34.671726, 1.3525391, 9.343761, 1.6541023, 9.178692, 0.0, 2.3503923, 0.0, 1.2067833, 0.0, 2.557862, 0.19504738, 1.4583378, 0.0, 0.0, 0.4730835, 2.4340632, 0.0, 0.0, 0.0, 0.7662182, 1.7193497, 0.14774323, 0.0, 0.0, 0.0, 0.0, 3.6535006, 0.0, 0.0, 0.0, 0.0, 0.0, 2.2821186, 0.0, 0.0], "parents": [2147483647, 0, 0, 1, 1, 2, 2, 3, 3, 4, 4, 5, 5, 7, 7, 9, 9, 11, 11, 12, 12, 13, 13, 16, 16, 17, 17, 21, 21, 22, 22, 23, 23, 28, 28, 34, 34], "right_children": [2, 4, 6, 8, 10, 12, -1, 14, -1, 16, -1, 18, 20, 22, -1, -1, 24, 26, -1, -1, -1, 28, 30, 32, -1, -1, -1, -1, 34, -1, -1, -1, -1, -1, 36, -1, -1], "split_conditions": [-3.371298, -0.037198335, -1.6188716, -0.33454514, 0.3659317, -1.4412483, -0.06943124, -0.36862633, -0.058402915, -3.1514113, 0.0010592449, -2.5516953, 2.8064413, 1.557637, -0.012717, -0.007868241, 0.7740268, -1.5517905, -0.03791595, -0.067629546, -0.023700206, 0.30005488, 0.81141865, -1.3627387, -0.013048445, -0.01931224, 0.07478723, 0.073048815, -3.7620974, -0.039125696, 0.041954525, -0.02354537, -0.068654336, 0.06296313, 0.47598672, 0.03294001, -0.060636587], "split_indices": [13, 6, 16, 11, 20, 9, 0, 9, 0, 11, 0, 11, 28, 12, 0, 0, 23, 5, 0, 0, 0, 27, 20, 14, 0, 0, 0, 0, 2, 0, 0, 0, 0, 0, 20, 0, 0], "split_type": [0, 0, 0, 0, 0, 0, 0, 0, 0, 0, 0, 0, 0, 0, 0, 0, 0, 0, 0, 0, 0, 0, 0, 0, 0, 0, 0, 0, 0, 0, 0, 0, 0, 0, 0, 0, 0], "sum_hessian": [11764.687, 60.901443, 11703.785, 26.160221, 34.741222, 32.664013, 11671.121, 23.28288, 2.8773413, 33.029125, 1.7120974, 4.8270082, 27.837004, 21.402401, 1.8804787, 1.8590375, 31.170088, 3.6921105, 1.1348975, 25.999086, 1.8379171, 19.140863, 2.2615373, 29.939463, 1.2306254, 1.1184747, 2.5736358, 11.377312, 7.763552, 1.0109891, 1.2505482, 1.6517283, 28.287735, 5.3498044, 2.413748, 1.0571887, 1.3565593], "tree_param": {"num_deleted": "0", "num_feature": "29", "num_nodes": "37", "size_leaf_vector": "0"}}, {"base_weights": [-1.1391742, -0.38905337, -0.026756024, 0.8691195, -0.026221331, 1.1208267, -0.12940831, 0.031231254, 0.0024488019, 0.013007885, -0.015961692], "categories": [], "categories_nodes": [], "categories_segments": [], "categories_sizes": [], "default_left": [0, 0, 0, 0, 0, 0, 0, 0, 0, 0, 0], "id": 65, "left_children": [1, 3, -1, 5, -1, 7, 9, -1, -1, -1, -1], "loss_changes": [16.339355, 29.667017, 0.0, 3.1682014, 0.0, 1.9639254, 1.6343248, 0.0, 0.0, 0.0, 0.0], "parents": [2147483647, 0, 0, 1, 1, 3, 3, 5, 5, 6, 6], "right_children": [2, 4, -1, 6, -1, 8, 10, -1, -1, -1, -1], "split_conditions": [-3.5795255, -1.7944183, -0.026756024, 0.97490937, -0.026221331, 0.76791936, 1.4387041, 0.031231254, 0.0024488019, 0.013007885, -0.015961692], "split_indices": [13, 9, 0, 4, 0, 27, 1, 0, 0, 0, 0], "split_type": [0, 0, 0, 0, 0, 0, 0, 0, 0, 0, 0], "sum_hessian": [6104.994, 30.200314, 6074.794, 11.028321, 19.171993, 8.710192, 2.31813, 6.941468, 1.7687236, 1.032192, 1.285938], "tree_param": {"num_deleted": "0", "num_feature": "29", "num_nodes": "11", "size_leaf_vector": "0"}}, {"base_weights": [-1.0698463, -0.26737076, -1.0741911, 0.53960747, -0.8930824, -0.7777463, -0.068412885, 0.74174285, -0.055480454, -0.94558746, 0.0019196781, 0.3846051, -1.0058693, 0.95171005, 0.2389975, -0.0065318155, -0.99690735, 0.05473181, -0.022094753, -0.06624253, -0.021218672, 0.06711706, 0.20877668, 0.653387, -0.045974262, -1.0261563, -0.011045733, 0.050406482, -0.03151691, 1.1113201, -0.03596731, -0.020961028, -0.06718719, 0.07892399, 0.021687666], "categories": [], "categories_nodes": [], "categories_segments": [], "categories_sizes": [], "default_left": [0, 0, 0, 0, 0, 0, 0, 0, 0, 0, 0, 0, 0, 0, 0, 0, 0, 0, 0, 0, 0, 0, 0, 0, 0, 0, 0, 0, 0, 0, 0, 0, 0, 0, 0], "id": 66, "left_children": [1, 3, 5, 7, 9, 11, -1, 13, -1, 15, -1, 17, 19, 21, 23, -1, 25, -1, -1, -1, -1, -1, 27, 29, -1, 31, -1, -1, -1, 33, -1, -1, -1, -1, -1], "loss_changes": [34.975586, 28.655195, 1.4716797, 7.776392, 1.5702343, 8.289616, 0.0, 2.1371918, 0.0, 1.2008457, 0.0, 2.2512357, 0.2457447, 0.9621105, 3.6331036, 0.0, 0.50294685, 0.0, 0.0, 0.0, 0.0, 0.0, 1.6767373, 4.0150824, 0.0, 0.2104168, 0.0, 0.0, 0.0, 0.04872656, 0.0, 0.0, 0.0, 0.0, 0.0], "parents": [2147483647, 0, 0, 1, 1, 2, 2, 3, 3, 4, 4, 5, 5, 7, 7, 9, 9, 11, 11, 12, 12, 13, 13, 14, 14, 16, 16, 22, 22, 23, 23, 25, 25, 29, 29], "right_children": [2, 4, 6, 8, 10, 12, -1, 14, -1, 16, -1, 18, 20, 22, 24, -1, 26, -1, -1, -1, -1, -1, 28, 30, -1, 32, -1, -1, -1, 34, -1, -1, -1, -1, -1], "split_conditions": [-3.371298, -0.037198335, -1.6188716, -0.33454514, 0.3659317, -1.4412483, -0.068412885, -1.6044632, -0.055480454, -3.1514113, 0.0019196781, 0.08354268, 2.8064413, -3.3815567, 0.47598672, -0.0065318155, 0.7740268, 0.05473181, -0.022094753, -0.06624253, -0.021218672, 0.06711706, 0.15129167, -0.0046570017, -0.045974262, -1.3627387, -0.011045733, 0.050406482, -0.03151691, 0.16538906, -0.03596731, -0.020961028, -0.06718719, 0.07892399, 0.021687666], "split_indices": [13, 6, 16, 11, 20, 9, 0, 6, 0, 11, 0, 27, 28, 2, 20, 0, 23, 0, 0, 0, 0, 0, 7, 5, 0, 14, 0, 0, 0, 14, 0, 0, 0, 0, 0], "split_type": [0, 0, 0, 0, 0, 0, 0, 0, 0, 0, 0, 0, 0, 0, 0, 0, 0, 0, 0, 0, 0, 0, 0, 0, 0, 0, 0, 0, 0, 0, 0, 0, 0, 0, 0], "sum_hessian": [10112.922, 54.795784, 10058.126, 23.99156, 30.804224, 28.803814, 10029.322, 21.40097, 2.5905893, 29.123755, 1.6804696, 4.6130514, 24.190763, 14.466244, 6.9347267, 1.8434867, 27.28027, 2.6901891, 1.9228622, 22.473469, 1.7172953, 12.337966, 2.1282778, 5.069831, 1.8648956, 26.106525, 1.1737438, 1.0955658, 1.032712, 3.748946, 1.3208852, 1.5561972, 24.550327, 2.6898873, 1.0590587], "tree_param": {"num_deleted": "0", "num_feature": "29", "num_nodes": "35", "size_leaf_vector": "0"}}, {"base_weights": [-1.2008668, -0.0004165502, -0.0014025493], "categories": [], "categories_nodes": [], "categories_segments": [], "categories_sizes": [], "default_left": [0, 0, 0], "id": 67, "left_children": [1, -1, -1], "loss_changes": [0.48937988, 0.0, 0.0], "parents": [2147483647, 0, 0], "right_children": [2, -1, -1], "split_conditions": [-2.4413621, -0.0004165502, -0.0014025493], "split_indices": [9, 0, 0], "split_type": [0, 0, 0], "sum_hessian": [394.93396, 1.7111735, 393.2228], "tree_param": {"num_deleted": "0", "num_feature": "29", "num_nodes": "3", "size_leaf_vector": "0"}}, {"base_weights": [-1.1949755, -0.33122182, -0.0037974978, 0.0031727278, -0.0030035113], "categories": [], "categories_nodes": [], "categories_segments": [], "categories_sizes": [], "default_left": [0, 0, 0, 0, 0], "id": 68, "left_children": [1, 3, -1, -1, -1], "loss_changes": [2.9464111, 5.753574, 0.0, 0.0, 0.0], "parents": [2147483647, 0, 0, 1, 1], "right_children": [2, 4, -1, -1, -1], "split_conditions": [-3.449334, -1.6854643, -0.0037974978, 0.0031727278, -0.0030035113], "split_indices": [13, 6, 0, 0, 0], "split_type": [0, 0, 0, 0, 0], "sum_hessian": [1049.4327, 4.8443027, 1044.5884, 1.3354378, 3.508865], "tree_param": {"num_deleted": "0", "num_feature": "29", "num_nodes": "5", "size_leaf_vector": "0"}}, {"base_weights": [-1.1791428, -0.22906311, -0.010192914, -0.00923686, 0.82323, -0.0009930077, 0.010069647], "categories": [], "categories_nodes": [], "categories_segments": [], "categories_sizes": [], "default_left": [0, 0, 0, 0, 0, 0, 0], "id": 69, "left_children": [1, 3, -1, -1, 5, -1, -1], "loss_changes": [10.746826, 12.767423, 0.0, 0.0, 2.2527027, 0.0, 0.0], "parents": [2147483647, 0, 0, 1, 1, 4, 4], "right_children": [2, 4, -1, -1, 6, -1, -1], "split_conditions": [-1.9076201, 0.65046245, -0.010192914, -0.00923686, -0.22352171, -0.0009930077, 0.010069647], "split_indices": [11, 10, 0, 0, 21, 0, 0], "split_type": [0, 0, 0, 0, 0, 0, 0], "sum_hessian": [2678.9849, 12.390931, 2666.594, 6.867517, 5.523414, 1.667118, 3.8562963], "tree_param": {"num_deleted": "0", "num_feature": "29", "num_nodes": "7", "size_leaf_vector": "0"}}, {"base_weights": [-1.1621339, -0.20389497, -0.010047695, -0.009078976, 0.82117903, -0.0011221877, 0.0100612985], "categories": [], "categories_nodes": [], "categories_segments": [], "categories_sizes": [], "default_left": [0, 0, 0, 0, 0, 0, 0], "id": 70, "left_children": [1, 3, -1, -1, 5, -1, -1], "loss_changes": [10.525879, 12.091246, 0.0, 0.0, 2.265853, 0.0, 0.0], "parents": [2147483647, 0, 0, 1, 1, 4, 4], "right_children": [2, 4, -1, -1, 6, -1, -1], "split_conditions": [-1.9076201, 0.65046245, -0.010047695, -0.009078976, -0.22352171, -0.0011221877, 0.0100612985], "split_indices": [11, 10, 0, 0, 21, 0, 0], "split_type": [0, 0, 0, 0, 0, 0, 0], "sum_hessian": [2509.1477, 11.87994, 2497.2678, 6.478256, 5.401684, 1.6104579, 3.791226], "tree_param": {"num_deleted": "0", "num_feature": "29", "num_nodes": "7", "size_leaf_vector": "0"}}, {"base_weights": [-1.1235136, -0.35092565, -0.026394371, 0.8842057, -0.025749626, 1.3504204, 0.22713892, 0.034853064, 0.0068693026, 0.02066752, -0.4656095, 0.0029629893, -0.017506707], "categories": [], "categories_nodes": [], "categories_segments": [], "categories_sizes": [], "default_left": [0, 0, 0, 0, 0, 0, 0, 0, 0, 0, 0, 0, 0], "id": 71, "left_children": [1, 3, -1, 5, -1, 7, 9, -1, -1, -1, 11, -1, -1], "loss_changes": [16.430176, 28.260096, 0.0, 3.2741728, 0.0, 0.53301525, 3.1606793, 0.0, 0.0, 0.0, 0.6958719, 0.0, 0.0], "parents": [2147483647, 0, 0, 1, 1, 3, 3, 5, 5, 6, 6, 10, 10], "right_children": [2, 4, -1, 6, -1, 8, 10, -1, -1, -1, 12, -1, -1], "split_conditions": [-3.5795255, -1.7944183, -0.026394371, 1.5456078, -0.025749626, 0.6732538, -0.75359356, 0.034853064, 0.0068693026, 0.02066752, -3.4624453, 0.0029629893, -0.017506707], "split_indices": [13, 9, 0, 1, 0, 24, 12, 0, 0, 0, 4, 0, 0], "split_type": [0, 0, 0, 0, 0, 0, 0, 0, 0, 0, 0, 0, 0], "sum_hessian": [5615.1006, 28.499388, 5586.601, 10.68954, 17.809847, 5.6356206, 5.0539193, 4.622538, 1.0130827, 2.4555726, 2.5983467, 1.0164952, 1.5818515], "tree_param": {"num_deleted": "0", "num_feature": "29", "num_nodes": "13", "size_leaf_vector": "0"}}, {"base_weights": [-1.0580156, -0.25290748, -1.0625533, 0.51301, -0.86013, -0.7476189, -0.06767681, 0.7069433, -0.05319665, -0.91649383, 0.002221732, 0.3738984, -0.9825554, 0.91953903, 0.22531788, -0.005998334, -0.972504, 0.054152198, -0.021407332, -0.06493026, -0.024196599, 0.065524355, 0.1919351, 0.6262649, -0.04199378, -0.007944003, -1.005455, -0.029802565, 0.048141293, 1.0598922, -0.03409555, -0.019270696, -0.06608212, 0.075506076, 0.020540247], "categories": [], "categories_nodes": [], "categories_segments": [], "categories_sizes": [], "default_left": [0, 0, 0, 0, 0, 0, 0, 0, 0, 0, 0, 0, 0, 0, 0, 0, 0, 0, 0, 0, 0, 0, 0, 0, 0, 0, 0, 0, 0, 0, 0, 0, 0, 0, 0], "id": 72, "left_children": [1, 3, 5, 7, 9, 11, -1, 13, -1, 15, -1, 17, 19, 21, 23, -1, 25, -1, -1, -1, -1, -1, 27, 29, -1, -1, 31, -1, -1, 33, -1, -1, -1, -1, -1], "loss_changes": [32.14746, 24.179716, 1.5546875, 6.659269, 1.4871006, 7.481654, 0.0, 1.9249592, 0.0, 1.1597042, 0.0, 2.115974, 0.12514687, 0.9330597, 3.1465106, 0.0, 0.58205414, 0.0, 0.0, 0.0, 0.0, 0.0, 1.5037401, 3.497153, 0.0, 0.0, 0.24577332, 0.0, 0.0, 0.04327345, 0.0, 0.0, 0.0, 0.0, 0.0], "parents": [2147483647, 0, 0, 1, 1, 2, 2, 3, 3, 4, 4, 5, 5, 7, 7, 9, 9, 11, 11, 12, 12, 13, 13, 14, 14, 16, 16, 22, 22, 23, 23, 26, 26, 29, 29], "right_children": [2, 4, 6, 8, 10, 12, -1, 14, -1, 16, -1, 18, 20, 22, 24, -1, 26, -1, -1, -1, -1, -1, 28, 30, -1, -1, 32, -1, -1, 34, -1, -1, -1, -1, -1], "split_conditions": [-3.371298, -0.037198335, -1.6188716, -0.33454514, 0.3659317, -2.5516953, -0.06767681, -1.6044632, -0.05319665, -3.1514113, 0.002221732, 0.08354268, 2.8064413, -3.3815567, 0.47598672, -0.005998334, 0.22662362, 0.054152198, -0.021407332, -0.06493026, -0.024196599, 0.065524355, -3.320049, -0.0046570017, -0.04199378, -0.007944003, -1.3627387, -0.029802565, 0.048141293, 0.16538906, -0.03409555, -0.019270696, -0.06608212, 0.075506076, 0.020540247], "split_indices": [13, 6, 16, 11, 20, 11, 0, 6, 0, 11, 0, 27, 28, 2, 20, 0, 6, 0, 0, 0, 0, 0, 6, 5, 0, 0, 14, 0, 0, 14, 0, 0, 0, 0, 0], "split_type": [0, 0, 0, 0, 0, 0, 0, 0, 0, 0, 0, 0, 0, 0, 0, 0, 0, 0, 0, 0, 0, 0, 0, 0, 0, 0, 0, 0, 0, 0, 0, 0, 0, 0, 0], "sum_hessian": [8872.017, 50.041412, 8821.975, 22.197653, 27.84376, 26.000664, 8795.975, 19.823475, 2.374179, 26.171667, 1.6720929, 4.400844, 21.59982, 13.122008, 6.701466, 1.8401775, 24.33149, 2.5143347, 1.8865094, 19.675068, 1.9247504, 11.0377035, 2.0843053, 4.8135734, 1.887893, 1.0895823, 23.241907, 1.0392699, 1.0450355, 3.569437, 1.2441362, 1.4955413, 21.746367, 2.5263271, 1.0431097], "tree_param": {"num_deleted": "0", "num_feature": "29", "num_nodes": "35", "size_leaf_vector": "0"}}, {"base_weights": [-1.1830484, -0.00038227733, -0.0013819212], "categories": [], "categories_nodes": [], "categories_segments": [], "categories_sizes": [], "default_left": [0, 0, 0], "id": 73, "left_children": [1, -1, -1], "loss_changes": [0.52948, 0.0, 0.0], "parents": [2147483647, 0, 0], "right_children": [2, -1, -1], "split_conditions": [-2.4413621, -0.00038227733, -0.0013819212], "split_indices": [9, 0, 0], "split_type": [0, 0, 0], "sum_hessian": [373.2902, 1.6346929, 371.6555], "tree_param": {"num_deleted": "0", "num_feature": "29", "num_nodes": "3", "size_leaf_vector": "0"}}, {"base_weights": [-1.1773475, -0.29299283, -0.0037422823, 0.0031788833, -0.0029281646], "categories": [], "categories_nodes": [], "categories_segments": [], "categories_sizes": [], "default_left": [0, 0, 0, 0, 0], "id": 74, "left_children": [1, 3, -1, -1, -1], "loss_changes": [3.0565186, 5.5605655, 0.0, 0.0, 0.0], "parents": [2147483647, 0, 0, 1, 1], "right_children": [2, 4, -1, -1, -1], "split_conditions": [-3.449334, -1.6854643, -0.0037422823, 0.0031788833, -0.0029281646], "split_indices": [13, 6, 0, 0, 0], "split_type": [0, 0, 0, 0, 0], "sum_hessian": [989.50916, 4.661462, 984.8477, 1.3334817, 3.3279803], "tree_param": {"num_deleted": "0", "num_feature": "29", "num_nodes": "5", "size_leaf_vector": "0"}}, {"base_weights": [-1.1637716, -0.0003439683, -0.001359624], "categories": [], "categories_nodes": [], "categories_segments": [], "categories_sizes": [], "default_left": [0, 0, 0], "id": 75, "left_children": [1, -1, -1], "loss_changes": [0.56973267, 0.0, 0.0], "parents": [2147483647, 0, 0], "right_children": [2, -1, -1], "split_conditions": [-2.4413621, -0.0003439683, -0.001359624], "split_indices": [9, 0, 0], "split_type": [0, 0, 0], "sum_hessian": [348.38107, 1.5461005, 346.83496], "tree_param": {"num_deleted": "0", "num_feature": "29", "num_nodes": "3", "size_leaf_vector": "0"}}, {"base_weights": [-1.1584952, -0.26385906, -0.0036830173, 0.0030987305, -0.002840754], "categories": [], "categories_nodes": [], "categories_segments": [], "categories_sizes": [], "default_left": [0, 0, 0, 0, 0], "id": 76, "left_children": [1, 3, -1, -1, -1], "loss_changes": [3.0177002, 5.143455, 0.0, 0.0, 0.0], "parents": [2147483647, 0, 0, 1, 1], "right_children": [2, 4, -1, -1, -1], "split_conditions": [-3.449334, -1.6854643, -0.0036830173, 0.0030987305, -0.002840754], "split_indices": [13, 6, 0, 0, 0], "split_type": [0, 0, 0, 0, 0], "sum_hessian": [921.04266, 4.428551, 916.61414, 1.3106396, 3.1179118], "tree_param": {"num_deleted": "0", "num_feature": "29", "num_nodes": "5", "size_leaf_vector": "0"}}, {"base_weights": [-1.1442249, -0.1782251, -0.009894827, -0.008896152, 0.81559885, -0.0012820038, 0.010020513], "categories": [], "categories_nodes": [], "categories_segments": [], "categories_sizes": [], "default_left": [0, 0, 0, 0, 0, 0, 0], "id": 77, "left_children": [1, 3, -1, -1, 5, -1, -1], "loss_changes": [10.183105, 11.258049, 0.0, 0.0, 2.2627325, 0.0, 0.0], "parents": [2147483647, 0, 0, 1, 1, 4, 4], "right_children": [2, 4, -1, -1, 6, -1, -1], "split_conditions": [-1.9076201, 0.65046245, -0.009894827, -0.008896152, -0.22352171, -0.0012820038, 0.010020513], "split_indices": [11, 10, 0, 0, 21, 0, 0], "split_type": [0, 0, 0, 0, 0, 0, 0], "sum_hessian": [2318.8765, 11.262273, 2307.614, 6.0338655, 5.2284074, 1.5375475, 3.6908598], "tree_param": {"num_deleted": "0", "num_feature": "29", "num_nodes": "7", "size_leaf_vector": "0"}}, {"base_weights": [-1.1076577, -0.3196654, -0.026027787, 0.8771082, -0.025252344, 1.3390312, 0.2046657, 0.035826374, 0.011280705, 0.019950802, -0.47255325, 0.0019257207, -0.018310955], "categories": [], "categories_nodes": [], "categories_segments": [], "categories_sizes": [], "default_left": [0, 0, 0, 0, 0, 0, 0, 0, 0, 0, 0, 0, 0], "id": 78, "left_children": [1, 3, -1, 5, -1, 7, 9, -1, -1, -1, 11, -1, -1], "loss_changes": [15.997559, 26.018692, 0.0, 3.2246647, 0.0, 0.3276167, 2.931572, 0.0, 0.0, 0.0, 0.6589601, 0.0, 0.0], "parents": [2147483647, 0, 0, 1, 1, 3, 3, 5, 5, 6, 6, 10, 10], "right_children": [2, 4, -1, 6, -1, 8, 10, -1, -1, -1, 12, -1, -1], "split_conditions": [-3.5795255, -1.7944183, -0.026027787, 1.5456078, -0.025252344, -0.19847563, -0.75359356, 0.035826374, 0.011280705, 0.019950802, -0.33024308, 0.0019257207, -0.018310955], "split_indices": [13, 9, 0, 1, 0, 5, 12, 0, 0, 0, 22, 0, 0], "split_type": [0, 0, 0, 0, 0, 0, 0, 0, 0, 0, 0, 0, 0], "sum_hessian": [5090.795, 26.604315, 5064.1904, 10.263782, 16.340532, 5.496654, 4.7671275, 3.852089, 1.6445651, 2.3049753, 2.4621522, 1.1447793, 1.3173729], "tree_param": {"num_deleted": "0", "num_feature": "29", "num_nodes": "13", "size_leaf_vector": "0"}}, {"base_weights": [-1.0465726, -0.22993785, -1.0514222, 0.49401957, -0.82350427, -0.70834553, -0.066975325, 0.678107, -0.05073976, -0.88400435, 0.0026710269, 0.37366837, -0.9644049, 0.8895663, 0.2206422, -0.00477082, -0.94634145, -0.027399527, 0.74744403, -0.06415112, -0.017146483, 0.064097084, 0.17329426, -0.050296146, 0.532282, -0.9830492, -0.0057321354, 0.063444935, 0.0021749155, 0.04681808, -0.03047231, 0.9051413, -0.025802284, -0.017350776, -0.06492264, 0.073092215, -0.00020633865], "categories": [], "categories_nodes": [], "categories_segments": [], "categories_sizes": [], "default_left": [0, 0, 0, 0, 0, 0, 0, 0, 0, 0, 0, 0, 0, 0, 0, 0, 0, 0, 0, 0, 0, 0, 0, 0, 0, 0, 0, 0, 0, 0, 0, 0, 0, 0, 0, 0, 0], "id": 79, "left_children": [1, 3, 5, 7, 9, 11, -1, 13, -1, 15, -1, 17, 19, 21, 23, -1, 25, -1, 27, -1, -1, -1, 29, -1, 31, 33, -1, -1, -1, -1, -1, 35, -1, -1, -1, -1, -1], "loss_changes": [30.097656, 20.390547, 1.7480469, 5.6694746, 1.394743, 7.0614195, 0.0, 1.6827393, 0.0, 1.1535587, 0.0, 1.9296815, 0.3294525, 0.91649437, 2.7741528, 0.0, 0.6173115, 0.0, 0.68074083, 0.0, 0.0, 0.0, 1.4650295, 0.0, 2.5723095, 0.28637505, 0.0, 0.0, 0.0, 0.0, 0.0, 1.0697384, 0.0, 0.0, 0.0, 0.0, 0.0], "parents": [2147483647, 0, 0, 1, 1, 2, 2, 3, 3, 4, 4, 5, 5, 7, 7, 9, 9, 11, 11, 12, 12, 13, 13, 14, 14, 16, 16, 18, 18, 22, 22, 24, 24, 25, 25, 31, 31], "right_children": [2, 4, 6, 8, 10, 12, -1, 14, -1, 16, -1, 18, 20, 22, 24, -1, 26, -1, 28, -1, -1, -1, 30, -1, 32, 34, -1, -1, -1, -1, -1, 36, -1, -1, -1, -1, -1], "split_conditions": [-3.371298, -0.037198335, -1.6188716, -0.33454514, 0.3659317, -1.4412483, -0.066975325, -1.6044632, -0.05073976, -3.1514113, 0.0026710269, 1.175479, 2.8064413, -3.3815567, -1.4382166, -0.00477082, 0.7740268, -0.027399527, 0.08354268, -0.06415112, -0.017146483, 0.064097084, 0.15129167, -0.050296146, -0.0046570017, -1.3627387, -0.0057321354, 0.063444935, 0.0021749155, 0.04681808, -0.03047231, 0.47263306, -0.025802284, -0.017350776, -0.06492264, 0.073092215, -0.00020633865], "split_indices": [13, 6, 16, 11, 20, 9, 0, 6, 0, 11, 0, 3, 28, 2, 6, 0, 23, 0, 27, 0, 0, 0, 7, 0, 5, 14, 0, 0, 0, 0, 0, 14, 0, 0, 0, 0, 0], "split_type": [0, 0, 0, 0, 0, 0, 0, 0, 0, 0, 0, 0, 0, 0, 0, 0, 0, 0, 0, 0, 0, 0, 0, 0, 0, 0, 0, 0, 0, 0, 0, 0, 0, 0, 0, 0, 0], "sum_hessian": [7659.6353, 45.504395, 7614.131, 20.576044, 24.928352, 23.186312, 7590.9443, 18.424314, 2.15173, 23.279604, 1.6487484, 4.3491364, 18.837175, 11.9540825, 6.4702315, 1.8229549, 21.456648, 1.3318259, 3.0173104, 17.301483, 1.5356932, 9.919563, 2.0345187, 1.1626691, 5.3075624, 20.43266, 1.0239885, 1.9408584, 1.076452, 1.0236431, 1.0108756, 3.8224037, 1.4851588, 1.4277358, 19.004925, 2.806294, 1.0161097], "tree_param": {"num_deleted": "0", "num_feature": "29", "num_nodes": "37", "size_leaf_vector": "0"}}, {"base_weights": [-1.0362009, -0.20759633, -1.0414168, 0.47321567, -0.7850683, -0.66789675, -0.06634655, 0.6471865, -0.04825284, -0.3496258, -0.965634, 0.3702115, -0.9406978, 0.8588517, 0.20958641, -0.7078201, 0.48965275, -0.012983728, -0.06435008, 0.73770064, -0.02339869, -0.06300762, -0.014928481, 0.0023625987, 0.958977, 0.58883005, -0.036629416, 0.0041205147, -0.05670394, 0.057678714, -0.010687066, 0.0589685, 0.009796279, 0.06465177, 0.02227291, 0.97062856, -0.030288469, 0.07124828, 0.021362586], "categories": [], "categories_nodes": [], "categories_segments": [], "categories_sizes": [], "default_left": [0, 0, 0, 0, 0, 0, 0, 0, 0, 0, 0, 0, 0, 0, 0, 0, 0, 0, 0, 0, 0, 0, 0, 0, 0, 0, 0, 0, 0, 0, 0, 0, 0, 0, 0, 0, 0, 0, 0], "id": 80, "left_children": [1, 3, 5, 7, 9, 11, -1, 13, -1, 15, 17, 19, 21, 23, 25, 27, 29, -1, -1, 31, -1, -1, -1, -1, 33, 35, -1, -1, -1, -1, -1, -1, -1, -1, -1, 37, -1, -1, -1], "loss_changes": [28.125977, 16.9901, 1.9326172, 4.780269, 1.4902134, 6.4567165, 0.0, 1.4950347, 0.0, 2.866362, 0.34341812, 1.6829515, 0.3726492, 0.94066715, 2.488242, 0.9468372, 1.0010562, 0.0, 0.0, 0.27722383, 0.0, 0.0, 0.0, 0.0, 0.009531975, 2.6415467, 0.0, 0.0, 0.0, 0.0, 0.0, 0.0, 0.0, 0.0, 0.0, 0.028411865, 0.0, 0.0, 0.0], "parents": [2147483647, 0, 0, 1, 1, 2, 2, 3, 3, 4, 4, 5, 5, 7, 7, 9, 9, 10, 10, 11, 11, 12, 12, 13, 13, 14, 14, 15, 15, 16, 16, 19, 19, 24, 24, 25, 25, 35, 35], "right_children": [2, 4, 6, 8, 10, 12, -1, 14, -1, 16, 18, 20, 22, 24, 26, 28, 30, -1, -1, 32, -1, -1, -1, -1, 34, 36, -1, -1, -1, -1, -1, -1, -1, -1, -1, 38, -1, -1, -1], "split_conditions": [-3.371298, -0.037198335, -1.6188716, -0.33454514, 1.1078103, -1.4412483, -0.06634655, -1.6044632, -0.04825284, 1.8232944, -1.1471499, -3.1514113, 2.8064413, 0.9149211, 0.47598672, 