{"learner":{"attributes":{"best_iteration":"99","best_ntree_limit":"500"},"feature_names":["V1","V2","V3","V4","V5","V6","V7","V8","V9","V10","V11","V12","V13","V14","V15","V16","V17","V18","V19","V20","V21","V22","V23","V24","V25","V26","V27","V28","normalizedAmount"],"feature_types":["float","float","float","float","float","float","float","float","float","float","float","float","float","float","float","float","float","float","float","float","float","float","float","float","float","float","float","float","float"],"gradient_booster":{"model":{"gbtree_model_param":{"num_parallel_tree":"5","num_trees":"500","size_leaf_vector":"0"},"tree_info":[0,0,0,0,0,0,0,0,0,0,0,0,0,0,0,0,0,0,0,0,0,0,0,0,0,0,0,0,0,0,0,0,0,0,0,0,0,0,0,0,0,0,0,0,0,0,0,0,0,0,0,0,0,0,0,0,0,0,0,0,0,0,0,0,0,0,0,0,0,0,0,0,0,0,0,0,0,0,0,0,0,0,0,0,0,0,0,0,0,0,0,0,0,0,0,0,0,0,0,0,0,0,0,0,0,0,0,0,0,0,0,0,0,0,0,0,0,0,0,0,0,0,0,0,0,0,0,0,0,0,0,0,0,0,0,0,0,0,0,0,0,0,0,0,0,0,0,0,0,0,0,0,0,0,0,0,0,0,0,0,0,0,0,0,0,0,0,0,0,0,0,0,0,0,0,0,0,0,0,0,0,0,0,0,0,0,0,0,0,0,0,0,0,0,0,0,0,0,0,0,0,0,0,0,0,0,0,0,0,0,0,0,0,0,0,0,0,0,0,0,0,0,0,0,0,0,0,0,0,0,0,0,0,0,0,0,0,0,0,0,0,0,0,0,0,0,0,0,0,0,0,0,0,0,0,0,0,0,0,0,0,0,0,0,0,0,0,0,0,0,0,0,0,0,0,0,0,0,0,0,0,0,0,0,0,0,0,0,0,0,0,0,0,0,0,0,0,0,0,0,0,0,0,0,0,0,0,0,0,0,0,0,0,0,0,0,0,0,0,0,0,0,0,0,0,0,0,0,0,0,0,0,0,0,0,0,0,0,0,0,0,0,0,0,0,0,0,0,0,0,0,0,0,0,0,0,0,0,0,0,0,0,0,0,0,0,0,0,0,0,0,0,0,0,0,0,0,0,0,0,0,0,0,0,0,0,0,0,0,0,0,0,0,0,0,0,0,0,0,0,0,0,0,0,0,0,0,0,0,0,0,0,0,0,0,0,0,0,0,0,0,0,0,0,0,0,0,0,0,0,0,0,0,0,0,0,0,0,0,0,0,0,0,0,0,0,0,0,0,0,0,0,0,0,0,0,0,0,0,0,0,0,0,0,0,0,0,0,0,0,0,0,0,0,0,0,0,0,0,0,0,0,0,0,0,0,0,0,0,0,0,0,0,0,0,0,0,0,0,0],"trees":[{"base_weights":[-1.990729E0,-2.0118344E-1,-3.9958846E-2,1.4285715E0,-1.730337E0,3.7575755E-2,-1.8181819E-1,-2.857143E-1,-3.797468E-2,2E-2,-2.2857143E-2,-2.2222223E-2,1.3333334E-2],"categories":[],"categories_nodes":[],"categories_segments":[],"categories_sizes":[],"default_left":[0,0,0,0,0,0,0,0,0,0,0,0,0],"id":0,"left_children":[1,3,-1,5,7,-1,9,11,-1,-1,-1,-1,-1],"loss_changes":[1.31875E2,1.0776507E2,0E0,1.5567101E1,4.870262E0,0E0,7.389611E0,3.4920633E0,0E0,0E0,0E0,0E0,0E0],"parents":[2147483647,0,0,1,1,3,3,4,4,6,6,7,7],"right_children":[2,4,-1,6,8,-1,10,12,-1,-1,-1,-1,-1],"split_conditions":[-1.6517591E0,-2.0664883E0,-3.9958846E-2,-3.9216444E0,-2.7584283E0,3.7575755E-2,9.3089557E-1,-1.1993734E0,-3.797468E-2,2E-2,-2.2857143E-2,-2.2222223E-2,1.3333334E-2],"split_indices":[16,6,0,2,9,0,20,17,0,0,0,0,0],"split_type":[0,0,0,0,0,0,0,0,0,0,0,0,0],"sum_hessian":[1.0246E4,4.125E1,1.020475E4,2E1,2.125E1,1.55E1,4.5E0,2.5E0,1.875E1,2E0,2.5E0,1.25E0,1.25E0],"tree_param":{"num_deleted":"0","num_feature":"29","num_nodes":"13","size_leaf_vector":"0"}},{"base_weights":[-1.9915087E0,-3.3333334E-1,-3.996276E-2,1.5942029E0,-1.6116505E0,3.724138E-2,1.3333334E-1,-0E0,-3.816092E-2,-1.6E-2,2.2222223E-2,2.4E-2,-8.5714287E-1,-2.4E-2,-0E0],"categories":[],"categories_nodes":[],"categories_segments":[],"categories_sizes":[],"default_left":[0,0,0,0,0,0,0,0,0,0,0,0,0,0,0],"id":1,"left_children":[1,3,-1,5,7,-1,9,11,-1,-1,-1,-1,13,-1,-1],"loss_changes":[1.1196484E2,1.0605741E2,0E0,6.5019493E0,1.2300415E1,0E0,4.311111E0,6.1714287E0,0E0,0E0,0E0,0E0,1.0285714E0,0E0,0E0],"parents":[2147483647,0,0,1,1,3,3,4,4,6,6,7,7,12,12],"right_children":[2,4,-1,6,8,-1,10,12,-1,-1,-1,-1,14,-1,-1],"split_conditions":[-3.7138667E0,-2.0664883E0,-3.996276E-2,-3.9216444E0,-1.8769474E0,3.724138E-2,-1.8737646E0,-3.0934066E-1,-3.816092E-2,-1.6E-2,2.2222223E-2,2.4E-2,-1.9408467E0,-2.4E-2,-0E0],"split_indices":[13,6,0,2,9,0,4,25,0,0,0,0,2,0,0],"split_type":[0,0,0,0,0,0,0,0,0,0,0,0,0,0,0],"sum_hessian":[1.024475E4,4.1E1,1.020375E4,1.625E1,2.475E1,1.35E1,2.75E0,4E0,2.075E1,1.5E0,1.25E0,1.5E0,2.5E0,1.5E0,1E0],"tree_param":{"num_deleted":"0","num_feature":"29","num_nodes":"15","size_leaf_vector":"0"}},{"base_weights":[-1.992177E0,-3.6585367E-1,-3.9970547E-2,1.3766234E0,-1.8241758E0,1.7333333E0,9.52381E-2,-0E0,-3.816092E-2,3.7142854E-2,-0E0,2.1538462E-2,-2E-2],"categories":[],"categories_nodes":[],"categories_segments":[],"categories_sizes":[],"default_left":[0,0,0,0,0,0,0,0,0,0,0,0,0],"id":2,"left_children":[1,3,-1,5,7,9,11,-1,-1,-1,-1,-1,-1],"loss_changes":[1.0488672E2,1.06696014E2,0E0,8.633766E0,3.480606E0,3.2190475E0,6.721612E0,0E0,0E0,0E0,0E0,0E0,0E0],"parents":[2147483647,0,0,1,1,3,3,4,4,5,5,6,6],"right_children":[2,4,-1,6,8,10,12,-1,-1,-1,-1,-1,-1],"split_conditions":[-1.6517591E0,-1.8769474E0,-3.9970547E-2,-3.9216444E0,-3.580309E0,-5.280802E-1,8.032455E-1,-0E0,-3.816092E-2,3.7142854E-2,-0E0,2.1538462E-2,-2E-2],"split_indices":[16,9,0,2,6,4,20,0,0,0,0,0,0],"split_type":[0,0,0,0,0,0,0,0,0,0,0,0,0],"sum_hessian":[1.022525E4,4E1,1.018525E4,1.825E1,2.175E1,1.4E1,4.25E0,1E0,2.075E1,1.3E1,1E0,2.25E0,2E0],"tree_param":{"num_deleted":"0","num_feature":"29","num_nodes":"13","size_leaf_vector":"0"}},{"base_weights":[-1.9918069E0,-3.5714287E-1,-3.9966702E-2,1.3253012E0,-3.820225E-2,1.7460318E0,-0E0,3.7288137E-2,-0E0,2.1538462E-2,-9.3333334E-1,-2.5454544E-2,-0E0],"categories":[],"categories_nodes":[],"categories_segments":[],"categories_sizes":[],"default_left":[0,0,0,0,0,0,0,0,0,0,0,0,0],"id":3,"left_children":[1,3,-1,5,-1,7,9,-1,-1,-1,11,-1,-1],"loss_changes":[1.0869531E2,1.12268425E2,0E0,1.1570091E1,0E0,3.2553139E0,7.0358973E0,0E0,0E0,0E0,1.1878788E0,0E0,0E0],"parents":[2147483647,0,0,1,1,3,3,5,5,6,6,10,10],"right_children":[2,4,-1,6,-1,8,10,-1,-1,-1,12,-1,-1],"split_conditions":[-1.6517591E0,-1.8769474E0,-3.9966702E-2,-3.9216444E0,-3.820225E-2,-2.9518142E-1,6.8274516E-1,3.7288137E-2,-0E0,2.1538462E-2,-2.9559336E0,-2.5454544E-2,-0E0],"split_indices":[16,9,0,2,0,4,7,0,0,0,2,0,0],"split_type":[0,0,0,0,0,0,0,0,0,0,0,0,0],"sum_hessian":[1.02515E4,4.1E1,1.02105E4,1.975E1,2.125E1,1.475E1,5E0,1.375E1,1E0,2.25E0,2.75E0,1.75E0,1E0],"tree_param":{"num_deleted":"0","num_feature":"29","num_nodes":"13","size_leaf_vector":"0"}},{"base_weights":[-1.9915794E0,-2.0253165E-1,-3.9966583E-2,-1.8536586E0,1.5E0,-1E-2,-3.7948716E-2,3.719298E-2,5.185185E-1,1.1578947E0,-6.666667E-1,-0E0,2.9333333E-2,-2E-2,-0E0],"categories":[],"categories_nodes":[],"categories_segments":[],"categories_sizes":[],"default_left":[0,0,0,0,0,0,0,0,0,0,0,0,0,0,0],"id":4,"left_children":[1,3,-1,5,7,-1,-1,-1,9,11,13,-1,-1,-1,-1],"loss_changes":[1.2292578E2,1.1381877E2,0E0,2.6610565E-1,6.095516E0,0E0,0E0,0E0,5.88694E0,1.6982455E0,6.666666E-1,0E0,0E0,0E0,0E0],"parents":[2147483647,0,0,1,1,3,3,4,4,8,8,9,9,10,10],"right_children":[2,4,-1,6,8,-1,-1,-1,10,12,14,-1,-1,-1,-1],"split_conditions":[-2.7584283E0,1.8136415E0,-3.9966583E-2,-1.2770256E0,-5.1294565E0,-1E-2,-3.7948716E-2,3.719298E-2,9.3089557E-1,-2.004394E0,2.4121735E0,-0E0,2.9333333E-2,-2E-2,-0E0],"split_indices":[9,10,0,13,2,0,0,0,20,5,1,0,0,0,0],"split_type":[0,0,0,0,0,0,0,0,0,0,0,0,0,0,0],"sum_hessian":[1.0212E4,3.85E1,1.01735E4,1.95E1,1.9E1,1E0,1.85E1,1.325E1,5.75E0,3.75E0,2E0,1E0,2.75E0,1E0,1E0],"tree_param":{"num_deleted":"0","num_feature":"29","num_nodes":"15","size_leaf_vector":"0"}},{"base_weights":[-1.8102218E0,-1.7432873E-1,-3.6336657E-2,1.3208708E0,-1.580315E0,3.4636427E-2,-1.4656438E-1,-2.8038305E-1,-3.463272E-2,1.9522406E-2,-2.1367015E-2,1.2863901E-2,-2.159364E-2],"categories":[],"categories_nodes":[],"categories_segments":[],"categories_sizes":[],"default_left":[0,0,0,0,0,0,0,0,0,0,0,0,0],"id":5,"left_children":[1,3,-1,5,7,-1,9,11,-1,-1,-1,-1,-1],"loss_changes":[1.0941016E2,9.025891E1,0E0,1.2839817E1,3.856022E0,0E0,6.7222958E0,3.2741663E0,0E0,0E0,0E0,0E0,0E0],"parents":[2147483647,0,0,1,1,3,3,4,4,6,6,7,7],"right_children":[2,4,-1,6,8,-1,10,12,-1,-1,-1,-1,-1],"split_conditions":[-1.6517591E0,-2.0664883E0,-3.6336657E-2,-3.9216444E0,-2.7584283E0,3.4636427E-2,9.3089557E-1,4.1781533E-1,-3.463272E-2,1.9522406E-2,-2.1367015E-2,1.2863901E-2,-2.159364E-2],"split_indices":[16,6,0,2,9,0,20,24,0,0,0,0,0],"split_type":[0,0,0,0,0,0,0,0,0,0,0,0,0],"sum_hessian":[1.0144517E4,4.0941902E1,1.0103574E4,1.9870796E1,2.1071106E1,1.5382738E1,4.488057E0,2.4945378E0,1.8576569E1,1.9969449E0,2.4911122E0,1.2479041E0,1.2466339E0],"tree_param":{"num_deleted":"0","num_feature":"29","num_nodes":"13","size_leaf_vector":"0"}},{"base_weights":[-1.8109521E0,-2.8418168E-1,-3.63414E-2,1.4692279E0,-1.4500242E0,3.4280904E-2,1.3580772E-1,8.1238955E-2,-3.4736533E-2,-1.5338652E-2,2.1557452E-2,2.5256397E-2,-7.876029E-1,-2.9813915E-3,-2.1487504E-2],"categories":[],"categories_nodes":[],"categories_segments":[],"categories_sizes":[],"default_left":[0,0,0,0,0,0,0,0,0,0,0,0,0,0,0],"id":6,"left_children":[1,3,-1,5,7,-1,9,11,-1,-1,-1,-1,13,-1,-1],"loss_changes":[9.424219E1,8.731825E1,0E0,5.3622665E0,1.1354679E1,0E0,4.0113163E0,6.110465E0,0E0,0E0,0E0,0E0,4.7846222E-1,0E0,0E0],"parents":[2147483647,0,0,1,1,3,3,4,4,6,6,7,7,12,12],"right_children":[2,4,-1,6,8,-1,10,12,-1,-1,-1,-1,14,-1,-1],"split_conditions":[-3.7138667E0,-2.0664883E0,-3.63414E-2,-3.9216444E0,-1.8769474E0,3.4280904E-2,-3.580309E0,-3.0934066E-1,-3.4736533E-2,-1.5338652E-2,2.1557452E-2,2.5256397E-2,1.7425832E-1,-2.9813915E-3,-2.1487504E-2],"split_indices":[13,6,0,2,9,0,6,25,0,0,0,0,20,0,0],"split_type":[0,0,0,0,0,0,0,0,0,0,0,0,0,0,0],"sum_hessian":[1.0143274E4,4.0672955E1,1.0102602E4,1.6139364E1,2.4533588E1,1.3394644E1,2.7447214E0,3.9832742E0,2.0550314E1,1.4965471E0,1.2481743E0,1.4957196E0,2.4875546E0,1.241972E0,1.2455826E0],"tree_param":{"num_deleted":"0","num_feature":"29","num_nodes":"15","size_leaf_vector":"0"}},{"base_weights":[-1.8115971E0,-3.0267423E-1,-3.6347095E-2,-3.463073E-2,1.171463E0,1.6135926E0,-3.039149E-1,3.4361638E-2,4.5304354E-3,6.001584E-1,-2.5142768E-2,-3.4430856E-3,2.2068223E-2],"categories":[],"categories_nodes":[],"categories_segments":[],"categories_sizes":[],"default_left":[0,0,0,0,0,0,0,0,0,0,0,0,0],"id":7,"left_children":[1,3,-1,-1,5,7,9,-1,-1,11,-1,-1,-1],"loss_changes":[8.741406E1,8.562293E1,0E0,0E0,1.362171E1,1.8786621E0,5.4797354E0,0E0,0E0,1.5467863E0,0E0,0E0,0E0],"parents":[2147483647,0,0,1,1,4,4,5,5,6,6,9,9],"right_children":[2,4,-1,-1,6,8,10,-1,-1,12,-1,-1,-1],"split_conditions":[-3.88481E0,1.7786252E0,-3.6347095E-2,-3.463073E-2,-3.9216444E0,-1.8929844E0,9.3089557E-1,3.4361638E-2,4.5304354E-3,-2.3468587E0,-2.5142768E-2,-3.4430856E-3,2.2068223E-2],"split_indices":[11,10,0,0,2,6,20,0,0,0,0,0,0],"split_type":[0,0,0,0,0,0,0,0,0,0,0,0,0],"sum_hessian":[1.0123962E4,3.8687103E1,1.0085275E4,1.9556566E1,1.9130537E1,1.464743E1,4.483106E0,1.3399401E1,1.2480304E0,2.4909682E0,1.9921379E0,1.2423395E0,1.2486287E0],"tree_param":{"num_deleted":"0","num_feature":"29","num_nodes":"13","size_leaf_vector":"0"}},{"base_weights":[-1.8112502E0,-3.1820834E-1,-3.6344536E-2,1.2194827E0,-3.4845244E-2,-5.693783E-3,1.6102395E0,7.117686E-1,-1.919156E-2,3.4213126E-2,7.9346E-3,2.426671E-2,-4.3608174E-3],"categories":[],"categories_nodes":[],"categories_segments":[],"categories_sizes":[],"default_left":[0,0,0,0,0,0,0,0,0,0,0,0,0],"id":8,"left_children":[1,3,-1,5,-1,7,9,11,-1,-1,-1,-1,-1],"loss_changes":[9.000781E1,9.340459E1,0E0,9.8862095E0,0E0,4.7792454E0,1.2278671E0,2.1254125E0,0E0,0E0,0E0,0E0,0E0],"parents":[2147483647,0,0,1,1,3,3,5,5,6,6,7,7],"right_children":[2,4,-1,6,-1,8,10,12,-1,-1,-1,-1,-1],"split_conditions":[-1.6517591E0,-1.8769474E0,-3.6344536E-2,2.832564E0,-3.4845244E-2,1.5977907E-1,-3.9216444E0,-1.0288807E-1,-1.919156E-2,3.4213126E-2,7.9346E-3,2.426671E-2,-4.3608174E-3],"split_indices":[16,9,0,3,0,24,2,25,0,0,0,0,0],"split_type":[0,0,0,0,0,0,0,0,0,0,0,0,0],"sum_hessian":[1.0149951E4,4.0684998E1,1.0109266E4,1.9631063E1,2.1053934E1,4.985376E0,1.4645687E1,2.990156E0,1.9952201E0,1.3148023E1,1.4976646E0,1.7442997E0,1.2458563E0],"tree_param":{"num_deleted":"0","num_feature":"29","num_nodes":"13","size_leaf_vector":"0"}},{"base_weights":[-1.8110288E0,-1.6919538E-1,-3.6344748E-2,-3.3728436E-2,1.3899152E0,3.4179997E-2,5.132076E-1,1.1301873E0,-1.2723352E-2,2.8083453E-2,4.0256367E-3],"categories":[],"categories_nodes":[],"categories_segments":[],"categories_sizes":[],"default_left":[0,0,0,0,0,0,0,0,0,0,0],"id":9,"left_children":[1,3,-1,-1,5,-1,7,9,-1,-1,-1],"loss_changes":[1.02765625E2,9.5064316E1,0E0,0E0,4.6841354E0,0E0,5.4942384E0,9.2421055E-1,0E0,0E0,0E0],"parents":[2147483647,0,0,1,1,4,4,6,6,7,7],"right_children":[2,4,-1,-1,6,-1,8,10,-1,-1,-1],"split_conditions":[-2.7584283E0,1.8136415E0,-3.6344748E-2,-3.3728436E-2,-5.1294565E0,3.4179997E-2,9.3089557E-1,2.5693054E0,-1.2723352E-2,2.8083453E-2,4.0256367E-3],"split_indices":[9,10,0,0,2,0,20,1,0,0,0],"split_type":[0,0,0,0,0,0,0,0,0,0,0],"sum_hessian":[1.0110843E4,3.8196537E1,1.0072646E4,1.9316906E1,1.8879631E1,1.31457815E1,5.7338486E0,3.7419045E0,1.9919442E0,2.4944978E0,1.2474067E0],"tree_param":{"num_deleted":"0","num_feature":"29","num_nodes":"11","size_leaf_vector":"0"}},{"base_weights":[-1.6745427E0,-1.503751E-1,-1.680742E0,1.235453E0,-1.4604093E0,-1.2976682E0,-3.3626523E-2,3.2299098E-2,-1.08260594E-1,-2.6118714E-1,-3.204845E-2,4.9107814E-1,-3.1711362E-2,1.9305632E-2,-2.0053096E-2,1.2605086E-2,-2.0768363E-2,-1.0237737E-2,2.5413847E-2],"categories":[],"categories_nodes":[],"categories_segments":[],"categories_sizes":[],"default_left":[0,0,0,0,0,0,0,0,0,0,0,0,0,0,0,0,0,0,0],"id":10,"left_children":[1,3,5,7,9,11,-1,-1,13,15,-1,17,-1,-1,-1,-1,-1,-1,-1],"loss_changes":[9.3134766E1,7.648376E1,2.34375E-2,1.0644382E1,3.2607307E0,1.0755524E1,0E0,0E0,6.2090907E0,3.0671391E0,0E0,3.347614E0,0E0,0E0,0E0,0E0,0E0,0E0,0E0],"parents":[2147483647,0,0,1,1,2,2,3,3,4,4,5,5,8,8,9,9,11,11],"right_children":[2,4,6,8,10,12,-1,-1,14,16,-1,18,-1,-1,-1,-1,-1,-1,-1],"split_conditions":[-1.6517591E0,-2.0664883E0,-3.7138667E0,-3.9216444E0,-2.7584283E0,-1.8769474E0,-3.3626523E-2,3.2299098E-2,9.3089557E-1,4.1781533E-1,-3.204845E-2,-1.7879667E0,-3.1711362E-2,1.9305632E-2,-2.0053096E-2,1.2605086E-2,-2.0768363E-2,-1.0237737E-2,2.5413847E-2],"split_indices":[16,6,13,2,9,9,0,0,20,24,0,2,0,0,0,0,0,0,0],"split_type":[0,0,0,0,0,0,0,0,0,0,0,0,0,0,0,0,0,0,0],"sum_hessian":[9.88241E3,4.0134796E1,9.842275E3,1.9530869E1,2.0603926E1,1.837335E1,9.823901E3,1.5072204E1,4.4586654E0,2.4822125E0,1.8121714E1,2.4493856E0,1.5923964E1,1.9903679E0,2.4682977E0,1.2442402E0,1.2379724E0,1.2214342E0,1.2279513E0],"tree_param":{"num_deleted":"0","num_feature":"29","num_nodes":"19","size_leaf_vector":"0"}},{"base_weights":[-1.6752473E0,-2.4374774E-1,-3.3620298E-2,1.1263256E0,-1.5234728E0,3.134172E-2,3.5351872E-1,-2.1054817E-3,-3.207475E-2,2.5904275E-2,-3.6773038E-1,9.354354E-3,-7.723232E-1,3.1107815E-3,-2.4206217E-2],"categories":[],"categories_nodes":[],"categories_segments":[],"categories_sizes":[],"default_left":[0,0,0,0,0,0,0,0,0,0,0,0,0,0,0],"id":11,"left_children":[1,3,-1,5,7,-1,9,-1,-1,-1,11,-1,13,-1,-1],"loss_changes":[8.1177734E1,7.329633E1,0E0,6.357849E0,2.282402E0,0E0,6.358923E0,0E0,0E0,0E0,2.2823536E0,0E0,1.8976669E0,0E0,0E0],"parents":[2147483647,0,0,1,1,3,3,4,4,6,6,10,10,12,12],"right_children":[2,4,-1,6,8,-1,10,-1,-1,-1,12,-1,14,-1,-1],"split_conditions":[-3.7138667E0,-1.8769474E0,-3.3620298E-2,-5.1294565E0,-6.139181E-1,3.134172E-2,-2.7500758E-1,-2.1054817E-3,-3.207475E-2,2.5904275E-2,1.02688715E-1,9.354354E-3,-3.9216444E0,3.1107815E-3,-2.4206217E-2],"split_indices":[13,9,0,2,6,0,25,0,0,0,27,0,2,0,0],"split_type":[0,0,0,0,0,0,0,0,0,0,0,0,0,0,0],"sum_hessian":[9.88119E3,3.9825703E1,9.841365E3,1.9291788E1,2.0533916E1,1.1630627E1,7.661162E0,1.2237134E0,1.9310202E1,2.9776354E0,4.6835265E0,1.4772063E0,3.2063203E0,1.2349656E0,1.9713548E0],"tree_param":{"num_deleted":"0","num_feature":"29","num_nodes":"15","size_leaf_vector":"0"}},{"base_weights":[-1.675878E0,-2.6577157E-1,-3.362577E-2,-3.2033373E-2,1.0993971E0,1.50844E0,-2.5782168E-1,3.2092668E-2,4.609187E-3,6.183934E-1,-2.3901599E-2,-2.5459959E-3,2.1655725E-2],"categories":[],"categories_nodes":[],"categories_segments":[],"categories_sizes":[],"default_left":[0,0,0,0,0,0,0,0,0,0,0,0,0],"id":12,"left_children":[1,3,-1,-1,5,7,9,-1,-1,11,-1,-1,-1],"loss_changes":[7.4802734E1,7.268303E1,0E0,0E0,1.1395845E1,1.5210228E0,5.211175E0,0E0,0E0,1.340677E0,0E0,0E0,0E0],"parents":[2147483647,0,0,1,1,4,4,5,5,6,6,9,9],"right_children":[2,4,-1,-1,6,8,10,-1,-1,12,-1,-1,-1],"split_conditions":[-3.88481E0,1.7786252E0,-3.362577E-2,-3.2033373E-2,-3.9216444E0,-1.8929844E0,9.3089557E-1,3.2092668E-2,4.609187E-3,-2.3468587E0,-2.3901599E-2,-2.5459959E-3,2.1655725E-2],"split_indices":[11,10,0,0,2,6,20,0,0,0,0,0,0],"split_type":[0,0,0,0,0,0,0,0,0,0,0,0,0],"sum_hessian":[9.862371E3,3.7888626E1,9.824482E3,1.9062054E1,1.882657E1,1.4380968E1,4.445603E0,1.31365795E1,1.2443886E0,2.473454E0,1.972149E0,1.2278033E0,1.2456506E0],"tree_param":{"num_deleted":"0","num_feature":"29","num_nodes":"13","size_leaf_vector":"0"}},{"base_weights":[-1.6755439E0,-2.843767E-1,-3.362291E-2,1.1385435E0,-3.2266025E-2,4.6195243E-3,1.5033357E0,6.892334E-1,-1.81503E-2,3.1834472E-2,8.187206E-3,2.3370242E-2,-4.084061E-3],"categories":[],"categories_nodes":[],"categories_segments":[],"categories_sizes":[],"default_left":[0,0,0,0,0,0,0,0,0,0,0,0,0],"id":13,"left_children":[1,3,-1,5,-1,7,9,11,-1,-1,-1,-1,-1],"loss_changes":[7.658594E1,7.910515E1,0E0,8.398125E0,0E0,4.340338E0,8.3465576E-1,1.9371445E0,0E0,0E0,0E0,0E0,0E0],"parents":[2147483647,0,0,1,1,3,3,5,5,6,6,7,7],"right_children":[2,4,-1,6,-1,8,10,12,-1,-1,-1,-1,-1],"split_conditions":[-1.6517591E0,-1.8769474E0,-3.362291E-2,2.832564E0,-3.2266025E-2,1.5977907E-1,-3.9216444E0,-1.0288807E-1,-1.81503E-2,3.1834472E-2,8.187206E-3,2.3370242E-2,-4.084061E-3],"split_indices":[16,9,0,3,0,24,2,25,0,0,0,0,0],"split_type":[0,0,0,0,0,0,0,0,0,0,0,0,0],"sum_hessian":[9.887679E3,3.98621E1,9.847816E3,1.931944E1,2.0542658E1,4.948898E0,1.4370543E1,2.96663E0,1.9822679E0,1.2875291E1,1.4952519E0,1.7304535E0,1.2361765E0],"tree_param":{"num_deleted":"0","num_feature":"29","num_nodes":"13","size_leaf_vector":"0"}},{"base_weights":[-1.6753312E0,-1.4111908E-1,-3.3623315E-2,-3.1139318E-2,1.3017948E0,3.1790335E-2,5.118766E-1,1.1117325E0,-1.2278961E-2,2.764484E-2,3.9078677E-3],"categories":[],"categories_nodes":[],"categories_segments":[],"categories_sizes":[],"default_left":[0,0,0,0,0,0,0,0,0,0,0],"id":14,"left_children":[1,3,-1,-1,5,-1,7,9,-1,-1,-1],"loss_changes":[8.794336E1,8.04992E1,0E0,0E0,3.633831E0,0E0,5.2070293E0,9.01536E-1,0E0,0E0,0E0],"parents":[2147483647,0,0,1,1,4,4,6,6,7,7],"right_children":[2,4,-1,-1,6,-1,8,10,-1,-1,-1],"split_conditions":[-2.7584283E0,1.8136415E0,-3.3623315E-2,-3.1139318E-2,-5.1294565E0,3.1790335E-2,9.3089557E-1,2.5693054E0,-1.2278961E-2,2.764484E-2,3.9078677E-3],"split_indices":[9,10,0,0,2,0,20,1,0,0,0],"split_type":[0,0,0,0,0,0,0,0,0,0,0],"sum_hessian":[9.849586E3,3.7411385E1,9.812174E3,1.8842903E1,1.8568481E1,1.2868843E1,5.6996384E0,3.7265794E0,1.9730589E0,2.4846535E0,1.241926E0],"tree_param":{"num_deleted":"0","num_feature":"29","num_nodes":"11","size_leaf_vector":"0"}},{"base_weights":[-1.5691156E0,-1.2438596E-1,-1.575033E0,1.1311861E0,-1.4154167E0,-1.1973011E0,-3.1512402E-2,-9.578832E-3,1.2550838E0,-1.0484029E-3,-2.9978765E-2,2.0348692E-2,-1.4097694E0,1.3857425E0,3.841151E-1,-1.8376391E-3,-3.0017002E-2,2.9979963E-2,9.017956E-3,2.5568362E-2,-1.3341572E-2],"categories":[],"categories_nodes":[],"categories_segments":[],"categories_sizes":[],"default_left":[0,0,0,0,0,0,0,0,0,0,0,0,0,0,0,0,0,0,0,0,0],"id":15,"left_children":[1,3,5,7,9,11,-1,-1,13,-1,-1,-1,15,17,19,-1,-1,-1,-1,-1,-1],"loss_changes":[8.111719E1,6.6251335E1,2.109375E-1,4.7455673E0,2.210537E0,1.0310286E1,0E0,0E0,1.6944332E0,0E0,0E0,0E0,1.9783554E0,1.084938E0,4.55292E0,0E0,0E0,0E0,0E0,0E0,0E0],"parents":[2147483647,0,0,1,1,2,2,3,3,4,4,5,5,8,8,12,12,13,13,14,14],"right_children":[2,4,6,8,10,12,-1,-1,14,-1,-1,-1,16,18,20,-1,-1,-1,-1,-1,-1],"split_conditions":[-3.7138667E0,-1.8769474E0,-1.6517591E0,1.0843875E0,-1.4361627E0,-2.2637854E0,-3.1512402E-2,-9.578832E-3,-1.4576054E-1,-1.0484029E-3,-2.9978765E-2,2.0348692E-2,-2.2443688E0,-3.9216444E0,-5.7584745E-1,-1.8376391E-3,-3.0017002E-2,2.9979963E-2,9.017956E-3,2.5568362E-2,-1.3341572E-2],"split_indices":[13,9,16,1,21,8,0,0,4,0,0,0,5,2,18,0,0,0,0,0,0],"split_type":[0,0,0,0,0,0,0,0,0,0,0,0,0,0,0,0,0,0,0,0,0],"sum_hessian":[9.510364E3,3.8883377E1,9.47148E3,1.977516E1,1.9108217E1,1.786245E1,9.453618E3,1.2082016E0,1.856696E1,1.1972829E0,1.7910934E1,1.2319683E0,1.663048E1,1.5631027E1,2.9359324E0,1.204908E0,1.5425572E1,1.34037075E1,2.2273192E0,1.4695523E0,1.4663801E0],"tree_param":{"num_deleted":"0","num_feature":"29","num_nodes":"21","size_leaf_vector":"0"}},{"base_weights":[-1.5698103E0,-2.1217687E-1,-3.1506553E-2,1.0679929E0,-1.4219284E0,2.935751E-2,3.74008E-1,-1.0484029E-3,-3.0056894E-2,2.5857247E-2,-3.3926654E-1,9.767951E-3,-7.4695957E-1,2.686736E-3,-2.3183094E-2],"categories":[],"categories_nodes":[],"categories_segments":[],"categories_sizes":[],"default_left":[0,0,0,0,0,0,0,0,0,0,0,0,0,0,0],"id":16,"left_children":[1,3,-1,5,7,-1,9,-1,-1,-1,11,-1,13,-1,-1],"loss_changes":[7.090234E1,6.292063E1,0E0,4.9552727E0,2.2276764E0,0E0,6.07024E0,0E0,0E0,0E0,2.2644396E0,0E0,1.6694815E0,0E0,0E0],"parents":[2147483647,0,0,1,1,3,3,4,4,6,6,10,10,12,12],"right_children":[2,4,-1,6,8,-1,10,-1,-1,-1,12,-1,14,-1,-1],"split_conditions":[-3.7138667E0,-1.8769474E0,-3.1506553E-2,-5.1294565E0,-1.3244593E0,2.935751E-2,-2.7500758E-1,-1.0484029E-3,-3.0056894E-2,2.5857247E-2,1.02688715E-1,9.767951E-3,-3.9216444E0,2.686736E-3,-2.3183094E-2],"split_indices":[13,9,0,2,21,0,25,0,0,0,27,0,2,0,0],"split_type":[0,0,0,0,0,0,0,0,0,0,0,0,0,0,0],"sum_hessian":[9.509175E3,3.8647778E1,9.470527E3,1.8834316E1,1.9813461E1,1.1241619E1,7.5926976E0,1.1972829E0,1.8616179E1,2.9630563E0,4.6296415E0,1.4625472E0,3.1670942E0,1.2240663E0,1.943028E0],"tree_param":{"num_deleted":"0","num_feature":"29","num_nodes":"15","size_leaf_vector":"0"}},{"base_weights":[-1.5704334E0,-2.3367168E-1,-3.1512104E-2,-2.9988293E-2,1.041798E0,1.4249059E0,-2.1767199E-1,3.0333363E-2,4.4970997E-3,6.3368005E-1,-2.2829553E-2,-1.902895E-3,2.134246E-2],"categories":[],"categories_nodes":[],"categories_segments":[],"categories_sizes":[],"default_left":[0,0,0,0,0,0,0,0,0,0,0,0,0],"id":17,"left_children":[1,3,-1,-1,5,7,9,-1,-1,11,-1,-1,-1],"loss_changes":[6.525586E1,6.251794E1,0E0,0E0,9.669165E0,1.3113098E0,4.9635887E0,0E0,0E0,1.191008E0,0E0,0E0,0E0],"parents":[2147483647,0,0,1,1,4,4,5,5,6,6,9,9],"right_children":[2,4,-1,-1,6,8,10,-1,-1,12,-1,-1,-1],"split_conditions":[-3.88481E0,1.7786252E0,-3.1512104E-2,-2.9988293E-2,-3.9216444E0,-1.8929844E0,9.3089557E-1,3.0333363E-2,4.4970997E-3,1.1204051E0,-2.2829553E-2,-1.902895E-3,2.134246E-2],"split_indices":[11,10,0,0,2,6,20,0,0,3,0,0,0],"split_type":[0,0,0,0,0,0,0,0,0,0,0,0,0],"sum_hessian":[9.491059E3,3.6757195E1,9.454302E3,1.8360817E1,1.8396378E1,1.4004967E1,4.3914104E0,1.2765046E1,1.2399205E0,2.4487603E0,1.9426502E0,1.2042801E0,1.24448E0],"tree_param":{"num_deleted":"0","num_feature":"29","num_nodes":"13","size_leaf_vector":"0"}},{"base_weights":[-1.5701089E0,-2.555301E-1,-3.150896E-2,1.0728111E0,-3.02326E-2,1.440017E-2,1.4177476E0,6.7281616E-1,-1.728617E-2,2.9956387E-2,8.311351E-3,2.2569878E-2,-3.709955E-3],"categories":[],"categories_nodes":[],"categories_segments":[],"categories_sizes":[],"default_left":[0,0,0,0,0,0,0,0,0,0,0,0,0],"id":18,"left_children":[1,3,-1,5,-1,7,9,11,-1,-1,-1,-1,-1],"loss_changes":[6.638867E1,6.7842186E1,0E0,7.235344E0,0E0,3.9922497E0,5.795574E-1,1.7473325E0,0E0,0E0,0E0,0E0,0E0],"parents":[2147483647,0,0,1,1,3,3,5,5,6,6,7,7],"right_children":[2,4,-1,6,-1,8,10,12,-1,-1,-1,-1,-1],"split_conditions":[-1.6517591E0,-1.8769474E0,-3.150896E-2,2.832564E0,-3.02326E-2,1.5977907E-1,-3.9216444E0,-1.0288807E-1,-1.728617E-2,2.9956387E-2,8.311351E-3,2.2569878E-2,-3.709955E-3],"split_indices":[16,9,0,3,0,24,2,25,0,0,0,0,0],"split_type":[0,0,0,0,0,0,0,0,0,0,0,0,0],"sum_hessian":[9.5154E3,3.868794E1,9.476713E3,1.887418E1,1.9813759E1,4.8952456E0,1.3978933E1,2.93235E0,1.9628956E0,1.2486714E1,1.4922197E0,1.7098258E0,1.2225242E0],"tree_param":{"num_deleted":"0","num_feature":"29","num_nodes":"13","size_leaf_vector":"0"}},{"base_weights":[-1.5699035E0,-1.1734731E-1,-3.150947E-2,-1.4543818E0,1.2288876E0,-9.041151E-3,-2.9905736E-2,-3.13272E-3,1.3317612E0,2.9873151E-2,6.860803E-1,1.0121646E0,-4.8635267E-3,3.6486879E-3,2.5832567E-2],"categories":[],"categories_nodes":[],"categories_segments":[],"categories_sizes":[],"default_left":[0,0,0,0,0,0,0,0,0,0,0,0,0,0,0],"id":19,"left_children":[1,3,-1,5,7,-1,-1,-1,9,-1,11,13,-1,-1,-1],"loss_changes":[7.6515625E1,6.8913795E1,0E0,1.0995865E-1,2.9345264E0,0E0,0E0,0E0,8.47229E-1,0E0,1.8944278E0,7.429762E-1,0E0,0E0,0E0],"parents":[2147483647,0,0,1,1,3,3,4,4,8,8,10,10,11,11],"right_children":[2,4,-1,6,8,-1,-1,-1,10,-1,12,14,-1,-1,-1],"split_conditions":[-2.7584283E0,1.8136415E0,-3.150947E-2,-1.1545243E0,1.0176367E0,-9.041151E-3,-2.9905736E-2,-3.13272E-3,-5.1294565E0,2.9873151E-2,5.1700956E-1,-2.9079884E-1,-4.8635267E-3,3.6486879E-3,2.5832567E-2],"split_indices":[9,10,0,13,3,0,0,0,2,0,27,23,0,0,0],"split_type":[0,0,0,0,0,0,0,0,0,0,0,0,0,0,0],"sum_hessian":[9.478744E3,3.6293297E1,9.44245E3,1.8168564E1,1.8124731E1,1.1849253E0,1.6983639E1,1.2166085E0,1.6908123E1,1.2468498E1,4.439624E0,3.2203536E0,1.2192702E0,1.2278016E0,1.992552E0],"tree_param":{"num_deleted":"0","num_feature":"29","num_nodes":"15","size_leaf_vector":"0"}},{"base_weights":[-1.485107E0,-1.0096374E-1,-1.4908415E0,1.0798619E0,-1.3321458E0,-1.1173484E0,-2.9828578E-2,-8.657632E-3,1.1968689E0,4.1838608E-5,-2.8363055E-2,1.9857211E-2,-1.328048E0,1.2656342E0,1.5193532E-3,-1.1299867E-3,-2.8392851E-2,1.3654835E0,5.8456695E-1,2.8517438E-2,9.566079E-3,2.0045428E-2,-2.1245657E-3],"categories":[],"categories_nodes":[],"categories_segments":[],"categories_sizes":[],"default_left":[0,0,0,0,0,0,0,0,0,0,0,0,0,0,0,0,0,0,0,0,0,0,0],"id":20,"left_children":[1,3,5,7,9,11,-1,-1,13,-1,-1,-1,15,17,-1,-1,-1,19,21,-1,-1,-1,-1],"loss_changes":[7.1822266E1,5.7385696E1,3.1054688E-1,4.0927467E0,2.216282E0,9.395714E0,0E0,0E0,1.3692226E0,0E0,0E0,0E0,1.8933239E0,4.1555595E-1,0E0,0E0,0E0,1.11866E-1,1.2695221E0,0E0,0E0,0E0,0E0],"parents":[2147483647,0,0,1,1,2,2,3,3,4,4,5,5,8,8,12,12,13,13,17,17,18,18],"right_children":[2,4,6,8,10,12,-1,-1,14,-1,-1,-1,16,18,-1,-1,-1,20,22,-1,-1,-1,-1],"split_conditions":[-3.7138667E0,-1.8769474E0,-1.6517591E0,1.0843875E0,-2.123891E0,-2.2637854E0,-2.9828578E-2,-8.657632E-3,7.2923434E-1,4.1838608E-5,-2.8363055E-2,1.9857211E-2,-2.2443688E0,5.1700956E-1,1.5193532E-3,-1.1299867E-3,-2.8392851E-2,4.5801628E-1,2.3966799E0,2.8517438E-2,9.566079E-3,2.0045428E-2,-2.1245657E-3],"split_indices":[13,9,16,1,11,8,0,0,24,0,0,0,5,27,0,0,0,24,18,0,0,0,0],"split_type":[0,0,0,0,0,0,0,0,0,0,0,0,0,0,0,0,0,0,0,0,0,0,0],"sum_hessian":[9.066027E3,3.7483093E1,9.028544E3,1.9195557E1,1.8287535E1,1.7166407E1,9.011378E3,1.1843153E0,1.8011242E1,1.1665384E0,1.7120996E1,1.221415E0,1.5944991E1,1.6848494E1,1.1627485E0,1.1800444E0,1.4764947E1,1.381779E1,3.0307035E0,1.2368684E1,1.4491065E0,1.6076859E0,1.4230175E0],"tree_param":{"num_deleted":"0","num_feature":"29","num_nodes":"23","size_leaf_vector":"0"}},{"base_weights":[-1.4857998E0,-1.8510331E-1,-2.9822903E-2,1.0172982E0,-1.3380258E0,-6.7190384E-3,1.1641117E0,-2.8419193E-2,-7.783018E-5,1.2767849E0,2.9681638E-1,1.4027115E0,5.740134E-1,-6.886876E-3,1.634793E-2,7.777295E-3,2.9911129E-2,2.0821108E-2,-5.861077E-3],"categories":[],"categories_nodes":[],"categories_segments":[],"categories_sizes":[],"default_left":[0,0,0,0,0,0,0,0,0,0,0,0,0,0,0,0,0,0,0],"id":21,"left_children":[1,3,-1,5,7,-1,9,-1,-1,11,13,15,17,-1,-1,-1,-1,-1,-1],"loss_changes":[6.275586E1,5.4381218E1,0E0,4.223446E0,2.2025986E0,0E0,1.3434219E0,0E0,0E0,5.4850197E-1,1.3927408E0,5.74276E-1,1.9318118E0,0E0,0E0,0E0,0E0,0E0,0E0],"parents":[2147483647,0,0,1,1,3,3,4,4,6,6,9,9,10,10,11,11,12,12],"right_children":[2,4,-1,6,8,-1,10,-1,-1,12,14,16,18,-1,-1,-1,-1,-1,-1],"split_conditions":[-3.7138667E0,-1.8769474E0,-2.9822903E-2,1.1270196E0,3.3884564E-1,-6.7190384E-3,1.1622351E0,-2.8419193E-2,-7.783018E-5,5.1700956E-1,3.8653362E0,-6.486972E-1,1.4867577E-1,-6.886876E-3,1.634793E-2,7.777295E-3,2.9911129E-2,2.0821108E-2,-5.861077E-3],"split_indices":[13,9,0,1,20,0,12,0,0,27,1,23,14,0,0,0,0,0,0],"split_type":[0,0,0,0,0,0,0,0,0,0,0,0,0,0,0,0,0,0,0],"sum_hessian":[9.064865E3,3.724639E1,9.027619E3,1.8289555E1,1.8956839E1,1.6639395E0,1.6625616E1,1.7786118E1,1.1707207E0,1.4296204E1,2.329412E0,1.1279167E1,3.0170362E0,1.1955185E0,1.1338935E0,1.381527E0,9.89764E0,1.8304236E0,1.1866126E0],"tree_param":{"num_deleted":"0","num_feature":"29","num_nodes":"19","size_leaf_vector":"0"}},{"base_weights":[-1.4864252E0,-2.059713E-1,-2.9828627E-2,-2.8331714E-2,9.9267423E-1,1.3559602E0,-1.8542399E-1,2.8913667E-2,4.2813006E-3,6.488527E-1,-2.2056188E-2,2.1149425E-2,-1.391538E-3],"categories":[],"categories_nodes":[],"categories_segments":[],"categories_sizes":[],"default_left":[0,0,0,0,0,0,0,0,0,0,0,0,0],"id":22,"left_children":[1,3,-1,-1,5,7,9,-1,-1,11,-1,-1,-1],"loss_changes":[5.7695312E1,5.4226116E1,0E0,0E0,8.331121E0,1.1811657E0,4.794215E0,0E0,0E0,1.0777266E0,0E0,0E0,0E0],"parents":[2147483647,0,0,1,1,4,4,5,5,6,6,9,9],"right_children":[2,4,-1,-1,6,8,10,-1,-1,12,-1,-1,-1],"split_conditions":[-3.88481E0,1.7786252E0,-2.9828627E-2,-2.8331714E-2,-3.9216444E0,-1.8929844E0,9.3089557E-1,2.8913667E-2,4.2813006E-3,-2.1152967E-1,-2.2056188E-2,2.1149425E-2,-1.391538E-3],"split_indices":[11,10,0,0,2,6,20,0,0,23,0,0,0],"split_type":[0,0,0,0,0,0,0,0,0,0,0,0,0],"sum_hessian":[9.04759E3,3.5399975E1,9.012189E3,1.7521597E1,1.7878378E1,1.3549264E1,4.3291135E0,1.2315545E1,1.2337189E0,2.4205573E0,1.9085562E0,1.2421459E0,1.1784114E0],"tree_param":{"num_deleted":"0","num_feature":"29","num_nodes":"13","size_leaf_vector":"0"}},{"base_weights":[-1.4861066E0,-2.3127852E-1,-2.9825186E-2,1.0160067E0,-2.8588083E-2,2.0952594E-2,1.3458818E0,6.563505E-1,-1.6557503E-2,2.842815E-2,8.210139E-3,2.1855492E-2,-3.4281719E-3],"categories":[],"categories_nodes":[],"categories_segments":[],"categories_sizes":[],"default_left":[0,0,0,0,0,0,0,0,0,0,0,0,0],"id":23,"left_children":[1,3,-1,5,-1,7,9,11,-1,-1,-1,-1,-1],"loss_changes":[5.8310547E1,5.8662003E1,0E0,6.3203697E0,0E0,3.6884286E0,4.415455E-1,1.5935565E0,0E0,0E0,0E0,0E0,0E0],"parents":[2147483647,0,0,1,1,3,3,5,5,6,6,7,7],"right_children":[2,4,-1,6,-1,8,10,12,-1,-1,-1,-1,-1],"split_conditions":[-1.6517591E0,-1.8769474E0,-2.9825186E-2,2.832564E0,-2.8588083E-2,1.5977907E-1,-3.9216444E0,-1.0288807E-1,-1.6557503E-2,2.842815E-2,8.210139E-3,2.1855492E-2,-3.4281719E-3],"split_indices":[16,9,0,3,0,24,2,25,0,0,0,0,0],"split_type":[0,0,0,0,0,0,0,0,0,0,0,0,0],"sum_hessian":[9.070781E3,3.7282623E1,9.033498E3,1.8341042E1,1.8941582E1,4.831262E0,1.350978E1,2.892678E0,1.9385843E0,1.2019654E1,1.4901251E0,1.6844275E0,1.2082505E0],"tree_param":{"num_deleted":"0","num_feature":"29","num_nodes":"13","size_leaf_vector":"0"}},{"base_weights":[-1.4859034E0,-9.663758E-2,-2.9825758E-2,-1.3711717E0,1.1669246E0,-8.077171E-3,-2.8246142E-2,-2.5897026E-3,1.2638158E0,2.831053E-2,6.6631407E-1,9.922594E-1,-5.12655E-3,3.358012E-3,2.5437297E-2],"categories":[],"categories_nodes":[],"categories_segments":[],"categories_sizes":[],"default_left":[0,0,0,0,0,0,0,0,0,0,0,0,0,0,0],"id":24,"left_children":[1,3,-1,5,7,-1,-1,-1,9,-1,11,13,-1,-1,-1],"loss_changes":[6.745703E1,5.9511433E1,0E0,1.6026306E-1,2.4997234E0,0E0,0E0,0E0,6.338501E-1,0E0,1.8819647E0,7.556038E-1,0E0,0E0,0E0],"parents":[2147483647,0,0,1,1,3,3,4,4,8,8,10,10,11,11],"right_children":[2,4,-1,6,8,-1,-1,-1,10,-1,12,14,-1,-1,-1],"split_conditions":[-2.7584283E0,1.8136415E0,-2.9825758E-2,-1.1545243E0,1.0176367E0,-8.077171E-3,-2.8246142E-2,-2.5897026E-3,-5.1294565E0,2.831053E-2,5.1700956E-1,-2.9079884E-1,-5.12655E-3,3.358012E-3,2.5437297E-2],"split_indices":[9,10,0,13,3,0,0,0,2,0,27,23,0,0,0],"split_type":[0,0,0,0,0,0,0,0,0,0,0,0,0,0,0],"sum_hessian":[9.03584E3,3.495968E1,9.000881E3,1.7361877E1,1.75978E1,1.1494714E0,1.6212406E1,1.2003701E0,1.639743E1,1.19852085E1,4.4122214E0,3.2046478E0,1.2075737E0,1.217017E0,1.9876307E0],"tree_param":{"num_deleted":"0","num_feature":"29","num_nodes":"15","size_leaf_vector":"0"}},{"base_weights":[-1.4168161E0,-7.751347E-2,-1.4224466E0,1.0374497E0,-1.2615507E0,-1.0486007E0,-2.8460851E-2,-7.863763E-3,1.1488038E0,9.7346096E-4,-2.7013132E-2,1.9398514E-2,-1.259306E0,1.2172241E0,1.1317583E-3,-4.8126245E-4,-2.7047891E-2,2.633427E-2,5.500587E-1,1.9304544E-2,-2.4268904E-3],"categories":[],"categories_nodes":[],"categories_segments":[],"categories_sizes":[],"default_left":[0,0,0,0,0,0,0,0,0,0,0,0,0,0,0,0,0,0,0,0,0],"id":25,"left_children":[1,3,5,7,9,11,-1,-1,13,-1,-1,-1,15,17,-1,-1,-1,-1,19,-1,-1],"loss_changes":[6.458203E1,5.011725E1,4.1015625E-1,3.572525E0,2.2117805E0,8.620121E0,0E0,0E0,1.3084145E0,0E0,0E0,0E0,1.8287144E0,4.2370605E-1,0E0,0E0,0E0,0E0,1.221479E0,0E0,0E0],"parents":[2147483647,0,0,1,1,2,2,3,3,4,4,5,5,8,8,12,12,13,13,18,18],"right_children":[2,4,6,8,10,12,-1,-1,14,-1,-1,-1,16,18,-1,-1,-1,-1,20,-1,-1],"split_conditions":[-3.7138667E0,-1.8769474E0,-1.6517591E0,1.0843875E0,-5.3532606E-1,-2.2637854E0,-2.8460851E-2,-7.863763E-3,7.2923434E-1,9.7346096E-4,-2.7013132E-2,1.9398514E-2,-2.2443688E0,5.1700956E-1,1.1317583E-3,-4.8126245E-4,-2.7047891E-2,2.633427E-2,2.3966799E0,1.9304544E-2,-2.4268904E-3],"split_indices":[13,9,16,1,6,8,0,0,24,0,0,0,5,27,0,0,0,0,18,0,0],"split_type":[0,0,0,0,0,0,0,0,0,0,0,0,0,0,0,0,0,0,0,0,0],"sum_hessian":[8.577523E3,3.597168E1,8.541552E3,1.8589989E1,1.738169E1,1.6395817E1,8.525156E3,1.1596936E0,1.7430296E1,1.1357185E0,1.624597E1,1.2091454E0,1.5186671E1,1.6295061E1,1.1352352E0,1.1524665E0,1.4034205E1,1.3333188E1,2.9618726E0,1.5597563E0,1.4021164E0],"tree_param":{"num_deleted":"0","num_feature":"29","num_nodes":"21","size_leaf_vector":"0"}},{"base_weights":[-1.417523E0,-1.605773E-1,-2.8455252E-2,9.731303E-1,-1.2677048E0,-6.0001398E-3,1.1124163E0,9.130254E-4,-2.707719E-2,1.2283214E0,2.4620718E-1,1.354299E0,5.375649E-1,-7.4546677E-3,1.5444848E-2,7.521202E-3,2.887067E-2,2.0028636E-2,-6.0573546E-3],"categories":[],"categories_nodes":[],"categories_segments":[],"categories_sizes":[],"default_left":[0,0,0,0,0,0,0,0,0,0,0,0,0,0,0,0,0,0,0],"id":26,"left_children":[1,3,-1,5,7,-1,9,-1,-1,11,13,15,17,-1,-1,-1,-1,-1,-1],"loss_changes":[5.626172E1,4.7340492E1,0E0,3.6524315E0,2.2138462E0,0E0,1.4125462E0,0E0,0E0,5.611782E-1,1.3513944E0,4.934597E-1,1.8406094E0,0E0,0E0,0E0,0E0,0E0,0E0],"parents":[2147483647,0,0,1,1,3,3,4,4,6,6,9,9,10,10,11,11,12,12],"right_children":[2,4,-1,6,8,-1,10,-1,-1,12,14,16,18,-1,-1,-1,-1,-1,-1],"split_conditions":[-3.7138667E0,-1.8769474E0,-2.8455252E-2,1.1270196E0,-6.139181E-1,-6.0001398E-3,1.1622351E0,9.130254E-4,-2.707719E-2,5.1700956E-1,4.916305E0,-6.486972E-1,1.4867577E-1,-7.4546677E-3,1.5444848E-2,7.521202E-3,2.887067E-2,2.0028636E-2,-6.0573546E-3],"split_indices":[13,9,0,1,6,0,12,0,0,27,3,23,14,0,0,0,0,0,0],"split_type":[0,0,0,0,0,0,0,0,0,0,0,0,0,0,0,0,0,0,0],"sum_hessian":[8.576393E3,3.573387E1,8.540659E3,1.7714802E1,1.801907E1,1.6331525E0,1.608165E1,1.1382045E0,1.6880865E1,1.3815052E1,2.2665977E0,1.0871709E1,2.9433436E0,1.1752319E0,1.0913658E0,1.3446959E0,9.527013E0,1.7731224E0,1.1702212E0],"tree_param":{"num_deleted":"0","num_feature":"29","num_nodes":"19","size_leaf_vector":"0"}},{"base_weights":[-1.4181515E0,-1.7907952E-1,-2.8461235E-2,-2.6963789E-2,9.5265555E-1,1.3010776E0,-1.6121042E-1,2.7804451E-2,4.0675267E-3,6.552223E-1,-2.1372482E-2,2.0834453E-2,-1.0379144E-3],"categories":[],"categories_nodes":[],"categories_segments":[],"categories_sizes":[],"default_left":[0,0,0,0,0,0,0,0,0,0,0,0,0],"id":27,"left_children":[1,3,-1,-1,5,7,9,-1,-1,11,-1,-1,-1],"loss_changes":[5.183203E1,4.7508358E1,0E0,0E0,7.326437E0,1.0948982E0,4.596318E0,0E0,0E0,9.8006535E-1,0E0,0E0,0E0],"parents":[2147483647,0,0,1,1,4,4,5,5,6,6,9,9],"right_children":[2,4,-1,-1,6,8,10,-1,-1,12,-1,-1,-1],"split_conditions":[-3.88481E0,1.7786252E0,-2.8461235E-2,-2.6963789E-2,-3.9216444E0,-1.8929844E0,9.3089557E-1,2.7804451E-2,4.0675267E-3,-2.1152967E-1,-2.1372482E-2,2.0834453E-2,-1.0379144E-3],"split_indices":[11,10,0,0,2,6,20,0,0,23,0,0,0],"split_type":[0,0,0,0,0,0,0,0,0,0,0,0,0],"sum_hessian":[8.560041E3,3.3935535E1,8.526105E3,1.6598068E1,1.733747E1,1.3078411E1,4.2590575E0,1.1849612E1,1.2287991E0,2.3882167E0,1.8708409E0,1.2382258E0,1.1499909E0],"tree_param":{"num_deleted":"0","num_feature":"29","num_nodes":"13","size_leaf_vector":"0"}},{"base_weights":[-1.4178382E0,-2.0931913E-1,-1.4228703E0,9.6734107E-1,-2.7238686E-2,-1.0788233E0,-2.8467957E-2,1.9943988E-2,1.2876323E0,1.0777632E-2,-2.6766319E-2,6.3636875E-1,-1.6029086E-2,2.7219972E-2,7.987388E-3,2.1180505E-2,-3.339893E-3],"categories":[],"categories_nodes":[],"categories_segments":[],"categories_sizes":[],"default_left":[0,0,0,0,0,0,0,0,0,0,0,0,0,0,0,0,0],"id":28,"left_children":[1,3,5,7,-1,9,-1,11,13,-1,-1,15,-1,-1,-1,-1,-1],"loss_changes":[5.1896484E1,5.1175423E1,1.5625E-2,5.671751E0,0E0,7.9498215E0,0E0,3.426292E0,3.698845E-1,0E0,0E0,1.4833467E0,0E0,0E0,0E0,0E0,0E0],"parents":[2147483647,0,0,1,1,2,2,3,3,5,5,7,7,8,8,11,11],"right_children":[2,4,6,8,-1,10,-1,12,14,-1,-1,16,-1,-1,-1,-1,-1],"split_conditions":[-1.6517591E0,-1.8769474E0,-3.7138667E0,2.832564E0,-2.7238686E-2,-1.8769474E0,-2.8467957E-2,1.5977907E-1,-3.9216444E0,1.0777632E-2,-2.6766319E-2,-1.0288807E-1,-1.6029086E-2,2.7219972E-2,7.987388E-3,2.1180505E-2,-3.339893E-3],"split_indices":[16,9,13,3,0,9,0,24,2,0,0,25,0,0,0,0,0],"split_type":[0,0,0,0,0,0,0,0,0,0,0,0,0,0,0,0,0],"sum_hessian":[8.581969E3,3.5762005E1,8.546207E3,1.7775959E1,1.7986046E1,1.6219942E1,8.529987E3,4.759624E0,1.30163355E1,2.0933151E0,1.4126627E1,2.847761E0,1.9118629E0,1.1531672E1,1.4846637E0,1.6574974E0,1.1902635E0],"tree_param":{"num_deleted":"0","num_feature":"29","num_nodes":"17","size_leaf_vector":"0"}},{"base_weights":[-1.4176288E0,-7.5598575E-2,-2.8458044E-2,-1.302174E0,1.1160811E0,-7.263405E-3,-2.6874283E-2,-2.2430122E-3,1.2087342E0,2.7095778E-2,6.449853E-1,2.4576053E-2,3.0552518E-2,-1.2887652E-2,1.2752534E-2],"categories":[],"categories_nodes":[],"categories_segments":[],"categories_sizes":[],"default_left":[0,0,0,0,0,0,0,0,0,0,0,0,0,0,0],"id":29,"left_children":[1,3,-1,5,7,-1,-1,-1,9,-1,11,-1,13,-1,-1],"loss_changes":[6.0398438E1,5.191255E1,0E0,1.9356728E-1,2.1894321E0,0E0,0E0,0E0,5.1499176E-1,0E0,1.892133E0,0E0,1.9049648E0,0E0,0E0],"parents":[2147483647,0,0,1,1,3,3,4,4,8,8,10,10,12,12],"right_children":[2,4,-1,6,8,-1,-1,-1,10,-1,12,-1,14,-1,-1],"split_conditions":[-2.7584283E0,1.8136415E0,-2.8458044E-2,-1.1545243E0,1.0176367E0,-7.263405E-3,-2.6874283E-2,-2.2430122E-3,-5.1294565E0,2.7095778E-2,2.3802726E0,2.4576053E-2,-1.0761372E-1,-1.2887652E-2,1.2752534E-2],"split_indices":[9,10,0,13,3,0,0,0,2,0,3,0,25,0,0],"split_type":[0,0,0,0,0,0,0,0,0,0,0,0,0,0,0],"sum_hessian":[8.548918E3,3.352127E1,8.515397E3,1.6473085E1,1.7048185E1,1.1106161E0,1.536247E1,1.1810782E0,1.5867106E1,1.1487716E1,4.3793907E0,1.7329197E0,2.6464708E0,1.2240907E0,1.4223801E0],"tree_param":{"num_deleted":"0","num_feature":"29","num_nodes":"15","size_leaf_vector":"0"}},{"base_weights":[-1.3604298E0,-5.9011772E-2,-1.3659974E0,9.9370635E-1,-1.2010626E0,-9.88017E-1,-2.733218E-2,-7.340472E-3,1.1014636E0,1.851711E-3,-2.5881903E-2,1.899386E-2,-1.2003082E0,1.1706734E0,5.974202E-4,1.19072436E-4,-2.5913982E-2,1.269265E0,5.1935977E-1,1.3695066E0,6.096654E-1,1.865435E-2,-2.6896463E-3,2.866369E-2,7.6282257E-3,-6.3125207E-4,1.808294E-2],"categories":[],"categories_nodes":[],"categories_segments":[],"categories_sizes":[],"default_left":[0,0,0,0,0,0,0,0,0,0,0,0,0,0,0,0,0,0,0,0,0,0,0,0,0,0,0],"id":30,"left_children":[1,3,5,7,9,11,-1,-1,13,-1,-1,-1,15,17,-1,-1,-1,19,21,23,25,-1,-1,-1,-1,-1,-1],"loss_changes":[5.8370117E1,4.376449E1,5.058594E-1,3.1861668E0,2.2183495E0,7.9616356E0,0E0,0E0,1.2874031E0,0E0,0E0,0E0,1.7783165E0,4.146042E-1,0E0,0E0,0E0,7.956886E-2,1.17708E0,1.5833092E-1,7.1342933E-1,0E0,0E0,0E0,0E0,0E0,0E0],"parents":[2147483647,0,0,1,1,2,2,3,3,4,4,5,5,8,8,12,12,13,13,17,17,18,18,19,19,20,20],"right_children":[2,4,6,8,10,12,-1,-1,14,-1,-1,-1,16,18,-1,-1,-1,20,22,24,26,-1,-1,-1,-1,-1,-1],"split_conditions":[-3.7138667E0,-1.8769474E0,-1.6517591E0,1.0843875E0,-2.123891E0,-2.2637854E0,-2.733218E-2,-7.340472E-3,7.2923434E-1,1.851711E-3,-2.5881903E-2,1.899386E-2,-2.2443688E0,5.1700956E-1,5.974202E-4,1.19072436E-4,-2.5913982E-2,1.2149562E0,2.3966799E0,-3.5347158E-1,-5.941842E-2,1.865435E-2,-2.6896463E-3,2.866369E-2,7.6282257E-3,-6.3125207E-4,1.808294E-2],"split_indices":[13,9,16,1,11,8,0,0,24,0,0,0,5,27,0,0,0,12,18,5,26,0,0,0,0,0,0],"split_type":[0,0,0,0,0,0,0,0,0,0,0,0,0,0,0,0,0,0,0,0,0,0,0,0,0,0,0],"sum_hessian":[8.065786E3,3.4409206E1,8.031377E3,1.7972464E1,1.6436743E1,1.5583366E1,8.0157935E3,1.1422611E0,1.6830202E1,1.1030656E0,1.5333676E1,1.1957242E0,1.4387643E1,1.57223015E1,1.1079017E0,1.1231022E0,1.3264541E1,1.2831217E1,2.8910844E0,1.0204184E1,2.6270328E0,1.5099676E0,1.3811169E0,9.163209E0,1.040975E0,1.1077493E0,1.5192833E0],"tree_param":{"num_deleted":"0","num_feature":"29","num_nodes":"27","size_leaf_vector":"0"}},{"base_weights":[-1.3611593E0,-1.4214462E-1,-1.3663288E0,9.2633575E-1,-1.2077707E0,-1.0302185E0,-2.7337173E-2,-5.603935E-3,1.0611091E0,-2.5951812E-2,1.735823E-3,9.778506E-3,-2.5723401E-2,1.180163E0,1.968932E-1,1.3052229E0,5.0466466E-1,-7.933431E-3,1.4552969E-2,7.0535E-3,2.787798E-2,1.9332191E-2,-6.2354384E-3],"categories":[],"categories_nodes":[],"categories_segments":[],"categories_sizes":[],"default_left":[0,0,0,0,0,0,0,0,0,0,0,0,0,0,0,0,0,0,0,0,0,0,0],"id":31,"left_children":[1,3,5,7,9,11,-1,-1,13,-1,-1,-1,-1,15,17,19,21,-1,-1,-1,-1,-1,-1],"loss_changes":[5.063379E1,4.117072E1,2.2460938E-2,3.245513E0,2.2109394E0,7.123041E0,0E0,0E0,1.4671211E0,0E0,0E0,0E0,0E0,5.508156E-1,1.2968243E0,4.7561264E-1,1.759804E0,0E0,0E0,0E0,0E0,0E0,0E0],"parents":[2147483647,0,0,1,1,2,2,3,3,4,4,5,5,8,8,13,13,14,14,15,15,16,16],"right_children":[2,4,6,8,10,12,-1,-1,14,-1,-1,-1,-1,16,18,20,22,-1,-1,-1,-1,-1,-1],"split_conditions":[-3.7138667E0,-1.8769474E0,-1.6517591E0,1.1270196E0,3.3884564E-1,-1.8769474E0,-2.7337173E-2,-5.603935E-3,1.1622351E0,-2.5951812E-2,1.735823E-3,9.778506E-3,-2.5723401E-2,5.1700956E-1,4.916305E0,-6.486972E-1,1.4867577E-1,-7.933431E-3,1.4552969E-2,7.0535E-3,2.787798E-2,1.9332191E-2,-6.2354384E-3],"split_indices":[13,9,16,1,20,9,0,0,12,0,0,0,0,27,3,23,14,0,0,0,0,0,0],"split_type":[0,0,0,0,0,0,0,0,0,0,0,0,0,0,0,0,0,0,0,0,0,0,0],"sum_hessian":[8.064693E3,3.417644E1,8.030516E3,1.7130634E1,1.7045807E1,1.5702017E1,8.0148145E3,1.6128526E0,1.5517782E1,1.5937672E1,1.1081356E0,2.1328335E0,1.3569183E1,1.3317571E1,2.2002108E0,1.0450549E1,2.8670216E0,1.1579062E0,1.0423046E0,1.3139013E0,9.136648E0,1.7135483E0,1.1534734E0],"tree_param":{"num_deleted":"0","num_feature":"29","num_nodes":"23","size_leaf_vector":"0"}},{"base_weights":[-1.3617945E0,-1.5501809E-1,-1.3666499E0,-2.5813181E-2,9.1714567E-1,-1.0583602E0,-2.7345074E-2,1.2532033E0,-1.4073986E-1,5.627619E-1,-2.6065055E-2,2.6863988E-2,3.782231E-3,6.59607E-1,-2.0763654E-2,-6.966653E-3,2.3743564E-2,2.0540804E-2,-7.956505E-4],"categories":[],"categories_nodes":[],"categories_segments":[],"categories_sizes":[],"default_left":[0,0,0,0,0,0,0,0,0,0,0,0,0,0,0,0,0,0,0],"id":32,"left_children":[1,3,5,-1,7,9,-1,11,13,15,-1,-1,-1,17,-1,-1,-1,-1,-1],"loss_changes":[4.6958008E1,4.1837086E1,4.6875E-2,0E0,6.489788E0,8.714279E0,0E0,1.0463028E0,4.4056816E0,2.3117795E0,0E0,0E0,0E0,9.0168965E-1,0E0,0E0,0E0,0E0,0E0],"parents":[2147483647,0,0,1,1,2,2,4,4,5,5,7,7,8,8,9,9,13,13],"right_children":[2,4,6,-1,8,10,-1,12,14,16,-1,-1,-1,18,-1,-1,-1,-1,-1],"split_conditions":[-3.88481E0,1.7786252E0,-3.7138667E0,-2.5813181E-2,-3.9216444E0,-2.01236E0,-2.7345074E-2,-1.8929844E0,9.3089557E-1,-1.2914343E0,-2.6065055E-2,2.6863988E-2,3.782231E-3,-2.1152967E-1,-2.0763654E-2,-6.966653E-3,2.3743564E-2,2.0540804E-2,-7.956505E-4],"split_indices":[11,10,13,0,2,9,0,6,20,2,0,0,0,23,0,0,0,0,0],"split_type":[0,0,0,0,0,0,0,0,0,0,0,0,0,0,0,0,0,0,0],"sum_hessian":[8.049314E3,3.23883E1,8.016926E3,1.5629583E1,1.6758718E1,1.910287E1,7.9978228E3,1.2578338E1,4.180381E0,2.3366823E0,1.676619E1,1.1355632E1,1.2227052E0,2.3498135E0,1.8305674E0,1.1300124E0,1.2066698E0,1.2333672E0,1.1164463E0],"tree_param":{"num_deleted":"0","num_feature":"29","num_nodes":"19","size_leaf_vector":"0"}},{"base_weights":[-1.3614826E0,-1.8938224E-1,-1.3664393E0,1.0191804E0,-1.217558E0,-1.0157866E0,-2.7339736E-2,2.622859E-2,1.3679223E-1,-1.282986E0,-1.12306E-3,1.1146696E-2,-2.565185E-2,2.0001488E-2,-1.586021E-2,-6.0219616E-3,-2.649523E-2],"categories":[],"categories_nodes":[],"categories_segments":[],"categories_sizes":[],"default_left":[0,0,0,0,0,0,0,0,0,0,0,0,0,0,0,0,0],"id":33,"left_children":[1,3,5,7,9,11,-1,-1,13,15,-1,-1,-1,-1,-1,-1,-1],"loss_changes":[4.663086E1,4.4916718E1,1.5527344E-1,4.1274605E0,1.405716E0,7.6078434E0,0E0,0E0,5.024571E0,3.543949E-1,0E0,0E0,0E0,0E0,0E0,0E0,0E0],"parents":[2147483647,0,0,1,1,2,2,3,3,4,4,5,5,8,8,9,9],"right_children":[2,4,6,8,10,12,-1,-1,14,16,-1,-1,-1,-1,-1,-1,-1],"split_conditions":[-1.6517591E0,-2.0664883E0,-3.7138667E0,-3.9216444E0,9.3284273E-1,-1.8769474E0,-2.7339736E-2,2.622859E-2,9.3089557E-1,-1.2997453E0,-1.12306E-3,1.1146696E-2,-2.565185E-2,2.0001488E-2,-1.586021E-2,-6.0219616E-3,-2.649523E-2],"split_indices":[16,6,13,2,7,9,0,0,20,8,0,0,0,0,0,0,0],"split_type":[0,0,0,0,0,0,0,0,0,0,0,0,0,0,0,0,0],"sum_hessian":[8.069914E3,3.4148308E1,8.035766E3,1.5701192E1,1.8447117E1,1.542295E1,8.020343E3,1.1429489E1,4.271703E0,1.7364214E1,1.0829017E0,2.0785635E0,1.3344386E1,2.1758976E0,2.0958052E0,1.0435767E0,1.6320637E1],"tree_param":{"num_deleted":"0","num_feature":"29","num_nodes":"17","size_leaf_vector":"0"}},{"base_weights":[-1.3612669E0,-5.712462E-2,-2.7329441E-2,-1.2435852E0,1.0697385E0,-6.5212306E-3,-2.5718996E-2,-1.9253679E-3,1.158619E0,1.2629657E0,4.972722E-1,2.735573E-2,8.80738E-3,-5.5477987E-3,1.8766714E-2],"categories":[],"categories_nodes":[],"categories_segments":[],"categories_sizes":[],"default_left":[0,0,0,0,0,0,0,0,0,0,0,0,0,0,0],"id":34,"left_children":[1,3,-1,5,7,-1,-1,-1,9,11,13,-1,-1,-1,-1],"loss_changes":[5.4499023E1,4.5457687E1,0E0,2.2361755E-1,1.9215717E0,0E0,0E0,0E0,4.9716187E-1,5.559883E-1,1.5830629E0,0E0,0E0,0E0,0E0],"parents":[2147483647,0,0,1,1,3,3,4,4,8,8,9,9,10,10],"right_children":[2,4,-1,6,8,-1,-1,-1,10,12,14,-1,-1,-1,-1],"split_conditions":[-2.7584283E0,1.8136415E0,-2.7329441E-2,-1.1545243E0,1.0176367E0,-6.5212306E-3,-2.5718996E-2,-1.9253679E-3,3.5900337E-1,4.5801628E-1,3.0404606E0,2.735573E-2,8.80738E-3,-5.5477987E-3,1.8766714E-2],"split_indices":[9,10,0,13,3,0,0,0,14,24,1,0,0,0,0],"split_type":[0,0,0,0,0,0,0,0,0,0,0,0,0,0,0],"sum_hessian":[8.0388413E3,3.20053E1,8.006836E3,1.5539921E1,1.6465378E1,1.0696768E0,1.4470244E1,1.160315E0,1.5305062E1,1.2433614E1,2.8714478E0,1.0440453E1,1.9931617E0,1.1763877E0,1.6950603E0],"tree_param":{"num_deleted":"0","num_feature":"29","num_nodes":"15","size_leaf_vector":"0"}},{"base_weights":[-1.3132733E0,-4.4414185E-2,-1.3188126E0,9.518582E-1,-1.1502419E0,-9.413718E-1,-2.638862E-2,-6.9939177E-3,1.057629E0,2.322876E-3,-2.4922097E-2,1.819598E-2,-1.1521236E0,1.1269878E0,2.5959575E-4,4.7864823E-4,-2.4986552E-2,1.2233378E0,4.958274E-1,1.3248254E0,5.7075256E-1,1.8083006E-2,-2.8239472E-3,2.779195E-2,6.9262837E-3,-1.074594E-3,1.7323902E-2],"categories":[],"categories_nodes":[],"categories_segments":[],"categories_sizes":[],"default_left":[0,0,0,0,0,0,0,0,0,0,0,0,0,0,0,0,0,0,0,0,0,0,0,0,0,0,0],"id":35,"left_children":[1,3,5,7,9,11,-1,-1,13,-1,-1,-1,15,17,-1,-1,-1,19,21,23,25,-1,-1,-1,-1,-1,-1],"loss_changes":[5.2989258E1,3.8376987E1,5.1171875E-1,2.895916E0,2.1467495E0,7.204686E0,0E0,0E0,1.2329597E0,0E0,0E0,0E0,1.6999168E0,3.746376E-1,0E0,0E0,0E0,1.2579536E-1,1.120878E0,2.012043E-1,7.013459E-1,0E0,0E0,0E0,0E0,0E0,0E0],"parents":[2147483647,0,0,1,1,2,2,3,3,4,4,5,5,8,8,12,12,13,13,17,17,18,18,19,19,20,20],"right_children":[2,4,6,8,10,12,-1,-1,14,-1,-1,-1,16,18,-1,-1,-1,20,22,24,26,-1,-1,-1,-1,-1,-1],"split_conditions":[-3.7138667E0,-1.8769474E0,-1.6517591E0,1.0843875E0,-2.123891E0,-2.2637854E0,-2.638862E-2,-6.9939177E-3,7.2923434E-1,2.322876E-3,-2.4922097E-2,1.819598E-2,-2.2443688E0,5.1700956E-1,2.5959575E-4,4.7864823E-4,-2.4986552E-2,1.2149562E0,2.3966799E0,-3.5347158E-1,-5.941842E-2,1.8083006E-2,-2.8239472E-3,2.779195E-2,6.9262837E-3,-1.074594E-3,1.7323902E-2],"split_indices":[13,9,16,1,11,8,0,0,24,0,0,0,5,27,0,0,0,12,18,5,26,0,0,0,0,0,0],"split_type":[0,0,0,0,0,0,0,0,0,0,0,0,0,0,0,0,0,0,0,0,0,0,0,0,0,0,0],"sum_hessian":[7.5463545E3,3.284037E1,7.513514E3,1.7349203E1,1.5491168E1,1.4780292E1,7.498734E3,1.130594E0,1.6218609E1,1.0752444E0,1.4415924E1,1.1716857E0,1.3608605E1,1.5134914E1,1.083694E0,1.0964637E0,1.2512142E1,1.2316502E1,2.8184123E0,9.767393E0,2.5491085E0,1.4619758E0,1.3564366E0,8.766954E0,1.0004385E0,1.0814229E0,1.4676856E0],"tree_param":{"num_deleted":"0","num_feature":"29","num_nodes":"27","size_leaf_vector":"0"}},{"base_weights":[-1.3140298E0,-1.278005E-1,-1.31916E0,8.812911E-1,-1.1571679E0,-9.8193E-1,-2.6393954E-2,-5.3351847E-3,1.0128205E0,2.2792814E-3,-2.499858E-2,9.514772E-3,-2.4772068E-2,1.1333181E0,1.5986165E-1,1.255069E0,4.806253E-1,-8.28613E-3,1.3865269E-2,6.4537004E-3,2.6907539E-2,1.870054E-2,-6.173062E-3],"categories":[],"categories_nodes":[],"categories_segments":[],"categories_sizes":[],"default_left":[0,0,0,0,0,0,0,0,0,0,0,0,0,0,0,0,0,0,0,0,0,0,0],"id":36,"left_children":[1,3,5,7,9,11,-1,-1,13,-1,-1,-1,-1,15,17,19,21,-1,-1,-1,-1,-1,-1],"loss_changes":[4.575586E1,3.5923977E1,6.542969E-2,2.918189E0,2.1548004E0,6.526371E0,0E0,0E0,1.4573517E0,0E0,0E0,0E0,0E0,4.937706E-1,1.2481487E0,4.9324226E-1,1.6481781E0,0E0,0E0,0E0,0E0,0E0,0E0],"parents":[2147483647,0,0,1,1,2,2,3,3,4,4,5,5,8,8,13,13,14,14,15,15,16,16],"right_children":[2,4,6,8,10,12,-1,-1,14,-1,-1,-1,-1,16,18,20,22,-1,-1,-1,-1,-1,-1],"split_conditions":[-3.7138667E0,-1.8769474E0,-1.6517591E0,1.1270196E0,-1.3244593E0,-1.8769474E0,-2.6393954E-2,-5.3351847E-3,1.1622351E0,2.2792814E-3,-2.499858E-2,9.514772E-3,-2.4772068E-2,5.1700956E-1,3.8653362E0,-6.486972E-1,1.4867577E-1,-8.28613E-3,1.3865269E-2,6.4537004E-3,2.6907539E-2,1.870054E-2,-6.173062E-3],"split_indices":[13,9,16,1,21,9,0,0,12,0,0,0,0,27,1,23,14,0,0,0,0,0,0],"split_type":[0,0,0,0,0,0,0,0,0,0,0,0,0,0,0,0,0,0,0,0,0,0,0],"sum_hessian":[7.5452886E3,3.260287E1,7.5126855E3,1.653622E1,1.606665E1,1.48685055E1,7.4978174E3,1.5940933E0,1.4942127E1,1.0771785E0,1.4989471E1,2.0983474E0,1.2770158E1,1.2804539E1,2.1375887E0,1.001371E1,2.7908292E0,1.1369836E0,1.000605E0,1.2880818E0,8.725628E0,1.6539563E0,1.1368728E0],"tree_param":{"num_deleted":"0","num_feature":"29","num_nodes":"23","size_leaf_vector":"0"}},{"base_weights":[-1.3146794E0,-1.3549753E-1,-1.3195046E0,-2.4835877E-2,8.814092E-1,-1.0086218E0,-2.6402434E-2,1.2080089E0,-1.2857828E-1,5.4171425E-1,-2.5116079E-2,2.5976367E-2,3.5571884E-3,6.5034896E-1,-2.0133194E-2,-6.9182417E-3,2.306907E-2,1.9874884E-2,-5.5504555E-4],"categories":[],"categories_nodes":[],"categories_segments":[],"categories_sizes":[],"default_left":[0,0,0,0,0,0,0,0,0,0,0,0,0,0,0,0,0,0,0],"id":37,"left_children":[1,3,5,-1,7,9,-1,11,13,15,-1,-1,-1,17,-1,-1,-1,-1,-1],"loss_changes":[4.267578E1,3.6879765E1,1.07421875E-1,0E0,5.815422E0,8.00005E0,0E0,9.909401E-1,4.140604E0,2.204594E0,0E0,0E0,0E0,7.97948E-1,0E0,0E0,0E0,0E0,0E0],"parents":[2147483647,0,0,1,1,2,2,4,4,5,5,7,7,8,8,9,9,13,13],"right_children":[2,4,6,-1,8,10,-1,12,14,16,-1,-1,-1,18,-1,-1,-1,-1,-1],"split_conditions":[-3.88481E0,1.7786252E0,-3.7138667E0,-2.4835877E-2,-3.9216444E0,-2.01236E0,-2.6402434E-2,-1.8929844E0,9.3089557E-1,-1.2914343E0,-2.5116079E-2,2.5976367E-2,3.5571884E-3,-2.1152967E-1,-2.0133194E-2,-6.9182417E-3,2.306907E-2,1.9874884E-2,-5.5504555E-4],"split_indices":[11,10,13,0,2,9,0,6,20,2,0,0,0,23,0,0,0,0,0],"split_type":[0,0,0,0,0,0,0,0,0,0,0,0,0,0,0,0,0,0,0],"sum_hessian":[7.5308823E3,3.0809095E1,7.500073E3,1.4650078E1,1.6159018E1,1.8100922E1,7.4819727E3,1.2062352E1,4.096666E0,2.325256E0,1.5775664E1,1.0845497E1,1.2168559E0,2.3083398E0,1.7883261E0,1.1259949E0,1.1992613E0,1.2233472E0,1.0849925E0],"tree_param":{"num_deleted":"0","num_feature":"29","num_nodes":"19","size_leaf_vector":"0"}},{"base_weights":[-1.314361E0,-1.7554885E-1,-1.3192645E0,9.7775304E-1,-1.1714207E0,-9.609896E-1,-2.6396696E-2,2.5288386E-2,1.3670924E-1,-1.2373911E0,-8.187941E-4,1.1133276E-2,-2.4692724E-2,1.9346962E-2,-1.5259979E-2,-5.449589E-3,-2.559394E-2],"categories":[],"categories_nodes":[],"categories_segments":[],"categories_sizes":[],"default_left":[0,0,0,0,0,0,0,0,0,0,0,0,0,0,0,0,0],"id":38,"left_children":[1,3,5,7,9,11,-1,-1,13,15,-1,-1,-1,-1,-1,-1,-1],"loss_changes":[4.1936523E1,3.9654404E1,2.6660156E-1,3.7043447E0,1.3251076E0,7.177346E0,0E0,0E0,4.631052E0,3.6143684E-1,0E0,0E0,0E0,0E0,0E0,0E0,0E0],"parents":[2147483647,0,0,1,1,2,2,3,3,4,4,5,5,8,8,9,9],"right_children":[2,4,6,8,10,12,-1,-1,14,16,-1,-1,-1,-1,-1,-1,-1],"split_conditions":[-1.6517591E0,-2.0664883E0,-3.7138667E0,-3.9216444E0,9.3284273E-1,-1.8769474E0,-2.6396696E-2,2.5288386E-2,9.3089557E-1,-1.2997453E0,-8.187941E-4,1.1133276E-2,-2.4692724E-2,1.9346962E-2,-1.5259979E-2,-5.449589E-3,-2.559394E-2],"split_indices":[16,6,13,2,7,9,0,0,20,8,0,0,0,0,0,0,0],"split_type":[0,0,0,0,0,0,0,0,0,0,0,0,0,0,0,0,0],"sum_hessian":[7.550153E3,3.2528664E1,7.517624E3,1.5081378E1,1.7447287E1,1.4627393E1,7.502997E3,1.0872231E1,4.209148E0,1.6395916E1,1.0513717E0,2.0765471E0,1.2550845E1,2.1494908E0,2.059657E0,1.0012026E0,1.5394712E1],"tree_param":{"num_deleted":"0","num_feature":"29","num_nodes":"17","size_leaf_vector":"0"}},{"base_weights":[-1.3141438E0,-4.278653E-2,-2.63861E-2,-1.193785E0,1.0248145E0,-5.9101395E-3,-2.4736788E-2,-1.7952342E-3,1.1112587E0,2.5153145E-2,5.842397E-1,2.3147518E-2,-1.4509031E-2,-1.2762966E-2,1.1483305E-2],"categories":[],"categories_nodes":[],"categories_segments":[],"categories_sizes":[],"default_left":[0,0,0,0,0,0,0,0,0,0,0,0,0,0,0],"id":39,"left_children":[1,3,-1,5,7,-1,-1,-1,9,-1,11,-1,13,-1,-1],"loss_changes":[4.9302734E1,3.986635E1,0E0,2.3762703E-1,1.7235031E0,0E0,0E0,0E0,4.7768784E-1,0E0,1.8300334E0,0E0,1.6776901E0,0E0,0E0],"parents":[2147483647,0,0,1,1,3,3,4,4,8,8,10,10,12,12],"right_children":[2,4,-1,6,8,-1,-1,-1,10,-1,12,-1,14,-1,-1],"split_conditions":[-2.7584283E0,1.8136415E0,-2.63861E-2,-1.1545243E0,1.0176367E0,-5.9101395E-3,-2.4736788E-2,-1.7952342E-3,-5.1294565E0,2.5153145E-2,2.3802726E0,2.3147518E-2,-1.0761372E-1,-1.2762966E-2,1.1483305E-2],"split_indices":[9,10,0,13,3,0,0,0,2,0,3,0,25,0,0],"split_type":[0,0,0,0,0,0,0,0,0,0,0,0,0,0,0],"sum_hessian":[7.5210845E3,3.0447527E1,7.490637E3,1.45946245E1,1.5852901E1,1.027189E0,1.3567436E1,1.1382613E0,1.4714641E1,1.0430759E1,4.283881E0,1.7120634E0,2.5718179E0,1.2080119E0,1.363806E0],"tree_param":{"num_deleted":"0","num_feature":"29","num_nodes":"15","size_leaf_vector":"0"}},{"base_weights":[-1.2733977E0,-3.1146748E-2,-1.278941E0,9.1431355E-1,-1.105384E0,-8.9912134E-1,-2.5591444E-2,-6.6656717E-3,1.0185469E0,2.868392E-3,-2.4097944E-2,1.749909E-2,-1.109304E0,1.0890675E0,-1.9389896E-4,8.212593E-4,-2.417842E-2,1.1838228E0,4.741827E-1,1.2857566E0,5.398938E-1,1.7551376E-2,-2.9254227E-3,2.705976E-2,7.903114E-3,-1.3737859E-3,1.667476E-2],"categories":[],"categories_nodes":[],"categories_segments":[],"categories_sizes":[],"default_left":[0,0,0,0,0,0,0,0,0,0,0,0,0,0,0,0,0,0,0,0,0,0,0,0,0,0,0],"id":40,"left_children":[1,3,5,7,9,11,-1,-1,13,-1,-1,-1,15,17,-1,-1,-1,19,21,23,25,-1,-1,-1,-1,-1,-1],"loss_changes":[4.8381836E1,3.377908E1,5.2734375E-1,2.642189E0,2.105976E0,6.555374E0,0E0,0E0,1.2134495E0,0E0,0E0,0E0,1.6347237E0,3.4365654E-1,0E0,0E0,0E0,1.4538574E-1,1.0649827E0,8.32119E-2,6.781441E-1,0E0,0E0,0E0,0E0,0E0,0E0],"parents":[2147483647,0,0,1,1,2,2,3,3,4,4,5,5,8,8,12,12,13,13,17,17,18,18,19,19,20,20],"right_children":[2,4,6,8,10,12,-1,-1,14,-1,-1,-1,16,18,-1,-1,-1,20,22,24,26,-1,-1,-1,-1,-1,-1],"split_conditions":[-3.7138667E0,-1.8769474E0,-1.6517591E0,1.0843875E0,-5.3532606E-1,-2.2637854E0,-2.5591444E-2,-6.6656717E-3,7.2923434E-1,2.868392E-3,-2.4097944E-2,1.749909E-2,-2.2443688E0,5.1700956E-1,-1.9389896E-4,8.212593E-4,-2.417842E-2,1.2149562E0,2.3966799E0,-4.0379038E-1,-5.941842E-2,1.7551376E-2,-2.9254227E-3,2.705976E-2,7.903114E-3,-1.3737859E-3,1.667476E-2],"split_indices":[13,9,16,1,6,8,0,0,24,0,0,0,5,27,0,0,0,12,18,5,26,0,0,0,0,0,0],"split_type":[0,0,0,0,0,0,0,0,0,0,0,0,0,0,0,0,0,0,0,0,0,0,0,0,0,0,0],"sum_hessian":[7.030673E3,3.126353E1,6.9994097E3,1.6707636E1,1.4555894E1,1.3977433E1,6.985432E3,1.1188118E0,1.5588824E1,1.0417411E0,1.3514153E1,1.1455373E0,1.2831896E1,1.45329485E1,1.0558765E0,1.0694767E0,1.1762419E1,1.1790697E1,2.742251E0,9.318796E0,2.471901E0,1.4106944E0,1.3315566E0,8.181955E0,1.1368409E0,1.0543883E0,1.4175127E0],"tree_param":{"num_deleted":"0","num_feature":"29","num_nodes":"27","size_leaf_vector":"0"}},{"base_weights":[-1.274189E0,-1.1512308E-1,-1.2793081E0,8.400502E-1,-1.1123087E0,-9.3854076E-1,-2.5597166E-2,-5.0818156E-3,9.6889365E-1,2.7589258E-3,-2.4170075E-2,9.281889E-3,-2.3942688E-2,1.0908012E0,1.2777132E-1,1.2623508E0,5.6260276E-1,-1.3581876E-3,5.2719177E-3,2.6515974E-2,7.5698015E-3,1.94835E-2,-5.7936735E-3],"categories":[],"categories_nodes":[],"categories_segments":[],"categories_sizes":[],"default_left":[0,0,0,0,0,0,0,0,0,0,0,0,0,0,0,0,0,0,0,0,0,0,0],"id":41,"left_children":[1,3,5,7,9,11,-1,-1,13,-1,-1,-1,-1,15,17,19,21,-1,-1,-1,-1,-1,-1],"loss_changes":[4.156836E1,3.1426954E1,1.11328125E-1,2.6315928E0,2.1021461E0,6.0092697E0,0E0,0E0,1.434205E0,0E0,0E0,0E0,0E0,4.9229622E-1,9.9636815E-2,1.4876366E-2,2.0562484E0,0E0,0E0,0E0,0E0,0E0,0E0],"parents":[2147483647,0,0,1,1,2,2,3,3,4,4,5,5,8,8,13,13,14,14,15,15,16,16],"right_children":[2,4,6,8,10,12,-1,-1,14,-1,-1,-1,-1,16,18,20,22,-1,-1,-1,-1,-1,-1],"split_conditions":[-3.7138667E0,-1.8769474E0,-1.6517591E0,1.1270196E0,-6.139181E-1,-1.8769474E0,-2.5597166E-2,-5.0818156E-3,1.1622351E0,2.7589258E-3,-2.4170075E-2,9.281889E-3,-2.3942688E-2,3.8384613E-1,1.3786118E-1,-1.5539394E-1,-3.9216444E0,-1.3581876E-3,5.2719177E-3,2.6515974E-2,7.5698015E-3,1.94835E-2,-5.7936735E-3],"split_indices":[13,9,16,1,6,9,0,0,12,0,0,0,0,27,26,5,2,0,0,0,0,0,0],"split_type":[0,0,0,0,0,0,0,0,0,0,0,0,0,0,0,0,0,0,0,0,0,0,0],"sum_hessian":[7.0296274E3,3.1013685E1,6.998614E3,1.5921017E1,1.50926695E1,1.40358305E1,6.9845776E3,1.5748943E0,1.4346122E1,1.0472636E0,1.4045405E1,2.061171E0,1.197466E1,1.2270818E1,2.0753045E0,8.213349E0,4.057469E0,1.0551643E0,1.0201402E0,7.1967235E0,1.0166255E0,2.639723E0,1.4177457E0],"tree_param":{"num_deleted":"0","num_feature":"29","num_nodes":"23","size_leaf_vector":"0"}},{"base_weights":[-1.2748549E0,-1.17256254E-1,-1.2796782E0,-2.3988208E-2,8.500064E-1,-9.6399415E-1,-2.5606291E-2,1.1691355E0,-1.1863836E-1,5.230846E-1,-2.4295267E-2,2.5203254E-2,3.4627025E-3,6.4070314E-1,-1.9554652E-2,-6.875226E-3,2.2484478E-2,1.9300122E-2,-4.3752743E-4],"categories":[],"categories_nodes":[],"categories_segments":[],"categories_sizes":[],"default_left":[0,0,0,0,0,0,0,0,0,0,0,0,0,0,0,0,0,0,0],"id":42,"left_children":[1,3,5,-1,7,9,-1,11,13,15,-1,-1,-1,17,-1,-1,-1,-1,-1],"loss_changes":[3.9030273E1,3.2649734E1,1.6992188E-1,0E0,5.252019E0,7.386753E0,0E0,9.182205E-1,3.8927758E0,2.1120334E0,0E0,0E0,0E0,7.2202957E-1,0E0,0E0,0E0,0E0,0E0],"parents":[2147483647,0,0,1,1,2,2,4,4,5,5,7,7,8,8,9,9,13,13],"right_children":[2,4,6,-1,8,10,-1,12,14,16,-1,-1,-1,18,-1,-1,-1,-1,-1],"split_conditions":[-3.88481E0,1.7786252E0,-3.7138667E0,-2.3988208E-2,-3.9216444E0,-2.01236E0,-2.5606291E-2,-1.8929844E0,9.3089557E-1,-1.2914343E0,-2.4295267E-2,2.5203254E-2,3.4627025E-3,-2.1152967E-1,-1.9554652E-2,-6.875226E-3,2.2484478E-2,1.9300122E-2,-4.3752743E-4],"split_indices":[11,10,13,0,2,9,0,6,20,2,0,0,0,23,0,0,0,0,0],"split_type":[0,0,0,0,0,0,0,0,0,0,0,0,0,0,0,0,0,0,0],"sum_hessian":[7.0161924E3,2.921821E1,6.986974E3,1.3676835E1,1.5541375E1,1.7104265E1,6.96987E3,1.1534308E1,4.0070667E0,2.3114266E0,1.4792838E1,1.03254175E1,1.2088913E0,2.2619615E0,1.7451054E0,1.1218557E0,1.189571E0,1.2122037E0,1.0497576E0],"tree_param":{"num_deleted":"0","num_feature":"29","num_nodes":"19","size_leaf_vector":"0"}},{"base_weights":[-1.2745264E0,-1.5150796E-1,-1.2793661E0,8.712236E-1,-2.4275208E-2,-9.062142E-1,-2.5600113E-2,1.2391614E0,3.7379685E-1,4.5174712E-1,-2.3936119E-2,2.7518742E-2,1.8861188E-3,8.8438225E-1,-6.729467E-1,-6.7198155E-3,1.8903017E-2,-1.3211025E-3,2.1903746E-2,-1.8776666E-2,-1.7370787E-3],"categories":[],"categories_nodes":[],"categories_segments":[],"categories_sizes":[],"default_left":[0,0,0,0,0,0,0,0,0,0,0,0,0,0,0,0,0,0,0,0,0],"id":43,"left_children":[1,3,5,7,-1,9,-1,11,13,15,-1,-1,-1,17,19,-1,-1,-1,-1,-1,-1],"loss_changes":[3.804297E1,3.5086063E1,5.126953E-1,2.5640268E0,0E0,6.62206E0,0E0,1.2913809E0,5.119038E0,1.6555674E0,0E0,0E0,0E0,1.2988238E0,4.3942297E-1,0E0,0E0,0E0,0E0,0E0,0E0],"parents":[2147483647,0,0,1,1,2,2,3,3,5,5,7,7,8,8,9,9,13,13,14,14],"right_children":[2,4,6,8,-1,10,-1,12,14,16,-1,-1,-1,18,20,-1,-1,-1,-1,-1,-1],"split_conditions":[-3.7138667E0,-1.8769474E0,-1.6517591E0,1.6593973E-1,-2.4275208E-2,-1.8769474E0,-2.5600113E-2,2.5938907E-1,-3.9216444E0,2.2373219E0,-2.3936119E-2,2.7518742E-2,1.8861188E-3,2.6102525E-1,-5.8536273E-1,-6.7198155E-3,1.8903017E-2,-1.3211025E-3,2.1903746E-2,-1.8776666E-2,-1.7370787E-3],"split_indices":[13,9,16,27,0,9,0,5,2,3,0,0,0,27,17,0,0,0,0,0,0],"split_type":[0,0,0,0,0,0,0,0,0,0,0,0,0,0,0,0,0,0,0,0,0],"sum_hessian":[7.034144E3,3.0322382E1,7.0038213E3,1.5540192E1,1.4782189E1,1.4411084E1,6.98941E3,8.075641E0,7.464551E0,2.4424977E0,1.1968586E1,7.0335054E0,1.0421357E0,5.121482E0,2.343069E0,1.063544E0,1.3789537E0,1.0543743E0,4.0671077E0,1.197817E0,1.1452521E0],"tree_param":{"num_deleted":"0","num_feature":"29","num_nodes":"21","size_leaf_vector":"0"}},{"base_weights":[-1.2743094E0,-2.9547172E-2,-2.5589092E-2,-1.1502191E0,9.8483646E-1,-7.057502E-3,-2.385172E-2,2.4340084E-2,4.306539E-1,9.358921E-1,-1.0940883E-2,2.3816198E-2,2.308947E-3],"categories":[],"categories_nodes":[],"categories_segments":[],"categories_sizes":[],"default_left":[0,0,0,0,0,0,0,0,0,0,0,0,0],"id":44,"left_children":[1,3,-1,5,7,-1,-1,-1,9,11,-1,-1,-1],"loss_changes":[4.4847656E1,3.5091465E1,0E0,7.419205E-2,1.5626173E0,0E0,0E0,0E0,3.6418333E0,8.1336236E-1,0E0,0E0,0E0],"parents":[2147483647,0,0,1,1,3,3,4,4,8,8,9,9],"right_children":[2,4,-1,6,8,-1,-1,-1,10,12,-1,-1,-1],"split_conditions":[-2.7584283E0,1.8136415E0,-2.5589092E-2,-2.4802334E0,-5.1294565E0,-7.057502E-3,-2.385172E-2,2.4340084E-2,9.3089557E-1,2.5693054E0,-1.0940883E-2,2.3816198E-2,2.308947E-3],"split_indices":[9,10,0,11,2,0,0,0,20,1,0,0,0],"split_type":[0,0,0,0,0,0,0,0,0,0,0,0,0],"sum_hessian":[7.007059E3,2.8872404E1,6.9781865E3,1.3653912E1,1.52184925E1,1.1595865E0,1.2494325E1,9.882367E0,5.3361254E0,3.5462923E0,1.7898332E0,2.3612237E0,1.1850686E0],"tree_param":{"num_deleted":"0","num_feature":"29","num_nodes":"13","size_leaf_vector":"0"}},{"base_weights":[-1.2393621E0,-1.7971413E-2,-1.2449422E0,8.7813526E-1,-1.0627364E0,-8.606594E-1,-2.4911808E-2,-6.340781E-3,9.808095E-1,3.541939E-3,-2.3358464E-2,1.6893812E-2,-1.0714569E0,1.0527433E0,-6.726134E-4,1.1333614E-3,-2.3470739E-2,1.1627507E0,4.9059638E-1,3.9774004E-1,2.590801E-2,1.728349E-2,-5.5934936E-3,-2.3589742E-3,1.3788202E-2],"categories":[],"categories_nodes":[],"categories_segments":[],"categories_sizes":[],"default_left":[0,0,0,0,0,0,0,0,0,0,0,0,0,0,0,0,0,0,0,0,0,0,0,0,0],"id":45,"left_children":[1,3,5,7,9,11,-1,-1,13,-1,-1,-1,15,17,-1,-1,-1,19,21,23,-1,-1,-1,-1,-1],"loss_changes":[4.4466797E1,2.9677595E1,5.4785156E-1,2.4062471E0,2.1145248E0,6.0026445E0,0E0,0E0,1.2006397E0,0E0,0E0,0E0,1.5706158E0,3.535633E-1,0E0,0E0,0E0,6.7880726E-1,1.4431605E0,5.5989957E-1,0E0,0E0,0E0,0E0,0E0],"parents":[2147483647,0,0,1,1,2,2,3,3,4,4,5,5,8,8,12,12,13,13,17,17,18,18,19,19],"right_children":[2,4,6,8,10,12,-1,-1,14,-1,-1,-1,16,18,-1,-1,-1,20,22,24,-1,-1,-1,-1,-1],"split_conditions":[-3.7138667E0,-1.8769474E0,-1.6517591E0,1.0843875E0,-2.123891E0,-2.2637854E0,-2.4911808E-2,-6.340781E-3,7.2923434E-1,3.541939E-3,-2.3358464E-2,1.6893812E-2,-2.2443688E0,2.3966799E0,-6.726134E-4,1.1333614E-3,-2.3470739E-2,-2.2443688E0,-5.1294565E0,1.1033897E0,2.590801E-2,1.728349E-2,-5.5934936E-3,-2.3589742E-3,1.3788202E-2],"split_indices":[13,9,16,1,11,8,0,0,24,0,0,0,5,18,0,0,0,5,2,20,0,0,0,0,0],"split_type":[0,0,0,0,0,0,0,0,0,0,0,0,0,0,0,0,0,0,0,0,0,0,0,0,0],"sum_hessian":[6.526976E3,2.9702553E1,6.497274E3,1.6074642E1,1.3627912E1,1.3180336E1,6.4840933E3,1.1065131E0,1.4968128E1,1.0123024E0,1.2615609E1,1.1191664E0,1.206117E1,1.3941762E1,1.026367E0,1.0377274E0,1.1023442E1,1.0766449E1,3.1753125E0,2.181846E0,8.584603E0,2.0561697E0,1.1191428E0,1.0033959E0,1.1784501E0],"tree_param":{"num_deleted":"0","num_feature":"29","num_nodes":"25","size_leaf_vector":"0"}},{"base_weights":[-1.2401906E0,-1.0304696E-1,-1.2453293E0,8.006831E-1,-1.0702512E0,-8.9765257E-1,-2.4917979E-2,-4.883587E-3,9.2706406E-1,-2.3443097E-2,3.5340348E-3,9.04106E-3,-2.3191217E-2,1.052196E0,1.8532831E-3,2.442602E-2,5.3381175E-1,1.8747162E-2,-5.5226255E-3],"categories":[],"categories_nodes":[],"categories_segments":[],"categories_sizes":[],"default_left":[0,0,0,0,0,0,0,0,0,0,0,0,0,0,0,0,0,0,0],"id":46,"left_children":[1,3,5,7,9,11,-1,-1,13,-1,-1,-1,-1,15,-1,-1,17,-1,-1],"loss_changes":[3.8009766E1,2.7474588E1,1.6894531E-1,2.3807125E0,2.1306057E0,5.546834E0,0E0,0E0,1.4438629E0,0E0,0E0,0E0,0E0,4.6493435E-1,0E0,0E0,1.863793E0,0E0,0E0],"parents":[2147483647,0,0,1,1,2,2,3,3,4,4,5,5,8,8,13,13,16,16],"right_children":[2,4,6,8,10,12,-1,-1,14,-1,-1,-1,-1,16,-1,-1,18,-1,-1],"split_conditions":[-3.7138667E0,-1.8769474E0,-1.6517591E0,1.1270196E0,3.3884564E-1,-1.8769474E0,-2.4917979E-2,-4.883587E-3,1.1622351E0,-2.3443097E-2,3.5340348E-3,9.04106E-3,-2.3191217E-2,3.8384613E-1,1.8532831E-3,2.442602E-2,-3.9216444E0,1.8747162E-2,-5.5226255E-3],"split_indices":[13,9,16,1,20,9,0,0,12,0,0,0,0,27,0,0,2,0,0],"split_type":[0,0,0,0,0,0,0,0,0,0,0,0,0,0,0,0,0,0,0],"sum_hessian":[6.5259634E3,2.9451801E1,6.4965117E3,1.5314502E1,1.4137299E1,1.3208382E1,6.483303E3,1.5519089E0,1.3762593E1,1.3124704E1,1.0125943E0,2.0285506E0,1.1179831E1,1.174084E1,2.0217528E0,7.830449E0,3.9103916E0,2.5049906E0,1.405401E0],"tree_param":{"num_deleted":"0","num_feature":"29","num_nodes":"19","size_leaf_vector":"0"}},{"base_weights":[-1.2408773E0,-9.915035E-2,-1.2457311E0,-2.3253718E-2,8.24097E-1,-9.242773E-1,-2.4927795E-2,1.1338555E0,-1.016231E-1,5.017615E-1,-2.3578586E-2,2.457714E-2,3.0101624E-3,6.3926005E-1,-1.895082E-2,-6.821318E-3,2.1791495E-2,1.8880792E-2,-2.2355541E-4],"categories":[],"categories_nodes":[],"categories_segments":[],"categories_sizes":[],"default_left":[0,0,0,0,0,0,0,0,0,0,0,0,0,0,0,0,0,0,0],"id":47,"left_children":[1,3,5,-1,7,9,-1,11,13,15,-1,-1,-1,17,-1,-1,-1,-1,-1],"loss_changes":[3.5979492E1,2.910407E1,2.2167969E-1,0E0,4.6830053E0,6.813283E0,0E0,9.377556E-1,3.6839423E0,2.005224E0,0E0,0E0,0E0,6.4799047E-1,0E0,0E0,0E0,0E0,0E0],"parents":[2147483647,0,0,1,1,2,2,4,4,5,5,7,7,8,8,9,9,13,13],"right_children":[2,4,6,-1,8,10,-1,12,14,16,-1,-1,-1,18,-1,-1,-1,-1,-1],"split_conditions":[-3.88481E0,1.7786252E0,-3.7138667E0,-2.3253718E-2,-3.9216444E0,-2.01236E0,-2.4927795E-2,-1.8929844E0,9.3089557E-1,-1.2914343E0,-2.3578586E-2,2.457714E-2,3.0101624E-3,-2.1152967E-1,-1.895082E-2,-6.821318E-3,2.1791495E-2,1.8880792E-2,-2.2355541E-4],"split_indices":[11,10,13,0,2,9,0,6,20,2,0,0,0,23,0,0,0,0,0],"split_type":[0,0,0,0,0,0,0,0,0,0,0,0,0,0,0,0,0,0,0],"sum_hessian":[6.5134893E3,2.7664549E1,6.4858247E3,1.2735051E1,1.4929498E1,1.6133005E1,6.469692E3,1.1017917E1,3.9115808E0,2.2973838E0,1.3835621E1,9.819576E0,1.1983403E0,2.215485E0,1.6960956E0,1.1164091E0,1.1809748E0,1.2012275E0,1.0142576E0],"tree_param":{"num_deleted":"0","num_feature":"29","num_nodes":"19","size_leaf_vector":"0"}},{"base_weights":[-1.2405413E0,-1.3833135E-1,-1.2453983E0,8.3512884E-1,-2.3550536E-2,-8.6635214E-1,-2.4921143E-2,1.205639E0,3.399832E-1,4.4124472E-1,-2.3187224E-2,2.6854124E-2,1.7266668E-3,8.431816E-1,-6.5781367E-1,-6.332151E-3,1.8258119E-2,-1.7590971E-3,2.116784E-2,-1.844791E-2,-1.5779444E-3],"categories":[],"categories_nodes":[],"categories_segments":[],"categories_sizes":[],"default_left":[0,0,0,0,0,0,0,0,0,0,0,0,0,0,0,0,0,0,0,0,0],"id":48,"left_children":[1,3,5,7,-1,9,-1,11,13,15,-1,-1,-1,17,19,-1,-1,-1,-1,-1,-1],"loss_changes":[3.4791016E1,3.1107605E1,5.449219E-1,2.5181646E0,0E0,6.0924873E0,0E0,1.2244339E0,4.683855E0,1.5010967E0,0E0,0E0,0E0,1.2764411E0,4.3556833E-1,0E0,0E0,0E0,0E0,0E0,0E0],"parents":[2147483647,0,0,1,1,2,2,3,3,5,5,7,7,8,8,9,9,13,13,14,14],"right_children":[2,4,6,8,-1,10,-1,12,14,16,-1,-1,-1,18,20,-1,-1,-1,-1,-1,-1],"split_conditions":[-3.7138667E0,-1.8769474E0,-1.6517591E0,1.6593973E-1,-2.3550536E-2,-1.8769474E0,-2.4921143E-2,2.5938907E-1,-3.9216444E0,2.2373219E0,-2.3187224E-2,2.6854124E-2,1.7266668E-3,2.6102525E-1,-5.8536273E-1,-6.332151E-3,1.8258119E-2,-1.7590971E-3,2.116784E-2,-1.844791E-2,-1.5779444E-3],"split_indices":[13,9,16,27,0,9,0,5,2,3,0,0,0,27,17,0,0,0,0,0,0],"split_type":[0,0,0,0,0,0,0,0,0,0,0,0,0,0,0,0,0,0,0,0,0],"sum_hessian":[6.5301367E3,2.877833E1,6.5013584E3,1.4960521E1,1.3817808E1,1.3566372E1,6.487792E3,7.7364964E0,7.224025E0,2.3908658E0,1.1175506E1,6.71465E0,1.0218465E0,4.905228E0,2.3187966E0,1.0432847E0,1.3475811E0,1.0318966E0,3.8733315E0,1.1842469E0,1.1345496E0],"tree_param":{"num_deleted":"0","num_feature":"29","num_nodes":"21","size_leaf_vector":"0"}},{"base_weights":[-1.2403301E0,-1.8626668E-2,-2.4909556E-2,-1.112513E0,9.471489E-1,-6.7184023E-3,-2.3090636E-2,2.3597702E-2,4.1060668E-1,8.9726216E-1,-1.0640196E-2,2.298578E-2,1.9903353E-3],"categories":[],"categories_nodes":[],"categories_segments":[],"categories_sizes":[],"default_left":[0,0,0,0,0,0,0,0,0,0,0,0,0],"id":49,"left_children":[1,3,-1,5,7,-1,-1,-1,9,11,-1,-1,-1],"loss_changes":[4.089258E1,3.0965439E1,0E0,6.03981E-2,1.4607286E0,0E0,0E0,0E0,3.3428168E0,7.887292E-1,0E0,0E0,0E0],"parents":[2147483647,0,0,1,1,3,3,4,4,8,8,9,9],"right_children":[2,4,-1,6,8,-1,-1,-1,10,12,-1,-1,-1],"split_conditions":[-2.7584283E0,1.8136415E0,-2.4909556E-2,-2.4802334E0,-5.1294565E0,-6.7184023E-3,-2.3090636E-2,2.3597702E-2,9.3089557E-1,2.5693054E0,-1.0640196E-2,2.298578E-2,1.9903353E-3],"split_indices":[9,10,0,11,2,0,0,0,20,1,0,0,0],"split_type":[0,0,0,0,0,0,0,0,0,0,0,0,0],"sum_hessian":[6.504984E3,2.7313467E1,6.4776704E3,1.2736043E1,1.4577424E1,1.1154176E0,1.16206255E1,9.3309E0,5.246524E0,3.4918578E0,1.7546664E0,2.3186648E0,1.173193E0],"tree_param":{"num_deleted":"0","num_feature":"29","num_nodes":"13","size_leaf_vector":"0"}},{"base_weights":[-1.2100848E0,-6.2038205E-3,-1.2157254E0,8.4392977E-1,-1.0237477E0,-8.2539004E-1,-2.4327893E-2,-6.030983E-3,9.451797E-1,2.1077543E-3,-2.2679782E-2,1.6331675E-2,-1.0372576E0,5.033865E-1,1.1515983E0,1.4223871E-3,-2.2842485E-2,8.2075024E-1,-1.0335378E-2,2.4291925E-2,6.4695245E-3,2.0359246E-2,-4.986145E-4],"categories":[],"categories_nodes":[],"categories_segments":[],"categories_sizes":[],"default_left":[0,0,0,0,0,0,0,0,0,0,0,0,0,0,0,0,0,0,0,0,0,0,0],"id":50,"left_children":[1,3,5,7,9,11,-1,-1,13,-1,-1,-1,15,17,19,-1,-1,21,-1,-1,-1,-1,-1],"loss_changes":[4.102246E1,2.6108435E1,5.673828E-1,2.192583E0,1.8292484E0,5.510401E0,0E0,0E0,8.2045746E-1,0E0,0E0,0E0,1.5124617E0,2.582263E0,1.12514496E-1,0E0,0E0,9.3774414E-1,0E0,0E0,0E0,0E0,0E0],"parents":[2147483647,0,0,1,1,2,2,3,3,4,4,5,5,8,8,12,12,13,13,14,14,17,17],"right_children":[2,4,6,8,10,12,-1,-1,14,-1,-1,-1,16,18,20,-1,-1,22,-1,-1,-1,-1,-1],"split_conditions":[-3.7138667E0,-1.8769474E0,-1.6517591E0,1.0843875E0,-1.98952E0,-2.2637854E0,-2.4327893E-2,-6.030983E-3,-2.0398235E-1,2.1077543E-3,-2.2679782E-2,1.6331675E-2,-2.2443688E0,-1.4576054E-1,4.7476935E-1,1.4223871E-3,-2.2842485E-2,-3.24153E-1,-1.0335378E-2,2.4291925E-2,6.4695245E-3,2.0359246E-2,-4.986145E-4],"split_indices":[13,9,16,1,11,8,0,0,22,0,0,0,5,4,25,0,0,22,0,0,0,0,0],"split_type":[0,0,0,0,0,0,0,0,0,0,0,0,0,0,0,0,0,0,0,0,0,0,0],"sum_hessian":[6.0410864E3,2.8182726E1,6.012904E3,1.5447407E1,1.2735319E1,1.2405143E1,6.0004985E3,1.093862E0,1.4353544E1,1.1367114E0,1.1598607E1,1.091534E0,1.1313608E1,5.665809E0,8.687736E0,1.0057074E0,1.03079E1,4.4705234E0,1.1952854E0,7.63986E0,1.0478758E0,3.4599476E0,1.010576E0],"tree_param":{"num_deleted":"0","num_feature":"29","num_nodes":"23","size_leaf_vector":"0"}},{"base_weights":[-1.2109566E0,-9.2496574E-2,-1.2161351E0,7.6300395E-1,-1.0316579E0,-8.599209E-1,-2.4334563E-2,2.2151088E-2,2.9619753E-1,3.6418056E-3,-2.2766309E-2,8.8186E-3,-2.2519993E-2,2.2990933E-2,-3.8118276E-1,8.462354E-3,-7.751748E-1,-1.2100962E-3,-2.048977E-2],"categories":[],"categories_nodes":[],"categories_segments":[],"categories_sizes":[],"default_left":[0,0,0,0,0,0,0,0,0,0,0,0,0,0,0,0,0,0,0],"id":51,"left_children":[1,3,5,7,9,11,-1,-1,13,-1,-1,-1,-1,-1,15,-1,17,-1,-1],"loss_changes":[3.4876953E1,2.4026423E1,2.2460938E-1,2.1988993E0,2.0472355E0,5.1364136E0,0E0,0E0,5.083881E0,0E0,0E0,0E0,0E0,0E0,1.9857607E0,0E0,6.2656975E-1,0E0,0E0],"parents":[2147483647,0,0,1,1,2,2,3,3,4,4,5,5,8,8,14,14,16,16],"right_children":[2,4,6,8,10,12,-1,-1,14,-1,-1,-1,-1,-1,16,-1,18,-1,-1],"split_conditions":[-3.7138667E0,-1.8769474E0,-1.6517591E0,-5.1294565E0,-2.1935565E0,-1.8769474E0,-2.4334563E-2,2.2151088E-2,-2.7500758E-1,3.6418056E-3,-2.2766309E-2,8.8186E-3,-2.2519993E-2,2.2990933E-2,1.02688715E-1,8.462354E-3,-3.9216444E0,-1.2100962E-3,-2.048977E-2],"split_indices":[13,9,16,2,11,9,0,0,25,0,0,0,0,0,27,0,2,0,0],"split_type":[0,0,0,0,0,0,0,0,0,0,0,0,0,0,0,0,0,0,0],"sum_hessian":[6.0401E3,2.7924234E1,6.012176E3,1.4711138E1,1.3213096E1,1.2405205E1,5.9997705E3,7.674188E0,7.0369496E0,1.0101773E0,1.2202919E1,1.9949266E0,1.0410277E1,2.8055415E0,4.231408E0,1.3669581E0,2.8644502E0,1.0622227E0,1.8022275E0],"tree_param":{"num_deleted":"0","num_feature":"29","num_nodes":"19","size_leaf_vector":"0"}},{"base_weights":[-1.2116727E0,-8.2870156E-2,-1.216574E0,-2.2600295E-2,7.99498E-1,-8.882862E-1,-2.4345156E-2,1.1011407E0,-8.691285E-2,4.7724488E-1,-2.293312E-2,2.401175E-2,2.5657276E-3,6.3534105E-1,-1.8379726E-2,-6.835947E-3,2.1111568E-2,1.8048463E-2,5.7115644E-4],"categories":[],"categories_nodes":[],"categories_segments":[],"categories_sizes":[],"default_left":[0,0,0,0,0,0,0,0,0,0,0,0,0,0,0,0,0,0,0],"id":52,"left_children":[1,3,5,-1,7,9,-1,11,13,15,-1,-1,-1,17,-1,-1,-1,-1,-1],"loss_changes":[3.3257812E1,2.5980377E1,2.6757812E-1,0E0,4.1905575E0,6.2557077E0,0E0,9.5853233E-1,3.477659E0,1.9146571E0,0E0,0E0,0E0,4.8779297E-1,0E0,0E0,0E0,0E0,0E0],"parents":[2147483647,0,0,1,1,2,2,4,4,5,5,7,7,8,8,9,9,13,13],"right_children":[2,4,6,-1,8,10,-1,12,14,16,-1,-1,-1,18,-1,-1,-1,-1,-1],"split_conditions":[-3.88481E0,1.7786252E0,-3.7138667E0,-2.2600295E-2,-3.9216444E0,-2.01236E0,-2.4345156E-2,-1.8929844E0,9.3089557E-1,-1.2914343E0,-2.293312E-2,2.401175E-2,2.5657276E-3,-1.0838572E0,-1.8379726E-2,-6.835947E-3,2.1111568E-2,1.8048463E-2,5.7115644E-4],"split_indices":[11,10,13,0,2,9,0,6,20,2,0,0,0,4,0,0,0,0,0],"split_type":[0,0,0,0,0,0,0,0,0,0,0,0,0,0,0,0,0,0,0],"sum_hessian":[6.028536E3,2.6140505E1,6.0023955E3,1.1825732E1,1.4314772E1,1.517992E1,5.9872153E3,1.0499559E1,3.815212E0,2.2804098E0,1.289951E1,9.3134365E0,1.1861231E0,2.1689568E0,1.6462553E0,1.1130676E0,1.1673421E0,1.1677389E0,1.001218E0],"tree_param":{"num_deleted":"0","num_feature":"29","num_nodes":"19","size_leaf_vector":"0"}},{"base_weights":[-1.2113237E0,-1.269429E-1,-1.2162163E0,8.004633E-1,-2.2906372E-2,-8.296294E-1,-2.4337975E-2,1.1734582E0,3.0795786E-1,4.315564E-1,-2.2518236E-2,2.6145563E-2,4.23673E-3,8.042173E-1,-6.433693E-1,-5.9634065E-3,1.7659439E-2,-2.149968E-3,2.0485925E-2,-1.8138513E-2,-1.4188726E-3],"categories":[],"categories_nodes":[],"categories_segments":[],"categories_sizes":[],"default_left":[0,0,0,0,0,0,0,0,0,0,0,0,0,0,0,0,0,0,0,0,0],"id":53,"left_children":[1,3,5,7,-1,9,-1,11,13,15,-1,-1,-1,17,19,-1,-1,-1,-1,-1,-1],"loss_changes":[3.1916992E1,2.7615E1,5.78125E-1,2.4646454E0,0E0,5.62216E0,0E0,8.037796E-1,4.2874327E0,1.3627725E0,0E0,0E0,0E0,1.2522888E0,4.3248594E-1,0E0,0E0,0E0,0E0,0E0,0E0],"parents":[2147483647,0,0,1,1,2,2,3,3,5,5,7,7,8,8,9,9,13,13,14,14],"right_children":[2,4,6,8,-1,10,-1,12,14,16,-1,-1,-1,18,20,-1,-1,-1,-1,-1,-1],"split_conditions":[-3.7138667E0,-1.8769474E0,-1.6517591E0,1.6593973E-1,-2.2906372E-2,-1.8769474E0,-2.4337975E-2,-1.5539394E-1,-3.9216444E0,2.2373219E0,-2.2518236E-2,2.6145563E-2,4.23673E-3,2.6102525E-1,4.5324754E-2,-5.9634065E-3,1.7659439E-2,-2.149968E-3,2.0485925E-2,-1.8138513E-2,-1.4188726E-3],"split_indices":[13,9,16,27,0,9,0,5,2,3,0,0,0,27,22,0,0,0,0,0,0],"split_type":[0,0,0,0,0,0,0,0,0,0,0,0,0,0,0,0,0,0,0,0,0],"sum_hessian":[6.0439414E3,2.726859E1,6.016673E3,1.438372E1,1.28848715E1,1.2745555E1,6.0039272E3,7.3981586E0,6.9855623E0,2.337775E0,1.040778E1,6.178853E0,1.2193053E0,4.6924067E0,2.2931554E0,1.0232072E0,1.3145678E0,1.0119157E0,3.680491E0,1.1700743E0,1.1230811E0],"tree_param":{"num_deleted":"0","num_feature":"29","num_nodes":"21","size_leaf_vector":"0"}},{"base_weights":[-1.2111186E0,-8.966761E-3,-1.2162865E0,-1.0787764E0,9.119361E-1,-9.0944195E-1,-2.43388E-2,-6.408643E-3,-2.2411486E-2,2.2916371E-2,3.9155847E-1,7.851969E-3,-1.095481E0,8.610793E-1,-1.0373848E-2,-2.289476E-2,-4.1871397E-3,1.8237304E-3,2.229048E-2],"categories":[],"categories_nodes":[],"categories_segments":[],"categories_sizes":[],"default_left":[0,0,0,0,0,0,0,0,0,0,0,0,0,0,0,0,0,0,0],"id":54,"left_children":[1,3,5,7,9,11,-1,-1,-1,-1,13,-1,15,17,-1,-1,-1,-1,-1],"loss_changes":[3.7398438E1,2.7370142E1,9.5703125E-2,4.8173904E-2,1.3690548E0,4.4753723E0,0E0,0E0,0E0,0E0,3.0751338E0,0E0,4.096508E-1,7.634206E-1,0E0,0E0,0E0,0E0,0E0],"parents":[2147483647,0,0,1,1,2,2,3,3,4,4,5,5,10,10,12,12,13,13],"right_children":[2,4,6,8,10,12,-1,-1,-1,-1,14,-1,16,18,-1,-1,-1,-1,-1],"split_conditions":[-2.7584283E0,1.8136415E0,-3.7138667E0,-2.4802334E0,-5.1294565E0,-1.8769474E0,-2.43388E-2,-6.408643E-3,-2.2411486E-2,2.2916371E-2,9.3089557E-1,7.851969E-3,3.9940485E-1,-3.7324051E-3,-1.0373848E-2,-2.289476E-2,-4.1871397E-3,1.8237304E-3,2.229048E-2],"split_indices":[9,10,13,11,2,9,0,0,0,0,20,0,25,19,0,0,0,0,0],"split_type":[0,0,0,0,0,0,0,0,0,0,0,0,0,0,0,0,0,0,0],"sum_hessian":[6.0206494E3,2.5783003E1,5.9948667E3,1.1847902E1,1.3935101E1,1.5700159E1,5.9791665E3,1.0716193E0,1.0776283E1,8.784864E0,5.150236E0,1.8240182E0,1.3876141E1,3.4333057E0,1.71693E0,1.2868946E1,1.0071949E0,1.1870811E0,2.2462249E0],"tree_param":{"num_deleted":"0","num_feature":"29","num_nodes":"19","size_leaf_vector":"0"}},{"base_weights":[-1.1847367E0,1.0611344E-3,-1.1904455E0,8.074686E-1,-9.884526E-1,-7.927522E-1,-2.3822786E-2,-5.8883983E-3,9.0863013E-1,-2.2099482E-2,2.7228773E-3,1.5803987E-2,-1.0060036E0,4.6642375E-1,1.1178828E0,-3.8657805E-3,-2.2110831E-2,7.8832513E-1,-1.03270635E-2,2.350794E-2,6.952556E-3,1.9503247E-2,1.2620442E-3],"categories":[],"categories_nodes":[],"categories_segments":[],"categories_sizes":[],"default_left":[0,0,0,0,0,0,0,0,0,0,0,0,0,0,0,0,0,0,0,0,0,0,0],"id":55,"left_children":[1,3,5,7,9,11,-1,-1,13,-1,-1,-1,15,17,19,-1,-1,21,-1,-1,-1,-1,-1],"loss_changes":[3.7760254E1,2.2920567E1,5.8740234E-1,2.0315914E0,1.8406258E0,5.067949E0,0E0,0E0,8.425007E-1,0E0,0E0,0E0,7.2432804E-1,2.447702E0,2.919197E-3,0E0,0E0,6.504717E-1,0E0,0E0,0E0,0E0,0E0],"parents":[2147483647,0,0,1,1,2,2,3,3,4,4,5,5,8,8,12,12,13,13,14,14,17,17],"right_children":[2,4,6,8,10,12,-1,-1,14,-1,-1,-1,16,18,20,-1,-1,22,-1,-1,-1,-1,-1],"split_conditions":[-3.7138667E0,-1.8769474E0,-1.6517591E0,1.0843875E0,3.3884564E-1,-2.2637854E0,-2.3822786E-2,-5.8883983E-3,-2.0398235E-1,-2.2099482E-2,2.7228773E-3,1.5803987E-2,-2.004394E0,-1.4576054E-1,7.5175965E-1,-3.8657805E-3,-2.2110831E-2,-3.3052322E-1,-1.03270635E-2,2.350794E-2,6.952556E-3,1.9503247E-2,1.2620442E-3],"split_indices":[13,9,16,1,20,8,0,0,22,0,0,0,5,4,14,0,0,22,0,0,0,0,0],"split_type":[0,0,0,0,0,0,0,0,0,0,0,0,0,0,0,0,0,0,0,0,0,0,0],"sum_hessian":[5.5768833E3,2.6724026E1,5.550159E3,1.4825726E1,1.1898299E1,1.1658258E1,5.538501E3,1.0860188E0,1.3739707E1,1.0797045E1,1.101254E0,1.0629041E0,1.0595354E1,5.450454E0,8.289253E0,1.4770771E0,9.118277E0,4.2547135E0,1.1957408E0,7.2238693E0,1.0653833E0,3.1090891E0,1.1456242E0],"tree_param":{"num_deleted":"0","num_feature":"29","num_nodes":"23","size_leaf_vector":"0"}},{"base_weights":[-1.1856487E0,-8.502027E-2,-1.1908816E0,9.4159997E-1,-8.151859E-1,-8.251058E-1,-2.3830015E-2,2.2965755E-2,1.0940455E-1,1.7185329E-1,-2.2309419E-2,8.581352E-3,-2.19133E-2,-1.2457386E-2,1.726786E-2,2.3262024E-2,-6.147867E-1,2.9060035E-4,-1.8862344E-2],"categories":[],"categories_nodes":[],"categories_segments":[],"categories_sizes":[],"default_left":[0,0,0,0,0,0,0,0,0,0,0,0,0,0,0,0,0,0,0],"id":56,"left_children":[1,3,5,7,9,11,-1,-1,13,15,-1,-1,-1,-1,-1,-1,17,-1,-1],"loss_changes":[3.201953E1,2.1356989E1,2.7392578E-1,1.9177952E0,5.1079845E0,4.7567167E0,0E0,0E0,2.4530342E0,4.407704E0,0E0,0E0,0E0,0E0,0E0,0E0,6.9443154E-1,0E0,0E0],"parents":[2147483647,0,0,1,1,2,2,3,3,4,4,5,5,8,8,9,9,16,16],"right_children":[2,4,6,8,10,12,-1,-1,14,16,-1,-1,-1,-1,-1,-1,18,-1,-1],"split_conditions":[-3.7138667E0,-2.0664883E0,-1.6517591E0,-3.9216444E0,-1.8769474E0,-1.8769474E0,-2.3830015E-2,2.2965755E-2,-1.8737646E0,-3.0934066E-1,-2.2309419E-2,8.581352E-3,-2.19133E-2,-1.2457386E-2,1.726786E-2,2.3262024E-2,2.7543074E-1,2.9060035E-4,-1.8862344E-2],"split_indices":[13,6,16,2,9,9,0,0,4,25,0,0,0,0,0,0,24,0,0],"split_type":[0,0,0,0,0,0,0,0,0,0,0,0,0,0,0,0,0,0,0],"sum_hessian":[5.5759316E3,2.646709E1,5.549465E3,1.0880054E1,1.5587037E1,1.1632618E1,5.537832E3,8.411185E0,2.468869E0,3.7356458E0,1.1851391E1,1.9602149E0,9.672403E0,1.3406907E0,1.1281784E0,1.4411185E0,2.2945275E0,1.1143603E0,1.1801671E0],"tree_param":{"num_deleted":"0","num_feature":"29","num_nodes":"19","size_leaf_vector":"0"}},{"base_weights":[-1.1864011E0,-6.8770036E-2,-1.1913602E0,-2.2011843E-2,7.7545375E-1,-8.556711E-1,-2.3841474E-2,1.0706047E0,-7.55078E-2,4.521104E-1,-2.2370366E-2,2.3482872E-2,2.2072296E-3,1.2570681E-2,-1.7859863E-2,-6.9456385E-3,2.0484017E-2],"categories":[],"categories_nodes":[],"categories_segments":[],"categories_sizes":[],"default_left":[0,0,0,0,0,0,0,0,0,0,0,0,0,0,0,0,0],"id":57,"left_children":[1,3,5,-1,7,9,-1,11,13,15,-1,-1,-1,-1,-1,-1,-1],"loss_changes":[3.0768066E1,2.3197176E1,3.071289E-1,0E0,3.7714891E0,5.763525E0,0E0,9.6168613E-1,3.2768345E0,1.8520067E0,0E0,0E0,0E0,0E0,0E0,0E0,0E0],"parents":[2147483647,0,0,1,1,2,2,4,4,5,5,7,7,8,8,9,9],"right_children":[2,4,6,-1,8,10,-1,12,14,16,-1,-1,-1,-1,-1,-1,-1],"split_conditions":[-3.88481E0,1.7786252E0,-3.7138667E0,-2.2011843E-2,-3.9216444E0,-2.01236E0,-2.3841474E-2,-1.8929844E0,9.3089557E-1,-1.2914343E0,-2.2370366E-2,2.3482872E-2,2.2072296E-3,1.2570681E-2,-1.7859863E-2,-6.9456385E-3,2.0484017E-2],"split_indices":[11,10,13,0,2,9,0,6,20,2,0,0,0,0,0,0,0],"split_type":[0,0,0,0,0,0,0,0,0,0,0,0,0,0,0,0,0],"sum_hessian":[5.565231E3,2.4650333E1,5.5405806E3,1.09560375E1,1.3694296E1,1.4295654E1,5.526285E3,9.97605E0,3.7182457E0,2.2718987E0,1.2023755E1,8.803997E0,1.1720535E0,2.1219225E0,1.5963233E0,1.1115999E0,1.1602988E0],"tree_param":{"num_deleted":"0","num_feature":"29","num_nodes":"17","size_leaf_vector":"0"}},{"base_weights":[-1.1860396E0,-1.19578004E-1,-1.1909765E0,7.64632E-1,-2.2341866E-2,-7.9587406E-1,-2.3833701E-2,1.1372514E0,2.768368E-1,4.2103812E-1,-2.191352E-2,2.5503408E-2,3.731324E-3,7.67102E-1,-6.30723E-1,-5.662759E-3,1.7098201E-2,1.9818906E-2,-2.3195506E-3,-1.7749695E-2,-1.3727756E-3],"categories":[],"categories_nodes":[],"categories_segments":[],"categories_sizes":[],"default_left":[0,0,0,0,0,0,0,0,0,0,0,0,0,0,0,0,0,0,0,0,0],"id":58,"left_children":[1,3,5,7,-1,9,-1,11,13,15,-1,-1,-1,17,19,-1,-1,-1,-1,-1,-1],"loss_changes":[2.9239258E1,2.4515387E1,6.069336E-1,2.3778791E0,0E0,5.1876764E0,0E0,8.2113934E-1,3.9265723E0,1.2451265E0,0E0,0E0,0E0,1.197155E0,4.0994442E-1,0E0,0E0,0E0,0E0,0E0,0E0],"parents":[2147483647,0,0,1,1,2,2,3,3,5,5,7,7,8,8,9,9,13,13,14,14],"right_children":[2,4,6,8,-1,10,-1,12,14,16,-1,-1,-1,18,20,-1,-1,-1,-1,-1,-1],"split_conditions":[-3.7138667E0,-1.8769474E0,-1.6517591E0,1.6593973E-1,-2.2341866E-2,-1.8769474E0,-2.3833701E-2,-1.5539394E-1,-3.9216444E0,2.2373219E0,-2.191352E-2,2.5503408E-2,3.731324E-3,-1.6907097E0,4.5324754E-2,-5.662759E-3,1.7098201E-2,1.9818906E-2,-2.3195506E-3,-1.7749695E-2,-1.3727756E-3],"split_indices":[13,9,16,27,0,9,0,5,2,3,0,0,0,17,22,0,0,0,0,0,0],"split_type":[0,0,0,0,0,0,0,0,0,0,0,0,0,0,0,0,0,0,0,0,0],"sum_hessian":[5.579452E3,2.5826385E1,5.553626E3,1.3814502E1,1.2011884E1,1.1954864E1,5.541671E3,7.0770435E0,6.737458E0,2.2831287E0,9.671735E0,5.882354E0,1.1946898E0,4.4748836E0,2.2625747E0,1.0028747E0,1.2802541E0,3.4725206E0,1.0023628E0,1.1557205E0,1.1068542E0],"tree_param":{"num_deleted":"0","num_feature":"29","num_nodes":"21","size_leaf_vector":"0"}},{"base_weights":[-1.1858368E0,5.6265322E-5,-1.1910414E0,-1.0478566E0,8.7970465E-1,-8.7370664E-1,-2.3834648E-2,-6.0320753E-3,-2.1800956E-2,2.2270823E-2,3.7817934E-1,7.465655E-3,-1.0641882E0,8.3299583E-1,-1.0097339E-2,-2.2287022E-2,-4.240091E-3,1.4908942E-3,2.1757176E-2],"categories":[],"categories_nodes":[],"categories_segments":[],"categories_sizes":[],"default_left":[0,0,0,0,0,0,0,0,0,0,0,0,0,0,0,0,0,0,0],"id":59,"left_children":[1,3,5,7,9,11,-1,-1,-1,-1,13,-1,15,17,-1,-1,-1,-1,-1],"loss_changes":[3.4310547E1,2.423435E1,1.7236328E-1,4.8989296E-2,1.2550507E0,4.1439066E0,0E0,0E0,0E0,0E0,2.854062E0,0E0,3.5978794E-1,7.6492333E-1,0E0,0E0,0E0,0E0,0E0],"parents":[2147483647,0,0,1,1,2,2,3,3,4,4,5,5,10,10,12,12,13,13],"right_children":[2,4,6,8,10,12,-1,-1,-1,-1,14,-1,16,18,-1,-1,-1,-1,-1],"split_conditions":[-2.7584283E0,1.8136415E0,-3.7138667E0,-8.444652E-1,-5.1294565E0,-1.8769474E0,-2.3834648E-2,-6.0320753E-3,-2.1800956E-2,2.2270823E-2,9.3089557E-1,7.465655E-3,6.892894E-1,-3.7324051E-3,-1.0097339E-2,-2.2287022E-2,-4.240091E-3,1.4908942E-3,2.1757176E-2],"split_indices":[9,10,13,16,2,9,0,0,0,0,20,0,22,19,0,0,0,0,0],"split_type":[0,0,0,0,0,0,0,0,0,0,0,0,0,0,0,0,0,0,0],"sum_hessian":[5.5579375E3,2.4290382E1,5.533647E3,1.0997724E1,1.3292658E1,1.4773536E1,5.5188735E3,1.0245527E0,9.973171E0,8.233483E0,5.059175E0,1.830496E0,1.294304E1,3.376681E0,1.6824937E0,1.1932976E1,1.0100647E0,1.1743629E0,2.2023182E0],"tree_param":{"num_deleted":"0","num_feature":"29","num_nodes":"19","size_leaf_vector":"0"}},{"base_weights":[-1.1626512E0,7.6564495E-3,-1.1684443E0,7.734011E-1,-9.556567E-1,-7.625793E-1,-2.3383316E-2,-5.8579687E-3,8.758216E-1,3.2088417E-3,-2.1564713E-2,1.5302236E-2,-9.77229E-1,9.912538E-1,2.157898E-1,-3.5281612E-3,-2.1587025E-2,1.1324124E0,3.536063E-1,-1.0128401E-2,1.5002428E-2,2.4767553E-2,4.001394E-3,1.4568139E-2,-5.639094E-3],"categories":[],"categories_nodes":[],"categories_segments":[],"categories_sizes":[],"default_left":[0,0,0,0,0,0,0,0,0,0,0,0,0,0,0,0,0,0,0,0,0,0,0,0,0],"id":60,"left_children":[1,3,5,7,9,11,-1,-1,13,-1,-1,-1,15,17,19,-1,-1,21,23,-1,-1,-1,-1,-1,-1],"loss_changes":[3.4842773E1,2.0140205E1,6.0498047E-1,1.9171801E0,1.8277464E0,4.6662054E0,0E0,0E0,8.6218643E-1,0E0,0E0,0E0,7.023754E-1,6.5657616E-1,1.6844884E0,0E0,0E0,6.572838E-1,1.0587614E0,0E0,0E0,0E0,0E0,0E0,0E0],"parents":[2147483647,0,0,1,1,2,2,3,3,4,4,5,5,8,8,12,12,13,13,14,14,17,17,18,18],"right_children":[2,4,6,8,10,12,-1,-1,14,-1,-1,-1,16,18,20,-1,-1,22,24,-1,-1,-1,-1,-1,-1],"split_conditions":[-3.7138667E0,-1.8769474E0,-1.6517591E0,1.0843875E0,-1.98952E0,-2.2637854E0,-2.3383316E-2,-5.8579687E-3,1.2149562E0,3.2088417E-3,-2.1564713E-2,1.5302236E-2,-2.004394E0,2.3966799E0,-1.7655292E0,-3.5281612E-3,-2.1587025E-2,-3.5347158E-1,-5.1294565E0,-1.0128401E-2,1.5002428E-2,2.4767553E-2,4.001394E-3,1.4568139E-2,-5.639094E-3],"split_indices":[13,9,16,1,11,8,0,0,12,0,0,0,5,18,5,0,0,5,2,0,0,0,0,0,0],"split_type":[0,0,0,0,0,0,0,0,0,0,0,0,0,0,0,0,0,0,0,0,0,0,0,0,0],"sum_hessian":[5.136871E3,2.5301157E1,5.11157E3,1.4205915E1,1.1095241E1,1.0949666E1,5.1006206E3,1.0819522E0,1.3123963E1,1.0674121E0,1.0027829E1,1.0330242E0,9.916641E0,1.074326E1,2.380703E0,1.4300346E0,8.486607E0,8.160757E0,2.5825038E0,1.034583E0,1.34612E0,7.033161E0,1.1275954E0,1.5326123E0,1.0498914E0],"tree_param":{"num_deleted":"0","num_feature":"29","num_nodes":"25","size_leaf_vector":"0"}},{"base_weights":[-1.1636026E0,-7.774783E-2,-1.168909E0,9.146646E-1,-7.857807E-1,-7.922749E-1,-2.339117E-2,2.2459604E-2,1.074886E-1,1.5339185E-1,-2.1787593E-2,8.357404E-3,-2.1360561E-2,-1.2112737E-2,1.6841069E-2,2.2574164E-2,-6.1612535E-1,7.733885E-5,-1.8689474E-2],"categories":[],"categories_nodes":[],"categories_segments":[],"categories_sizes":[],"default_left":[0,0,0,0,0,0,0,0,0,0,0,0,0,0,0,0,0,0,0],"id":61,"left_children":[1,3,5,7,9,11,-1,-1,13,15,-1,-1,-1,-1,-1,-1,17,-1,-1],"loss_changes":[2.9509277E1,1.902474E1,3.2373047E-1,1.7810106E0,4.655815E0,4.417478E0,0E0,0E0,2.3046029E0,4.239664E0,0E0,0E0,0E0,0E0,0E0,0E0,6.522937E-1,0E0,0E0],"parents":[2147483647,0,0,1,1,2,2,3,3,4,4,5,5,8,8,9,9,16,16],"right_children":[2,4,6,8,10,12,-1,-1,14,16,-1,-1,-1,-1,-1,-1,18,-1,-1],"split_conditions":[-3.7138667E0,-2.0664883E0,-1.6517591E0,-3.9216444E0,-1.8769474E0,-1.8769474E0,-2.339117E-2,2.2459604E-2,-1.8737646E0,-3.0934066E-1,-2.1787593E-2,8.357404E-3,-2.1360561E-2,-1.2112737E-2,1.6841069E-2,2.2574164E-2,2.7543074E-1,7.733885E-5,-1.8689474E-2],"split_indices":[13,6,16,2,9,9,0,0,4,25,0,0,0,0,0,0,24,0,0],"split_type":[0,0,0,0,0,0,0,0,0,0,0,0,0,0,0,0,0,0,0],"sum_hessian":[5.1359604E3,2.5052427E1,5.1109077E3,1.03098345E1,1.4742592E1,1.09004E1,5.1000073E3,7.8839126E0,2.4259224E0,3.7223592E0,1.1020232E1,1.927254E0,8.9731455E0,1.3199822E0,1.1059402E0,1.4357978E0,2.2865615E0,1.1109021E0,1.1756594E0],"tree_param":{"num_deleted":"0","num_feature":"29","num_nodes":"19","size_leaf_vector":"0"}},{"base_weights":[-1.164408E0,-5.6539837E-2,-1.1694326E0,-2.1478662E-2,7.5250095E-1,-8.2538563E-1,-2.3403594E-2,1.0412556E0,-6.256509E-2,4.2653707E-1,-2.1857563E-2,2.2961712E-2,1.962214E-3,1.2501342E-2,-1.7365983E-2,-7.1052164E-3,1.9917395E-2],"categories":[],"categories_nodes":[],"categories_segments":[],"categories_sizes":[],"default_left":[0,0,0,0,0,0,0,0,0,0,0,0,0,0,0,0,0],"id":62,"left_children":[1,3,5,-1,7,9,-1,11,13,15,-1,-1,-1,-1,-1,-1,-1],"loss_changes":[2.8474121E1,2.0726822E1,3.466797E-1,0E0,3.376079E0,5.3064203E0,0E0,9.397049E-1,3.1043422E0,1.8065437E0,0E0,0E0,0E0,0E0,0E0,0E0,0E0],"parents":[2147483647,0,0,1,1,2,2,4,4,5,5,7,7,8,8,9,9],"right_children":[2,4,6,-1,8,10,-1,12,14,16,-1,-1,-1,-1,-1,-1,-1],"split_conditions":[-3.88481E0,1.7786252E0,-3.7138667E0,-2.1478662E-2,-3.9216444E0,-2.01236E0,-2.3403594E-2,-1.8929844E0,9.3089557E-1,-1.2914343E0,-2.1857563E-2,2.2961712E-2,1.962214E-3,1.2501342E-2,-1.7365983E-2,-7.1052164E-3,1.9917395E-2],"split_indices":[11,10,13,0,2,9,0,6,20,2,0,0,0,0,0,0,0],"split_type":[0,0,0,0,0,0,0,0,0,0,0,0,0,0,0,0,0],"sum_hessian":[5.126073E3,2.3199219E1,5.102874E3,1.0131339E1,1.3067881E1,1.345374E1,5.08942E3,9.444466E0,3.6234148E0,2.2638514E0,1.1189889E1,8.288349E0,1.1561167E0,2.0759647E0,1.5474501E0,1.1123695E0,1.151482E0],"tree_param":{"num_deleted":"0","num_feature":"29","num_nodes":"17","size_leaf_vector":"0"}},{"base_weights":[-1.1640258E0,-1.13005206E-1,-1.1690202E0,7.3096603E-1,-2.182273E-2,-7.6443356E-1,-2.3395166E-2,1.105355E0,2.4603526E-1,4.090489E-1,-2.136074E-2,2.4919262E-2,3.3412795E-3,6.060619E-1,-1.8434092E-2,-4.018866E-3,1.6732147E-2,1.9796142E-2,-6.818009E-3],"categories":[],"categories_nodes":[],"categories_segments":[],"categories_sizes":[],"default_left":[0,0,0,0,0,0,0,0,0,0,0,0,0,0,0,0,0,0,0],"id":63,"left_children":[1,3,5,7,-1,9,-1,11,13,15,-1,-1,-1,17,-1,-1,-1,-1,-1],"loss_changes":[2.6849121E1,2.1779774E1,6.3427734E-1,2.313919E0,0E0,4.784647E0,0E0,8.144903E-1,3.7082767E0,1.0108826E0,0E0,0E0,0E0,2.6375492E0,0E0,0E0,0E0,0E0,0E0],"parents":[2147483647,0,0,1,1,2,2,3,3,5,5,7,7,8,8,9,9,13,13],"right_children":[2,4,6,8,-1,10,-1,12,14,16,-1,-1,-1,18,-1,-1,-1,-1,-1],"split_conditions":[-3.7138667E0,-1.8769474E0,-1.6517591E0,1.6593973E-1,-2.182273E-2,-1.8769474E0,-2.3395166E-2,-1.5539394E-1,-2.0664883E0,8.793927E-2,-2.136074E-2,2.4919262E-2,3.3412795E-3,-3.9216444E0,-1.8434092E-2,-4.018866E-3,1.6732147E-2,1.9796142E-2,-6.818009E-3],"split_indices":[13,9,16,27,0,9,0,5,6,5,0,0,0,2,0,0,0,0,0],"split_type":[0,0,0,0,0,0,0,0,0,0,0,0,0,0,0,0,0,0,0],"sum_hessian":[5.1391685E3,2.44171E1,5.1147515E3,1.3243105E1,1.1173995E1,1.1203462E1,5.103548E3,6.751345E0,6.4917603E0,2.2313967E0,8.972065E0,5.586301E0,1.1650443E0,5.3295875E0,1.1621726E0,1.1379375E0,1.0934591E0,3.7604609E0,1.5691266E0],"tree_param":{"num_deleted":"0","num_feature":"29","num_nodes":"19","size_leaf_vector":"0"}},{"base_weights":[-1.1638242E0,8.026182E-3,-1.1690781E0,-1.019531E0,8.4982944E-1,-8.399758E-1,-2.3396237E-2,-2.1304924E-2,-6.485799E-3,2.1677248E-2,3.6547932E-1,7.133132E-3,-1.0354176E0,8.089304E-1,-9.947471E-3,-2.1781174E-2,-4.2496324E-3,1.2424127E-3,2.1272704E-2],"categories":[],"categories_nodes":[],"categories_segments":[],"categories_sizes":[],"default_left":[0,0,0,0,0,0,0,0,0,0,0,0,0,0,0,0,0,0,0],"id":64,"left_children":[1,3,5,7,9,11,-1,-1,-1,-1,13,-1,15,17,-1,-1,-1,-1,-1],"loss_changes":[3.1534668E1,2.1494608E1,2.4902344E-1,1.0317802E-2,1.1516075E0,3.8504553E0,0E0,0E0,0E0,0E0,2.6816568E0,0E0,3.4472466E-1,7.547991E-1,0E0,0E0,0E0,0E0,0E0],"parents":[2147483647,0,0,1,1,2,2,3,3,4,4,5,5,10,10,12,12,13,13],"right_children":[2,4,6,8,10,12,-1,-1,-1,-1,14,-1,16,18,-1,-1,-1,-1,-1],"split_conditions":[-2.7584283E0,1.8136415E0,-3.7138667E0,2.2373219E0,-5.1294565E0,-1.8769474E0,-2.3396237E-2,-2.1304924E-2,-6.485799E-3,2.1677248E-2,9.3089557E-1,7.133132E-3,3.422879E-1,-3.7324051E-3,-9.947471E-3,-2.1781174E-2,-4.2496324E-3,1.2424127E-3,2.1272704E-2],"split_indices":[9,10,13,3,2,9,0,0,0,0,20,0,25,19,0,0,0,0,0],"split_type":[0,0,0,0,0,0,0,0,0,0,0,0,0,0,0,0,0,0,0],"sum_hessian":[5.119341E3,2.2847582E1,5.096493E3,1.0193562E1,1.265402E1,1.3884931E1,5.082608E3,9.065282E0,1.1282799E0,7.6970954E0,4.9569244E0,1.8335806E0,1.2051351E1,3.3154757E0,1.6414487E0,1.1010287E1,1.0410627E0,1.159537E0,2.1559386E0],"tree_param":{"num_deleted":"0","num_feature":"29","num_nodes":"19","size_leaf_vector":"0"}},{"base_weights":[-1.143295E0,1.3840525E-2,-1.1491922E0,7.417253E-1,-9.245805E-1,-7.3342097E-1,-2.2998942E-2,-5.814198E-3,8.453514E-1,-2.107776E-2,3.7459063E-3,1.4853003E-2,-9.5007175E-1,3.9638168E-1,1.0621535E0,-3.1402488E-3,-2.1116102E-2,7.2463256E-1,-1.0129074E-2,2.2503562E-2,6.06211E-3,1.8262649E-2,5.445382E-4],"categories":[],"categories_nodes":[],"categories_segments":[],"categories_sizes":[],"default_left":[0,0,0,0,0,0,0,0,0,0,0,0,0,0,0,0,0,0,0,0,0,0,0],"id":65,"left_children":[1,3,5,7,9,11,-1,-1,13,-1,-1,-1,15,17,19,-1,-1,21,-1,-1,-1,-1,-1],"loss_changes":[3.224707E1,1.77202E1,6.3183594E-1,1.8077097E0,1.827611E0,4.312418E0,0E0,0E0,8.9534473E-1,0E0,0E0,0E0,6.957197E-1,2.1449027E0,6.675053E-2,0E0,0E0,6.075976E-1,0E0,0E0,0E0,0E0,0E0],"parents":[2147483647,0,0,1,1,2,2,3,3,4,4,5,5,8,8,12,12,13,13,14,14,17,17],"right_children":[2,4,6,8,10,12,-1,-1,14,-1,-1,-1,16,18,20,-1,-1,22,-1,-1,-1,-1,-1],"split_conditions":[-3.7138667E0,-1.8769474E0,-1.6517591E0,1.0843875E0,3.3884564E-1,-2.2637854E0,-2.2998942E-2,-5.814198E-3,-2.0398235E-1,-2.107776E-2,3.7459063E-3,1.4853003E-2,-2.004394E0,-1.4576054E-1,4.360514E-1,-3.1402488E-3,-2.1116102E-2,-3.3052322E-1,-1.0129074E-2,2.2503562E-2,6.06211E-3,1.8262649E-2,5.445382E-4],"split_indices":[13,9,16,1,20,8,0,0,22,0,0,0,5,4,25,0,0,22,0,0,0,0,0],"split_type":[0,0,0,0,0,0,0,0,0,0,0,0,0,0,0,0,0,0,0,0,0,0,0],"sum_hessian":[4.722459E3,2.39383E1,4.698521E3,1.35994835E1,1.0338815E1,1.0278726E1,4.688242E3,1.0758026E0,1.2523681E1,9.30843E0,1.0303856E0,1.0048282E0,9.273897E0,4.9992256E0,7.5244555E0,1.3833061E0,7.8905916E0,3.8110087E0,1.188217E0,6.5022144E0,1.022241E0,2.7566056E0,1.0544032E0],"tree_param":{"num_deleted":"0","num_feature":"29","num_nodes":"23","size_leaf_vector":"0"}},{"base_weights":[-1.1442959E0,-7.171698E-2,-1.1496915E0,8.902728E-1,-7.5961E-1,-7.614493E-1,-2.3007486E-2,2.2003166E-2,1.0582895E-1,1.3316876E-1,-2.1312427E-2,8.108413E-3,-2.0849664E-2,-1.1801475E-2,1.6467333E-2,2.1873077E-2,-6.1818874E-1,-2.4789895E-4,-1.8438034E-2],"categories":[],"categories_nodes":[],"categories_segments":[],"categories_sizes":[],"default_left":[0,0,0,0,0,0,0,0,0,0,0,0,0,0,0,0,0,0,0],"id":66,"left_children":[1,3,5,7,9,11,-1,-1,13,15,-1,-1,-1,-1,-1,-1,17,-1,-1],"loss_changes":[2.7247559E1,1.7024073E1,3.696289E-1,1.6551952E0,4.2245274E0,4.097899E0,0E0,0E0,2.1724854E0,4.070478E0,0E0,0E0,0E0,0E0,0E0,0E0,5.916747E-1,0E0,0E0],"parents":[2147483647,0,0,1,1,2,2,3,3,4,4,5,5,8,8,9,9,16,16],"right_children":[2,4,6,8,10,12,-1,-1,14,16,-1,-1,-1,-1,-1,-1,18,-1,-1],"split_conditions":[-3.7138667E0,-2.0664883E0,-1.6517591E0,-3.9216444E0,-1.8769474E0,-1.8769474E0,-2.3007486E-2,2.2003166E-2,-1.8737646E0,-3.0934066E-1,-2.1312427E-2,8.108413E-3,-2.0849664E-2,-1.1801475E-2,1.6467333E-2,2.1873077E-2,2.7543074E-1,-2.4789895E-4,-1.8438034E-2],"split_indices":[13,6,16,2,9,9,0,0,4,25,0,0,0,0,0,0,24,0,0],"split_type":[0,0,0,0,0,0,0,0,0,0,0,0,0,0,0,0,0,0,0],"sum_hessian":[4.7215933E3,2.3704058E1,4.697889E3,9.760375E0,1.3943682E1,1.0207432E1,4.6876816E3,7.382616E0,2.3777595E0,3.7035403E0,1.0240141E1,1.8953247E0,8.312107E0,1.2972573E0,1.080502E0,1.4255903E0,2.27795E0,1.108239E0,1.1697109E0],"tree_param":{"num_deleted":"0","num_feature":"29","num_nodes":"19","size_leaf_vector":"0"}},{"base_weights":[-1.1451535E0,-4.3818705E-2,-1.150268E0,-2.0984922E-2,7.319049E-1,-7.979709E-1,-2.3021E-2,1.0161039E0,-5.4220773E-2,3.9839032E-1,-2.1385916E-2,2.2508899E-2,1.8171882E-3,1.2319405E-2,-1.6891686E-2,-7.2595286E-3,1.9270672E-2],"categories":[],"categories_nodes":[],"categories_segments":[],"categories_sizes":[],"default_left":[0,0,0,0,0,0,0,0,0,0,0,0,0,0,0,0,0],"id":67,"left_children":[1,3,5,-1,7,9,-1,11,13,15,-1,-1,-1,-1,-1,-1,-1],"loss_changes":[2.6498535E1,1.8571304E1,3.75E-1,0E0,3.0654855E0,4.857296E0,0E0,9.0407753E-1,2.9182389E0,1.7491206E0,0E0,0E0,0E0,0E0,0E0,0E0,0E0],"parents":[2147483647,0,0,1,1,2,2,4,4,5,5,7,7,8,8,9,9],"right_children":[2,4,6,-1,8,10,-1,12,14,16,-1,-1,-1,-1,-1,-1,-1],"split_conditions":[-3.88481E0,1.7786252E0,-3.7138667E0,-2.0984922E-2,-3.9216444E0,-2.01236E0,-2.3021E-2,-1.8929844E0,9.3089557E-1,-1.2914343E0,-2.1385916E-2,2.2508899E-2,1.8171882E-3,1.2319405E-2,-1.6891686E-2,-7.2595286E-3,1.9270672E-2],"split_indices":[11,10,13,0,2,9,0,6,20,2,0,0,0,0,0,0,0],"split_type":[0,0,0,0,0,0,0,0,0,0,0,0,0,0,0,0,0],"sum_hessian":[4.712471E3,2.1826754E1,4.6906445E3,9.352384E0,1.2474371E1,1.2651455E1,4.6779927E3,8.947234E0,3.5271373E0,2.2522457E0,1.0399209E1,7.80813E0,1.1391041E0,2.028075E0,1.4990622E0,1.1119467E0,1.140299E0],"tree_param":{"num_deleted":"0","num_feature":"29","num_nodes":"17","size_leaf_vector":"0"}},{"base_weights":[-1.1447483E0,-1.0691413E-1,-1.1498182E0,6.994653E-1,-2.1347484E-2,-7.340408E-1,-2.3011828E-2,1.0749643E0,2.1683446E-1,3.9985374E-1,-2.084979E-2,2.435159E-2,3.0436185E-3,5.808697E-1,-1.8211022E-2,-3.941711E-3,1.6301617E-2,1.919961E-2,-6.4644758E-3],"categories":[],"categories_nodes":[],"categories_segments":[],"categories_sizes":[],"default_left":[0,0,0,0,0,0,0,0,0,0,0,0,0,0,0,0,0,0,0],"id":68,"left_children":[1,3,5,7,-1,9,-1,11,13,15,-1,-1,-1,17,-1,-1,-1,-1,-1],"loss_changes":[2.474121E1,1.9392357E1,6.6748047E-1,2.248135E0,0E0,4.4357243E0,0E0,7.948284E-1,3.5017703E0,9.488795E-1,0E0,0E0,0E0,2.3963125E0,0E0,0E0,0E0,0E0,0E0],"parents":[2147483647,0,0,1,1,2,2,3,3,5,5,7,7,8,8,9,9,13,13],"right_children":[2,4,6,8,-1,10,-1,12,14,16,-1,-1,-1,18,-1,-1,-1,-1,-1],"split_conditions":[-3.7138667E0,-1.8769474E0,-1.6517591E0,1.6593973E-1,-2.1347484E-2,-1.8769474E0,-2.3011828E-2,-1.5539394E-1,-2.0664883E0,8.793927E-2,-2.084979E-2,2.435159E-2,3.0436185E-3,-3.9216444E0,-1.8211022E-2,-3.941711E-3,1.6301617E-2,1.919961E-2,-6.4644758E-3],"split_indices":[13,9,16,27,0,9,0,5,6,5,0,0,0,2,0,0,0,0,0],"split_type":[0,0,0,0,0,0,0,0,0,0,0,0,0,0,0,0,0,0,0],"sum_hessian":[4.724505E3,2.3074732E1,4.70143E3,1.2691223E1,1.0383509E1,1.0490783E1,4.690939E3,6.4475584E0,6.2436647E0,2.1801076E0,8.310676E0,5.307782E0,1.1397763E0,5.086112E0,1.1575526E0,1.1098782E0,1.0702293E0,3.5399148E0,1.5461972E0],"tree_param":{"num_deleted":"0","num_feature":"29","num_nodes":"19","size_leaf_vector":"0"}},{"base_weights":[-1.1445512E0,1.5861098E-2,-1.1498724E0,-9.9321264E-1,8.2233936E-1,-8.0883944E-1,-2.301303E-2,-2.079719E-2,-5.9952955E-3,2.1146122E-2,3.5217318E-1,6.7282864E-3,-1.0086273E0,7.845326E-1,-9.790457E-3,-3.8648208E-3,-2.1289527E-2,9.978592E-4,2.0762516E-2],"categories":[],"categories_nodes":[],"categories_segments":[],"categories_sizes":[],"default_left":[0,0,0,0,0,0,0,0,0,0,0,0,0,0,0,0,0,0,0],"id":69,"left_children":[1,3,5,7,9,11,-1,-1,-1,-1,13,-1,15,17,-1,-1,-1,-1,-1],"loss_changes":[2.9085938E1,1.9105747E1,3.1347656E-1,2.585888E-2,1.067977E0,3.5531187E0,0E0,0E0,0E0,0E0,2.5107465E0,0E0,3.5031128E-1,7.390444E-1,0E0,0E0,0E0,0E0,0E0],