{"learner": {"attributes": {"best_iteration": "509", "best_ntree_limit": "510"}, "feature_names": ["V1", "V2", "V3", "V4", "V5", "V6", "V7", "V8", "V9", "V10", "V11", "V12", "V13", "V14", "V15", "V16", "V17", "V18", "V19", "V20", "V21", "V22", "V23", "V24", "V25", "V26", "V27", "V28", "normalizedAmount"], "feature_types": ["float", "float", "float", "float", "float", "float", "float", "float", "float", "float", "float", "float", "float", "float", "float", "float", "float", "float", "float", "float", "float", "float", "float", "float", "float", "float", "float", "float", "float"], "gradient_booster": {"model": {"gbtree_model_param": {"num_parallel_tree": "1", "num_trees": "510", "size_leaf_vector": "0"}, "tree_info": [0, 0, 0, 0, 0, 0, 0, 0, 0, 0, 0, 0, 0, 0, 0, 0, 0, 0, 0, 0, 0, 0, 0, 0, 0, 0, 0, 0, 0, 0, 0, 0, 0, 0, 0, 0, 0, 0, 0, 0, 0, 0, 0, 0, 0, 0, 0, 0, 0, 0, 0, 0, 0, 0, 0, 0, 0, 0, 0, 0, 0, 0, 0, 0, 0, 0, 0, 0, 0, 0, 0, 0, 0, 0, 0, 0, 0, 0, 0, 0, 0, 0, 0, 0, 0, 0, 0, 0, 0, 0, 0, 0, 0, 0, 0, 0, 0, 0, 0, 0, 0, 0, 0, 0, 0, 0, 0, 0, 0, 0, 0, 0, 0, 0, 0, 0, 0, 0, 0, 0, 0, 0, 0, 0, 0, 0, 0, 0, 0, 0, 0, 0, 0, 0, 0, 0, 0, 0, 0, 0, 0, 0, 0, 0, 0, 0, 0, 0, 0, 0, 0, 0, 0, 0, 0, 0, 0, 0, 0, 0, 0, 0, 0, 0, 0, 0, 0, 0, 0, 0, 0, 0, 0, 0, 0, 0, 0, 0, 0, 0, 0, 0, 0, 0, 0, 0, 0, 0, 0, 0, 0, 0, 0, 0, 0, 0, 0, 0, 0, 0, 0, 0, 0, 0, 0, 0, 0, 0, 0, 0, 0, 0, 0, 0, 0, 0, 0, 0, 0, 0, 0, 0, 0, 0, 0, 0, 0, 0, 0, 0, 0, 0, 0, 0, 0, 0, 0, 0, 0, 0, 0, 0, 0, 0, 0, 0, 0, 0, 0, 0, 0, 0, 0, 0, 0, 0, 0, 0, 0, 0, 0, 0, 0, 0, 0, 0, 0, 0, 0, 0, 0, 0, 0, 0, 0, 0, 0, 0, 0, 0, 0, 0, 0, 0, 0, 0, 0, 0, 0, 0, 0, 0, 0, 0, 0, 0, 0, 0, 0, 0, 0, 0, 0, 0, 0, 0, 0, 0, 0, 0, 0, 0, 0, 0, 0, 0, 0, 0, 0, 0, 0, 0, 0, 0, 0, 0, 0, 0, 0, 0, 0, 0, 0, 0, 0, 0, 0, 0, 0, 0, 0, 0, 0, 0, 0, 0, 0, 0, 0, 0, 0, 0, 0, 0, 0, 0, 0, 0, 0, 0, 0, 0, 0, 0, 0, 0, 0, 0, 0, 0, 0, 0, 0, 0, 0, 0, 0, 0, 0, 0, 0, 0, 0, 0, 0, 0, 0, 0, 0, 0, 0, 0, 0, 0, 0, 0, 0, 0, 0, 0, 0, 0, 0, 0, 0, 0, 0, 0, 0, 0, 0, 0, 0, 0, 0, 0, 0, 0, 0, 0, 0, 0, 0, 0, 0, 0, 0, 0, 0, 0, 0, 0, 0, 0, 0, 0, 0, 0, 0, 0, 0, 0, 0, 0, 0, 0, 0, 0, 0, 0, 0, 0, 0, 0, 0, 0, 0, 0, 0, 0, 0, 0, 0, 0, 0, 0, 0, 0, 0, 0, 0, 0, 0, 0, 0, 0, 0, 0, 0, 0, 0, 0, 0, 0, 0, 0, 0, 0, 0, 0, 0, 0, 0, 0, 0, 0, 0, 0, 0, 0, 0, 0, 0, 0, 0, 0, 0, 0, 0, 0], "trees": [{"base_weights": [-1.9918214, -0.8148148, -0.006323253, -0.0051293527, 0.0038017556], "categories": [], "categories_nodes": [], "categories_segments": [], "categories_sizes": [], "default_left": [0, 0, 0, 0, 0], "id": 0, "left_children": [1, 3, -1, -1, -1], "loss_changes": [5.407715, 12.880423, 0.0, 0.0, 0.0], "parents": [2147483647, 0, 0, 1, 1], "right_children": [2, 4, -1, -1, -1], "split_conditions": [-2.6194987, 1.0729117, -0.006323253, -0.0051293527, 0.0038017556], "split_indices": [9, 10, 0, 0, 0], "split_type": [0, 0, 0, 0, 0], "sum_hessian": [1466.25, 5.75, 1460.5, 4.25, 1.5], "tree_param": {"num_deleted": "0", "num_feature": "29", "num_nodes": "5", "size_leaf_vector": "0"}}, {"base_weights": [-1.992596], "categories": [], "categories_nodes": [], "categories_segments": [], "categories_sizes": [], "default_left": [0], "id": 1, "left_children": [-1], "loss_changes": [0.0], "parents": [2147483647], "right_children": [-1], "split_conditions": [-0.0023216906], "split_indices": [0], "split_type": [0], "sum_hessian": [539.25], "tree_param": {"num_deleted": "0", "num_feature": "29", "num_nodes": "1", "size_leaf_vector": "0"}}, {"base_weights": [-1.9947329, -1.1044776, -0.017207768, 1.1578947, -0.015900109, -0.0, 0.012631753], "categories": [], "categories_nodes": [], "categories_segments": [], "categories_sizes": [], "default_left": [0, 0, 0, 0, 0, 0, 0], "id": 2, "left_children": [1, 3, -1, 5, -1, -1, -1], "loss_changes": [9.338867, 30.243277, 0.0, 1.6982455, 0.0, 0.0, 0.0], "parents": [2147483647, 0, 0, 1, 1, 3, 3], "right_children": [2, 4, -1, 6, -1, -1, -1], "split_conditions": [-1.8489724, -1.9945164, -0.017207768, -3.4398193, -0.015900109, -0.0, 0.012631753], "split_indices": [11, 15, 0, 5, 0, 0, 0], "split_type": [0, 0, 0, 0, 0, 0, 0], "sum_hessian": [3986.0, 15.75, 3970.25, 3.75, 12.0, 1.0, 2.75], "tree_param": {"num_deleted": "0", "num_feature": "29", "num_nodes": "7", "size_leaf_vector": "0"}}, {"base_weights": [-1.9938171, -0.7514451, -0.046790965, 1.7142857, -1.8677686, -0.0, 0.04322169, -0.04518057, -0.012770046], "categories": [], "categories_nodes": [], "categories_segments": [], "categories_sizes": [], "default_left": [0, 0, 0, 0, 0, 0, 0, 0, 0], "id": 3, "left_children": [1, 3, -1, 5, 7, -1, -1, -1, -1], "loss_changes": [63.03125, 122.24982, 0.0, 3.164837, 1.4296112, 0.0, 0.0, 0.0, 0.0], "parents": [2147483647, 0, 0, 1, 1, 3, 3, 4, 4], "right_children": [2, 4, -1, 6, 8, -1, -1, -1, -1], "split_conditions": [-3.6223547, 0.26100975, -0.046790965, 0.9176897, 1.9997694, -0.0, 0.04322169, -0.04518057, -0.012770046], "split_indices": [13, 6, 0, 3, 3, 0, 0, 0, 0], "split_type": [0, 0, 0, 0, 0, 0, 0, 0, 0], "sum_hessian": [10835.25, 42.25, 10793.0, 13.0, 29.25, 1.0, 12.0, 27.5, 1.75], "tree_param": {"num_deleted": "0", "num_feature": "29", "num_nodes": "9", "size_leaf_vector": "0"}}, {"base_weights": [-1.9937193, -0.7241379, -0.12720022, 1.5704699, -1.7868339, 1.6923077, -0.050913926, -0.2857143, -1.9050847, 0.117340684, 0.31578946, 0.07637089, -0.90909094, -0.014142756, -0.12289567, 0.08485654, -0.057856735, 0.014142756, -0.08236076], "categories": [], "categories_nodes": [], "categories_segments": [], "categories_sizes": [], "default_left": [0, 0, 0, 0, 0, 0, 0, 0, 0, 0, 0, 0, 0, 0, 0, 0, 0, 0, 0], "id": 4, "left_children": [1, 3, -1, 5, 7, 9, -1, 11, 13, -1, 15, -1, 17, -1, -1, -1, -1, -1, -1], "loss_changes": [183.71094, 285.66873, 0.0, 12.112129, 13.612015, 6.870323, 0.0, 7.5740256, 2.7915344, 0.0, 7.1323767, 0.0, 2.6833038, 0.0, 0.0, 0.0, 0.0, 0.0, 0.0], "parents": [2147483647, 0, 0, 1, 1, 3, 3, 4, 4, 5, 5, 7, 7, 8, 8, 10, 10, 12, 12], "right_children": [2, 4, -1, 6, 8, 10, -1, 12, 14, -1, 16, -1, 18, -1, -1, -1, -1, -1, -1], "split_conditions": [-3.5017025, -2.510656, -0.12720022, 1.0255694, -1.8736137, -3.6492317, -0.050913926, 0.9450956, -1.3639102, 0.117340684, 0.25534856, 0.07637089, -0.30866736, -0.014142756, -0.12289567, 0.08485654, -0.057856735, 0.014142756, -0.08236076], "split_indices": [13, 11, 0, 6, 9, 2, 0, 4, 14, 0, 27, 0, 20, 0, 0, 0, 0, 0, 0], "split_type": [0, 0, 0, 0, 0, 0, 0, 0, 0, 0, 0, 0, 0, 0, 0, 0, 0, 0, 0], "sum_hessian": [29454.5, 115.0, 29339.5, 36.25, 78.75, 34.75, 1.5, 6.0, 72.75, 31.0, 3.75, 1.5, 4.5, 1.25, 71.5, 2.0, 1.75, 1.25, 3.25], "tree_param": {"num_deleted": "0", "num_feature": "29", "num_nodes": "19", "size_leaf_vector": "0"}}, {"base_weights": [-1.8131012, -0.6573789, -0.11567773, 1.4409862, -1.630943, 1.5538269, -0.047244325, -0.23748879, -1.7416769, 0.107926235, 0.274592, 0.07393672, -0.8313702, -0.011655714, -0.112404495, 0.080317505, -0.05728892, 0.014908529, -0.076430105], "categories": [], "categories_nodes": [], "categories_segments": [], "categories_sizes": [], "default_left": [0, 0, 0, 0, 0, 0, 0, 0, 0, 0, 0, 0, 0, 0, 0, 0, 0, 0, 0], "id": 5, "left_children": [1, 3, -1, 5, 7, 9, -1, 11, 13, -1, 15, -1, 17, -1, -1, -1, -1, -1, -1], "loss_changes": [151.11719, 237.60715, 0.0, 10.275833, 11.796539, 5.9884033, 0.0, 6.768858, 2.4709625, 0.0, 6.637967, 0.0, 2.4415448, 0.0, 0.0, 0.0, 0.0, 0.0, 0.0], "parents": [2147483647, 0, 0, 1, 1, 3, 3, 4, 4, 5, 5, 7, 7, 8, 8, 10, 10, 12, 12], "right_children": [2, 4, -1, 6, 8, 10, -1, 12, 14, -1, 16, -1, 18, -1, -1, -1, -1, -1, -1], "split_conditions": [-3.5017025, -2.510656, -0.11567773, 1.0255694, -1.8736137, -3.6492317, -0.047244325, 0.9450956, -1.3639102, 0.107926235, 0.25534856, 0.07393672, -0.30866736, -0.011655714, -0.112404495, 0.080317505, -0.05728892, 0.014908529, -0.076430105], "split_indices": [13, 11, 0, 6, 9, 2, 0, 4, 14, 0, 27, 0, 20, 0, 0, 0, 0, 0, 0], "split_type": [0, 0, 0, 0, 0, 0, 0, 0, 0, 0, 0, 0, 0, 0, 0, 0, 0, 0, 0], "sum_hessian": [29162.998, 114.15873, 29048.84, 36.027336, 78.13139, 34.53099, 1.4963436, 5.9833074, 72.14809, 30.787868, 3.7431235, 1.4979028, 4.4854045, 1.2483157, 70.89977, 1.9933685, 1.7497551, 1.2492694, 3.236135], "tree_param": {"num_deleted": "0", "num_feature": "29", "num_nodes": "19", "size_leaf_vector": "0"}}, {"base_weights": [-1.8138855, -0.9885948, -0.015648251, 1.101279, -0.014459682, 0.011927209, 0.0014532495], "categories": [], "categories_nodes": [], "categories_segments": [], "categories_sizes": [], "default_left": [0, 0, 0, 0, 0, 0, 0], "id": 6, "left_children": [1, 3, -1, 5, -1, -1, -1], "loss_changes": [8.05957, 25.813505, 0.0, 1.0167727, 0.0, 0.0, 0.0], "parents": [2147483647, 0, 0, 1, 1, 3, 3], "right_children": [2, 4, -1, 6, -1, -1, -1], "split_conditions": [-1.8489724, -1.9945164, -0.015648251, 0.8255844, -0.014459682, 0.011927209, 0.0014532495], "split_indices": [11, 15, 0, 19, 0, 0, 0], "split_type": [0, 0, 0, 0, 0, 0, 0], "sum_hessian": [3946.501, 15.61132, 3930.8896, 3.728424, 11.882895, 2.4870741, 1.24135], "tree_param": {"num_deleted": "0", "num_feature": "29", "num_nodes": "7", "size_leaf_vector": "0"}}, {"base_weights": [-1.8130283, -0.660597, -0.04255059, 1.6320213, -1.7044168, 0.004665031, 0.041128747, -0.00440814, -0.041286692], "categories": [], "categories_nodes": [], "categories_segments": [], "categories_sizes": [], "default_left": [0, 0, 0, 0, 0, 0, 0, 0, 0], "id": 7, "left_children": [1, 3, -1, 5, 7, -1, -1, -1, -1], "loss_changes": [53.953125, 105.531364, 0.0, 2.141903, 2.3547592, 0.0, 0.0, 0.0, 0.0], "parents": [2147483647, 0, 0, 1, 1, 3, 3, 4, 4], "right_children": [2, 4, -1, 6, 8, -1, -1, -1, -1], "split_conditions": [-3.6223547, -2.1799974, -0.04255059, 1.2782984, -0.7916133, 0.004665031, 0.041128747, -0.00440814, -0.041286692], "split_indices": [13, 9, 0, 10, 21, 0, 0, 0, 0], "split_type": [0, 0, 0, 0, 0, 0, 0, 0, 0], "sum_hessian": [10727.909, 41.936184, 10685.973, 12.943629, 28.992556, 1.2446412, 11.698988, 1.2445511, 27.748005], "tree_param": {"num_deleted": "0", "num_feature": "29", "num_nodes": "9", "size_leaf_vector": "0"}}, {"base_weights": [-1.8110474, -0.7171689, -0.005749724, -0.004662571, 0.003629513], "categories": [], "categories_nodes": [], "categories_segments": [], "categories_sizes": [], "default_left": [0, 0, 0, 0, 0], "id": 8, "left_children": [1, 3, -1, -1, -1], "loss_changes": [4.7631836, 11.108954, 0.0, 0.0, 0.0], "parents": [2147483647, 0, 0, 1, 1], "right_children": [2, 4, -1, -1, -1], "split_conditions": [-2.6194987, 1.0729117, -0.005749724, -0.004662571, 0.003629513], "split_indices": [9, 10, 0, 0, 0], "split_type": [0, 0, 0, 0, 0], "sum_hessian": [1451.7228, 5.704018, 1446.0188, 4.2090554, 1.4949625], "tree_param": {"num_deleted": "0", "num_feature": "29", "num_nodes": "5", "size_leaf_vector": "0"}}, {"base_weights": [-1.8119097], "categories": [], "categories_nodes": [], "categories_segments": [], "categories_sizes": [], "default_left": [0], "id": 9, "left_children": [-1], "loss_changes": [0.0], "parents": [2147483647], "right_children": [-1], "split_conditions": [-0.0021111623], "split_indices": [0], "split_type": [0], "sum_hessian": [533.9033], "tree_param": {"num_deleted": "0", "num_feature": "29", "num_nodes": "1", "size_leaf_vector": "0"}}, {"base_weights": [-1.7580535], "categories": [], "categories_nodes": [], "categories_segments": [], "categories_sizes": [], "default_left": [0], "id": 10, "left_children": [-1], "loss_changes": [0.0], "parents": [2147483647], "right_children": [-1], "split_conditions": [-0.0020484114], "split_indices": [0], "split_type": [0], "sum_hessian": [529.6843], "tree_param": {"num_deleted": "0", "num_feature": "29", "num_nodes": "1", "size_leaf_vector": "0"}}, {"base_weights": [-1.6773401, -0.60230964, -0.10701918, 1.3533566, -1.4962589, 1.5488964, 0.048174657, -0.13333505, -1.6118976, 0.10388696, 0.6714604, 0.066796035, -0.06603584, 0.07548336, -0.7710229, -0.009212567, -0.104100525, 0.07514986, -0.023061104, 0.014920216, -0.07163473], "categories": [], "categories_nodes": [], "categories_segments": [], "categories_sizes": [], "default_left": [0, 0, 0, 0, 0, 0, 0, 0, 0, 0, 0, 0, 0, 0, 0, 0, 0, 0, 0, 0, 0], "id": 11, "left_children": [1, 3, -1, 5, 7, 9, 11, 13, 15, -1, 17, -1, -1, -1, 19, -1, -1, -1, -1, -1, -1], "loss_changes": [128.1875, 199.43164, 0.0, 9.099785, 12.073349, 1.1910019, 7.303891, 6.9622183, 2.2709503, 0.0, 2.750817, 0.0, 0.0, 0.0, 2.2074788, 0.0, 0.0, 0.0, 0.0, 0.0, 0.0], "parents": [2147483647, 0, 0, 1, 1, 3, 3, 4, 4, 5, 5, 6, 6, 7, 7, 8, 8, 10, 10, 14, 14], "right_children": [2, 4, -1, 6, 8, 10, 12, 14, 16, -1, 18, -1, -1, -1, 20, -1, -1, -1, -1, -1, -1], "split_conditions": [-3.5017025, -2.7891164, -0.10701918, -3.6492317, -1.8736137, 1.5556524, 0.25534856, 0.9450956, -1.3639102, 0.10388696, -1.9277705, 0.066796035, -0.06603584, 0.07548336, -0.30866736, -0.009212567, -0.104100525, 0.07514986, -0.023061104, 0.014920216, -0.07163473], "split_indices": [13, 11, 0, 2, 9, 12, 27, 4, 14, 0, 0, 0, 0, 0, 20, 0, 0, 0, 0, 0, 0], "split_type": [0, 0, 0, 0, 0, 0, 0, 0, 0, 0, 0, 0, 0, 0, 0, 0, 0, 0, 0, 0, 0], "sum_hessian": [28410.006, 111.915665, 28298.09, 34.947704, 76.967964, 30.231718, 4.715987, 6.188068, 70.77989, 26.820318, 3.4114, 2.470709, 2.2452781, 1.7361037, 4.4519644, 1.2435129, 69.536385, 2.1901407, 1.2212595, 1.2489551, 3.2030091], "tree_param": {"num_deleted": "0", "num_feature": "29", "num_nodes": "21", "size_leaf_vector": "0"}}, {"base_weights": [-1.7497259, -0.94817984, -0.015094974, 1.0739952, -0.013953289, 0.011690502, 0.0013190632], "categories": [], "categories_nodes": [], "categories_segments": [], "categories_sizes": [], "default_left": [0, 0, 0, 0, 0, 0, 0], "id": 12, "left_children": [1, 3, -1, 5, -1, -1, -1], "loss_changes": [7.5634766, 24.138899, 0.0, 1.0219154, 0.0, 0.0, 0.0], "parents": [2147483647, 0, 0, 1, 1, 3, 3], "right_children": [2, 4, -1, 6, -1, -1, -1], "split_conditions": [-1.8489724, -1.9945164, -0.015094974, 0.8255844, -0.013953289, 0.011690502, 0.0013190632], "split_indices": [11, 15, 0, 19, 0, 0, 0], "split_type": [0, 0, 0, 0, 0, 0, 0], "sum_hessian": [3908.1135, 15.484818, 3892.6287, 3.7127895, 11.772029, 2.4765718, 1.2362176], "tree_param": {"num_deleted": "0", "num_feature": "29", "num_nodes": "7", "size_leaf_vector": "0"}}, {"base_weights": [-1.7289122, -0.62267566, -0.04057744, 1.5700341, -1.6266811, 0.0045487466, 0.03953277, -0.03945054, -0.010130857], "categories": [], "categories_nodes": [], "categories_segments": [], "categories_sizes": [], "default_left": [0, 0, 0, 0, 0, 0, 0, 0, 0], "id": 13, "left_children": [1, 3, -1, 5, 7, -1, -1, -1, -1], "loss_changes": [49.216797, 96.121155, 0.0, 1.9320526, 1.3375854, 0.0, 0.0, 0.0, 0.0], "parents": [2147483647, 0, 0, 1, 1, 3, 3, 4, 4], "right_children": [2, 4, -1, 6, 8, -1, -1, -1, -1], "split_conditions": [-3.6223547, 0.26100975, -0.04057744, -0.38506594, 1.9997694, 0.0045487466, 0.03953277, -0.03945054, -0.010130857], "split_indices": [13, 6, 0, 28, 3, 0, 0, 0, 0], "split_type": [0, 0, 0, 0, 0, 0, 0, 0, 0], "sum_hessian": [10581.849, 41.501717, 10540.347, 12.857548, 28.644169, 1.229438, 11.62811, 26.916418, 1.7277515], "tree_param": {"num_deleted": "0", "num_feature": "29", "num_nodes": "9", "size_leaf_vector": "0"}}, {"base_weights": [-1.7544243, -0.69157344, -0.0055700126, -0.0045178006, 0.0035267696], "categories": [], "categories_nodes": [], "categories_segments": [], "categories_sizes": [], "default_left": [0, 0, 0, 0, 0], "id": 14, "left_children": [1, 3, -1, -1, -1], "loss_changes": [4.4716797, 10.422996, 0.0, 0.0, 0.0], "parents": [2147483647, 0, 0, 1, 1], "right_children": [2, 4, -1, -1, -1], "split_conditions": [-2.6194987, 1.0729117, -0.0055700126, -0.0045178006, 0.0035267696], "split_indices": [9, 10, 0, 0, 0], "split_type": [0, 0, 0, 0, 0], "sum_hessian": [1439.5576, 5.665812, 1433.8918, 4.1762004, 1.4896117], "tree_param": {"num_deleted": "0", "num_feature": "29", "num_nodes": "5", "size_leaf_vector": "0"}}, {"base_weights": [-1.6329147, -0.61701506, -0.0051846686, -0.004187052, 0.003397067], "categories": [], "categories_nodes": [], "categories_segments": [], "categories_sizes": [], "default_left": [0, 0, 0, 0, 0], "id": 15, "left_children": [1, 3, -1, -1, -1], "loss_changes": [4.0898438, 9.187869, 0.0, 0.0, 0.0], "parents": [2147483647, 0, 0, 1, 1], "right_children": [2, 4, -1, -1, -1], "split_conditions": [-2.6194987, 1.0729117, -0.0051846686, -0.004187052, 0.003397067], "split_indices": [9, 10, 0, 0, 0], "split_type": [0, 0, 0, 0, 0], "sum_hessian": [1395.9191, 5.528575, 1390.3904, 4.0549083, 1.473667], "tree_param": {"num_deleted": "0", "num_feature": "29", "num_nodes": "5", "size_leaf_vector": "0"}}, {"base_weights": [-1.6384343], "categories": [], "categories_nodes": [], "categories_segments": [], "categories_sizes": [], "default_left": [0], "id": 16, "left_children": [-1], "loss_changes": [0.0], "parents": [2147483647], "right_children": [-1], "split_conditions": [-0.001909036], "split_indices": [0], "split_type": [0], "sum_hessian": [514.1654], "tree_param": {"num_deleted": "0", "num_feature": "29", "num_nodes": "1", "size_leaf_vector": "0"}}, {"base_weights": [-1.513287, -0.53704613, -1.5171907, 1.1901953, -1.3507502, -1.3122183, -0.09658586, 1.2920079, -0.042341117, -0.15128021, -1.4521414, 0.68003035, -0.09401143, 0.09040918, 0.1971951, 0.067118995, -0.6791046, -0.0072138784, -1.4754362, -0.046019394, 0.108442776, 0.0703952, -0.053605407, 0.014884635, -0.06447779, -0.094778284, -0.030348338], "categories": [], "categories_nodes": [], "categories_segments": [], "categories_sizes": [], "default_left": [0, 0, 0, 0, 0, 0, 0, 0, 0, 0, 0, 0, 0, 0, 0, 0, 0, 0, 0, 0, 0, 0, 0, 0, 0, 0, 0], "id": 17, "left_children": [1, 3, 5, 7, 9, 11, -1, 13, -1, 15, 17, 19, -1, -1, 21, -1, 23, -1, 25, -1, -1, -1, -1, -1, -1, -1, -1], "loss_changes": [100.171875, 152.11922, 0.40234375, 7.4386024, 8.69046, 22.143349, 0.0, 4.4149246, 0.0, 5.0614095, 1.9359283, 9.282335, 0.0, 0.0, 5.34065, 0.0, 1.8704808, 0.0, 0.201828, 0.0, 0.0, 0.0, 0.0, 0.0, 0.0, 0.0, 0.0], "parents": [2147483647, 0, 0, 1, 1, 2, 2, 3, 3, 4, 4, 5, 5, 7, 7, 9, 9, 10, 10, 11, 11, 14, 14, 16, 16, 18, 18], "right_children": [2, 4, 6, 8, 10, 12, -1, 14, -1, 16, 18, 20, -1, -1, 22, -1, 24, -1, 26, -1, -1, -1, -1, -1, -1, -1, -1], "split_conditions": [-3.5017025, -2.510656, -1.6291264, 1.0255694, -1.8736137, -3.046257, -0.09658586, -3.6492317, -0.042341117, 0.9450956, -1.3639102, -0.12273013, -0.09401143, 0.09040918, 0.25534856, 0.067118995, -0.30866736, -0.0072138784, 1.2046602, -0.046019394, 0.108442776, 0.0703952, -0.053605407, 0.014884635, -0.06447779, -0.094778284, -0.030348338], "split_indices": [13, 11, 16, 6, 9, 11, 0, 2, 0, 4, 14, 19, 0, 0, 27, 0, 20, 0, 20, 0, 0, 0, 0, 0, 0, 0, 0], "split_type": [0, 0, 0, 0, 0, 0, 0, 0, 0, 0, 0, 0, 0, 0, 0, 0, 0, 0, 0, 0, 0, 0, 0, 0, 0, 0, 0], "sum_hessian": [26497.969, 106.09035, 26391.879, 33.825855, 72.264496, 63.320305, 26328.559, 32.354237, 1.4716204, 5.826643, 66.43785, 4.603393, 58.71691, 28.687649, 3.6665869, 1.4700327, 4.3566103, 1.2365613, 65.20129, 2.0660083, 2.5373845, 1.9219631, 1.7446238, 1.247263, 3.1093473, 63.828144, 1.3731444], "tree_param": {"num_deleted": "0", "num_feature": "29", "num_nodes": "27", "size_leaf_vector": "0"}}, {"base_weights": [-1.6234335, -0.86339515, -0.014006084, 1.023367, -0.012924416, 0.011343984, 0.0008985356], "categories": [], "categories_nodes": [], "categories_segments": [], "categories_sizes": [], "default_left": [0, 0, 0, 0, 0, 0, 0], "id": 18, "left_children": [1, 3, -1, 5, -1, -1, -1], "loss_changes": [6.6572266, 20.814291, 0.0, 1.1161027, 0.0, 0.0, 0.0], "parents": [2147483647, 0, 0, 1, 1, 3, 3], "right_children": [2, 4, -1, 6, -1, -1, -1], "split_conditions": [-1.8489724, -1.9945164, -0.014006084, 0.8255844, -0.012924416, 0.011343984, 0.0008985356], "split_indices": [11, 15, 0, 19, 0, 0, 0], "split_type": [0, 0, 0, 0, 0, 0, 0], "sum_hessian": [3778.3381, 15.034166, 3763.304, 3.6427858, 11.39138, 2.4321535, 1.2106324], "tree_param": {"num_deleted": "0", "num_feature": "29", "num_nodes": "7", "size_leaf_vector": "0"}}, {"base_weights": [-1.5906295, -0.5490707, -0.037335135, 1.484257, -1.4970785, 0.0042952243, 0.037369493, -0.036357593, -0.009007391], "categories": [], "categories_nodes": [], "categories_segments": [], "categories_sizes": [], "default_left": [0, 0, 0, 0, 0, 0, 0, 0, 0], "id": 19, "left_children": [1, 3, -1, 5, 7, -1, -1, -1, -1], "loss_changes": [42.31836, 81.61072, 0.0, 1.6869965, 1.1795654, 0.0, 0.0, 0.0, 0.0], "parents": [2147483647, 0, 0, 1, 1, 3, 3, 4, 4], "right_children": [2, 4, -1, 6, 8, -1, -1, -1, -1], "split_conditions": [-3.6223547, 0.26100975, -0.037335135, -0.38506594, 1.9997694, 0.0042952243, 0.037369493, -0.036357593, -0.009007391], "split_indices": [13, 6, 0, 28, 3, 0, 0, 0, 0], "split_type": [0, 0, 0, 0, 0, 0, 0, 0, 0], "sum_hessian": [10142.302, 40.18501, 10102.116, 12.598198, 27.586811, 1.2072374, 11.390961, 25.889954, 1.6968585], "tree_param": {"num_deleted": "0", "num_feature": "29", "num_nodes": "9", "size_leaf_vector": "0"}}, {"base_weights": [-1.4889096, -0.4796994, -0.03495081, 0.034750964, -1.4091845, -0.03379567, -0.0075623733], "categories": [], "categories_nodes": [], "categories_segments": [], "categories_sizes": [], "default_left": [0, 0, 0, 0, 0, 0, 0], "id": 20, "left_children": [1, 3, -1, -1, 5, -1, -1], "loss_changes": [37.689453, 73.34967, 0.0, 0.0, 0.54138184, 0.0, 0.0], "parents": [2147483647, 0, 0, 1, 1, 4, 4], "right_children": [2, 4, -1, -1, 6, -1, -1], "split_conditions": [-1.8485826, -2.1799974, -0.03495081, 0.034750964, 0.8168305, -0.03379567, -0.0075623733], "split_indices": [11, 9, 0, 0, 5, 0, 0], "split_type": [0, 0, 0, 0, 0, 0, 0], "sum_hessian": [9596.144, 38.03382, 9558.109, 12.025829, 26.007992, 24.891773, 1.1162199], "tree_param": {"num_deleted": "0", "num_feature": "29", "num_nodes": "7", "size_leaf_vector": "0"}}, {"base_weights": [-1.5409479, -0.55791885, -0.0048930785, 0.0032797086, -0.0039292187], "categories": [], "categories_nodes": [], "categories_segments": [], "categories_sizes": [], "default_left": [0, 0, 0, 0, 0], "id": 21, "left_children": [1, 3, -1, -1, -1], "loss_changes": [3.7861328, 8.195335, 0.0, 0.0, 0.0], "parents": [2147483647, 0, 0, 1, 1], "right_children": [2, 4, -1, -1, -1], "split_conditions": [-3.4179132, -1.4861786, -0.0048930785, 0.0032797086, -0.0039292187], "split_indices": [13, 6, 0, 0, 0], "split_type": [0, 0, 0, 0, 0], "sum_hessian": [1341.7638, 5.358134, 1336.4056, 1.4515907, 3.906543], "tree_param": {"num_deleted": "0", "num_feature": "29", "num_nodes": "5", "size_leaf_vector": "0"}}, {"base_weights": [-1.5476415], "categories": [], "categories_nodes": [], "categories_segments": [], "categories_sizes": [], "default_left": [0], "id": 22, "left_children": [-1], "loss_changes": [0.0], "parents": [2147483647], "right_children": [-1], "split_conditions": [-0.001803248], "split_indices": [0], "split_type": [0], "sum_hessian": [494.92273], "tree_param": {"num_deleted": "0", "num_feature": "29", "num_nodes": "1", "size_leaf_vector": "0"}}, {"base_weights": [-1.4001398, -0.4907772, -1.4038526, 1.0532992, -1.258773, -1.197102, -0.089373335, 1.2768246, 0.04464413, 0.02910648, -1.307211, 0.6547405, -0.08686908, 1.3538309, 0.658236, 0.75446934, -0.65688574, -0.39433503, -1.3425394, -0.4293498, 0.095415086, 0.088564, 0.030794268, 0.071385875, -0.031028006, -0.0041993456, 0.07064288, 0.011698718, -0.07357336, -0.06847602, 0.038912274, -0.086257026, -0.027349196, 0.008971222, -0.050684795], "categories": [], "categories_nodes": [], "categories_segments": [], "categories_sizes": [], "default_left": [0, 0, 0, 0, 0, 0, 0, 0, 0, 0, 0, 0, 0, 0, 0, 0, 0, 0, 0, 0, 0, 0, 0, 0, 0, 0, 0, 0, 0, 0, 0, 0, 0, 0, 0], "id": 23, "left_children": [1, 3, 5, 7, 9, 11, -1, 13, 15, -1, 17, 19, -1, 21, 23, 25, 27, 29, 31, 33, -1, -1, -1, -1, -1, -1, -1, -1, -1, -1, -1, -1, -1, -1, -1], "loss_changes": [80.97656, 119.78465, 0.5703125, 7.5468636, 6.1812363, 19.342827, 0.0, 0.42224503, 4.058204, 0.0, 1.5856781, 5.7783747, 0.0, 0.10097504, 3.20109, 1.2463105, 1.9467958, 3.3036194, 0.15039825, 0.7890925, 0.0, 0.0, 0.0, 0.0, 0.0, 0.0, 0.0, 0.0, 0.0, 0.0, 0.0, 0.0, 0.0, 0.0, 0.0], "parents": [2147483647, 0, 0, 1, 1, 2, 2, 3, 3, 4, 4, 5, 5, 7, 7, 8, 8, 10, 10, 11, 11, 13, 13, 14, 14, 15, 15, 16, 16, 17, 17, 18, 18, 19, 19], "right_children": [2, 4, 6, 8, 10, 12, -1, 14, 16, -1, 18, 20, -1, 22, 24, 26, 28, 30, 32, 34, -1, -1, -1, -1, -1, -1, -1, -1, -1, -1, -1, -1, -1, -1, -1], "split_conditions": [-3.5017025, -2.2077334, -1.6291264, -3.6492317, -1.6305879, -2.3177133, -0.089373335, -1.1086898, 0.18811315, 0.02910648, -1.8736137, 0.19875693, -0.08686908, -3.9612064, 0.38781118, -0.44947082, 1.861091, -1.9597075, 1.2046602, -2.2939682, 0.095415086, 0.088564, 0.030794268, 0.071385875, -0.031028006, -0.0041993456, 0.07064288, 0.011698718, -0.07357336, -0.06847602, 0.038912274, -0.086257026, -0.027349196, 0.008971222, -0.050684795], "split_indices": [13, 9, 16, 2, 6, 15, 0, 8, 27, 0, 9, 19, 0, 2, 24, 23, 10, 2, 20, 13, 0, 0, 0, 0, 0, 0, 0, 0, 0, 0, 0, 0, 0, 0, 0], "split_type": [0, 0, 0, 0, 0, 0, 0, 0, 0, 0, 0, 0, 0, 0, 0, 0, 0, 0, 0, 0, 0, 0, 0, 0, 0, 0, 0, 0, 0, 0, 0, 0, 0, 0, 0], "sum_hessian": [24187.305, 98.89407, 24088.412, 32.72602, 66.16805, 58.352657, 24030.059, 26.571676, 6.154347, 1.5846207, 64.58343, 4.608537, 53.74412, 22.573042, 3.9986336, 3.0215774, 3.1327693, 2.859396, 61.724033, 2.2332633, 2.3752742, 21.059464, 1.5135775, 2.862045, 1.1365887, 1.159712, 1.8618653, 1.4024442, 1.7303252, 1.662741, 1.196655, 60.392406, 1.3316274, 1.1156898, 1.1175734], "tree_param": {"num_deleted": "0", "num_feature": "29", "num_nodes": "35", "size_leaf_vector": "0"}}, {"base_weights": [-1.5285656, -0.80533427, -0.013188012, 0.9477393, -0.012149884, 0.010790466, 0.00035927218], "categories": [], "categories_nodes": [], "categories_segments": [], "categories_sizes": [], "default_left": [0, 0, 0, 0, 0, 0, 0], "id": 24, "left_children": [1, 3, -1, 5, -1, -1, -1], "loss_changes": [5.7998047, 17.792828, 0.0, 1.213439, 0.0, 0.0, 0.0], "parents": [2147483647, 0, 0, 1, 1, 3, 3], "right_children": [2, 4, -1, 6, -1, -1, -1], "split_conditions": [-1.8489724, -1.9945164, -0.013188012, 0.8255844, -0.012149884, 0.010790466, 0.00035927218], "split_indices": [11, 15, 0, 19, 0, 0, 0], "split_type": [0, 0, 0, 0, 0, 0, 0], "sum_hessian": [3616.9958, 14.50564, 3602.4902, 3.5782337, 10.927406, 2.3903644, 1.1878693], "tree_param": {"num_deleted": "0", "num_feature": "29", "num_nodes": "7", "size_leaf_vector": "0"}}, {"base_weights": [-1.3270701, -0.44895846, -1.3307358, 1.0320696, -1.1511854, -1.1207588, -0.08472078, 1.2001178, 0.038364857, -0.061646424, -1.2589058, 0.6154591, -0.08221205, 1.2867721, 0.39417413, 0.056221977, -0.054158464, 0.062574744, -0.5754455, -0.0006673486, -1.2849926, -0.038137008, 0.089218244, 0.084145136, 0.029357143, 0.058777213, -0.03252142, 0.013560116, -0.05887743, -1.3150866, -0.63262206, -0.032476384, -0.08481625, -0.063205585, 0.019106874], "categories": [], "categories_nodes": [], "categories_segments": [], "categories_sizes": [], "default_left": [0, 0, 0, 0, 0, 0, 0, 0, 0, 0, 0, 0, 0, 0, 0, 0, 0, 0, 0, 0, 0, 0, 0, 0, 0, 0, 0, 0, 0, 0, 0, 0, 0, 0, 0], "id": 25, "left_children": [1, 3, 5, 7, 9, 11, -1, 13, 15, 17, 19, 21, -1, 23, 25, -1, -1, -1, 27, -1, 29, -1, -1, -1, -1, -1, -1, -1, -1, 31, 33, -1, -1, -1, -1], "loss_changes": [70.4375, 98.168, 0.65234375, 5.050476, 7.4019165, 17.077187, 0.0, 1.3136292, 4.8459115, 4.2085, 1.8735809, 6.184029, 0.0, 0.06480789, 2.3755922, 0.0, 0.0, 0.0, 1.625231, 0.0, 0.28216553, 0.0, 0.0, 0.0, 0.0, 0.0, 0.0, 0.0, 0.0, 0.07575226, 1.7877754, 0.0, 0.0, 0.0, 0.0], "parents": [2147483647, 0, 0, 1, 1, 2, 2, 3, 3, 4, 4, 5, 5, 7, 7, 8, 8, 9, 9, 10, 10, 11, 11, 13, 13, 14, 14, 18, 18, 20, 20, 29, 29, 30, 30], "right_children": [2, 4, 6, 8, 10, 12, -1, 14, 16, 18, 20, 22, -1, 24, 26, -1, -1, -1, 28, -1, 30, -1, -1, -1, -1, -1, -1, -1, -1, 32, 34, -1, -1, -1, -1], "split_conditions": [-3.5017025, -2.7891164, -1.6291264, -3.6492317, -1.8736137, -3.046257, -0.08472078, 1.5556524, 0.25534856, 0.9450956, -1.3639102, -0.12273013, -0.08221205, -3.9612064, 0.25020322, 0.056221977, -0.054158464, 0.062574744, -0.84644115, -0.0006673486, 0.17223927, -0.038137008, 0.089218244, 0.084145136, 0.029357143, 0.058777213, -0.03252142, 0.013560116, -0.05887743, -0.3495379, -0.15824616, -0.032476384, -0.08481625, -0.063205585, 0.019106874], "split_indices": [13, 11, 16, 2, 9, 11, 0, 12, 27, 4, 14, 19, 0, 2, 24, 0, 0, 0, 12, 0, 20, 0, 0, 0, 0, 0, 0, 0, 0, 28, 25, 0, 0, 0, 0], "split_type": [0, 0, 0, 0, 0, 0, 0, 0, 0, 0, 0, 0, 0, 0, 0, 0, 0, 0, 0, 0, 0, 0, 0, 0, 0, 0, 0, 0, 0, 0, 0, 0, 0, 0, 0], "sum_hessian": [22067.094, 92.24831, 21974.846, 29.519869, 62.72844, 53.834606, 21921.012, 25.07213, 4.4477396, 5.785294, 56.943146, 4.594325, 49.24028, 22.099417, 2.9727125, 2.284106, 2.1636338, 1.6058911, 4.179403, 1.1942208, 55.748924, 1.8990428, 2.695282, 20.614166, 1.485251, 1.8629113, 1.1098012, 1.4040499, 2.775353, 52.319553, 3.4293702, 1.7624431, 50.55711, 2.4268417, 1.0025282], "tree_param": {"num_deleted": "0", "num_feature": "29", "num_nodes": "35", "size_leaf_vector": "0"}}, {"base_weights": [-1.4670843, -0.7582887, -0.012658235, 0.9120233, -0.011629273, 0.010622302, -6.102843e-05], "categories": [], "categories_nodes": [], "categories_segments": [], "categories_sizes": [], "default_left": [0, 0, 0, 0, 0, 0, 0], "id": 26, "left_children": [1, 3, -1, 5, -1, -1, -1], "loss_changes": [5.4282227, 16.10368, 0.0, 1.3473799, 0.0, 0.0, 0.0], "parents": [2147483647, 0, 0, 1, 1, 3, 3], "right_children": [2, 4, -1, 6, -1, -1, -1], "split_conditions": [-1.8489724, -1.9945164, -0.012658235, 0.8255844, -0.011629273, 0.010622302, -6.102843e-05], "split_indices": [11, 15, 0, 19, 0, 0, 0], "split_type": [0, 0, 0, 0, 0, 0, 0], "sum_hessian": [3473.164, 14.04078, 3459.1233, 3.532622, 10.508158, 2.3641882, 1.168434], "tree_param": {"num_deleted": "0", "num_feature": "29", "num_nodes": "7", "size_leaf_vector": "0"}}, {"base_weights": [-1.4224488, -0.42502373, -0.03339508, 0.034119435, -1.3446202, -0.032291833, -0.0067861206], "categories": [], "categories_nodes": [], "categories_segments": [], "categories_sizes": [], "default_left": [0, 0, 0, 0, 0, 0, 0], "id": 27, "left_children": [1, 3, -1, -1, 5, -1, -1], "loss_changes": [35.472656, 66.95609, 0.0, 0.0, 0.5419235, 0.0, 0.0], "parents": [2147483647, 0, 0, 1, 1, 4, 4], "right_children": [2, 4, -1, -1, 6, -1, -1], "split_conditions": [-1.8485826, -2.1799974, -0.03339508, 0.034119435, 0.8168305, -0.032291833, -0.0067861206], "split_indices": [11, 9, 0, 0, 5, 0, 0], "split_type": [0, 0, 0, 0, 0, 0, 0], "sum_hessian": [9098.64, 36.547718, 9062.093, 11.802846, 24.744873, 23.659273, 1.0855987], "tree_param": {"num_deleted": "0", "num_feature": "29", "num_nodes": "7", "size_leaf_vector": "0"}}, {"base_weights": [-1.4816376, -0.4996218, -0.004705393, 0.0033057071, -0.00375678], "categories": [], "categories_nodes": [], "categories_segments": [], "categories_sizes": [], "default_left": [0, 0, 0, 0, 0], "id": 28, "left_children": [1, 3, -1, -1, -1], "loss_changes": [3.8234863, 7.827573, 0.0, 0.0, 0.0], "parents": [2147483647, 0, 0, 1, 1], "right_children": [2, 4, -1, -1, -1], "split_conditions": [-3.4179132, -1.4861786, -0.004705393, 0.0033057071, -0.00375678], "split_indices": [13, 6, 0, 0, 0], "split_type": [0, 0, 0, 0, 0], "sum_hessian": [1294.1143, 5.2242208, 1288.8901, 1.44782, 3.7764006], "tree_param": {"num_deleted": "0", "num_feature": "29", "num_nodes": "5", "size_leaf_vector": "0"}}, {"base_weights": [-1.4893644], "categories": [], "categories_nodes": [], "categories_segments": [], "categories_sizes": [], "default_left": [0], "id": 29, "left_children": [-1], "loss_changes": [0.0], "parents": [2147483647], "right_children": [-1], "split_conditions": [-0.0017353458], "split_indices": [0], "split_type": [0], "sum_hessian": [478.07532], "tree_param": {"num_deleted": "0", "num_feature": "29", "num_nodes": "1", "size_leaf_vector": "0"}}, {"base_weights": [-1.4631548], "categories": [], "categories_nodes": [], "categories_segments": [], "categories_sizes": [], "default_left": [0], "id": 30, "left_children": [-1], "loss_changes": [0.0], "parents": [2147483647], "right_children": [-1], "split_conditions": [-0.0017048075], "split_indices": [0], "split_type": [0], "sum_hessian": [469.12045], "tree_param": {"num_deleted": "0", "num_feature": "29", "num_nodes": "1", "size_leaf_vector": "0"}}, {"base_weights": [-1.4373181, -0.74297106, -0.012401519, 0.8808242, -0.011405181, 0.010360512, -0.00021846965], "categories": [], "categories_nodes": [], "categories_segments": [], "categories_sizes": [], "default_left": [0, 0, 0, 0, 0, 0, 0], "id": 31, "left_children": [1, 3, -1, 5, -1, -1, -1], "loss_changes": [5.0908203, 15.130377, 0.0, 1.3442445, 0.0, 0.0, 0.0], "parents": [2147483647, 0, 0, 1, 1, 3, 3], "right_children": [2, 4, -1, 6, -1, -1, -1], "split_conditions": [-1.8489724, -1.9945164, -0.012401519, 0.8255844, -0.011405181, 0.010360512, -0.00021846965], "split_indices": [11, 15, 0, 19, 0, 0, 0], "split_type": [0, 0, 0, 0, 0, 0, 0], "sum_hessian": [3389.9026, 13.794229, 3376.1082, 3.5004482, 10.29378, 2.340847, 1.1596013], "tree_param": {"num_deleted": "0", "num_feature": "29", "num_nodes": "7", "size_leaf_vector": "0"}}, {"base_weights": [-1.284506, -0.42236474, -1.2881651, 0.9381773, -1.1234925, -1.0736766, -0.08201238, 1.1533557, 0.041407097, 0.028120412, -1.1732914, 0.57878244, -0.07938833, 1.2319282, 0.5613012, -0.06128061, 0.4731204, -0.31569037, -1.2108864, -0.036924858, 0.08377937, 0.08085103, 0.026664503, 0.06474941, -0.029939545, 0.07141698, -0.34547395, 0.03851845, -0.061560165, -0.08187253, -0.78764147, 0.025168786, -0.056276977, -1.0854629, 0.18076894, -0.017301094, -0.07376553, 0.064824186, -0.047984987], "categories": [], "categories_nodes": [], "categories_segments": [], "categories_sizes": [], "default_left": [0, 0, 0, 0, 0, 0, 0, 0, 0, 0, 0, 0, 0, 0, 0, 0, 0, 0, 0, 0, 0, 0, 0, 0, 0, 0, 0, 0, 0, 0, 0, 0, 0, 0, 0, 0, 0, 0, 0], "id": 32, "left_children": [1, 3, 5, 7, 9, 11, -1, 13, 15, -1, 17, 19, -1, 21, 23, -1, 25, 27, 29, -1, -1, -1, -1, -1, -1, -1, 31, -1, -1, -1, 33, -1, -1, 35, 37, -1, -1, -1, -1], "loss_changes": [64.25, 85.27457, 0.71484375, 5.85124, 5.0957413, 15.514507, 0.0, 0.4536934, 3.4701734, 0.0, 1.46138, 5.538302, 0.0, 0.121198654, 2.7002587, 0.0, 3.3274908, 2.8381326, 0.72737885, 0.0, 0.0, 0.0, 0.0, 0.0, 0.0, 0.0, 1.6318309, 0.0, 0.0, 0.0, 3.3179927, 0.0, 0.0, 0.18916798, 3.433026, 0.0, 0.0, 0.0, 0.0], "parents": [2147483647, 0, 0, 1, 1, 2, 2, 3, 3, 4, 4, 5, 5, 7, 7, 8, 8, 10, 10, 11, 11, 13, 13, 14, 14, 16, 16, 17, 17, 18, 18, 26, 26, 30, 30, 33, 33, 34, 34], "right_children": [2, 4, 6, 8, 10, 12, -1, 14, 16, -1, 18, 20, -1, 22, 24, -1, 26, 28, 30, -1, -1, -1, -1, -1, -1, -1, 32, -1, -1, -1, 34, -1, -1, 36, 38, -1, -1, -1, -1], "split_conditions": [-3.5017025, -2.2077334, -1.6291264, -3.6492317, -1.6305879, -3.046257, -0.08201238, -1.1086898, -2.5145829, 0.028120412, -1.8736137, -0.12273013, -0.07938833, -3.9612064, 0.38781118, -0.06128061, -0.062702574, -0.30440578, 4.055379, -0.036924858, 0.08377937, 0.08085103, 0.026664503, 0.06474941, -0.029939545, 0.07141698, 0.018303467, 0.03851845, -0.061560165, -0.08187253, -0.16968644, 0.025168786, -0.056276977, -2.2802653, 0.06812516, -0.017301094, -0.07376553, 0.064824186, -0.047984987], "split_indices": [13, 9, 16, 2, 6, 11, 0, 8, 8, 0, 9, 19, 0, 2, 24, 0, 21, 25, 3, 0, 0, 0, 0, 0, 0, 0, 27, 0, 0, 0, 20, 0, 0, 8, 7, 0, 0, 0, 0], "split_type": [0, 0, 0, 0, 0, 0, 0, 0, 0, 0, 0, 0, 0, 0, 0, 0, 0, 0, 0, 0, 0, 0, 0, 0, 0, 0, 0, 0, 0, 0, 0, 0, 0, 0, 0, 0, 0, 0, 0], "sum_hessian": [20537.516, 87.289474, 20450.227, 29.570217, 57.71926, 50.52549, 20399.701, 23.617193, 5.953025, 1.5369009, 56.182358, 4.584968, 45.940525, 19.895992, 3.7211995, 1.419784, 4.5332413, 2.7540917, 53.42827, 1.8661928, 2.7187753, 18.459822, 1.4361713, 2.5901062, 1.131093, 2.3216407, 2.2116003, 1.1706746, 1.5834172, 43.604313, 9.823956, 1.0431184, 1.168482, 7.4208903, 2.4030652, 1.0049698, 6.4159203, 1.2199597, 1.1831053], "tree_param": {"num_deleted": "0", "num_feature": "29", "num_nodes": "39", "size_leaf_vector": "0"}}, {"base_weights": [-1.3871975, -0.41230762, -0.03256983, 1.3602827, -1.2952023, 0.0037961155, 0.034230724, -0.031713314, -0.005798139], "categories": [], "categories_nodes": [], "categories_segments": [], "categories_sizes": [], "default_left": [0, 0, 0, 0, 0, 0, 0, 0, 0], "id": 33, "left_children": [1, 3, -1, 5, 7, -1, -1, -1, -1], "loss_changes": [33.46289, 59.80617, 0.0, 1.3269958, 1.2365799, 0.0, 0.0, 0.0, 0.0], "parents": [2147483647, 0, 0, 1, 1, 3, 3, 4, 4], "right_children": [2, 4, -1, 6, 8, -1, -1, -1, -1], "split_conditions": [-3.6223547, 0.26100975, -0.03256983, -0.38506594, 1.9997694, 0.0037961155, 0.034230724, -0.031713314, -0.005798139], "split_indices": [13, 6, 0, 28, 3, 0, 0, 0, 0], "split_type": [0, 0, 0, 0, 0, 0, 0, 0, 0], "sum_hessian": [8777.866, 36.088783, 8741.777, 11.81901, 24.269772, 1.1289212, 10.690089, 22.690298, 1.579473], "tree_param": {"num_deleted": "0", "num_feature": "29", "num_nodes": "9", "size_leaf_vector": "0"}}, {"base_weights": [-1.4544216, -0.48432228, -0.004619084, 0.003227909, -0.0036745877], "categories": [], "categories_nodes": [], "categories_segments": [], "categories_sizes": [], "default_left": [0, 0, 0, 0, 0], "id": 34, "left_children": [1, 3, -1, -1, -1], "loss_changes": [3.68042, 7.418156, 0.0, 0.0, 0.0], "parents": [2147483647, 0, 0, 1, 1], "right_children": [2, 4, -1, -1, -1], "split_conditions": [-3.4179132, -1.4861786, -0.004619084, 0.003227909, -0.0036745877], "split_indices": [13, 6, 0, 0, 0], "split_type": [0, 0, 0, 0, 0], "sum_hessian": [1268.1201, 5.141447, 1262.9788, 1.4365767, 3.7048705], "tree_param": {"num_deleted": "0", "num_feature": "29", "num_nodes": "5", "size_leaf_vector": "0"}}, {"base_weights": [-1.3953384, -0.43034145, -0.0044321003, 0.0031628371, -0.0034900783], "categories": [], "categories_nodes": [], "categories_segments": [], "categories_sizes": [], "default_left": [0, 0, 0, 0, 0], "id": 35, "left_children": [1, 3, -1, -1, -1], "loss_changes": [3.6054688, 6.80189, 0.0, 0.0, 0.0], "parents": [2147483647, 0, 0, 1, 1], "right_children": [2, 4, -1, -1, -1], "split_conditions": [-3.4179132, -1.4861786, -0.0044321003, 0.0031628371, -0.0034900783], "split_indices": [13, 6, 0, 0, 0], "split_type": [0, 0, 0, 0, 0], "sum_hessian": [1201.5077, 4.9456573, 1196.562, 1.4252094, 3.520448], "tree_param": {"num_deleted": "0", "num_feature": "29", "num_nodes": "5", "size_leaf_vector": "0"}}, {"base_weights": [-1.4043907], "categories": [], "categories_nodes": [], "categories_segments": [], "categories_sizes": [], "default_left": [0], "id": 36, "left_children": [-1], "loss_changes": [0.0], "parents": [2147483647], "right_children": [-1], "split_conditions": [-0.0016363381], "split_indices": [0], "split_type": [0], "sum_hessian": [445.41025], "tree_param": {"num_deleted": "0", "num_feature": "29", "num_nodes": "1", "size_leaf_vector": "0"}}, {"base_weights": [-1.3779519, -0.6974332, -0.011890044, 0.8340323, -0.010889832, 0.010082086, -0.0006955101], "categories": [], "categories_nodes": [], "categories_segments": [], "categories_sizes": [], "default_left": [0, 0, 0, 0, 0, 0, 0], "id": 37, "left_children": [1, 3, -1, 5, -1, -1, -1], "loss_changes": [4.6777344, 13.3451, 0.0, 1.4576509, 0.0, 0.0, 0.0], "parents": [2147483647, 0, 0, 1, 1, 3, 3], "right_children": [2, 4, -1, 6, -1, -1, -1], "split_conditions": [-1.8489724, -1.9945164, -0.011890044, 0.8255844, -0.010889832, 0.010082086, -0.0006955101], "split_indices": [11, 15, 0, 19, 0, 0, 0], "split_type": [0, 0, 0, 0, 0, 0, 0], "sum_hessian": [3192.616, 13.154551, 3179.4612, 3.4269714, 9.727579, 2.3007476, 1.1262238], "tree_param": {"num_deleted": "0", "num_feature": "29", "num_nodes": "7", "size_leaf_vector": "0"}}, {"base_weights": [-1.2285616, -0.39568904, -1.2322158, 0.9156066, -1.0344241, -1.0050352, -0.078453965, 1.0849545, 0.007816923, -0.023703923, -1.1475626, 0.55589354, -0.07558255, 1.1794826, 0.27768406, 0.051701073, -0.051451873, 0.0588715, -0.49756166, 0.0035335592, -1.177452, -0.3454081, 0.076567516, 0.077467084, 0.025141804, 0.051903, -0.034470987, 0.017776215, -0.052213505, -1.2123913, -0.4956223, 0.011752876, -0.045391, -0.02666501, -0.07839364, 0.017800426, -0.055344403], "categories": [], "categories_nodes": [], "categories_segments": [], "categories_sizes": [], "default_left": [0, 0, 0, 0, 0, 0, 0, 0, 0, 0, 0, 0, 0, 0, 0, 0, 0, 0, 0, 0, 0, 0, 0, 0, 0, 0, 0, 0, 0, 0, 0, 0, 0, 0, 0, 0, 0], "id": 38, "left_children": [1, 3, 5, 7, 9, 11, -1, 13, 15, 17, 19, 21, -1, 23, 25, -1, -1, -1, 27, -1, 29, 31, -1, -1, -1, -1, -1, -1, -1, 33, 35, -1, -1, -1, -1, -1, -1], "loss_changes": [54.67578, 68.49576, 0.875, 4.1341267, 6.2279778, 13.83979, 0.0, 1.4049397, 4.100564, 3.394977, 1.8336258, 3.6377838, 0.0, 0.11171532, 2.0668085, 0.0, 0.0, 0.0, 1.4841915, 0.0, 0.54322815, 0.7333226, 0.0, 0.0, 0.0, 0.0, 0.0, 0.0, 0.0, 0.17616272, 1.4125159, 0.0, 0.0, 0.0, 0.0, 0.0, 0.0], "parents": [2147483647, 0, 0, 1, 1, 2, 2, 3, 3, 4, 4, 5, 5, 7, 7, 8, 8, 9, 9, 10, 10, 11, 11, 13, 13, 14, 14, 18, 18, 20, 20, 21, 21, 29, 29, 30, 30], "right_children": [2, 4, 6, 8, 10, 12, -1, 14, 16, 18, 20, 22, -1, 24, 26, -1, -1, -1, 28, -1, 30, 32, -1, -1, -1, -1, -1, -1, -1, 34, 36, -1, -1, -1, -1, -1, -1], "split_conditions": [-3.5017025, -2.7891164, -1.6291264, -3.6492317, -1.8736137, -2.3177133, -0.078453965, 1.5556524, 0.25534856, 0.9450956, -1.3639102, 0.19875693, -0.07558255, -3.9612064, 0.25020322, 0.051701073, -0.051451873, 0.0588715, -0.30866736, 0.0035335592, 0.17223927, -2.2939682, 0.076567516, 0.077467084, 0.025141804, 0.051903, -0.034470987, 0.017776215, -0.052213505, -0.3495379, -0.869012, 0.011752876, -0.045391, -0.02666501, -0.07839364, 0.017800426, -0.055344403], "split_indices": [13, 11, 16, 2, 9, 15, 0, 12, 27, 4, 14, 19, 0, 2, 24, 0, 0, 0, 20, 0, 20, 13, 0, 0, 0, 0, 0, 0, 0, 28, 11, 0, 0, 0, 0, 0, 0], "split_type": [0, 0, 0, 0, 0, 0, 0, 0, 0, 0, 0, 0, 0, 0, 0, 0, 0, 0, 0, 0, 0, 0, 0, 0, 0, 0, 0, 0, 0, 0, 0, 0, 0, 0, 0, 0, 0], "sum_hessian": [18124.379, 79.64828, 18044.73, 25.946913, 53.701366, 45.24569, 17999.484, 21.703056, 4.2438574, 5.527861, 48.173504, 4.5239534, 40.721737, 19.01536, 2.6876965, 2.1396766, 2.1041806, 1.5241429, 4.0037184, 1.1470162, 47.02649, 2.0856814, 2.438272, 17.616068, 1.3992918, 1.6253307, 1.0623658, 1.2150012, 2.788717, 43.993942, 3.0325475, 1.0583458, 1.0273356, 1.5889428, 42.405, 1.0688589, 1.9636887], "tree_param": {"num_deleted": "0", "num_feature": "29", "num_nodes": "37", "size_leaf_vector": "0"}}, {"base_weights": [-1.3275772, -0.35490224, -0.031174056, 0.032112963, -1.2471803, -0.0300911, -0.004732313], "categories": [], "categories_nodes": [], "categories_segments": [], "categories_sizes": [], "default_left": [0, 0, 0, 0, 0, 0, 0], "id": 39, "left_children": [1, 3, -1, -1, 5, -1, -1], "loss_changes": [30.992188, 54.836327, 0.0, 0.0, 0.666729, 0.0, 0.0], "parents": [2147483647, 0, 0, 1, 1, 4, 4], "right_children": [2, 4, -1, -1, 6, -1, -1], "split_conditions": [-1.8485826, -2.1799974, -0.031174056, 0.032112963, 0.2356215, -0.0300911, -0.004732313], "split_indices": [11, 9, 0, 0, 25, 0, 0], "split_type": [0, 0, 0, 0, 0, 0, 0], "sum_hessian": [8129.003, 33.484306, 8095.5186, 11.225553, 22.258755, 21.253616, 1.0051379], "tree_param": {"num_deleted": "0", "num_feature": "29", "num_nodes": "7", "size_leaf_vector": "0"}}, {"base_weights": [-1.2797518, -0.31562597, -0.030055383, 0.031151844, -1.1979214, -0.005686351, -0.028984841], "categories": [], "categories_nodes": [], "categories_segments": [], "categories_sizes": [], "default_left": [0, 0, 0, 0, 0, 0, 0], "id": 40, "left_children": [1, 3, -1, -1, 5, -1, -1], "loss_changes": [28.65625, 48.740387, 0.0, 0.0, 0.52931595, 0.0, 0.0], "parents": [2147483647, 0, 0, 1, 1, 4, 4], "right_children": [2, 4, -1, -1, 6, -1, -1], "split_conditions": [-1.8485826, -2.1799974, -0.030055383, 0.031151844, -0.5946991, -0.005686351, -0.028984841], "split_indices": [11, 9, 0, 0, 26, 0, 0], "split_type": [0, 0, 0, 0, 0, 0, 0], "sum_hessian": [7493.868, 31.459614, 7462.408, 10.8001, 20.659513, 1.1173849, 19.54213], "tree_param": {"num_deleted": "0", "num_feature": "29", "num_nodes": "7", "size_leaf_vector": "0"}}, {"base_weights": [-1.3468064, -0.3853841, -0.0042785197, 0.0030853183, -0.0033263757], "categories": [], "categories_nodes": [], "categories_segments": [], "categories_sizes": [], "default_left": [0, 0, 0, 0, 0], "id": 41, "left_children": [1, 3, -1, -1, -1], "loss_changes": [3.4980469, 6.1987247, 0.0, 0.0, 0.0], "parents": [2147483647, 0, 0, 1, 1], "right_children": [2, 4, -1, -1, -1], "split_conditions": [-3.4179132, -1.4861786, -0.0042785197, 0.0030853183, -0.0033263757], "split_indices": [13, 6, 0, 0, 0], "split_type": [0, 0, 0, 0, 0], "sum_hessian": [1134.4615, 4.7302985, 1129.7312, 1.4004751, 3.3298233], "tree_param": {"num_deleted": "0", "num_feature": "29", "num_nodes": "5", "size_leaf_vector": "0"}}, {"base_weights": [-1.3560263], "categories": [], "categories_nodes": [], "categories_segments": [], "categories_sizes": [], "default_left": [0], "id": 42, "left_children": [-1], "loss_changes": [0.0], "parents": [2147483647], "right_children": [-1], "split_conditions": [-0.0015799858], "split_indices": [0], "split_type": [0], "sum_hessian": [421.50427], "tree_param": {"num_deleted": "0", "num_feature": "29", "num_nodes": "1", "size_leaf_vector": "0"}}, {"base_weights": [-1.3294979, -0.6661816, -0.0114723975, 0.77730197, -0.0104671065, 0.009723997, -0.0011923505], "categories": [], "categories_nodes": [], "categories_segments": [], "categories_sizes": [], "default_left": [0, 0, 0, 0, 0, 0, 0], "id": 43, "left_children": [1, 3, -1, 5, -1, -1, -1], "loss_changes": [4.1938477, 11.649448, 0.0, 1.5515566, 0.0, 0.0, 0.0], "parents": [2147483647, 0, 0, 1, 1, 3, 3], "right_children": [2, 4, -1, 6, -1, -1, -1], "split_conditions": [-1.8489724, -1.9945164, -0.0114723975, 0.8255844, -0.0104671065, 0.009723997, -0.0011923505], "split_indices": [11, 15, 0, 19, 0, 0, 0], "split_type": [0, 0, 0, 0, 0, 0, 0], "sum_hessian": [2995.3447, 12.504401, 2982.8403, 3.3315856, 9.172815, 2.2387369, 1.0928488], "tree_param": {"num_deleted": "0", "num_feature": "29", "num_nodes": "7", "size_leaf_vector": "0"}}, {"base_weights": [-1.1856319, -0.36497155, -1.1893446, 0.8141973, -0.9993198, -0.95132893, -0.07572769, 1.0254711, 0.034380015, -1.0683286, 0.2573218, 0.5260543, -0.0726097, 1.1189007, 0.4444161, 0.060622238, -0.37387952, -0.20838933, -1.1113836, 0.049015895, -0.019799475, -0.031102851, 0.07173824, 0.07390391, 0.023106784, -0.03397421, 0.05715159, -0.7934656, 0.041889317, -0.05382413, 0.036631398, -0.075188234, -0.723287, -0.0040435563, -0.067036904, -0.07775302, -0.06640486, -0.049643338, 0.046895213], "categories": [], "categories_nodes": [], "categories_segments": [], "categories_sizes": [], "default_left": [0, 0, 0, 0, 0, 0, 0, 0, 0, 0, 0, 0, 0, 0, 0, 0, 0, 0, 0, 0, 0, 0, 0, 0, 0, 0, 0, 0, 0, 0, 0, 0, 0, 0, 0, 0, 0, 0, 0], "id": 44, "left_children": [1, 3, 5, 7, 9, 11, -1, 13, 15, 17, 19, 21, -1, 23, 25, -1, 27, 29, 31, -1, -1, -1, -1, -1, -1, -1, -1, 33, -1, -1, -1, -1, 35, -1, -1, 37, -1, -1, -1], "loss_changes": [48.03711, 55.483032, 0.9375, 4.267496, 4.4349174, 12.200916, 0.0, 0.6164112, 2.8308673, 1.4592361, 1.202526, 3.8419628, 0.0, 0.12280464, 2.476389, 0.0, 2.8122263, 2.189721, 0.32128525, 0.0, 0.0, 0.0, 0.0, 0.0, 0.0, 0.0, 0.0, 0.73223424, 0.0, 0.0, 0.0, 0.0, 1.8183384, 0.0, 0.0, 2.936141, 0.0, 0.0, 0.0], "parents": [2147483647, 0, 0, 1, 1, 2, 2, 3, 3, 4, 4, 5, 5, 7, 7, 8, 8, 9, 9, 10, 10, 11, 11, 13, 13, 14, 14, 16, 16, 17, 17, 18, 18, 27, 27, 32, 32, 35, 35], "right_children": [2, 4, 6, 8, 10, 12, -1, 14, 16, 18, 20, 22, -1, 24, 26, -1, 28, 30, 32, -1, -1, -1, -1, -1, -1, -1, -1, 34, -1, -1, -1, -1, 36, -1, -1, 38, -1, -1, -1], "split_conditions": [-3.5017025, -2.2077334, -1.6291264, -3.6492317, 1.2046602, -3.046257, -0.07572769, -1.5074182, -0.48298767, -1.8736137, -1.6305879, -0.12273013, -0.0726097, -3.9612064, -0.20714635, 0.060622238, -0.9060367, -1.9597075, 4.055379, 0.049015895, -0.019799475, -0.031102851, 0.07173824, 0.07390391, 0.023106784, -0.03397421, 0.05715159, 0.25534856, 0.041889317, -0.05382413, 0.036631398, -0.075188234, 0.05212127, -0.0040435563, -0.067036904, -0.43630978, -0.06640486, -0.049643338, 0.046895213], "split_indices": [13, 9, 16, 2, 20, 11, 0, 6, 25, 9, 6, 19, 0, 2, 22, 0, 5, 2, 3, 0, 0, 0, 0, 0, 0, 0, 0, 27, 0, 0, 0, 0, 14, 0, 0, 23, 0, 0, 0], "split_type": [0, 0, 0, 0, 0, 0, 0, 0, 0, 0, 0, 0, 0, 0, 0, 0, 0, 0, 0, 0, 0, 0, 0, 0, 0, 0, 0, 0, 0, 0, 0, 0, 0, 0, 0, 0, 0, 0, 0], "sum_hessian": [15906.876, 72.08706, 15834.789, 25.116085, 46.97097, 40.420742, 15794.368, 19.514154, 5.601931, 44.667873, 2.3030958, 4.39494, 36.025803, 16.013634, 3.5005198, 1.3138757, 4.2880554, 2.4082263, 42.259647, 1.0241473, 1.2789485, 1.7045861, 2.6903536, 14.656315, 1.3573197, 1.0528989, 2.4476209, 3.2130156, 1.0750399, 1.2848878, 1.1233383, 34.067833, 8.191814, 1.1703135, 2.042702, 3.1276526, 5.064162, 1.7024188, 1.4252338], "tree_param": {"num_deleted": "0", "num_feature": "29", "num_nodes": "39", "size_leaf_vector": "0"}}, {"base_weights": [-1.2962042, -0.6428026, -0.01118554, 0.73349833, -0.010163447, 0.00941572, -0.0015255364], "categories": [], "categories_nodes": [], "categories_segments": [], "categories_sizes": [], "default_left": [0, 0, 0, 0, 0, 0, 0], "id": 45, "left_children": [1, 3, -1, 5, -1, -1, -1], "loss_changes": [3.881836, 10.468124, 0.0, 1.590152, 0.0, 0.0, 0.0], "parents": [2147483647, 0, 0, 1, 1, 3, 3], "right_children": [2, 4, -1, 6, -1, -1, -1], "split_conditions": [-1.8489724, -1.9945164, -0.01118554, 0.8255844, -0.010163447, 0.00941572, -0.0015255364], "split_indices": [11, 15, 0, 19, 0, 0, 0], "split_type": [0, 0, 0, 0, 0, 0, 0], "sum_hessian": [2837.6638, 11.986139, 2825.6777, 3.262783, 8.723356, 2.1950479, 1.0677353], "tree_param": {"num_deleted": "0", "num_feature": "29", "num_nodes": "7", "size_leaf_vector": "0"}}, {"base_weights": [-1.155558, -0.33936915, -1.1593696, 0.7743532, -0.9543226, -0.9099649, -0.073822245, 0.9828447, 0.04280766, -1.0255083, 0.25509727, 0.48461178, -0.070339315, 1.0550636, 0.2989571, -0.053016026, 0.42348236, -0.18500344, -1.0710868, 0.045284305, -0.017520364, 0.9418941, -0.043876998, 0.06964647, 0.02172775, -0.016470056, 0.042723674, 0.06292902, -0.02063225, 0.03546602, -0.051038332, -0.072922915, -0.67568266, 0.08045501, 2.9527097e-05, -0.9162196, 0.005467792, -0.06341014, -0.016118621], "categories": [], "categories_nodes": [], "categories_segments": [], "categories_sizes": [], "default_left": [0, 0, 0, 0, 0, 0, 0, 0, 0, 0, 0, 0, 0, 0, 0, 0, 0, 0, 0, 0, 0, 0, 0, 0, 0, 0, 0, 0, 0, 0, 0, 0, 0, 0, 0, 0, 0, 0, 0], "id": 46, "left_children": [1, 3, 5, 7, 9, 11, -1, 13, 15, 17, 19, 21, -1, 23, 25, -1, 27, 29, 31, -1, -1, 33, -1, -1, -1, -1, -1, -1, -1, -1, -1, -1, 35, -1, -1, 37, -1, -1, -1], "loss_changes": [43.589844, 46.715755, 0.9941406, 3.6844435, 4.0236816, 10.753082, 0.0, 0.621418, 2.5081, 1.3904305, 0.9778111, 3.496685, 0.0, 0.09621239, 0.839779, 0.0, 2.5053072, 1.9772791, 0.38199615, 0.0, 0.0, 1.2856963, 0.0, 0.0, 0.0, 0.0, 0.0, 0.0, 0.0, 0.0, 0.0, 0.0, 1.6645863, 0.0, 0.0, 0.101705074, 0.0, 0.0, 0.0], "parents": [2147483647, 0, 0, 1, 1, 2, 2, 3, 3, 4, 4, 5, 5, 7, 7, 8, 8, 9, 9, 10, 10, 11, 11, 13, 13, 14, 14, 16, 16, 17, 17, 18, 18, 21, 21, 32, 32, 35, 35], "right_children": [2, 4, 6, 8, 10, 12, -1, 14, 16, 18, 20, 22, -1, 24, 26, -1, 28, 30, 32, -1, -1, 34, -1, -1, -1, -1, -1, -1, -1, -1, -1, -1, 36, -1, -1, 38, -1, -1, -1], "split_conditions": [-3.5017025, -2.2077334, -1.6291264, -3.6492317, 1.2046602, -3.046257, -0.073822245, 1.5556524, -2.5145829, -1.8736137, -0.8676187, -1.4445205, -0.070339315, -3.9612064, 1.0326726, -0.053016026, -0.062702574, -0.30440578, 4.055379, 0.045284305, -0.017520364, 0.22307473, -0.043876998, 0.06964647, 0.02172775, -0.016470056, 0.042723674, 0.06292902, -0.02063225, 0.03546602, -0.051038332, -0.072922915, -0.16968644, 0.08045501, 2.9527097e-05, 0.93024224, 0.005467792, -0.06341014, -0.016118621], "split_indices": [13, 9, 16, 2, 20, 11, 0, 12, 8, 9, 9, 9, 0, 2, 20, 0, 21, 25, 3, 0, 0, 24, 0, 0, 0, 0, 0, 0, 0, 0, 0, 0, 20, 0, 0, 28, 0, 0, 0], "split_type": [0, 0, 0, 0, 0, 0, 0, 0, 0, 0, 0, 0, 0, 0, 0, 0, 0, 0, 0, 0, 0, 0, 0, 0, 0, 0, 0, 0, 0, 0, 0, 0, 0, 0, 0, 0, 0, 0, 0], "sum_hessian": [14136.823, 66.13042, 14070.692, 23.432808, 42.69761, 36.52172, 14034.171, 17.968298, 5.4645085, 40.46777, 2.2298417, 4.3035583, 32.218163, 15.761168, 2.2071314, 1.2955265, 4.168982, 2.3418152, 38.125954, 1.0148958, 1.214946, 3.239519, 1.0640395, 14.433388, 1.3277792, 1.0056872, 1.2014441, 2.190371, 1.9786109, 1.1068566, 1.2349586, 30.469091, 7.6568613, 2.1579635, 1.0815554, 5.664732, 1.9921297, 4.6051993, 1.0595323], "tree_param": {"num_deleted": "0", "num_feature": "29", "num_nodes": "39", "size_leaf_vector": "0"}}, {"base_weights": [-1.24645, -0.28041893, -0.029277636, 0.030598244, -1.1619035, -0.004712304, -0.028202752], "categories": [], "categories_nodes": [], "categories_segments": [], "categories_sizes": [], "default_left": [0, 0, 0, 0, 0, 0, 0], "id": 47, "left_children": [1, 3, -1, -1, 5, -1, -1], "loss_changes": [27.326172, 44.645515, 0.0, 0.0, 0.592844, 0.0, 0.0], "parents": [2147483647, 0, 0, 1, 1, 4, 4], "right_children": [2, 4, -1, -1, 6, -1, -1], "split_conditions": [-1.8485826, -2.1799974, -0.029277636, 0.030598244, -0.5946991, -0.004712304, -0.028202752], "split_indices": [11, 9, 0, 0, 26, 0, 0], "split_type": [0, 0, 0, 0, 0, 0, 0], "sum_hessian": [6981.297, 29.821455, 6951.4756, 10.47513, 19.346325, 1.0672425, 18.279083], "tree_param": {"num_deleted": "0", "num_feature": "29", "num_nodes": "7", "size_leaf_vector": "0"}}, {"base_weights": [-1.3135741, -0.34016293, -0.004173661, 0.003098947, -0.0032109215], "categories": [], "categories_nodes": [], "categories_segments": [], "categories_sizes": [], "default_left": [0, 0, 0, 0, 0], "id": 48, "left_children": [1, 3, -1, -1, -1], "loss_changes": [3.5714111, 5.938983, 0.0, 0.0, 0.0], "parents": [2147483647, 0, 0, 1, 1], "right_children": [2, 4, -1, -1, -1], "split_conditions": [-3.4179132, -1.4861786, -0.004173661, 0.003098947, -0.0032109215], "split_indices": [13, 6, 0, 0, 0], "split_type": [0, 0, 0, 0, 0], "sum_hessian": [1081.246, 4.5735955, 1076.6724, 1.3931948, 3.1804006], "tree_param": {"num_deleted": "0", "num_feature": "29", "num_nodes": "5", "size_leaf_vector": "0"}}, {"base_weights": [-1.323085], "categories": [], "categories_nodes": [], "categories_segments": [], "categories_sizes": [], "default_left": [0], "id": 49, "left_children": [-1], "loss_changes": [0.0], "parents": [2147483647], "right_children": [-1], "split_conditions": [-0.0015416039], "split_indices": [0], "split_type": [0], "sum_hessian": [402.57916], "tree_param": {"num_deleted": "0", "num_feature": "29", "num_nodes": "1", "size_leaf_vector": "0"}}, {"base_weights": [-1.2883487], "categories": [], "categories_nodes": [], "categories_segments": [], "categories_sizes": [], "default_left": [0], "id": 50, "left_children": [-1], "loss_changes": [0.0], "parents": [2147483647], "right_children": [-1], "split_conditions": [-0.0015011306], "split_indices": [0], "split_type": [0], "sum_hessian": [379.9782], "tree_param": {"num_deleted": "0", "num_feature": "29", "num_nodes": "1", "size_leaf_vector": "0"}}, {"base_weights": [-1.261992, -0.62110424, -0.010890807, 0.6940158, -0.009891788, 0.009173912, -0.0019174608], "categories": [], "categories_nodes": [], "categories_segments": [], "categories_sizes": [], "default_left": [0, 0, 0, 0, 0, 0, 0], "id": 51, "left_children": [1, 3, -1, 5, -1, -1, -1], "loss_changes": [3.5268555, 9.414322, 0.0, 1.6591294, 0.0, 0.0, 0.0], "parents": [2147483647, 0, 0, 1, 1, 3, 3], "right_children": [2, 4, -1, 6, -1, -1, -1], "split_conditions": [-1.8489724, -1.9945164, -0.010890807, 0.8255844, -0.009891788, 0.009173912, -0.0019174608], "split_indices": [11, 15, 0, 19, 0, 0, 0], "split_type": [0, 0, 0, 0, 0, 0, 0], "sum_hessian": [2654.1978, 11.423391, 2642.7744, 3.179517, 8.243875, 2.1478114, 1.0317055], "tree_param": {"num_deleted": "0", "num_feature": "29", "num_nodes": "7", "size_leaf_vector": "0"}}, {"base_weights": [-1.1281341, -0.31740043, -1.1320702, 0.76989496, -0.88040847, -0.8686573, -0.072087675, 0.9389333, 0.0044820528, 0.061143402, -0.9971081, 0.4415956, -0.0681348, 1.0481539, 0.15950024, 0.046103813, -0.04524078, 0.5109808, -0.048788004, -0.39114755, -0.07159762, 0.85936785, -0.041528363, 0.06965752, 0.019469853, 0.044758104, -0.03519889, -0.023803424, 0.061354265, 0.42117465, -0.05948987, 0.074639454, -0.0012342919, 0.0703838, -0.041887343], "categories": [], "categories_nodes": [], "categories_segments": [], "categories_sizes": [], "default_left": [0, 0, 0, 0, 0, 0, 0, 0, 0, 0, 0, 0, 0, 0, 0, 0, 0, 0, 0, 0, 0, 0, 0, 0, 0, 0, 0, 0, 0, 0, 0, 0, 0, 0, 0], "id": 52, "left_children": [1, 3, 5, 7, 9, 11, -1, 13, 15, 17, 19, 21, -1, 23, 25, -1, -1, 27, -1, 29, -1, 31, -1, -1, -1, -1, -1, -1, -1, 33, -1, -1, -1, -1, -1], "loss_changes": [39.04883, 38.053635, 1.0517578, 2.7598248, 4.532263, 9.348757, 0.0, 1.3220625, 3.0226414, 2.4134471, 2.370243, 2.9320538, 0.0, 0.18695831, 1.6790987, 0.0, 0.0, 2.0117047, 0.0, 3.8613205, 0.0, 1.1756439, 0.0, 0.0, 0.0, 0.0, 0.0, 0.0, 0.0, 3.5641975, 0.0, 0.0, 0.0, 0.0, 0.0], "parents": [2147483647, 0, 0, 1, 1, 2, 2, 3, 3, 4, 4, 5, 5, 7, 7, 8, 8, 9, 9, 10, 10, 11, 11, 13, 13, 14, 14, 17, 17, 19, 19, 21, 21, 29, 29], "right_children": [2, 4, 6, 8, 10, 12, -1, 14, 16, 18, 20, 22, -1, 24, 26, -1, -1, 28, -1, 30, -1, 32, -1, -1, -1, -1, -1, -1, -1, 34, -1, -1, -1, -1, -1], "split_conditions": [-3.5017025, -2.7891164, -1.6291264, -3.6492317, -2.0040724, -3.046257, -0.072087675, 1.5556524, 0.25534856, 1.1069125, -0.15541773, -1.4445205, -0.0681348, -3.9612064, -2.190968, 0.046103813, -0.04524078, 0.07040102, -0.048788004, 1.0708308, -0.07159762, 0.48207012, -0.041528363, 0.06965752, 0.019469853, 0.044758104, -0.03519889, -0.023803424, 0.061354265, -0.3190143, -0.05948987, 0.074639454, -0.0012342919, 0.0703838, -0.041887343], "split_indices": [13, 11, 16, 2, 9, 11, 0, 12, 27, 6, 14, 9, 0, 2, 8, 0, 0, 27, 0, 6, 0, 7, 0, 0, 0, 0, 0, 0, 0, 28, 0, 0, 0, 0, 0], "split_type": [0, 0, 0, 0, 0, 0, 0, 0, 0, 0, 0, 0, 0, 0, 0, 0, 0, 0, 0, 0, 0, 0, 0, 0, 0, 0, 0, 0, 0, 0, 0, 0, 0, 0, 0], "sum_hessian": [12348.775, 60.05602, 12288.72, 20.363003, 39.693016, 32.547424, 12256.172, 16.493729, 3.8692744, 4.4296813, 35.263336, 4.1877594, 28.359665, 14.1641655, 2.3295631, 1.9221162, 1.9471582, 3.1179183, 1.311763, 6.852735, 28.4106, 3.185854, 1.0019054, 12.884737, 1.2794288, 1.3286786, 1.0008845, 1.1147969, 2.0031214, 2.837622, 4.015113, 2.1016603, 1.0841937, 1.7210993, 1.1165228], "tree_param": {"num_deleted": "0", "num_feature": "29", "num_nodes": "35", "size_leaf_vector": "0"}}, {"base_weights": [-1.2135973, -0.24523479, -0.028510854, 0.0297785, -1.1233344, -0.027384715, -0.0034660224], "categories": [], "categories_nodes": [], "categories_segments": [], "categories_sizes": [], "default_left": [0, 0, 0, 0, 0, 0, 0], "id": 53, "left_children": [1, 3, -1, -1, 5, -1, -1], "loss_changes": [25.802734, 40.0186, 0.0, 0.0, 0.6804943, 0.0, 0.0], "parents": [2147483647, 0, 0, 1, 1, 4, 4], "right_children": [2, 4, -1, -1, 6, -1, -1], "split_conditions": [-1.8485826, -2.1799974, -0.028510854, 0.0297785, 0.733835, -0.027384715, -0.0034660224], "split_indices": [11, 9, 0, 0, 5, 0, 0], "split_type": [0, 0, 0, 0, 0, 0, 0], "sum_hessian": [6410.8184, 27.96616, 6382.852, 10.087847, 17.878313, 16.87666, 1.0016536], "tree_param": {"num_deleted": "0", "num_feature": "29", "num_nodes": "7", "size_leaf_vector": "0"}}, {"base_weights": [-1.2787851, -0.2961066, -0.0040639, 0.00305215, -0.003083627], "categories": [], "categories_nodes": [], "categories_segments": [], "categories_sizes": [], "default_left": [0, 0, 0, 0, 0], "id": 54, "left_children": [1, 3, -1, -1, -1], "loss_changes": [3.5853271, 5.5349407, 0.0, 0.0, 0.0], "parents": [2147483647, 0, 0, 1, 1], "right_children": [2, 4, -1, -1, -1], "split_conditions": [-3.4179132, -1.4861786, -0.0040639, 0.00305215, -0.003083627], "split_indices": [13, 6, 0, 0, 0], "split_type": [0, 0, 0, 0, 0], "sum_hessian": [1018.1659, 4.389765, 1013.7761, 1.3872267, 3.0025382], "tree_param": {"num_deleted": "0", "num_feature": "29", "num_nodes": "5", "size_leaf_vector": "0"}}, {"base_weights": [-1.2459533, -0.25815403, -0.0039602527, 0.00298061, -0.0029551578], "categories": [], "categories_nodes": [], "categories_segments": [], "categories_sizes": [], "default_left": [0, 0, 0, 0, 0], "id": 55, "left_children": [1, 3, -1, -1, -1], "loss_changes": [3.508667, 5.0600133, 0.0, 0.0, 0.0], "parents": [2147483647, 0, 0, 1, 1], "right_children": [2, 4, -1, -1, -1], "split_conditions": [-3.4179132, -1.4861786, -0.0039602527, 0.00298061, -0.0029551578], "split_indices": [13, 6, 0, 0, 0], "split_type": [0, 0, 0, 0, 0], "sum_hessian": [950.7935, 4.170864, 946.6227, 1.3597294, 2.8111346], "tree_param": {"num_deleted": "0", "num_feature": "29", "num_nodes": "5", "size_leaf_vector": "0"}}, {"base_weights": [-1.2553854], "categories": [], "categories_nodes": [], "categories_segments": [], "categories_sizes": [], "default_left": [0], "id": 56, "left_children": [-1], "loss_changes": [0.0], "parents": [2147483647], "right_children": [-1], "split_conditions": [-0.0014627232], "split_indices": [0], "split_type": [0], "sum_hessian": [355.7225], "tree_param": {"num_deleted": "0", "num_feature": "29", "num_nodes": "1", "size_leaf_vector": "0"}}, {"base_weights": [-1.2300636, -0.6034822, -0.01061586, 0.6522174, -0.00961053, -0.002015667, 0.008817493], "categories": [], "categories_nodes": [], "categories_segments": [], "categories_sizes": [], "default_left": [0, 0, 0, 0, 0, 0, 0], "id": 57, "left_children": [1, 3, -1, 5, -1, -1, -1], "loss_changes": [3.1726074, 8.380563, 0.0, 1.5825481, 0.0, 0.0, 0.0], "parents": [2147483647, 0, 0, 1, 1, 3, 3], "right_children": [2, 4, -1, 6, -1, -1, -1], "split_conditions": [-1.5040348, -1.9945164, -0.01061586, -0.34061578, -0.00961053, -0.002015667, 0.008817493], "split_indices": [16, 15, 0, 28, 0, 0, 0], "split_type": [0, 0, 0, 0, 0, 0, 0], "sum_hessian": [2460.93, 10.894077, 2450.036, 3.078014, 7.816063, 1.0186248, 2.059389], "tree_param": {"num_deleted": "0", "num_feature": "29", "num_nodes": "7", "size_leaf_vector": "0"}}, {"base_weights": [-1.1045914, -0.2948468, -1.1086817, 0.6716358, -0.8591976, -0.829123, -0.07060254, 0.88580626, 0.018828714, -0.9391034, 0.2831251, 0.3924086, -1.0413145, 0.99442935, 0.270808, 0.052556567, -0.3394425, -0.3979526, -1.0399377, -0.015774662, 0.042223968, -0.30091155, 0.06394375, -0.06859732, -0.019186838, 0.06763344, 0.014299131, -0.032199528, 0.04953094, -0.71984917, 0.035351582, 0.5284056, -0.05879556, -0.011751336, -1.0661741, -0.044177823, 0.017178543, -0.0035560038, -0.06022248, 0.06174874, -0.012201047, -0.014546098, -0.069474034], "categories": [], "categories_nodes": [], "categories_segments": [], "categories_sizes": [], "default_left": [0, 0, 0, 0, 0, 0, 0, 0, 0, 0, 0, 0, 0, 0, 0, 0, 0, 0, 0, 0, 0, 0, 0, 0, 0, 0, 0, 0, 0, 0, 0, 0, 0, 0, 0, 0, 0, 0, 0, 0, 0, 0, 0], "id": 58, "left_children": [1, 3, 5, 7, 9, 11, -1, 13, 15, 17, 19, 21, 23, 25, 27, -1, 29, 31, 33, -1, -1, 35, -1, -1, -1, -1, -1, -1, -1, 37, -1, 39, -1, -1, 41, -1, -1, -1, -1, -1, -1, -1, -1], "loss_changes": [35.024414, 30.578941, 1.1025391, 2.8969088, 3.4757805, 8.128769, 0.0, 0.7774792, 2.0640826, 1.3922348, 0.78391606, 2.4821038, 0.3684864, 0.44151974, 1.8626097, 0.0, 2.095693, 3.8099127, 0.41529465, 0.0, 0.0, 0.9006475, 0.0, 0.0, 0.0, 0.0, 0.0, 0.0, 0.0, 0.5381043, 0.0, 1.1740404, 0.0, 0.0, 0.31041527, 0.0, 0.0, 0.0, 0.0, 0.0, 0.0, 0.0, 0.0], "parents": [2147483647, 0, 0, 1, 1, 2, 2, 3, 3, 4, 4, 5, 5, 7, 7, 8, 8, 9, 9, 10, 10, 11, 11, 12, 12, 13, 13, 14, 14, 16, 16, 17, 17, 18, 18, 21, 21, 29, 29, 31, 31, 34, 34], "right_children": [2, 4, 6, 8, 10, 12, -1, 14, 16, 18, 20, 22, 24, 26, 28, -1, 30, 32, 34, -1, -1, 36, -1, -1, -1, -1, -1, -1, -1, 38, -1, 40, -1, -1, 42, -1, -1, -1, -1, -1, -1, -1, -1], "split_conditions": [-3.5017025, -2.2077334, -1.6291264, -3.6492317, 1.2046602, -1.4445205, -0.07060254, -1.1086898, -0.48298767, 0.39895856, 1.1848216, 2.328332, 2.8758717, 0.7127792, 0.066608526, 0.052556567, -0.9060367, -0.03564836, -0.85329133, -0.015774662, 0.042223968, 0.19279367, 0.06394375, -0.06859732, -0.019186838, 0.06763344, 0.014299131, -0.032199528, 0.04953094, 0.25534856, 0.035351582, -0.005338872, -0.05879556, -0.011751336, -2.190968, -0.044177823, 0.017178543, -0.0035560038, -0.06022248, 0.06174874, -0.012201047, -0.014546098, -0.069474034], "split_indices": [13, 9, 16, 2, 20, 9, 0, 8, 25, 6, 3, 3, 28, 27, 26, 0, 5, 22, 14, 0, 0, 19, 0, 0, 0, 0, 0, 0, 0, 27, 0, 19, 0, 0, 8, 0, 0, 0, 0, 0, 0, 0, 0], "split_type": [0, 0, 0, 0, 0, 0, 0, 0, 0, 0, 0, 0, 0, 0, 0, 0, 0, 0, 0, 0, 0, 0, 0, 0, 0, 0, 0, 0, 0, 0, 0, 0, 0, 0, 0, 0, 0, 0, 0, 0, 0, 0, 0], "sum_hessian": [10672.3, 54.00538, 10618.294, 19.839321, 34.166058, 28.784697, 10589.51, 14.6696415, 5.1696796, 32.098648, 2.0674102, 4.1344438, 24.650253, 11.943226, 2.7264154, 1.1882467, 3.9814327, 5.8185654, 26.280083, 1.0081726, 1.0592377, 2.1774988, 1.9569451, 23.054682, 1.5955713, 10.620534, 1.322692, 1.0785333, 1.6478822, 2.9311106, 1.050322, 2.105294, 3.7132714, 1.0213833, 25.2587, 1.1613858, 1.0161129, 1.0623834, 1.8687272, 1.0894831, 1.015811, 1.0393418, 24.219357], "tree_param": {"num_deleted": "0", "num_feature": "29", "num_nodes": "43", "size_leaf_vector": "0"}}, {"base_weights": [-1.1837282, -0.21001108, -0.027814507, 1.241116, -1.08608, 0.0303721, 0.008998744, -0.02658833, -0.0041888445], "categories": [], "categories_nodes": [], "categories_segments": [], "categories_sizes": [], "default_left": [0, 0, 0, 0, 0, 0, 0, 0, 0], "id": 59, "left_children": [1, 3, -1, 5, 7, -1, -1, -1, -1], "loss_changes": [24.333008, 35.70785, 0.0, 0.013589859, 0.5791588, 0.0, 0.0, 0.0, 0.0], "parents": [2147483647, 0, 0, 1, 1, 3, 3, 4, 4], "right_children": [2, 4, -1, 6, 8, -1, -1, -1, -1], "split_conditions": [-1.8485826, -2.1799974, -0.027814507, 3.9345903, 0.7133156, 0.0303721, 0.008998744, -0.02658833, -0.0041888445], "split_indices": [11, 9, 0, 5, 5, 0, 0, 0, 0], "split_type": [0, 0, 0, 0, 0, 0, 0, 0, 0], "sum_hessian": [5830.18, 26.027645, 5804.153, 9.6412, 16.386444, 8.56527, 1.0759296, 15.29804, 1.0884036], "tree_param": {"num_deleted": "0", "num_feature": "29", "num_nodes": "9", "size_leaf_vector": "0"}}, {"base_weights": [-1.1587002, -0.17342465, -0.027232517, 1.1461933, -0.025840232, 0.030410763, 0.0032620605], "categories": [], "categories_nodes": [], "categories_segments": [], "categories_sizes": [], "default_left": [0, 0, 0, 0, 0, 0, 0], "id": 60, "left_children": [1, 3, -1, 5, -1, -1, -1], "loss_changes": [23.269531, 32.254803, 0.0, 1.4998493, 0.0, 0.0, 0.0], "parents": [2147483647, 0, 0, 1, 1, 3, 3], "right_children": [2, 4, -1, 6, -1, -1, -1], "split_conditions": [-1.8485826, -3.1627276, -0.027232517, 1.4499321, -0.025840232, 0.030410763, 0.0032620605], "split_indices": [11, 13, 0, 14, 0, 0, 0], "split_type": [0, 0, 0, 0, 0, 0, 0], "sum_hessian": [5294.477, 24.243187, 5270.234, 9.928191, 14.314997, 8.368434, 1.5597568], "tree_param": {"num_deleted": "0", "num_feature": "29", "num_nodes": "7", "size_leaf_vector": "0"}}, {"base_weights": [-1.2178023, -0.21261129, -0.003871707, 0.0029624635, -0.002837469], "categories": [], "categories_nodes": [], "categories_segments": [], "categories_sizes": [], "default_left": [0, 0, 0, 0, 0], "id": 61, "left_children": [1, 3, -1, -1, -1], "loss_changes": [3.5567627, 4.735001, 0.0, 0.0, 0.0], "parents": [2147483647, 0, 0, 1, 1], "right_children": [2, 4, -1, -1, -1], "split_conditions": [-3.4179132, -1.4861786, -0.003871707, 0.0029624635, -0.002837469], "split_indices": [13, 6, 0, 0, 0], "split_type": [0, 0, 0, 0, 0], "sum_hessian": [886.6668, 3.9719806, 882.6948, 1.3442141, 2.6277666], "tree_param": {"num_deleted": "0", "num_feature": "29", "num_nodes": "5", "size_leaf_vector": "0"}}, {"base_weights": [-1.2271758], "categories": [], "categories_nodes": [], "categories_segments": [], "categories_sizes": [], "default_left": [0], "id": 62, "left_children": [-1], "loss_changes": [0.0], "parents": [2147483647], "right_children": [-1], "split_conditions": [-0.0014298545], "split_indices": [0], "split_type": [0], "sum_hessian": [332.56705], "tree_param": {"num_deleted": "0", "num_feature": "29", "num_nodes": "1", "size_leaf_vector": "0"}}, {"base_weights": [-1.2029808, -0.5805275, -0.010382628, 0.61078554, -0.0093610585, -0.0021220553, 0.008696555], "categories": [], "categories_nodes": [], "categories_segments": [], "categories_sizes": [], "default_left": [0, 0, 0, 0, 0, 0, 0], "id": 63, "left_children": [1, 3, -1, 5, -1, -1, -1], "loss_changes": [2.9057617, 7.418397, 0.0, 1.6098762, 0.0, 0.0, 0.0], "parents": [2147483647, 0, 0, 1, 1, 3, 3], "right_children": [2, 4, -1, 6, -1, -1, -1], "split_conditions": [-1.8489724, -1.9945164, -0.010382628, -2.3859262, -0.0093610585, -0.0021220553, 0.008696555], "split_indices": [11, 15, 0, 8, 0, 0, 0], "split_type": [0, 0, 0, 0, 0, 0, 0], "sum_hessian": [2278.4785, 10.196755, 2268.2817, 2.9799445, 7.2168107, 1.0679324, 1.9120121], "tree_param": {"num_deleted": "0", "num_feature": "29", "num_nodes": "7", "size_leaf_vector": "0"}}, {"base_weights": [-1.0854491, -0.27025297, -1.0897529, 0.65827405, -0.80006844, -0.79240215, -0.06940191, 0.75780517, -0.026852826, -0.032095157, -0.92181116, 0.38680875, -1.0108219, 0.3341507, 0.06679715, 0.040049054, -0.5882329, -0.31761408, -0.06761787, -0.026979025, 0.055680767, -0.06680023, -0.024316326, 0.058126535, -0.22500944, -0.049709097, -0.004468837, 0.4266501, -0.054572973, 0.026878487, -0.6592316, 0.06088647, -0.019849796, -0.004277736, -0.06346345], "categories": [], "categories_nodes": [], "categories_segments": [], "categories_sizes": [], "default_left": [0, 0, 0, 0, 0, 0, 0, 0, 0, 0, 0, 0, 0, 0, 0, 0, 0, 0, 0, 0, 0, 0, 0, 0, 0, 0, 0, 0, 0, 0, 0, 0, 0, 0, 0], "id": 64, "left_children": [1, 3, 5, 7, 9, 11, -1, 13, -1, 15, 17, 19, 21, 23, -1, -1, 25, 27, -1, -1, -1, -1, -1, -1, 29, -1, -1, 31, -1, -1, 33, -1, -1, -1, -1], "loss_changes": [32.039062, 24.991104, 1.1660156, 2.3211641, 2.972948, 7.2346954, 0.0, 1.8003683, 0.0, 2.3675516, 2.015213, 2.3002434, 0.15257072, 2.9790697, 0.0, 0.0, 0.29145455, 3.0395653, 0.0, 0.0, 0.0, 0.0, 0.0, 0.0, 1.7287831, 0.0, 0.0, 1.6549218, 0.0, 0.0, 0.628984, 0.0, 0.0, 0.0, 0.0], "parents": [2147483647, 0, 0, 1, 1, 2, 2, 3, 3, 4, 4, 5, 5, 7, 7, 9, 9, 10, 10, 11, 11, 12, 12, 13, 13, 16, 16, 17, 17, 24, 24, 27, 27, 30, 30], "right_children": [2, 4, 6, 8, 10, 12, -1, 14, -1, 16, 18, 20, 22, 24, -1, -1, 26, 28, -1, -1, -1, -1, -1, -1, 30, -1, -1, 32, -1, -1, 34, -1, -1, -1, -1], "split_conditions": [-3.5017025, -2.2871463, -1.6291264, 1.0255694, -1.8736137, -3.046257, -0.06940191, 4.055379, -0.026852826, -0.30866736, -0.15541773, -0.12273013, 2.8758717, 0.18811315, 0.06679715, 0.040049054, 0.120610446, 1.0708308, -0.06761787, -0.026979025, 0.055680767, -0.06680023, -0.024316326, 0.058126535, 0.2898687, -0.049709097, -0.004468837, -0.33827755, -0.054572973, 0.026878487, 0.011139492, 0.06088647, -0.019849796, -0.004277736, -0.06346345], "split_indices": [13, 11, 16, 6, 9, 11, 0, 3, 0, 20, 14, 19, 28, 27, 0, 0, 26, 6, 0, 0, 0, 0, 0, 0, 21, 0, 0, 28, 0, 0, 12, 0, 0, 0, 0], "split_type": [0, 0, 0, 0, 0, 0, 0, 0, 0, 0, 0, 0, 0, 0, 0, 0, 0, 0, 0, 0, 0, 0, 0, 0, 0, 0, 0, 0, 0, 0, 0, 0, 0, 0, 0], "sum_hessian": [9214.79, 48.729736, 9166.061, 17.615416, 31.11432, 25.570986, 9140.489, 16.402536, 1.2128787, 4.430381, 26.68394, 3.8757155, 21.69527, 7.5642323, 8.8383045, 1.963636, 2.466745, 5.6541257, 21.029814, 1.5058944, 2.369821, 19.803894, 1.8913766, 3.4044733, 4.159759, 1.4275242, 1.0392206, 2.4652827, 3.1888433, 1.681028, 2.4787312, 1.2632692, 1.2020135, 1.3364637, 1.1422673], "tree_param": {"num_deleted": "0", "num_feature": "29", "num_nodes": "35", "size_leaf_vector": "0"}}, {"base_weights": [-1.0714194, -0.25140774, -1.075943, 0.8075997, -0.6778378, -0.76199925, -0.06852695, 0.9610012, 0.23030391, 0.0627686, -0.8870036, 0.36090234, -0.98734397, 0.0012941291, 0.0674112, -0.020303193, 0.04488731, -0.39304352, 0.6154991, -0.06535391, -0.3296815, -0.025278123, 0.05210927, -0.06554322, -0.02245093, 0.019545835, -0.05449057, -0.002364946, 0.053646196, -0.7340466, 0.027862756, -0.013985763, -0.052057907], "categories": [], "categories_nodes": [], "categories_segments": [], "categories_sizes": [], "default_left": [0, 0, 0, 0, 0, 0, 0, 0, 0, 0, 0, 0, 0, 0, 0, 0, 0, 0, 0, 0, 0, 0, 0, 0, 0, 0, 0, 0, 0, 0, 0, 0, 0], "id": 65, "left_children": [1, 3, 5, 7, 9, 11, -1, 13, 15, 17, 19, 21, 23, -1, -1, -1, -1, 25, 27, -1, 29, -1, -1, -1, -1, -1, -1, -1, -1, 31, -1, -1, -1], "loss_changes": [29.762695, 21.196121, 1.21875, 0.9815197, 5.1896324, 6.444952, 0.0, 0.9407778, 1.3122157, 2.3160517, 1.6814041, 1.9753976, 0.18468666, 0.0, 0.0, 0.0, 0.0, 1.9239912, 0.6414616, 0.0, 2.3917496, 0.0, 0.0, 0.0, 0.0, 0.0, 0.0, 0.0, 0.0, 0.024964094, 0.0, 0.0, 0.0], "parents": [2147483647, 0, 0, 1, 1, 2, 2, 3, 3, 4, 4, 5, 5, 7, 7, 8, 8, 9, 9, 10, 10, 11, 11, 12, 12, 17, 17, 18, 18, 20, 20, 29, 29], "right_children": [2, 4, 6, 8, 10, 12, -1, 14, 16, 18, 20, 22, 24, -1, -1, -1, -1, 26, 28, -1, 30, -1, -1, -1, -1, -1, -1, -1, -1, 32, -1, -1, -1], "split_conditions": [-3.5017025, -1.6305879, -1.6291264, 0.35226738, -2.0040724, -3.046257, -0.06852695, 1.2811533, -1.9047154, -0.20714635, 4.055379, -0.12273013, 2.8758717, 0.0012941291, 0.0674112, -0.020303193, 0.04488731, -0.68347526, -0.44947082, -0.06535391, -0.16968644, -0.025278123, 0.05210927, -0.06554322, -0.02245093, 0.019545835, -0.05449057, -0.002364946, 0.053646196, 0.8970844, 0.027862756, -0.013985763, -0.052057907], "split_indices": [13, 6, 16, 14, 9, 11, 0, 1, 4, 22, 3, 19, 28, 0, 0, 0, 0, 21, 23, 0, 20, 0, 0, 0, 0, 0, 0, 0, 0, 4, 0, 0, 0], "split_type": [0, 0, 0, 0, 0, 0, 0, 0, 0, 0, 0, 0, 0, 0, 0, 0, 0, 0, 0, 0, 0, 0, 0, 0, 0, 0, 0, 0, 0, 0, 0, 0, 0], "sum_hessian": [8095.449, 44.72417, 8050.7246, 12.582529, 32.14164, 23.061878, 8027.663, 9.41585, 3.166679, 7.2326083, 24.909033, 3.7539985, 19.307878, 1.0042982, 8.411551, 1.6207333, 1.5459456, 4.122156, 3.1104524, 19.237768, 5.6712637, 1.4634961, 2.2905023, 17.511513, 1.7963661, 1.7752962, 2.34686, 1.0199969, 2.0904553, 3.7428362, 1.9284273, 1.0327559, 2.7100804], "tree_param": {"num_deleted": "0", "num_feature": "29", "num_nodes": "33", "size_leaf_vector": "0"}}, {"base_weights": [-1.1406724, -0.14251287, -0.02681456, 1.1300417, -0.025337828, 0.03000337, 0.0032262704], "categories": [], "categories_nodes": [], "categories_segments": [], "categories_sizes": [], "default_left": [0, 0, 0, 0, 0, 0, 0], "id": 66, "left_children": [1, 3, -1, 5, -1, -1, -1], "loss_changes": [22.604004, 29.788618, 0.0, 1.4223156, 0.0, 0.0, 0.0], "parents": [2147483647, 0, 0, 1, 1, 3, 3], "right_children": [2, 4, -1, 6, -1, -1, -1], "split_conditions": [-1.8485826, -3.1627276, -0.02681456, 1.4499321, -0.025337828, 0.03000337, 0.0032262704], "split_indices": [11, 13, 0, 14, 0, 0, 0], "split_type": [0, 0, 0, 0, 0, 0, 0], "sum_hessian": [4879.116, 22.886444, 4856.2295, 9.635808, 13.250635, 8.106415, 1.5293933], "tree_param": {"num_deleted": "0", "num_feature": "29", "num_nodes": "7", "size_leaf_vector": "0"}}, {"base_weights": [-1.198017, -0.18782741, -0.0038093855, 0.0028980428, -0.002751098], "categories": [], "categories_nodes": [], "categories_segments": [], "categories_sizes": [], "default_left": [0, 0, 0, 0, 0], "id": 67, "left_children": [1, 3, -1, -1, -1], "loss_changes": [3.4938965, 4.406832, 0.0, 0.0, 0.0], "parents": [2147483647, 0, 0, 1, 1], "right_children": [2, 4, -1, -1, -1], "split_conditions": [-3.4179132, -1.4861786, -0.0038093855, 0.0028980428, -0.002751098], "split_indices": [13, 6, 0, 0, 0], "split_type": [0, 0, 0, 0, 0], "sum_hessian": [837.5262, 3.8144367, 833.71173, 1.3244594, 2.4899774], "tree_param": {"num_deleted": "0", "num_feature": "29", "num_nodes": "5", "size_leaf_vector": "0"}}, {"base_weights": [-1.2073634], "categories": [], "categories_nodes": [], "categories_segments": [], "categories_sizes": [], "default_left": [0], "id": 68, "left_children": [-1], "loss_changes": [0.0], "parents": [2147483647], "right_children": [-1], "split_conditions": [-0.00140677], "split_indices": [0], "split_type": [0], "sum_hessian": [314.8772], "tree_param": {"num_deleted": "0", "num_feature": "29", "num_nodes": "1", "size_leaf_vector": "0"}}, {"base_weights": [-1.1837703, -0.56413585, -0.010217365, 0.5783075, -0.009153377, -0.0024215912, 0.008499478], "categories": [], "categories_nodes": [], "categories_segments": [], "categories_sizes": [], "default_left": [0, 0, 0, 0, 0, 0, 0], "id": 69, "left_children": [1, 3, -1, 5, -1, -1, -1], "loss_changes": [2.7270508, 6.7199583, 0.0, 1.6483767, 0.0, 0.0, 0.0], "parents": [2147483647, 0, 0, 1, 1, 3, 3], "right_children": [2, 4, -1, 6, -1, -1, -1], "split_conditions": [-1.8489724, -1.9945164, -0.010217365, -2.3859262, -0.009153377, -0.0024215912, 0.008499478], "split_indices": [11, 15, 0, 8, 0, 0, 0], "split_type": [0, 0, 0, 0, 0, 0, 0], "sum_hessian": [2137.8882, 9.716967, 2128.1714, 2.9040225, 6.812944, 1.0361408, 1.8678818], "tree_param": {"num_deleted": "0", "num_feature": "29", "num_nodes": "7", "size_leaf_vector": "0"}}, {"base_weights": [-1.1739341, -0.5556308, -0.010132937, 0.5632329, -0.009025939, -0.00248723, 0.008371791], "categories": [], "categories_nodes": [], "categories_segments": [], "categories_sizes": [], "default_left": [0, 0, 0, 0, 0, 0, 0], "id": 70, "left_children": [1, 3, -1, 5, -1, -1, -1], "loss_changes": [2.6584473, 6.386656, 0.0, 1.6272223, 0.0, 0.0, 0.0], "parents": [2147483647, 0, 0, 1, 1, 3, 3], "right_children": [2, 4, -1, 6, -1, -1, -1], "split_conditions": [-1.5040348, -1.9945164, -0.010132937, -2.3859262, -0.009025939, -0.00248723, 0.008371791], "split_indices": [16, 15, 0, 8, 0, 0, 0], "split_type": [0, 0, 0, 0, 0, 0, 0], "sum_hessian": [2062.1978, 9.521844, 2052.6758, 2.8657422, 6.656101, 1.0243754, 1.8413668], "tree_param": {"num_deleted": "0", "num_feature": "29", "num_nodes": "7", "size_leaf_vector": "0"}}, {"base_weights": [-1.0624623, -0.23661855, -1.0671793, 0.7787618, -0.649027, -0.7340771, -0.067973584, 0.06016154, 0.20194718, 0.0362276, -0.87294173, 0.36404708, -0.97390705, 0.057152025, -0.05632255, -0.42097393, 0.5821634, -0.065556526, -0.29658872, -0.017159197, 0.05687327, -0.06505555, -0.013030106, 0.11390361, -0.057957307, 0.054221127, -0.007706494, 0.33550644, -0.052200228, -0.043575745, 0.048832346, 0.06305724, -0.023055756], "categories": [], "categories_nodes": [], "categories_segments": [], "categories_sizes": [], "default_left": [0, 0, 0, 0, 0, 0, 0, 0, 0, 0, 0, 0, 0, 0, 0, 0, 0, 0, 0, 0, 0, 0, 0, 0, 0, 0, 0, 0, 0, 0, 0, 0, 0], "id": 71, "left_children": [1, 3, 5, 7, 9, 11, -1, -1, 13, 15, 17, 19, 21, -1, -1, 23, 25, -1, 27, -1, -1, -1, -1, 29, -1, -1, -1, 31, -1, -1, -1, -1, -1], "loss_changes": [28.436523, 18.558146, 1.3515625, 1.0489969, 4.8195124, 6.252331, 0.0, 0.0, 3.9446514, 2.4029436, 1.828085, 1.8323073, 0.48361588, 0.0, 0.0, 1.4881004, 0.93040943, 0.0, 2.4104397, 0.0, 0.0, 0.0, 0.0, 2.3072734, 0.0, 0.0, 0.0, 2.0199573, 0.0, 0.0, 0.0, 0.0, 0.0], "parents": [2147483647, 0, 0, 1, 1, 2, 2, 3, 3, 4, 4, 5, 5, 8, 8, 9, 9, 10, 10, 11, 11, 12, 12, 15, 15, 16, 16, 18, 18, 23, 23, 27, 27], "right_children": [2, 4, 6, 8, 10, 12, -1, -1, 14, 16, 18, 20, 22, -1, -1, 24, 26, -1, 28, -1, -1, -1, -1, 30, -1, -1, -1, 32, -1, -1, -1, -1, -1], "split_conditions": [-3.5017025, -1.6305879, -1.6291264, -3.9612064, -1.8736137, -1.4445205, -0.067973584, 0.06016154, 0.7277062, -0.20714635, 4.055379, 2.328332, 2.8758717, 0.057152025, -0.05632255, -0.5258603, 1.4240588, -0.065556526, 0.05212127, -0.017159197, 0.05687327, -0.06505555, -0.013030106, -1.1642654, -0.057957307, 0.054221127, -0.007706494, 0.1509416, -0.052200228, -0.043575745, 0.048832346, 0.06305724, -0.023055756], "split_indices": [13, 6, 16, 2, 9, 9, 0, 0, 7, 22, 3, 3, 28, 0, 0, 21, 17, 0, 14, 0, 0, 0, 0, 23, 0, 0, 0, 24, 0, 0, 0, 0, 0], "split_type": [0, 0, 0, 0, 0, 0, 0, 0, 0, 0, 0, 0, 0, 0, 0, 0, 0, 0, 0, 0, 0, 0, 0, 0, 0, 0, 0, 0, 0, 0, 0, 0, 0], "sum_hessian": [7363.554, 42.1108, 7321.4434, 11.906871, 30.20393, 21.394121, 7300.0493, 8.743513, 3.1633577, 7.645212, 22.558718, 3.7420819, 17.65204, 2.0343595, 1.1289985, 4.285312, 3.3598998, 17.107399, 5.451319, 1.9271276, 1.8149543, 16.299585, 1.3524538, 2.4149525, 1.8703598, 2.2754614, 1.0844383, 2.632607, 2.8187122, 1.0651565, 1.349796, 1.1410621, 1.4915447], "tree_param": {"num_deleted": "0", "num_feature": "29", "num_nodes": "33", "size_leaf_vector": "0"}}, {"base_weights": [-1.1305532, -0.13428755, -0.026578961, 1.1056547, -0.025037749, 0.02944394, 0.003138063], "categories": [], "categories_nodes": [], "categories_segments": [], "categories_sizes": [], "default_left": [0, 0, 0, 0, 0, 0, 0], "id": 72, "left_children": [1, 3, -1, 5, -1, -1, -1], "loss_changes": [21.685547, 27.889395, 0.0, 1.3665094, 0.0, 0.0, 0.0], "parents": [2147483647, 0, 0, 1, 1, 3, 3], "right_children": [2, 4, -1, 6, -1, -1, -1], "split_conditions": [-1.8485826, -3.1627276, -0.026578961, 1.4499321, -0.025037749, 0.02944394, 0.003138063], "split_indices": [11, 13, 0, 14, 0, 0, 0], "split_type": [0, 0, 0, 0, 0, 0, 0], "sum_hessian": [4633.405, 22.03216, 4611.3726, 9.394117, 12.638043, 7.868721, 1.5253961], "tree_param": {"num_deleted": "0", "num_feature": "29", "num_nodes": "7", "size_leaf_vector": "0"}}, {"base_weights": [-1.1884472, -0.18037324, -0.0037791552, 0.0028405339, -0.0027075412], "categories": [], "categories_nodes": [], "categories_segments": [], "categories_sizes": [], "default_left": [0, 0, 0, 0, 0], "id": 73, "left_children": [1, 3, -1, -1, -1], "loss_changes": [3.4084473, 4.199763, 0.0, 0.0, 0.0], "parents": [2147483647, 0, 0, 1, 1], "right_children": [2, 4, -1, -1, -1], "split_conditions": [-3.4179132, -1.4861786, -0.0037791552, 0.0028405339, -0.0027075412], "split_indices": [13, 6, 0, 0, 0], "split_type": [0, 0, 0, 0, 0], "sum_hessian": [812.4356, 3.7284381, 808.70715, 1.308537, 2.4199014], "tree_param": {"num_deleted": "0", "num_feature": "29", "num_nodes": "5", "size_leaf_vector": "0"}}, {"base_weights": [-1.1979696], "categories": [], "categories_nodes": [], "categories_segments": [], "categories_sizes": [], "default_left": [0], "id": 74, "left_children": [-1], "loss_changes": [0.0], "parents": [2147483647], "right_children": [-1], "split_conditions": [-0.0013958246], "split_indices": [0], "split_type": [0], "sum_hessian": [306.05316], "tree_param": {"num_deleted": "0", "num_feature": "29", "num_nodes": "1", "size_leaf_vector": "0"}}, {"base_weights": [-1.1776843], "categories": [], "categories_nodes": [], "categories_segments": [], "categories_sizes": [], "default_left": [0], "id": 75, "left_children": [-1], "loss_changes": [0.0], "parents": [2147483647], "right_children": [-1], "split_conditions": [-0.0013721891], "split_indices": [0], "split_type": [0], "sum_hessian": [285.96667], "tree_param": {"num_deleted": "0", "num_feature": "29", "num_nodes": "1", "size_leaf_vector": "0"}}, {"base_weights": [-1.1549022, -0.53723997, -0.009969396, 0.53159136, -0.008810255, -0.0026293453, 0.008157441], "categories": [], "categories_nodes": [], "categories_segments": [], "categories_sizes": [], "default_left": [0, 0, 0, 0, 0, 0, 0], "id": 76, "left_children": [1, 3, -1, 5, -1, -1, -1], "loss_changes": [2.4899902, 5.729357, 0.0, 1.6034063, 0.0, 0.0, 0.0], "parents": [2147483647, 0, 0, 1, 1, 3, 3], "right_children": [2, 4, -1, 6, -1, -1, -1], "split_conditions": [-1.5040348, -1.9945164, -0.009969396, -0.7393895, -0.008810255, -0.0026293453, 0.008157441], "split_indices": [16, 15, 0, 21, 0, 0, 0], "split_type": [0, 0, 0, 0, 0, 0, 0], "sum_hessian": [1907.94, 8.988627, 1898.9514, 2.778965, 6.209662, 1.010113, 1.7688521], "tree_param": {"num_deleted": "0", "num_feature": "29", "num_nodes": "7", "size_leaf_vector": "0"}}, {"base_weights": [-1.050495, -0.22373071, -1.0554501, 0.73388386, -0.6139404, -0.69292694, -0.06723445, 0.90287304, 0.15155822, 0.030758327, -0.839051, 0.38001528, -0.9474691, 0.006804719, 0.06408029, -0.023394857, 0.041260887, 0.04353503, -0.32959387, -0.06426477, -0.25879815, -0.016590172, 0.05301618, -0.063528575, -0.019129006, -0.6940463, 0.024143573, -0.04375752, 0.029675864, -0.05677613, -0.0018091575], "categories": [], "categories_nodes": [], "categories_segments": [], "categories_sizes": [], "default_left": [0, 0, 0, 0, 0, 0, 0, 0, 0, 0, 0, 0, 0, 0, 0, 0, 0, 0, 0, 0, 0, 0, 0, 0, 0, 0, 0, 0, 0, 0, 0], "id": 77, "left_children": [1, 3, 5, 7, 9, 11, -1, 13, 15, 17, 19, 21, 23, -1, -1, -1, -1, -1, 25, -1, 27, -1, -1, -1, -1, 29, -1, -1, -1, -1, -1], "loss_changes": [25.824219, 15.086258, 1.5390625, 1.0238581, 4.143466, 5.8615675, 0.0, 0.63245726, 1.232443, 2.1812093, 1.8254776, 1.5454023, 0.24380493, 0.0, 0.0, 0.0, 0.0, 0.0, 1.8210955, 0.0, 2.2274203, 0.0, 0.0, 0.0, 0.0, 0.5462098, 0.0, 0.0, 0.0, 0.0, 0.0], "parents": [2147483647, 0, 0, 1, 1, 2, 2, 3, 3, 4, 4, 5, 5, 7, 7, 8, 8, 9, 9, 10, 10, 11, 11, 12, 12, 18, 18, 20, 20, 25, 25], "right_children": [2, 4, 6, 8, 10, 12, -1, 14, 16, 18, 20, 22, 24, -1, -1, -1, -1, -1, 26, -1, 28, -1, -1, -1, -1, 30, -1, -1, -1, -1, -1], "split_conditions": [-3.5017025, -1.6305879, -1.6291264, 0.35226738, -1.8736137, -2.3177133, -0.06723445, 1.3483846, -1.9047154, -0.29348528, 4.055379, 0.19875693, 2.8758717, 0.006804719, 0.06408029, -0.023394857, 0.041260887, 0.04353503, 0.2437802, -0.06426477, -0.16968644, -0.016590172, 0.05301618, -0.063528575, -0.019129006, -1.1570644, 0.024143573, -0.04375752, 0.029675864, -0.05677613, -0.0018091575], "split_indices": [13, 6, 16, 14, 9, 15, 0, 1, 4, 25, 3, 19, 28, 0, 0, 0, 0, 0, 26, 0, 20, 0, 0, 0, 0, 5, 0, 0, 0, 0, 0], "split_type": [0, 0, 0, 0, 0, 0, 0, 0, 0, 0, 0, 0, 0, 0, 0, 0, 0, 0, 0, 0, 0, 0, 0, 0, 0, 0, 0, 0, 0, 0, 0], "sum_hessian": [6360.2935, 38.16739, 6322.126, 10.7948885, 27.372501, 19.14402, 6302.982, 7.9402037, 2.8546846, 7.3075695, 20.064932, 3.5763042, 15.567717, 1.1520172, 6.7881866, 1.5230259, 1.3316586, 2.2784903, 5.029079, 14.931415, 5.133517, 1.6571718, 1.9191324, 13.931843, 1.6358738, 3.3354568, 1.6936221, 3.2584937, 1.8750234, 2.3083107, 1.0271461], "tree_param": {"num_deleted": "0", "num_feature": "29", "num_nodes": "31", "size_leaf_vector": "0"}}, {"base_weights": [-1.1135844, -0.12024738, -0.02618983, 1.1197146, -1.0230023, 0.0026458132, 0.028741984, -0.0065536243, -0.02486629], "categories": [], "categories_nodes": [], "categories_segments": [], "categories_sizes": [], "default_left": [0, 0, 0, 0, 0, 0, 0, 0, 0], "id": 78, "left_children": [1, 3, -1, 5, 7, -1, -1, -1, -1], "loss_changes": [21.078613, 26.341753, 0.0, 0.94382286, 0.0965786, 0.0, 0.0, 0.0, 0.0], "parents": [2147483647, 0, 0, 1, 1, 3, 3, 4, 4], "right_children": [2, 4, -1, 6, 8, -1, -1, -1, -1], "split_conditions": [-3.6223547, 0.3317145, -0.02618983, 1.213599, -0.55406624, 0.0026458132, 0.028741984, -0.0065536243, -0.02486629], "split_indices": [13, 6, 0, 3, 4, 0, 0, 0, 0], "split_type": [0, 0, 0, 0, 0, 0, 0, 0, 0], "sum_hessian": [4204.8, 21.509104, 4183.2905, 8.960814, 12.548289, 1.0661274, 7.894687, 1.0355719, 11.512717], "tree_param": {"num_deleted": "0", "num_feature": "29", "num_nodes": "9", "size_leaf_vector": "0"}}, {"base_weights": [-1.1682451, -0.14632803, -0.0037158353, 0.002783252, -0.0026109575], "categories": [], "categories_nodes": [], "categories_segments": [], "categories_sizes": [], "default_left": [0, 0, 0, 0, 0], "id": 79, "left_children": [1, 3, -1, -1, -1], "loss_changes": [3.4195557, 3.8954968, 0.0, 0.0, 0.0], "parents": [2147483647, 0, 0, 1, 1], "right_children": [2, 4, -1, -1, -1], "split_conditions": [-3.4179132, -1.4861786, -0.0037158353, 0.002783252, -0.0026109575], "split_indices": [13, 6, 0, 0, 0], "split_type": [0, 0, 0, 0, 0], "sum_hessian": [757.1824, 3.565629, 753.6167, 1.3015528, 2.2640762], "tree_param": {"num_deleted": "0", "num_feature": "29", "num_nodes": "5", "size_leaf_vector": "0"}}, {"base_weights": [-1.1487842, -0.12571047, -0.0036546013, 0.0026720942, -0.0025123823], "categories": [], "categories_nodes": [], "categories_segments": [], "categories_sizes": [], "default_left": [0, 0, 0, 0, 0], "id": 80, "left_children": [1, 3, -1, -1, -1], "loss_changes": [3.274292, 3.4975348, 0.0, 0.0, 0.0], "parents": [2147483647, 0, 0, 1, 1], "right_children": [2, 4, -1, -1, -1], "split_conditions": [-3.4179132, -1.4861786, -0.0036546013, 0.0026720942, -0.0025123823], "split_indices": [13, 6, 0, 0, 0], "split_type": [0, 0, 0, 0, 0], "sum_hessian": [700.03, 3.3739274, 696.65607, 1.2681885, 2.1057389], "tree_param": {"num_deleted": "0", "num_feature": "29", "num_nodes": "5", "size_leaf_vector": "0"}}, {"base_weights": [-1.157898], "categories": [], "categories_nodes": [], "categories_segments": [], "categories_sizes": [], "default_left": [0], "id": 81, "left_children": [-1], "loss_changes": [0.0], "parents": [2147483647], "right_children": [-1], "split_conditions": [-0.0013491348], "split_indices": [0], "split_type": [0], "sum_hessian": [265.09296], "tree_param": {"num_deleted": "0", "num_feature": "29", "num_nodes": "1", "size_leaf_vector": "0"}}, {"base_weights": [-1.1366365, -0.5026947, -0.0098132305, 0.5138365, -0.008573513, -0.002660067, 0.008021639], "categories": [], "categories_nodes": [], "categories_segments": [], "categories_sizes": [], "default_left": [0, 0, 0, 0, 0, 0, 0], "id": 82, "left_children": [1, 3, -1, 5, -1, -1, -1], "loss_changes": [2.5063477, 5.229217, 0.0, 1.5705283, 0.0, 0.0, 0.0], "parents": [2147483647, 0, 0, 1, 1, 3, 3], "right_children": [2, 4, -1, 6, -1, -1, -1], "split_conditions": [-1.8489724, -1.9945164, -0.0098132305, -0.7393895, -0.008573513, -0.002660067, 0.008021639], "split_indices": [11, 15, 0, 21, 0, 0, 0], "split_type": [0, 0, 0, 0, 0, 0, 0], "sum_hessian": [1750.7479, 8.418134, 1742.3298, 2.734476, 5.683657, 1.0082495, 1.7262266], "tree_param": {"num_deleted": "0", "num_feature": "29", "num_nodes": "7", "size_leaf_vector": "0"}}, {"base_weights": [-1.0396061, -0.20561762, -1.0449303, 0.5005207, -0.67954147, -0.6513502, -0.06657341, 0.1254208, 0.056950945, -0.8085536, 0.2590296, 0.39030486, -0.9218487, 0.6405291, -0.37077624, -0.0051326323, -0.88075763, -0.02253863, 0.054384198, -0.020278763, 0.04987836, -0.062284674, -0.01683334, 0.054367796, 0.0006696317, 0.020106131, -0.7749465, -0.32208514, -0.063492656, -0.0034020918, -0.06737083, 0.03271993, -0.048721272], "categories": [], "categories_nodes": [], "categories_segments": [], "categories_sizes": [], "default_left": [0, 0, 0, 0, 0, 0, 0, 0, 0, 0, 0, 0, 0, 0, 0, 0, 0, 0, 0, 0, 0, 0, 0, 0, 0, 0, 0, 0, 0, 0, 0, 0, 0], "id": 83, "left_children": [1, 3, 5, 7, 9, 11, -1, 13, -1, 15, 17, 19, 21, 23, 25, -1, 27, -1, -1, -1, -1, -1, -1, -1, -1, -1, 29, 31, -1, -1, -1, -1, -1], "loss_changes": [23.964844, 12.317153, 1.7124023, 2.0989757, 2.853982, 5.4477077, 0.0, 2.4929745, 0.0, 0.9508705, 1.5428847, 1.4839216, 0.28764153, 0.6234127, 1.6680923, 0.0, 0.8272171, 0.0, 0.0, 0.0, 0.0, 0.0, 0.0, 0.0, 0.0, 0.0, 0.6632855, 2.0696926, 0.0, 0.0, 0.0, 0.0, 0.0], "parents": [2147483647, 0, 0, 1, 1, 2, 2, 3, 3, 4, 4, 5, 5, 7, 7, 9, 9, 10, 10, 11, 11, 12, 12, 13, 13, 14, 14, 16, 16, 26, 26, 27, 27], "right_children": [2, 4, 6, 8, 10, 12, -1, 14, -1, 16, 18, 20, 22, 24, 26, -1, 28, -1, -1, -1, -1, -1, -1, -1, -1, -1, 30, 32, -1, -1, -1, -1, -1], "split_conditions": [-3.5017025, -2.2077334, -1.6291264, 3.8042965, 0.19121079, -3.046257, -0.06657341, 0.18811315, 0.056950945, -1.8736137, 2.110048, -0.12273013, 2.8758717, 0.6318199, 1.93643, -0.0051326323, -1.3704091, -0.02253863, 0.054384198, -0.020278763, 0.04987836, -0.062284674, -0.01683334, 0.054367796, 0.0006696317, 0.020106131, -0.09952575, 2.016009, -0.063492656, -0.0034020918, -0.06737083, 0.03271993, -0.048721272], "split_indices": [13, 9, 16, 3, 20, 11, 0, 27, 0, 9, 3, 19, 28, 15, 1, 0, 8, 0, 0, 0, 0, 0, 0, 0, 0, 0, 19, 1, 0, 0, 0, 0, 0], "split_type": [0, 0, 0, 0, 0, 0, 0, 0, 0, 0, 0, 0, 0, 0, 0, 0, 0, 0, 0, 0, 0, 0, 0, 0, 0, 0, 0, 0, 0, 0, 0, 0, 0], "sum_hessian": [5444.5186, 34.7891, 5409.7295, 13.949084, 20.840015, 17.057192, 5392.6724, 7.824428, 6.124656, 18.44339, 2.3966253, 3.4250104, 13.632182, 3.6963377, 4.1280904, 1.8554206, 16.587969, 1.3804724, 1.0161529, 1.2901969, 2.1348135, 12.09772, 1.5344619, 2.4941766, 1.202161, 1.6103642, 2.5177262, 3.5199318, 13.068037, 1.0458527, 1.4718735, 1.1645963, 2.3553355], "tree_param": {"num_deleted": "0", "num_feature": "29", "num_nodes": "33", "size_leaf_vector": "0"}}, {"base_weights": [-1.0977727, -0.06797099, -0.02582225, 1.0696193, -0.023951579, 0.004185895, 0.02868222], "categories": [], "categories_nodes": [], "categories_segments": [], "categories_sizes": [], "default_left": [0, 0, 0, 0, 0, 0, 0], "id": 84, "left_children": [1, 3, -1, 5, -1, -1, -1], "loss_changes": [20.143066, 22.86161, 0.0, 1.1152887, 0.0, 0.0, 0.0], "parents": [2147483647, 0, 0, 1, 1, 3, 3], "right_children": [2, 4, -1, 6, -1, -1, -1], "split_conditions": [-1.8485826, -3.1627276, -0.02582225, 0.05511978, -0.023951579, 0.004185895, 0.02868222], "split_indices": [11, 13, 0, 20, 0, 0, 0], "split_type": [0, 0, 0, 0, 0, 0, 0], "sum_hessian": [3782.8438, 19.034395, 3763.8093, 8.632469, 10.401926, 1.6024235, 7.030046], "tree_param": {"num_deleted": "0", "num_feature": "29", "num_nodes": "7", "size_leaf_vector": "0"}}, {"base_weights": [-1.0841314, -0.041033383, -0.025508847, 1.0442116, -0.02348309, 0.027884427, 0.0029540786], "categories": [], "categories_nodes": [], "categories_segments": [], "categories_sizes": [], "default_left": [0, 0, 0, 0, 0, 0, 0], "id": 85, "left_children": [1, 3, -1, 5, -1, -1, -1], "loss_changes": [19.286865, 20.585285, 0.0, 1.1011372, 0.0, 0.0, 0.0], "parents": [2147483647, 0, 0, 1, 1, 3, 3], "right_children": [2, 4, -1, 6, -1, -1, -1], "split_conditions": [-1.8485826, -3.1627276, -0.025508847, 1.4499321, -0.02348309, 0.027884427, 0.0029540786], "split_indices": [11, 13, 0, 14, 0, 0, 0], "split_type": [0, 0, 0, 0, 0, 0, 0], "sum_hessian": [3403.7822, 17.714083, 3386.0684, 8.283757, 9.4303255, 6.8851414, 1.398616], "tree_param": {"num_deleted": "0", "num_feature": "29", "num_nodes": "7", "size_leaf_vector": "0"}}, {"base_weights": [-1.1316792, -0.094714865, -0.003601207, 0.0026260866, -0.0024215875], "categories": [], "categories_nodes": [], "categories_segments": [], "categories_sizes": [], "default_left": [0, 0, 0, 0, 0], "id": 86, "left_children": [1, 3, -1, -1, -1], "loss_changes": [3.2651367, 3.23898, 0.0, 0.0, 0.0], "parents": [2147483647, 0, 0, 1, 1], "right_children": [2, 4, -1, -1, -1], "split_conditions": [-3.4179132, -1.4861786, -0.003601207, 0.0026260866, -0.0024215875], "split_indices": [13, 6, 0, 0, 0], "split_type": [0, 0, 0, 0, 0], "sum_hessian": [647.07587, 3.2124581, 643.8634, 1.2502235, 1.9622345], "tree_param": {"num_deleted": "0", "num_feature": "29", "num_nodes": "5", "size_leaf_vector": "0"}}, {"base_weights": [-1.1406461], "categories": [], "categories_nodes": [], "categories_segments": [], "categories_sizes": [], "default_left": [0], "id": 87, "left_children": [-1], "loss_changes": [0.0], "parents": [2147483647], "right_children": [-1], "split_conditions": [-0.0013290338], "split_indices": [0], "split_type": [0], "sum_hessian": [245.67291], "tree_param": {"num_deleted": "0", "num_feature": "29", "num_nodes": "1", "size_leaf_vector": "0"}}, {"base_weights": [-1.1208781, -0.49039677, -0.009677838, 0.47327274, -0.0083657345, -0.0021948204, 0.0076482124], "categories": [], "categories_nodes": [], "categories_segments": [], "categories_sizes": [], "default_left": [0, 0, 0, 0, 0, 0, 0], "id": 88, "left_children": [1, 3, -1, 5, -1, -1, -1], "loss_changes": [2.2974854, 4.5884695, 0.0, 1.3249971, 0.0, 0.0, 0.0], "parents": [2147483647, 0, 0, 1, 1, 3, 3], "right_children": [2, 4, -1, 6, -1, -1, -1], "split_conditions": [-1.8489724, -1.9945164, -0.009677838, -6.9257145, -0.0083657345, -0.0021948204, 0.0076482124], "split_indices": [11, 15, 0, 0, 0, 0, 0], "split_type": [0, 0, 0, 0, 0, 0, 0], "sum_hessian": [1606.2527, 7.9083366, 1598.3444, 2.6381736, 5.270163, 1.0973431, 1.5408306], "tree_param": {"num_deleted": "0", "num_feature": "29", "num_nodes": "7", "size_leaf_vector": "0"}}, {"base_weights": [-1.0302947, -0.1859755, -1.0360392, 0.6474429, -0.5331676, -0.6135394, -0.066016205, 0.055019185, 0.05643231, -0.89292616, -0.0930997, 0.3745881, -0.89694726, -0.056655817, 0.050602745, -0.015605197, -0.062315557, 0.3814959, -0.05570726, 0.054834176, -0.008762025, -0.014282133, -0.061366066, 0.655296, -0.03983293, -0.004055698, 0.8706954, 1.0737329, 0.0019709854, 0.021451589, 0.07858566], "categories": [], "categories_nodes": [], "categories_segments": [], "categories_sizes": [], "default_left": [0, 0, 0, 0, 0, 0, 0, 0, 0, 0, 0, 0, 0, 0, 0, 0, 0, 0, 0, 0, 0, 0, 0, 0, 0, 0, 0, 0, 0, 0, 0], "id": 89, "left_children": [1, 3, 5, 7, 9, 11, -1, -1, 13, 15, 17, 19, 21, -1, -1, -1, -1, 23, -1, -1, -1, -1, -1, 25, -1, -1, 27, 29, -1, -1, -1], "loss_changes": [22.446777, 9.825115, 1.8310547, 1.2451372, 3.6651897, 4.8810205, 0.0, 0.0, 3.3504937, 0.4809475, 4.7017927, 1.1970632, 0.36767673, 0.0, 0.0, 0.0, 0.0, 2.622013, 0.0, 0.0, 0.0, 0.0, 0.0, 1.1077147, 0.0, 0.0, 0.869699, 0.08630705, 0.0, 0.0, 0.0], "parents": [2147483647, 0, 0, 1, 1, 2, 2, 3, 3, 4, 4, 5, 5, 8, 8, 9, 9, 10, 10, 11, 11, 12, 12, 17, 17, 23, 23, 26, 26, 27, 27], "right_children": [2, 4, 6, 8, 10, 12, -1, -1, 14, 16, 18, 20, 22, -1, -1, -1, -1, 24, -1, -1, -1, -1, -1, 26, -1, -1, 28, 30, -1, -1, -1], "split_conditions": [-3.5017025, -1.6305879, -1.6291264, -3.9612064, 1.7654554, -2.3177133, -0.066016205, 0.055019185, -1.9047154, -0.44691634, 1.1069125, -2.2802653, -1.3627363, -0.056655817, 0.050602745, -0.015605197, -0.062315557, 0.77826995, -0.05570726, 0.054834176, -0.008762025, -0.014282133, -0.061366066, 0.030180609, -0.03983293, -0.004055698, 0.16000204, 1.160297, 0.0019709854, 0.021451589, 0.07858566], "split_indices": [13, 6, 16, 2, 3, 15, 0, 0, 4, 14, 6, 8, 27, 0, 0, 0, 0, 12, 0, 0, 0, 0, 0, 27, 0, 0, 7, 17, 0, 0, 0], "split_type": [0, 0, 0, 0, 0, 0, 0, 0, 0, 0, 0, 0, 0, 0, 0, 0, 0, 0, 0, 0, 0, 0, 0, 0, 0, 0, 0, 0, 0, 0, 0], "sum_hessian": [4666.6953, 31.762102, 4634.9336, 9.086231, 22.67587, 15.22977, 4619.7036, 6.3070607, 2.7791705, 11.910164, 10.765708, 3.3227992, 11.906971, 1.1281873, 1.6509832, 1.8507847, 10.05938, 7.0192175, 3.7464902, 1.3537991, 1.9690001, 1.4771955, 10.429775, 5.793962, 1.2252556, 1.49792, 4.296042, 3.235145, 1.0608969, 1.13531, 2.0998352], "tree_param": {"num_deleted": "0", "num_feature": "29", "num_nodes": "31", "size_leaf_vector": "0"}}, {"base_weights": [-1.0230742, -0.17090225, -1.0292364, 0.3965316, -0.65235454, -0.5816711, -0.06559197, -0.030304432, 0.525998, -0.81078666, 0.34018904, 0.3673101, -0.8740141, 0.061013814, 0.14068504, -0.26058272, -0.059546635, 0.04685552, -0.013983987, -0.018568078, 0.04667027, -0.06015489, -0.011219922, -0.3306862, 0.049947806, 0.030522566, -0.04531181, 0.02920457, -0.6669066, -0.0025431204, -0.06621459], "categories": [], "categories_nodes": [], "categories_segments": [], "categories_sizes": [], "default_left": [0, 0, 0, 0, 0, 0, 0, 0, 0, 0, 0, 0, 0, 0, 0, 0, 0, 0, 0, 0, 0, 0, 0, 0, 0, 0, 0, 0, 0, 0, 0], "id": 90, "left_children": [1, 3, 5, 7, 9, 11, -1, -1, 13, 15, 17, 19, 21, -1, 23, 25, -1, -1, -1, -1, -1, -1, -1, 27, -1, -1, -1, -1, 29, -1, -1], "loss_changes": [21.248047, 8.587803, 1.9321289, 1.9018989, 2.9289145, 4.453266, 0.0, 0.0, 2.0664406, 0.7759886, 0.83297235, 1.2299801, 0.41363525, 0.0, 2.7359238, 1.7218983, 0.0, 0.0, 0.0, 0.0, 0.0, 0.0, 0.0, 1.743067, 0.0, 0.0, 0.0, 0.0, 0.94290805, 0.0, 0.0], "parents": [2147483647, 0, 0, 1, 1, 2, 2, 3, 3, 4, 4, 5, 5, 8, 8, 9, 9, 10, 10, 11, 11, 12, 12, 14, 14, 15, 15, 23, 23, 28, 28], "right_children": [2, 4, 6, 8, 10, 12, -1, -1, 14, 16, 18, 20, 22, -1, 24, 26, -1, 