{"learner": {"attributes": {"best_iteration": "509", "best_ntree_limit": "510"}, "feature_names": ["V1", "V2", "V3", "V4", "V5", "V6", "V7", "V8", "V9", "V10", "V11", "V12", "V13", "V14", "V15", "V16", "V17", "V18", "V19", "V20", "V21", "V22", "V23", "V24", "V25", "V26", "V27", "V28", "normalizedAmount"], "feature_types": ["float", "float", "float", "float", "float", "float", "float", "float", "float", "float", "float", "float", "float", "float", "float", "float", "float", "float", "float", "float", "float", "float", "float", "float", "float", "float", "float", "float", "float"], "gradient_booster": {"model": {"gbtree_model_param": {"num_parallel_tree": "1", "num_trees": "510", "size_leaf_vector": "0"}, "tree_info": [0, 0, 0, 0, 0, 0, 0, 0, 0, 0, 0, 0, 0, 0, 0, 0, 0, 0, 0, 0, 0, 0, 0, 0, 0, 0, 0, 0, 0, 0, 0, 0, 0, 0, 0, 0, 0, 0, 0, 0, 0, 0, 0, 0, 0, 0, 0, 0, 0, 0, 0, 0, 0, 0, 0, 0, 0, 0, 0, 0, 0, 0, 0, 0, 0, 0, 0, 0, 0, 0, 0, 0, 0, 0, 0, 0, 0, 0, 0, 0, 0, 0, 0, 0, 0, 0, 0, 0, 0, 0, 0, 0, 0, 0, 0, 0, 0, 0, 0, 0, 0, 0, 0, 0, 0, 0, 0, 0, 0, 0, 0, 0, 0, 0, 0, 0, 0, 0, 0, 0, 0, 0, 0, 0, 0, 0, 0, 0, 0, 0, 0, 0, 0, 0, 0, 0, 0, 0, 0, 0, 0, 0, 0, 0, 0, 0, 0, 0, 0, 0, 0, 0, 0, 0, 0, 0, 0, 0, 0, 0, 0, 0, 0, 0, 0, 0, 0, 0, 0, 0, 0, 0, 0, 0, 0, 0, 0, 0, 0, 0, 0, 0, 0, 0, 0, 0, 0, 0, 0, 0, 0, 0, 0, 0, 0, 0, 0, 0, 0, 0, 0, 0, 0, 0, 0, 0, 0, 0, 0, 0, 0, 0, 0, 0, 0, 0, 0, 0, 0, 0, 0, 0, 0, 0, 0, 0, 0, 0, 0, 0, 0, 0, 0, 0, 0, 0, 0, 0, 0, 0, 0, 0, 0, 0, 0, 0, 0, 0, 0, 0, 0, 0, 0, 0, 0, 0, 0, 0, 0, 0, 0, 0, 0, 0, 0, 0, 0, 0, 0, 0, 0, 0, 0, 0, 0, 0, 0, 0, 0, 0, 0, 0, 0, 0, 0, 0, 0, 0, 0, 0, 0, 0, 0, 0, 0, 0, 0, 0, 0, 0, 0, 0, 0, 0, 0, 0, 0, 0, 0, 0, 0, 0, 0, 0, 0, 0, 0, 0, 0, 0, 0, 0, 0, 0, 0, 0, 0, 0, 0, 0, 0, 0, 0, 0, 0, 0, 0, 0, 0, 0, 0, 0, 0, 0, 0, 0, 0, 0, 0, 0, 0, 0, 0, 0, 0, 0, 0, 0, 0, 0, 0, 0, 0, 0, 0, 0, 0, 0, 0, 0, 0, 0, 0, 0, 0, 0, 0, 0, 0, 0, 0, 0, 0, 0, 0, 0, 0, 0, 0, 0, 0, 0, 0, 0, 0, 0, 0, 0, 0, 0, 0, 0, 0, 0, 0, 0, 0, 0, 0, 0, 0, 0, 0, 0, 0, 0, 0, 0, 0, 0, 0, 0, 0, 0, 0, 0, 0, 0, 0, 0, 0, 0, 0, 0, 0, 0, 0, 0, 0, 0, 0, 0, 0, 0, 0, 0, 0, 0, 0, 0, 0, 0, 0, 0, 0, 0, 0, 0, 0, 0, 0, 0, 0, 0, 0, 0, 0, 0, 0, 0, 0, 0, 0, 0, 0, 0, 0, 0, 0, 0, 0, 0, 0, 0, 0, 0, 0, 0, 0, 0, 0, 0, 0, 0, 0, 0, 0, 0, 0, 0, 0, 0, 0, 0, 0, 0, 0, 0, 0, 0], "trees": [{"base_weights": [-1.988843, 0.3219512, -1.9979634, -1.2272727, 1.4380165, -1.2835821, -0.0399749, 0.72727275, -1.7714286, 1.7798165, -0.024999999, -1.661017, 0.02, -0.022222223, 0.030588236, -0.037575755, -0.0, 1.8095238, 0.01, -0.036862746, -0.33333334, 0.036831684, 0.01, -0.02, 0.01], "categories": [], "categories_nodes": [], "categories_segments": [], "categories_sizes": [], "default_left": [0, 0, 0, 0, 0, 0, 0, 0, 0, 0, 0, 0, 0, 0, 0, 0, 0, 0, 0, 0, 0, 0, 0, 0, 0], "id": 0, "left_children": [1, 3, 5, 7, 9, 11, -1, 13, 15, 17, -1, 19, -1, -1, -1, -1, -1, 21, -1, -1, 23, -1, -1, -1, -1], "loss_changes": [270.76953, 90.377884, 4.5625, 24.687016, 30.01738, 16.0979, 0.0, 9.809863, 3.3281364, 0.13127899, 0.0, 2.9521408, 0.0, 0.0, 0.0, 0.0, 0.0, 0.18128967, 0.0, 0.0, 2.1666667, 0.0, 0.0, 0.0, 0.0], "parents": [2147483647, 0, 0, 1, 1, 2, 2, 3, 3, 4, 4, 5, 5, 7, 7, 8, 8, 9, 9, 11, 11, 17, 17, 20, 20], "right_children": [2, 4, 6, 8, 10, 12, -1, 14, 16, 18, -1, 20, -1, -1, -1, -1, -1, 22, -1, -1, 24, -1, -1, -1, -1], "split_conditions": [-4.463014, -0.2375338, -1.8226626, 0.27726558, -1.8171622, 0.5972433, -0.0399749, -2.8816736, -0.2750671, 0.9288476, -0.024999999, 2.2109332, 0.02, -0.022222223, 0.030588236, -0.037575755, -0.0, 0.8489524, 0.01, -0.036862746, -10.504275, 0.036831684, 0.01, -0.02, 0.01], "split_indices": [13, 25, 16, 19, 9, 20, 0, 1, 25, 0, 0, 3, 0, 0, 0, 0, 0, 27, 0, 0, 0, 0, 0, 0, 0], "split_type": [0, 0, 0, 0, 0, 0, 0, 0, 0, 0, 0, 0, 0, 0, 0, 0, 0, 0, 0, 0, 0, 0, 0, 0, 0], "sum_hessian": [12816.0, 50.25, 12765.75, 21.0, 29.25, 15.75, 12750.0, 4.5, 16.5, 26.25, 3.0, 13.75, 2.0, 1.25, 3.25, 15.5, 1.0, 25.25, 1.0, 11.75, 2.0, 24.25, 1.0, 1.0, 1.0], "tree_param": {"num_deleted": "0", "num_feature": "29", "num_nodes": "25", "size_leaf_vector": "0"}}, {"base_weights": [-1.9939144, -0.8374384, -0.0399671, 1.6774193, -1.8896551, 0.03578947, 0.0044444446, -0.0, -0.03886525], "categories": [], "categories_nodes": [], "categories_segments": [], "categories_sizes": [], "default_left": [0, 0, 0, 0, 0, 0, 0, 0, 0], "id": 1, "left_children": [1, 3, -1, 5, 7, -1, -1, -1, -1], "loss_changes": [64.15234, 137.46313, 0.0, 2.1297874, 3.672104, 0.0, 0.0, 0.0, 0.0], "parents": [2147483647, 0, 0, 1, 1, 3, 3, 4, 4], "right_children": [2, 4, -1, 6, 8, -1, -1, -1, -1], "split_conditions": [-1.8355584, -1.7015842, -0.0399671, -3.5996873, -3.217497, 0.03578947, 0.0044444446, -0.0, -0.03886525], "split_indices": [11, 15, 0, 13, 2, 0, 0, 0, 0], "split_type": [0, 0, 0, 0, 0, 0, 0, 0, 0], "sum_hessian": [12816.0, 49.75, 12766.25, 14.5, 35.25, 13.25, 1.25, 1.0, 34.25], "tree_param": {"num_deleted": "0", "num_feature": "29", "num_nodes": "9", "size_leaf_vector": "0"}}, {"base_weights": [-1.9914957, -0.28292683, -0.039963968, 1.5, -1.7876107, 0.2857143, 0.037777774, -0.037798166, 0.01, 0.024, -0.5882353, -0.025454544, 0.008], "categories": [], "categories_nodes": [], "categories_segments": [], "categories_sizes": [], "default_left": [0, 0, 0, 0, 0, 0, 0, 0, 0, 0, 0, 0, 0], "id": 2, "left_children": [1, 3, -1, 5, 7, 9, -1, -1, -1, -1, 11, -1, -1], "loss_changes": [146.21484, 140.1719, 0.0, 10.793648, 7.5559387, 6.2991595, 0.0, 0.0, 0.0, 0.0, 3.3839574, 0.0, 0.0], "parents": [2147483647, 0, 0, 1, 1, 3, 3, 4, 4, 5, 5, 10, 10], "right_children": [2, 4, -1, 6, 8, 10, -1, -1, -1, -1, 12, -1, -1], "split_conditions": [-1.6304436, -1.8795468, -0.039963968, 2.847092, 1.8627399, 0.6811119, 0.037777774, -0.037798166, 0.01, 0.024, 1.0400659, -0.025454544, 0.008], "split_indices": [16, 9, 0, 3, 20, 7, 0, 0, 0, 0, 7, 0, 0], "split_type": [0, 0, 0, 0, 0, 0, 0, 0, 0, 0, 0, 0, 0], "sum_hessian": [12816.0, 50.25, 12765.75, 23.0, 27.25, 6.0, 17.0, 26.25, 1.0, 2.75, 3.25, 1.75, 1.5], "tree_param": {"num_deleted": "0", "num_feature": "29", "num_nodes": "13", "size_leaf_vector": "0"}}, {"base_weights": [-1.9958649, -1.117647, -0.039984334, 1.4042553, -1.826087, 1.7073171, -0.008, -1.8726115, -0.0, 0.035675675, 0.01, -0.01, -0.037908494], "categories": [], "categories_nodes": [], "categories_segments": [], "categories_sizes": [], "default_left": [0, 0, 0, 0, 0, 0, 0, 0, 0, 0, 0, 0, 0], "id": 3, "left_children": [1, 3, -1, 5, 7, 9, -1, 11, -1, -1, -1, -1, -1], "loss_changes": [35.492188, 93.68172, 0.0, 7.107834, 3.4195557, 0.05438423, 0.0, 0.2813568, 0.0, 0.0, 0.0, 0.0, 0.0], "parents": [2147483647, 0, 0, 1, 1, 3, 3, 4, 4, 5, 5, 7, 7], "right_children": [2, 4, -1, 6, 8, 10, -1, 12, -1, -1, -1, -1, -1], "split_conditions": [-3.3195264, -2.1530278, -0.039984334, 0.57899237, 0.6932602, -3.6524289, -0.008, -0.38162118, -0.0, 0.035675675, 0.01, -0.01, -0.037908494], "split_indices": [13, 9, 0, 15, 20, 2, 0, 28, 0, 0, 0, 0, 0], "split_type": [0, 0, 0, 0, 0, 0, 0, 0, 0, 0, 0, 0, 0], "sum_hessian": [12816.0, 50.0, 12766.0, 10.75, 39.25, 9.25, 1.5, 38.25, 1.0, 8.25, 1.0, 1.0, 37.25], "tree_param": {"num_deleted": "0", "num_feature": "29", "num_nodes": "13", "size_leaf_vector": "0"}}, {"base_weights": [-1.9946167, -0.96585363, -0.039971802, 1.6, -1.7484276, 0.03652174, -0.01, -0.6666667, -1.8848921, 0.018181818, -0.030588236, -0.03822222, -0.01], "categories": [], "categories_nodes": [], "categories_segments": [], "categories_sizes": [], "default_left": [0, 0, 0, 0, 0, 0, 0, 0, 0, 0, 0, 0, 0], "id": 4, "left_children": [1, 3, -1, 5, 7, -1, -1, 9, 11, -1, -1, -1, -1], "loss_changes": [50.464844, 105.70596, 0.0, 6.847828, 4.611374, 0.0, 0.0, 9.547236, 0.30623627, 0.0, 0.0, 0.0, 0.0], "parents": [2147483647, 0, 0, 1, 1, 3, 3, 4, 4, 7, 7, 8, 8], "right_children": [2, 4, -1, 6, 8, -1, -1, 10, 12, -1, -1, -1, -1], "split_conditions": [-3.1088288, -0.87789625, -0.039971802, 0.29077476, -1.3834217, 0.03652174, -0.01, 1.1016433, 3.229543, 0.018181818, -0.030588236, -0.03822222, -0.01], "split_indices": [13, 6, 0, 5, 11, 0, 0, 4, 4, 0, 0, 0, 0], "split_type": [0, 0, 0, 0, 0, 0, 0, 0, 0, 0, 0, 0, 0], "sum_hessian": [12816.5, 50.25, 12766.25, 11.5, 38.75, 10.5, 1.0, 5.0, 33.75, 1.75, 3.25, 32.75, 1.0], "tree_param": {"num_deleted": "0", "num_feature": "29", "num_nodes": "13", "size_leaf_vector": "0"}}, {"base_weights": [-1.8137972, -0.8626053, -0.036349636, 1.515083, -1.5912025, -0.0033644282, 0.034339663, -0.60097724, -0.0343385, 0.018267818, -0.028817402], "categories": [], "categories_nodes": [], "categories_segments": [], "categories_sizes": [], "default_left": [0, 0, 0, 0, 0, 0, 0, 0, 0, 0, 0], "id": 5, "left_children": [1, 3, -1, 5, 7, -1, -1, 9, -1, -1, -1], "loss_changes": [42.910156, 90.5423, 0.0, 4.518326, 3.8767395, 0.0, 0.0, 8.922751, 0.0, 0.0, 0.0], "parents": [2147483647, 0, 0, 1, 1, 3, 3, 4, 4, 7, 7], "right_children": [2, 4, -1, 6, 8, -1, -1, 10, -1, -1, -1], "split_conditions": [-3.1088288, -0.87789625, -0.036349636, 1.1965263, -1.3834217, -0.0033644282, 0.034339663, 1.1016433, -0.0343385, 0.018267818, -0.028817402], "split_indices": [13, 6, 0, 10, 11, 0, 0, 4, 0, 0, 0], "split_type": [0, 0, 0, 0, 0, 0, 0, 0, 0, 0, 0], "sum_hessian": [12689.536, 49.873154, 12639.663, 11.444844, 38.42831, 1.2435758, 10.201269, 4.9805264, 33.447784, 1.7456055, 3.2349212], "tree_param": {"num_deleted": "0", "num_feature": "29", "num_nodes": "11", "size_leaf_vector": "0"}}, {"base_weights": [-1.8089336, 0.26918992, -1.8171632, -1.2005734, 1.329521, -1.171761, -0.036357403, 0.68968654, -1.726279, 0.032950733, -0.023272783, -1.5279294, 0.019216936, -0.020580364, 0.02875164, -0.036258705, -0.012042753, -0.033893745, -0.0062398603], "categories": [], "categories_nodes": [], "categories_segments": [], "categories_sizes": [], "default_left": [0, 0, 0, 0, 0, 0, 0, 0, 0, 0, 0, 0, 0, 0, 0, 0, 0, 0, 0], "id": 6, "left_children": [1, 3, 5, 7, 9, 11, -1, 13, 15, -1, -1, 17, -1, -1, -1, -1, -1, -1, -1], "loss_changes": [217.52344, 80.96537, 3.640625, 22.922342, 25.750381, 14.108856, 0.0, 8.514568, 0.6029701, 0.0, 0.0, 2.4410858, 0.0, 0.0, 0.0, 0.0, 0.0, 0.0, 0.0], "parents": [2147483647, 0, 0, 1, 1, 2, 2, 3, 3, 4, 4, 5, 5, 7, 7, 8, 8, 11, 11], "right_children": [2, 4, 6, 8, 10, 12, -1, 14, 16, -1, -1, 18, -1, -1, -1, -1, -1, -1, -1], "split_conditions": [-4.463014, -0.2375338, -1.8226626, 0.27726558, -1.8171622, 0.5972433, -0.036357403, -2.8816736, -0.2781177, 0.032950733, -0.023272783, 2.2109332, 0.019216936, -0.020580364, 0.02875164, -0.036258705, -0.012042753, -0.033893745, -0.0062398603], "split_indices": [13, 25, 16, 19, 9, 20, 0, 1, 25, 0, 0, 3, 0, 0, 0, 0, 0, 0, 0], "split_type": [0, 0, 0, 0, 0, 0, 0, 0, 0, 0, 0, 0, 0, 0, 0, 0, 0, 0, 0], "sum_hessian": [12689.483, 49.92875, 12639.555, 20.869087, 29.059664, 15.64204, 12623.912, 4.4731655, 16.395922, 26.07308, 2.986583, 13.646473, 1.9955674, 1.2423325, 3.2308333, 14.653597, 1.7423238, 11.654414, 1.992059], "tree_param": {"num_deleted": "0", "num_feature": "29", "num_nodes": "19", "size_leaf_vector": "0"}}, {"base_weights": [-1.8131424, -0.7443958, -0.036345113, 1.5698905, -1.7179588, 0.033383887, 0.0049005323, -0.003503262, -0.035367656], "categories": [], "categories_nodes": [], "categories_segments": [], "categories_sizes": [], "default_left": [0, 0, 0, 0, 0, 0, 0, 0, 0], "id": 7, "left_children": [1, 3, -1, 5, 7, -1, -1, -1, -1], "loss_changes": [54.4375, 116.135895, 0.0, 1.6211662, 2.4843674, 0.0, 0.0, 0.0, 0.0], "parents": [2147483647, 0, 0, 1, 1, 3, 3, 4, 4], "right_children": [2, 4, -1, 6, 8, -1, -1, -1, -1], "split_conditions": [-1.8355584, -1.7015842, -0.036345113, -3.5996873, -2.61215, 0.033383887, 0.0049005323, -0.003503262, -0.035367656], "split_indices": [11, 15, 0, 13, 2, 0, 0, 0, 0], "split_type": [0, 0, 0, 0, 0, 0, 0, 0, 0], "sum_hessian": [12689.036, 49.34784, 12639.688, 14.4309845, 34.916855, 13.18297, 1.248015, 1.2466818, 33.670174], "tree_param": {"num_deleted": "0", "num_feature": "29", "num_nodes": "9", "size_leaf_vector": "0"}}, {"base_weights": [-1.8111988, -0.2458584, -1.8173578, 1.4266901, -1.6078299, -1.4534554, -0.036358874, 0.03447833, -0.106371395, -0.0036872174, -0.03444737, 0.43904522, -0.035020333, 0.015431247, -0.02406959, 0.026917458, -0.014687142], "categories": [], "categories_nodes": [], "categories_segments": [], "categories_sizes": [], "default_left": [0, 0, 0, 0, 0, 0, 0, 0, 0, 0, 0, 0, 0, 0, 0, 0, 0], "id": 8, "left_children": [1, 3, 5, 7, 9, 11, -1, -1, 13, -1, -1, 15, -1, -1, -1, -1, -1], "loss_changes": [121.90234, 118.22488, 0.0546875, 10.833057, 4.332527, 15.022652, 0.0, 0.0, 5.4914565, 0.0, 0.0, 5.4985304, 0.0, 0.0, 0.0, 0.0, 0.0], "parents": [2147483647, 0, 0, 1, 1, 2, 2, 3, 3, 4, 4, 5, 5, 8, 8, 11, 11], "right_children": [2, 4, 6, 8, 10, 12, -1, -1, 14, -1, -1, 16, -1, -1, -1, -1, -1], "split_conditions": [-1.6304436, -1.6640834, -3.695218, -3.4366248, -2.6788285, -1.8795468, -0.036358874, 0.03447833, 0.9542722, -0.0036872174, -0.03444737, -0.0040639318, -0.035020333, 0.015431247, -0.02406959, 0.026917458, -0.014687142], "split_indices": [16, 6, 13, 2, 9, 9, 0, 0, 20, 0, 0, 19, 0, 0, 0, 0, 0], "split_type": [0, 0, 0, 0, 0, 0, 0, 0, 0, 0, 0, 0, 0, 0, 0, 0, 0], "sum_hessian": [12689.451, 49.892387, 12639.559, 22.371674, 27.520712, 24.311674, 12615.247, 18.634388, 3.737285, 2.2438648, 25.276848, 3.2385962, 21.073078, 2.2408392, 1.4964457, 1.7438965, 1.4946997], "tree_param": {"num_deleted": "0", "num_feature": "29", "num_nodes": "17", "size_leaf_vector": "0"}}, {"base_weights": [-1.8150234, -1.0078279, -0.036362257, 1.321701, -1.6652513, 0.031957544, -0.0067515504, -0.034177367, -0.0064707454], "categories": [], "categories_nodes": [], "categories_segments": [], "categories_sizes": [], "default_left": [0, 0, 0, 0, 0, 0, 0, 0, 0], "id": 9, "left_children": [1, 3, -1, 5, 7, -1, -1, -1, -1], "loss_changes": [29.8125, 79.74019, 0.0, 5.901472, 1.7838211, 0.0, 0.0, 0.0, 0.0], "parents": [2147483647, 0, 0, 1, 1, 3, 3, 4, 4], "right_children": [2, 4, -1, 6, 8, -1, -1, -1, -1], "split_conditions": [-3.3195264, -2.1530278, -0.036362257, 0.57899237, 0.65100724, 0.031957544, -0.0067515504, -0.034177367, -0.0064707454], "split_indices": [13, 9, 0, 15, 20, 0, 0, 0, 0], "split_type": [0, 0, 0, 0, 0, 0, 0, 0, 0], "sum_hessian": [12689.051, 49.630028, 12639.421, 10.701096, 38.928932, 9.205847, 1.4952483, 37.43823, 1.4907051], "tree_param": {"num_deleted": "0", "num_feature": "29", "num_nodes": "9", "size_leaf_vector": "0"}}, {"base_weights": [-1.6791091, -0.9231546, -0.033640426, 1.2362484, -1.5388129, 0.02994794, -0.006355558, -0.031619936, -0.0054980987], "categories": [], "categories_nodes": [], "categories_segments": [], "categories_sizes": [], "default_left": [0, 0, 0, 0, 0, 0, 0, 0, 0], "id": 10, "left_children": [1, 3, -1, 5, 7, -1, -1, -1, -1], "loss_changes": [25.660156, 67.917786, 0.0, 5.1716805, 1.6492767, 0.0, 0.0, 0.0, 0.0], "parents": [2147483647, 0, 0, 1, 1, 3, 3, 4, 4], "right_children": [2, 4, -1, 6, 8, -1, -1, -1, -1], "split_conditions": [-3.3195264, -2.1530278, -0.033640426, 0.57899237, 0.65100724, 0.02994794, -0.006355558, -0.031619936, -0.0054980987], "split_indices": [13, 9, 0, 15, 20, 0, 0, 0, 0], "split_type": [0, 0, 0, 0, 0, 0, 0, 0, 0], "sum_hessian": [12361.062, 48.65604, 12312.405, 10.570904, 38.08514, 9.081269, 1.4896348, 36.61229, 1.4728484], "tree_param": {"num_deleted": "0", "num_feature": "29", "num_nodes": "9", "size_leaf_vector": "0"}}, {"base_weights": [-1.677898, -0.7824551, -0.03362781, 1.4405617, -1.4701203, 0.032479934, -0.0023412274, -0.5468475, -0.03178335, 0.018548343, -0.027550887], "categories": [], "categories_nodes": [], "categories_segments": [], "categories_sizes": [], "default_left": [0, 0, 0, 0, 0, 0, 0, 0, 0, 0, 0], "id": 11, "left_children": [1, 3, -1, 5, 7, -1, -1, 9, -1, -1, -1], "loss_changes": [37.351562, 78.402466, 0.0, 3.7029781, 3.3744125, 0.0, 0.0, 8.544881, 0.0, 0.0, 0.0], "parents": [2147483647, 0, 0, 1, 1, 3, 3, 4, 4, 7, 7], "right_children": [2, 4, -1, 6, 8, -1, -1, 10, -1, -1, -1], "split_conditions": [-3.1088288, -0.87789625, -0.03362781, -2.1519742, -1.3834217, 0.032479934, -0.0023412274, 1.1016433, -0.03178335, 0.018548343, -0.027550887], "split_indices": [13, 6, 0, 9, 11, 0, 0, 4, 0, 0, 0], "split_type": [0, 0, 0, 0, 0, 0, 0, 0, 0, 0, 0], "sum_hessian": [12361.574, 48.901943, 12312.672, 11.294696, 37.60725, 10.066584, 1.228113, 4.9341207, 32.673126, 1.7362711, 3.1978493], "tree_param": {"num_deleted": "0", "num_feature": "29", "num_nodes": "11", "size_leaf_vector": "0"}}, {"base_weights": [-1.6736333, 0.22607741, -1.6812304, -1.1662747, 1.2341126, -1.0807514, -0.033637863, 0.6542247, -1.671734, 1.5323838, -0.021732718, -1.4224107, 0.018550936, -0.019147519, 0.027077403, -0.034937248, -0.012691259, 0.8678525, 1.6321783, -0.031576235, -0.0058948533, 0.0006818269, 0.021806734, 0.0108647235, 0.033407297], "categories": [], "categories_nodes": [], "categories_segments": [], "categories_sizes": [], "default_left": [0, 0, 0, 0, 0, 0, 0, 0, 0, 0, 0, 0, 0, 0, 0, 0, 0, 0, 0, 0, 0, 0, 0, 0, 0], "id": 12, "left_children": [1, 3, 5, 7, 9, 11, -1, 13, 15, 17, -1, 19, -1, -1, -1, -1, -1, 21, 23, -1, -1, -1, -1, -1, -1], "loss_changes": [178.8164, 71.795204, 3.078125, 20.937551, 22.12864, 12.554449, 0.0, 7.390642, 0.22862625, 0.34823227, 0.0, 2.0722656, 0.0, 0.0, 0.0, 0.0, 0.0, 1.0034523, 0.0074539185, 0.0, 0.0, 0.0, 0.0, 0.0, 0.0], "parents": [2147483647, 0, 0, 1, 1, 2, 2, 3, 3, 4, 4, 5, 5, 7, 7, 8, 8, 9, 9, 11, 11, 17, 17, 18, 18], "right_children": [2, 4, 6, 8, 10, 12, -1, 14, 16, 18, -1, 20, -1, -1, -1, -1, -1, 22, 24, -1, -1, -1, -1, -1, -1], "split_conditions": [-4.463014, -0.2375338, -1.8226626, 0.27726558, -1.8171622, 0.5972433, -0.033637863, -2.8816736, -0.2781177, -0.19724247, -0.021732718, 2.2109332, 0.018550936, -0.019147519, 0.027077403, -0.034937248, -0.012691259, 0.08588997, -0.76675147, -0.031576235, -0.0058948533, 0.0006818269, 0.021806734, 0.0108647235, 0.033407297], "split_indices": [13, 25, 16, 19, 9, 20, 0, 1, 25, 25, 0, 3, 0, 0, 0, 0, 0, 12, 21, 0, 0, 0, 0, 0, 0], "split_type": [0, 0, 0, 0, 0, 0, 0, 0, 0, 0, 0, 0, 0, 0, 0, 0, 0, 0, 0, 0, 0, 0, 0, 0, 0], "sum_hessian": [12362.618, 49.127453, 12313.49, 20.565, 28.562454, 15.374021, 12298.116, 4.405067, 16.159933, 25.61059, 2.951864, 13.388116, 1.9859042, 1.221962, 3.183105, 14.430397, 1.7295359, 4.6098723, 21.000717, 11.40609, 1.9820263, 1.2139218, 3.3959508, 1.227337, 19.77338], "tree_param": {"num_deleted": "0", "num_feature": "29", "num_nodes": "25", "size_leaf_vector": "0"}}, {"base_weights": [-1.6772625, -0.67316985, -0.03362293, 1.5265298, -1.566922, 0.032844912, 0.008259985, 0.00061435223, -0.032748785], "categories": [], "categories_nodes": [], "categories_segments": [], "categories_sizes": [], "default_left": [0, 0, 0, 0, 0, 0, 0, 0, 0], "id": 13, "left_children": [1, 3, -1, 5, 7, -1, -1, -1, -1], "loss_changes": [47.078125, 99.31867, 0.0, 1.2224236, 4.0555344, 0.0, 0.0, 0.0, 0.0], "parents": [2147483647, 0, 0, 1, 1, 3, 3, 4, 4], "right_children": [2, 4, -1, 6, 8, -1, -1, -1, -1], "split_conditions": [-1.8355584, -1.9181367, -0.03362293, 2.9789374, -3.217497, 0.032844912, 0.008259985, 0.00061435223, -0.032748785], "split_indices": [11, 15, 0, 7, 2, 0, 0, 0, 0], "split_type": [0, 0, 0, 0, 0, 0, 0, 0, 0], "sum_hessian": [12361.019, 48.301826, 12312.717, 13.750685, 34.55114, 12.026144, 1.7245411, 1.4844253, 33.066715], "tree_param": {"num_deleted": "0", "num_feature": "29", "num_nodes": "9", "size_leaf_vector": "0"}}, {"base_weights": [-1.6757001, -0.22021423, -1.6814697, 1.3299273, -1.4910613, -1.3359078, -0.03364062, 1.6152769, -0.12121942, -0.0041496158, -1.5946051, 0.44903076, -0.032476623, 0.010776596, 0.033169582, 0.015020683, -0.024028074, -0.010147734, -0.032562595, 0.02661902, -0.014083294], "categories": [], "categories_nodes": [], "categories_segments": [], "categories_sizes": [], "default_left": [0, 0, 0, 0, 0, 0, 0, 0, 0, 0, 0, 0, 0, 0, 0, 0, 0, 0, 0, 0, 0], "id": 14, "left_children": [1, 3, 5, 7, 9, 11, -1, 13, 15, -1, 17, 19, -1, -1, -1, -1, -1, -1, -1, -1, -1], "loss_changes": [103.45703, 100.41777, 0.140625, 9.73571, 3.3810387, 13.488358, 0.0, 0.0049591064, 5.3456903, 0.0, 0.11042786, 5.24114, 0.0, 0.0, 0.0, 0.0, 0.0, 0.0, 0.0, 0.0, 0.0], "parents": [2147483647, 0, 0, 1, 1, 2, 2, 3, 3, 4, 4, 5, 5, 7, 7, 8, 8, 10, 10, 11, 11], "right_children": [2, 4, 6, 8, 10, 12, -1, 14, 16, -1, 18, 20, -1, -1, -1, -1, -1, -1, -1, -1, -1], "split_conditions": [-1.6304436, -1.6640834, -3.695218, -3.4366248, -2.6788285, -1.8795468, -0.03364062, 1.984558, 0.9542722, -0.0041496158, -0.99901986, -0.0040639318, -0.032476623, 0.010776596, 0.033169582, 0.015020683, -0.024028074, -0.010147734, -0.032562595, 0.02661902, -0.014083294], "split_indices": [16, 6, 13, 2, 9, 9, 0, 1, 20, 0, 4, 19, 0, 0, 0, 0, 0, 0, 0, 0, 0], "split_type": [0, 0, 0, 0, 0, 0, 0, 0, 0, 0, 0, 0, 0, 0, 0, 0, 0, 0, 0, 0, 0], "sum_hessian": [12362.658, 48.967068, 12313.69, 22.038576, 26.92849, 23.82697, 12289.864, 18.32257, 3.716005, 2.234337, 24.694153, 3.231876, 20.595095, 1.2268193, 17.09575, 2.2244601, 1.491545, 1.2213109, 23.472841, 1.7439936, 1.4878823], "tree_param": {"num_deleted": "0", "num_feature": "29", "num_nodes": "21", "size_leaf_vector": "0"}}, {"base_weights": [-1.5716976, -0.61476463, -0.031508524, 1.444058, -1.4654113, 0.031148555, 0.0075340127, 0.000879588, -0.03068776], "categories": [], "categories_nodes": [], "categories_segments": [], "categories_sizes": [], "default_left": [0, 0, 0, 0, 0, 0, 0, 0, 0], "id": 15, "left_children": [1, 3, -1, 5, 7, -1, -1, -1, -1], "loss_changes": [41.48047, 85.853806, 0.0, 1.1658554, 3.6417465, 0.0, 0.0, 0.0, 0.0], "parents": [2147483647, 0, 0, 1, 1, 3, 3, 4, 4], "right_children": [2, 4, -1, 6, 8, -1, -1, -1, -1], "split_conditions": [-1.8355584, -1.9181367, -0.031508524, 2.9789374, -3.217497, 0.031148555, 0.0075340127, 0.000879588, -0.03068776], "split_indices": [11, 15, 0, 7, 2, 0, 0, 0, 0], "split_type": [0, 0, 0, 0, 0, 0, 0, 0, 0], "sum_hessian": [11895.399, 46.813744, 11848.585, 13.483058, 33.330685, 11.773397, 1.709661, 1.4724311, 31.858253], "tree_param": {"num_deleted": "0", "num_feature": "29", "num_nodes": "9", "size_leaf_vector": "0"}}, {"base_weights": [-1.5703654, -0.19970402, -1.5758611, 1.2495806, -1.3999522, -1.2392659, -0.031528294, 1.5288267, -0.14276105, -0.004703527, -1.4946142, 0.47097117, -0.030497316, 0.010005918, 0.031420723, 0.014494451, -0.024053458, -0.009362076, -0.030541016, 0.02647034, -0.0132828755], "categories": [], "categories_nodes": [], "categories_segments": [], "categories_sizes": [], "default_left": [0, 0, 0, 0, 0, 0, 0, 0, 0, 0, 0, 0, 0, 0, 0, 0, 0, 0, 0, 0, 0], "id": 16, "left_children": [1, 3, 5, 7, 9, 11, -1, 13, 15, -1, 17, 19, -1, -1, -1, -1, -1, -1, -1, -1, -1], "loss_changes": [89.322266, 86.404945, 0.25585938, 8.995365, 2.635685, 12.506901, 0.0, 0.034049988, 5.1799626, 0.0, 0.11323166, 4.960664, 0.0, 0.0, 0.0, 0.0, 0.0, 0.0, 0.0, 0.0, 0.0], "parents": [2147483647, 0, 0, 1, 1, 2, 2, 3, 3, 4, 4, 5, 5, 7, 7, 8, 8, 10, 10, 11, 11], "right_children": [2, 4, 6, 8, 10, 12, -1, 14, 16, -1, 18, 20, -1, -1, -1, -1, -1, -1, -1, -1, -1], "split_conditions": [-1.6304436, -1.6640834, -3.695218, -3.4366248, -2.6788285, -1.8795468, -0.031528294, 1.984558, 0.9542722, -0.004703527, -0.99901986, -0.0040639318, -0.030497316, 0.010005918, 0.031420723, 0.014494451, -0.024053458, -0.009362076, -0.030541016, 0.02647034, -0.0132828755], "split_indices": [16, 6, 13, 2, 9, 9, 0, 1, 20, 0, 4, 19, 0, 0, 0, 0, 0, 0, 0, 0, 0], "split_type": [0, 0, 0, 0, 0, 0, 0, 0, 0, 0, 0, 0, 0, 0, 0, 0, 0, 0, 0, 0, 0], "sum_hessian": [11898.589, 47.666588, 11850.923, 21.574522, 26.092068, 23.135298, 11827.787, 17.888754, 3.685768, 2.2230296, 23.869038, 3.2177327, 19.917564, 1.2118552, 16.676899, 2.2007828, 1.4849852, 1.2038099, 22.665228, 1.7427995, 1.4749331], "tree_param": {"num_deleted": "0", "num_feature": "29", "num_nodes": "21", "size_leaf_vector": "0"}}, {"base_weights": [-1.5735382, -0.8528116, -0.03152683, 1.1711117, -1.4382972, 1.4177856, -0.0057209753, -0.029609017, -0.004404728, 0.029975232, 0.009039646], "categories": [], "categories_nodes": [], "categories_segments": [], "categories_sizes": [], "default_left": [0, 0, 0, 0, 0, 0, 0, 0, 0, 0, 0], "id": 17, "left_children": [1, 3, -1, 5, 7, 9, -1, -1, -1, -1, -1], "loss_changes": [22.689453, 58.883617, 0.0, 4.496681, 1.6193619, 0.096982956, 0.0, 0.0, 0.0, 0.0, 0.0], "parents": [2147483647, 0, 0, 1, 1, 3, 3, 4, 4, 5, 5], "right_children": [2, 4, -1, 6, 8, 10, -1, -1, -1, -1, -1], "split_conditions": [-3.3195264, -2.1530278, -0.03152683, 0.57899237, 0.65100724, 0.5452034, -0.0057209753, -0.029609017, -0.004404728, 0.029975232, 0.009039646], "split_indices": [13, 9, 0, 15, 20, 25, 0, 0, 0, 0, 0], "split_type": [0, 0, 0, 0, 0, 0, 0, 0, 0, 0, 0], "sum_hessian": [11895.514, 47.27028, 11848.243, 10.381829, 36.888447, 8.901901, 1.4799278, 35.44633, 1.4421158, 7.704134, 1.197768], "tree_param": {"num_deleted": "0", "num_feature": "29", "num_nodes": "11", "size_leaf_vector": "0"}}, {"base_weights": [-1.5723242, -0.7149994, -0.031514008, 1.3766965, -1.370472, 0.030927055, -0.0016138613, -0.49699017, -0.029717363, 0.018530777, -0.026282983], "categories": [], "categories_nodes": [], "categories_segments": [], "categories_sizes": [], "default_left": [0, 0, 0, 0, 0, 0, 0, 0, 0, 0, 0], "id": 18, "left_children": [1, 3, -1, 5, 7, -1, -1, 9, -1, -1, -1], "loss_changes": [33.308594, 68.38097, 0.0, 3.1093102, 3.034172, 0.0, 0.0, 8.046146, 0.0, 0.0, 0.0], "parents": [2147483647, 0, 0, 1, 1, 3, 3, 4, 4, 7, 7], "right_children": [2, 4, -1, 6, 8, -1, -1, 10, -1, -1, -1], "split_conditions": [-3.1088288, -0.87789625, -0.031514008, -2.1519742, -1.3834217, 0.030927055, -0.0016138613, 1.1016433, -0.029717363, 0.018530777, -0.026282983], "split_indices": [13, 6, 0, 9, 11, 0, 0, 4, 0, 0, 0], "split_type": [0, 0, 0, 0, 0, 0, 0, 0, 0, 0, 0], "sum_hessian": [11896.045, 47.498795, 11848.546, 11.070647, 36.428146, 9.861605, 1.2090425, 4.8702254, 31.55792, 1.7273128, 3.1429129], "tree_param": {"num_deleted": "0", "num_feature": "29", "num_nodes": "11", "size_leaf_vector": "0"}}, {"base_weights": [-1.5684935, 0.19295809, -1.5756482, -1.1376754, 1.1599928, -1.0118825, -0.03152554, 0.6191179, -0.03249399, 1.4452211, -0.020672647, -1.340822, 0.017636072, -0.018137598, 0.025671564, 0.7931815, 1.5452768, -0.029790103, -0.0057055103, 0.020486686, -0.00052295433, 0.010232867, 0.031637844], "categories": [], "categories_nodes": [], "categories_segments": [], "categories_sizes": [], "default_left": [0, 0, 0, 0, 0, 0, 0, 0, 0, 0, 0, 0, 0, 0, 0, 0, 0, 0, 0, 0, 0, 0, 0], "id": 19, "left_children": [1, 3, 5, 7, 9, 11, -1, 13, -1, 15, -1, 17, -1, -1, -1, 19, 21, -1, -1, -1, -1, -1, -1], "loss_changes": [150.27148, 64.40956, 2.609375, 19.093533, 19.56945, 11.147509, 0.0, 6.5508566, 0.0, 0.4693985, 0.0, 1.776495, 0.0, 0.0, 0.0, 1.0705516, 0.0032539368, 0.0, 0.0, 0.0, 0.0, 0.0, 0.0], "parents": [2147483647, 0, 0, 1, 1, 2, 2, 3, 3, 4, 4, 5, 5, 7, 7, 9, 9, 11, 11, 15, 15, 16, 16], "right_children": [2, 4, 6, 8, 10, 12, -1, 14, -1, 16, -1, 18, -1, -1, -1, 20, 22, -1, -1, -1, -1, -1, -1], "split_conditions": [-4.463014, -0.2375338, -1.8226626, 0.27726558, -1.8171622, 0.5972433, -0.03152554, -2.8816736, -0.03249399, -0.19724247, -0.020672647, 2.2109332, 0.017636072, -0.018137598, 0.025671564, -0.2096727, -0.76675147, -0.029790103, -0.0057055103, 0.020486686, -0.00052295433, 0.010232867, 0.031637844], "split_indices": [13, 25, 16, 19, 9, 20, 0, 1, 0, 25, 0, 3, 0, 0, 0, 25, 21, 0, 0, 0, 0, 0, 0], "split_type": [0, 0, 0, 0, 0, 0, 0, 0, 0, 0, 0, 0, 0, 0, 0, 0, 0, 0, 0, 0, 0, 0, 0], "sum_hessian": [11898.65, 48.029686, 11850.621, 20.1403, 27.889383, 14.997811, 11835.623, 4.3126135, 15.827687, 24.982218, 2.9071653, 13.02694, 1.9708707, 1.1975307, 3.115083, 4.5111985, 20.47102, 11.058176, 1.9687648, 3.3233802, 1.187818, 1.2126291, 19.25839], "tree_param": {"num_deleted": "0", "num_feature": "29", "num_nodes": "23", "size_leaf_vector": "0"}}, {"base_weights": [-1.4846073, 0.15816525, -1.4914036, -1.1232961, 1.0957557, -0.9460069, -0.02984044, 0.5865298, -0.03191236, 1.3674631, -0.019379951, -1.2693319, 0.01721969, -0.017262496, 0.024435055, 0.7124257, 1.4709338, -0.0028608628, -0.027754292, 0.018959004, -0.0015216566, 0.009638778, 0.030132065], "categories": [], "categories_nodes": [], "categories_segments": [], "categories_sizes": [], "default_left": [0, 0, 0, 0, 0, 0, 0, 0, 0, 0, 0, 0, 0, 0, 0, 0, 0, 0, 0, 0, 0, 0, 0], "id": 20, "left_children": [1, 3, 5, 7, 9, 11, -1, 13, -1, 15, -1, 17, -1, -1, -1, 19, 21, -1, -1, -1, -1, -1, -1], "loss_changes": [126.89453, 58.47456, 2.3984375, 17.59183, 17.044407, 10.166155, 0.0, 5.838645, 0.0, 0.6584358, 0.0, 1.6117649, 0.0, 0.0, 0.0, 1.0700715, 0.0077590942, 0.0, 0.0, 0.0, 0.0, 0.0, 0.0], "parents": [2147483647, 0, 0, 1, 1, 2, 2, 3, 3, 4, 4, 5, 5, 7, 7, 9, 9, 11, 11, 15, 15, 16, 16], "right_children": [2, 4, 6, 8, 10, 12, -1, 14, -1, 16, -1, 18, -1, -1, -1, 20, 22, -1, -1, -1, -1, -1, -1], "split_conditions": [-4.463014, -0.2375338, -1.8226626, 0.27726558, -1.8171622, 0.5972433, -0.02984044, -2.8816736, -0.03191236, -0.19724247, -0.019379951, -0.15087545, 0.01721969, -0.017262496, 0.024435055, -0.2096727, -0.76675147, -0.0028608628, -0.027754292, 0.018959004, -0.0015216566, 0.009638778, 0.030132065], "split_indices": [13, 25, 16, 19, 9, 20, 0, 1, 0, 25, 0, 24, 0, 0, 0, 25, 21, 0, 0, 0, 0, 0, 0], "split_type": [0, 0, 0, 0, 0, 0, 0, 0, 0, 0, 0, 0, 0, 0, 0, 0, 0, 0, 0, 0, 0, 0, 0], "sum_hessian": [11343.564, 46.64409, 11296.92, 19.624304, 27.019787, 14.529907, 11282.391, 4.195308, 15.428996, 24.17609, 2.8436964, 12.577041, 1.9528661, 1.1689196, 3.026389, 4.3736053, 19.802485, 1.406259, 11.170782, 3.2119894, 1.1616157, 1.1944907, 18.607994], "tree_param": {"num_deleted": "0", "num_feature": "29", "num_nodes": "23", "size_leaf_vector": "0"}}, {"base_weights": [-1.4875842, -0.5627989, -0.029824398, 1.3786865, -1.3821831, 0.02982339, 0.0069127977, 0.001291406, -0.029022591], "categories": [], "categories_nodes": [], "categories_segments": [], "categories_sizes": [], "default_left": [0, 0, 0, 0, 0, 0, 0, 0, 0], "id": 21, "left_children": [1, 3, -1, 5, 7, -1, -1, -1, -1], "loss_changes": [37.291016, 75.10654, 0.0, 1.1296444, 3.3711815, 0.0, 0.0, 0.0, 0.0], "parents": [2147483647, 0, 0, 1, 1, 3, 3, 4, 4], "right_children": [2, 4, -1, 6, 8, -1, -1, -1, -1], "split_conditions": [-1.8355584, -1.9181367, -0.029824398, 2.9789374, -3.217497, 0.02982339, 0.0069127977, 0.001291406, -0.029022591], "split_indices": [11, 15, 0, 7, 2, 0, 0, 0, 0], "split_type": [0, 0, 0, 0, 0, 0, 0, 0, 0], "sum_hessian": [11339.243, 45.014523, 11294.229, 13.157044, 31.85748, 11.465192, 1.6918521, 1.4520274, 30.405453], "tree_param": {"num_deleted": "0", "num_feature": "29", "num_nodes": "9", "size_leaf_vector": "0"}}, {"base_weights": [-1.4862747, -0.17927401, -1.4915862, 1.1861565, -1.3232688, -1.1602746, -0.02984278, 1.4588783, -0.14601703, -0.0032720696, -1.4082633, 0.48163804, -0.028913783, 0.009521209, 0.029995834, 0.014326411, -0.023848785, -0.56560993, -0.029435355, 0.026153568, -0.01267477, -0.00020914193, -0.017206242], "categories": [], "categories_nodes": [], "categories_segments": [], "categories_sizes": [], "default_left": [0, 0, 0, 0, 0, 0, 0, 0, 0, 0, 0, 0, 0, 0, 0, 0, 0, 0, 0, 0, 0, 0, 0], "id": 22, "left_children": [1, 3, 5, 7, 9, 11, -1, 13, 15, -1, 17, 19, -1, -1, -1, -1, -1, 21, -1, -1, -1, -1, -1], "loss_changes": [78.484375, 75.06591, 0.33789062, 8.197561, 2.3396149, 11.624687, 0.0, 0.023204803, 5.044413, 0.0, 0.46053696, 4.7016335, 0.0, 0.0, 0.0, 0.0, 0.0, 0.53376293, 0.0, 0.0, 0.0, 0.0, 0.0], "parents": [2147483647, 0, 0, 1, 1, 2, 2, 3, 3, 4, 4, 5, 5, 7, 7, 8, 8, 10, 10, 11, 11, 17, 17], "right_children": [2, 4, 6, 8, 10, 12, -1, 14, 16, -1, 18, 20, -1, -1, -1, -1, -1, 22, -1, -1, -1, -1, -1], "split_conditions": [-1.6304436, -1.6640834, -3.695218, -3.4366248, -0.99901986, -1.8795468, -0.02984278, 1.984558, 0.9542722, -0.0032720696, -1.2934885, -0.0040639318, -0.028913783, 0.009521209, 0.029995834, 0.014326411, -0.023848785, 0.86439383, -0.029435355, 0.026153568, -0.01267477, -0.00020914193, -0.017206242], "split_indices": [16, 6, 13, 2, 4, 9, 0, 1, 20, 0, 14, 19, 0, 0, 0, 0, 0, 21, 0, 0, 0, 0, 0], "split_type": [0, 0, 0, 0, 0, 0, 0, 0, 0, 0, 0, 0, 0, 0, 0, 0, 0, 0, 0, 0, 0, 0, 0], "sum_hessian": [11343.275, 46.051327, 11297.224, 20.977041, 25.074286, 22.320074, 11274.903, 17.333439, 3.6436024, 1.911988, 23.162298, 3.203531, 19.116545, 1.1977232, 16.135715, 2.1704397, 1.4731625, 2.3175042, 20.844793, 1.7414298, 1.4621011, 1.1627076, 1.1547967], "tree_param": {"num_deleted": "0", "num_feature": "29", "num_nodes": "23", "size_leaf_vector": "0"}}, {"base_weights": [-1.4894302, -0.7947563, -0.029843315, 1.1108841, -1.3557887, 1.3485367, -0.0053779637, -0.027962247, -0.003587046, 0.028602498, 0.008181737], "categories": [], "categories_nodes": [], "categories_segments": [], "categories_sizes": [], "default_left": [0, 0, 0, 0, 0, 0, 0, 0, 0, 0, 0], "id": 23, "left_children": [1, 3, -1, 5, 7, 9, -1, -1, -1, -1, -1], "loss_changes": [20.365234, 51.35141, 0.0, 4.020015, 1.5650558, 0.15699196, 0.0, 0.0, 0.0, 0.0, 0.0], "parents": [2147483647, 0, 0, 1, 1, 3, 3, 4, 4, 5, 5], "right_children": [2, 4, -1, 6, 8, 10, -1, -1, -1, -1, -1], "split_conditions": [-3.3195264, -2.1530278, -0.029843315, 0.57899237, 0.65100724, 0.5452034, -0.0053779637, -0.027962247, -0.003587046, 0.028602498, 0.008181737], "split_indices": [13, 9, 0, 15, 20, 25, 0, 0, 0, 0, 0], "split_type": [0, 0, 0, 0, 0, 0, 0, 0, 0, 0, 0], "sum_hessian": [11339.368, 45.62245, 11293.746, 10.1536875, 35.468765, 8.681106, 1.4725816, 34.055164, 1.4136035, 7.506859, 1.1742468], "tree_param": {"num_deleted": "0", "num_feature": "29", "num_nodes": "11", "size_leaf_vector": "0"}}, {"base_weights": [-1.4881995, -0.66085774, -0.029829966, 1.3185599, -1.290242, -0.0010358281, 0.029543659, -0.45254642, -0.028083004, 0.018480483, -0.025194366], "categories": [], "categories_nodes": [], "categories_segments": [], "categories_sizes": [], "default_left": [0, 0, 0, 0, 0, 0, 0, 0, 0, 0, 0], "id": 24, "left_children": [1, 3, -1, 5, 7, -1, -1, 9, -1, -1, -1], "loss_changes": [29.96875, 60.051403, 0.0, 2.6401978, 2.8037758, 0.0, 0.0, 7.597373, 0.0, 0.0, 0.0], "parents": [2147483647, 0, 0, 1, 1, 3, 3, 4, 4, 7, 7], "right_children": [2, 4, -1, 6, 8, -1, -1, 10, -1, -1, -1], "split_conditions": [-3.1088288, -0.87789625, -0.029829966, 1.1965263, -1.3834217, -0.0010358281, 0.029543659, 1.1016433, -0.028083004, 0.018480483, -0.025194366], "split_indices": [13, 6, 0, 10, 11, 0, 0, 4, 0, 0, 0], "split_type": [0, 0, 0, 0, 0, 0, 0, 0, 0, 0, 0], "sum_hessian": [11339.934, 45.836956, 11294.096, 10.794181, 35.042774, 1.1897109, 9.60447, 4.789933, 30.252842, 1.7169822, 3.0729508], "tree_param": {"num_deleted": "0", "num_feature": "29", "num_nodes": "11", "size_leaf_vector": "0"}}, {"base_weights": [-1.4211097, -0.74166834, -0.028476438, 1.2959803, -1.2195073, 0.027672894, 0.0074914023, 0.106714785, -1.3320949, 0.021845529, -0.018679118, -0.027622875, -0.5931644, -0.019450635, 0.0040285527], "categories": [], "categories_nodes": [], "categories_segments": [], "categories_sizes": [], "default_left": [0, 0, 0, 0, 0, 0, 0, 0, 0, 0, 0, 0, 0, 0, 0], "id": 25, "left_children": [1, 3, -1, 5, 7, -1, -1, 9, 11, -1, -1, -1, 13, -1, -1], "loss_changes": [18.714844, 45.14878, 0.0, 0.20747471, 5.631275, 0.0, 0.0, 4.9201093, 0.4115715, 0.0, 0.0, 0.0, 1.361457, 0.0, 0.0], "parents": [2147483647, 0, 0, 1, 1, 3, 3, 4, 4, 7, 7, 8, 8, 12, 12], "right_children": [2, 4, -1, 6, 8, -1, -1, 10, 12, -1, -1, -1, 14, -1, -1], "split_conditions": [-3.3195264, -0.7688783, -0.028476438, 0.5452034, -1.8893243, 0.027672894, 0.0074914023, 1.1077638, 0.19141732, 0.021845529, -0.018679118, -0.027622875, 1.8909636, -0.019450635, 0.0040285527], "split_indices": [13, 6, 0, 25, 11, 0, 0, 6, 20, 0, 0, 0, 3, 0, 0], "split_type": [0, 0, 0, 0, 0, 0, 0, 0, 0, 0, 0, 0, 0, 0, 0], "sum_hessian": [10727.962, 43.74659, 10684.215, 7.984808, 35.76178, 6.833042, 1.1517657, 2.802457, 32.959324, 1.4138701, 1.388587, 30.092707, 2.8666174, 1.7886918, 1.0779256], "tree_param": {"num_deleted": "0", "num_feature": "29", "num_nodes": "15", "size_leaf_vector": "0"}}, {"base_weights": [-1.4198582, -0.6125013, -0.028462471, 1.2692739, -1.2210176, 0.028388979, -0.0006394929, -0.56796885, -1.3752341, 0.017640473, -0.02438558, -0.009655947, -0.02817624], "categories": [], "categories_nodes": [], "categories_segments": [], "categories_sizes": [], "default_left": [0, 0, 0, 0, 0, 0, 0, 0, 0, 0, 0, 0, 0], "id": 26, "left_children": [1, 3, -1, 5, 7, -1, -1, 9, 11, -1, -1, -1, -1], "loss_changes": [27.414062, 53.051346, 0.0, 2.2888355, 2.6929855, 0.0, 0.0, 8.907724, 0.13497543, 0.0, 0.0, 0.0, 0.0], "parents": [2147483647, 0, 0, 1, 1, 3, 3, 4, 4, 7, 7, 8, 8], "right_children": [2, 4, -1, 6, 8, -1, -1, 10, 12, -1, -1, -1, -1], "split_conditions": [-3.1088288, -0.87789625, -0.028462471, 0.11558064, 0.2978831, 0.028388979, -0.0006394929, -0.3947316, -1.3532219, 0.017640473, -0.02438558, -0.009655947, -0.02817624], "split_indices": [13, 6, 0, 5, 6, 0, 0, 5, 14, 0, 0, 0, 0], "split_type": [0, 0, 0, 0, 0, 0, 0, 0, 0, 0, 0, 0, 0], "sum_hessian": [10728.599, 43.97595, 10684.623, 10.480429, 33.49552, 9.314608, 1.1658211, 7.2934504, 26.20207, 2.150849, 5.1426015, 1.5077362, 24.694334], "tree_param": {"num_deleted": "0", "num_feature": "29", "num_nodes": "13", "size_leaf_vector": "0"}}, {"base_weights": [-1.4165858, 0.12287057, -1.4230949, -1.1317255, 1.0448073, -0.8941667, -0.028474113, 0.56360316, -0.031971045, 1.3081828, -0.018541742, -1.2124714, 0.016660225, -0.016393201, 0.023429027, 0.6410205, 1.4166124, -0.0020188014, -0.026683824, -0.002785574, 0.017770762, 0.009006072, 0.029052122], "categories": [], "categories_nodes": [], "categories_segments": [], "categories_sizes": [], "default_left": [0, 0, 0, 0, 0, 0, 0, 0, 0, 0, 0, 0, 0, 0, 0, 0, 0, 0, 0, 0, 0, 0, 0], "id": 27, "left_children": [1, 3, 5, 7, 9, 11, -1, 13, -1, 15, -1, 17, -1, -1, -1, 19, 21, -1, -1, -1, -1, -1, -1], "loss_changes": [107.74219, 54.5263, 2.1796875, 16.741404, 15.289135, 9.267108, 0.0, 5.2153473, 0.0, 0.85159683, 0.0, 1.6362438, 0.0, 0.0, 0.0, 1.1333215, 0.044906616, 0.0, 0.0, 0.0, 0.0, 0.0, 0.0], "parents": [2147483647, 0, 0, 1, 1, 2, 2, 3, 3, 4, 4, 5, 5, 7, 7, 9, 9, 11, 11, 15, 15, 16, 16], "right_children": [2, 4, 6, 8, 10, 12, -1, 14, -1, 16, -1, 18, -1, -1, -1, 20, 22, -1, -1, -1, -1, -1, -1], "split_conditions": [-4.463014, -0.2375338, -1.8226626, 0.27726558, -1.8171622, 0.5972433, -0.028474113, -2.8816736, -0.031971045, -0.19724247, -0.018541742, -0.15087545, 0.016660225, -0.016393201, 0.023429027, 0.08588997, -0.76675147, -0.0020188014, -0.026683824, -0.002785574, 0.017770762, 0.009006072, 0.029052122], "split_indices": [13, 25, 16, 19, 9, 20, 0, 1, 0, 25, 0, 24, 0, 0, 0, 12, 21, 0, 0, 0, 0, 0, 0], "split_type": [0, 0, 0, 0, 0, 0, 0, 0, 0, 0, 0, 0, 0, 0, 0, 0, 0, 0, 0, 0, 0, 0, 0], "sum_hessian": [10734.02, 45.118942, 10688.901, 19.015116, 26.103828, 14.019233, 10674.882, 4.060756, 14.954359, 23.325016, 2.778813, 12.089282, 1.9299512, 1.1332923, 2.927464, 4.2271843, 19.097832, 1.3737382, 10.715544, 1.1232953, 3.103889, 1.1710039, 17.926826], "tree_param": {"num_deleted": "0", "num_feature": "29", "num_nodes": "23", "size_leaf_vector": "0"}}, {"base_weights": [-1.4192666, -0.52337563, -0.028456436, 1.2132134, -1.3618836, 0.027676389, -0.009438524, -0.027733343, -0.007612674], "categories": [], "categories_nodes": [], "categories_segments": [], "categories_sizes": [], "default_left": [0, 0, 0, 0, 0, 0, 0, 0, 0], "id": 28, "left_children": [1, 3, -1, 5, 7, -1, -1, -1, -1], "loss_changes": [33.429688, 65.70843, 0.0, 4.9232426, 0.20508957, 0.0, 0.0, 0.0, 0.0], "parents": [2147483647, 0, 0, 1, 1, 3, 3, 4, 4], "right_children": [2, 4, -1, 6, 8, -1, -1, -1, -1], "split_conditions": [-1.8355584, -3.1679533, -0.028456436, -0.09417177, 1.4123433, 0.027676389, -0.009438524, -0.027733343, -0.007612674], "split_indices": [11, 13, 0, 8, 18, 0, 0, 0, 0], "split_type": [0, 0, 0, 0, 0, 0, 0, 0, 0], "sum_hessian": [10727.783, 42.990284, 10684.793, 13.853067, 29.137218, 12.741872, 1.1111956, 28.01644, 1.1207799], "tree_param": {"num_deleted": "0", "num_feature": "29", "num_nodes": "9", "size_leaf_vector": "0"}}, {"base_weights": [-1.4180789, -0.16571383, -1.4232465, 1.1239951, -1.2586846, -1.0857788, -0.02847643, 1.3926998, -0.15582898, -0.0029433826, -1.3430398, 0.52348334, -0.027580101, 0.00880757, 0.028676622, 0.013986814, -0.023674564, -0.51667374, -0.028157191, 0.026371581, -0.011687407, 0.00041397198, -0.016324086], "categories": [], "categories_nodes": [], "categories_segments": [], "categories_sizes": [], "default_left": [0, 0, 0, 0, 0, 0, 0, 0, 0, 0, 0, 0, 0, 0, 0, 0, 0, 0, 0, 0, 0, 0, 0], "id": 29, "left_children": [1, 3, 5, 7, 9, 11, -1, 13, 15, -1, 17, 19, -1, -1, -1, -1, -1, 21, -1, -1, -1, -1, -1], "loss_changes": [69.23828, 65.1907, 0.52734375, 7.5358486, 2.1427765, 11.290997, 0.0, 0.061481476, 4.864594, 0.0, 0.5087433, 4.4498396, 0.0, 0.0, 0.0, 0.0, 0.0, 0.5413469, 0.0, 0.0, 0.0, 0.0, 0.0], "parents": [2147483647, 0, 0, 1, 1, 2, 2, 3, 3, 4, 4, 5, 5, 7, 7, 8, 8, 10, 10, 11, 11, 17, 17], "right_children": [2, 4, 6, 8, 10, 12, -1, 14, 16, -1, 18, 20, -1, -1, -1, -1, -1, 22, -1, -1, -1, -1, -1], "split_conditions": [-1.6304436, -1.6640834, -3.695218, -3.4366248, -0.99901986, -1.8795468, -0.02847643, 1.984558, 0.9542722, -0.0029433826, -1.2934885, -0.0040639318, -0.027580101, 0.00880757, 0.028676622, 0.013986814, -0.023674564, 0.86439383, -0.028157191, 0.026371581, -0.011687407, 0.00041397198, -0.016324086], "split_indices": [16, 6, 13, 2, 4, 9, 0, 1, 20, 0, 14, 19, 0, 0, 0, 0, 0, 21, 0, 0, 0, 0, 0], "split_type": [0, 0, 0, 0, 0, 0, 0, 0, 0, 0, 0, 0, 0, 0, 0, 0, 0, 0, 0, 0, 0, 0, 0], "sum_hessian": [10733.488, 44.243546, 10689.244, 20.282156, 23.961391, 21.39797, 10667.847, 16.689852, 3.5923042, 1.8838075, 22.077583, 3.176991, 18.220978, 1.175682, 15.514169, 2.1353893, 1.456915, 2.2582903, 19.819292, 1.7388356, 1.4381555, 1.1414216, 1.1168687], "tree_param": {"num_deleted": "0", "num_feature": "29", "num_nodes": "23", "size_leaf_vector": "0"}}, {"base_weights": [-1.3628469, -0.48403466, -0.027327556, 1.1701932, -1.3044076, 0.026670724, -0.008869485, -0.026646713, -0.0076239053], "categories": [], "categories_nodes": [], "categories_segments": [], "categories_sizes": [], "default_left": [0, 0, 0, 0, 0, 0, 0, 0, 0], "id": 30, "left_children": [1, 3, -1, 5, 7, -1, -1, -1, -1], "loss_changes": [30.646484, 58.41606, 0.0, 4.3934135, 0.2268486, 0.0, 0.0, 0.0, 0.0], "parents": [2147483647, 0, 0, 1, 1, 3, 3, 4, 4], "right_children": [2, 4, -1, 6, 8, -1, -1, -1, -1], "split_conditions": [-1.8355584, -3.1679533, -0.027327556, -0.09417177, 0.53189903, 0.026670724, -0.008869485, -0.026646713, -0.0076239053], "split_indices": [11, 13, 0, 8, 20, 0, 0, 0, 0], "split_type": [0, 0, 0, 0, 0, 0, 0, 0, 0], "sum_hessian": [10087.3125, 40.92052, 10046.392, 13.424495, 27.496025, 12.348156, 1.0763392, 26.258524, 1.2375004], "tree_param": {"num_deleted": "0", "num_feature": "29", "num_nodes": "9", "size_leaf_vector": "0"}}, {"base_weights": [-1.361742, -0.15159105, -1.3668258, 1.0748345, -1.2037823, -1.0258155, -0.027348367, 1.3418676, -0.1610884, -0.0023871649, -1.289928, 0.5266566, -0.026461773, 0.008401626, 0.0276543, 0.013798305, -0.02350712, -0.47991753, -0.027114643, 0.02597649, -0.011283297, 0.00081638736, -0.015583386], "categories": [], "categories_nodes": [], "categories_segments": [], "categories_sizes": [], "default_left": [0, 0, 0, 0, 0, 0, 0, 0, 0, 0, 0, 0, 0, 0, 0, 0, 0, 0, 0, 0, 0, 0, 0], "id": 31, "left_children": [1, 3, 5, 7, 9, 11, -1, 13, 15, -1, 17, 19, -1, -1, -1, -1, -1, 21, -1, -1, -1, -1, -1], "loss_changes": [61.902344, 57.245476, 0.6308594, 6.998308, 2.0702133, 10.592684, 0.0, 0.059469223, 4.733003, 0.0, 0.5195923, 4.2378073, 0.0, 0.0, 0.0, 0.0, 0.0, 0.53008074, 0.0, 0.0, 0.0, 0.0, 0.0], "parents": [2147483647, 0, 0, 1, 1, 2, 2, 3, 3, 4, 4, 5, 5, 7, 7, 8, 8, 10, 10, 11, 11, 17, 17], "right_children": [2, 4, 6, 8, 10, 12, -1, 14, 16, -1, 18, 20, -1, -1, -1, -1, -1, 22, -1, -1, -1, -1, -1], "split_conditions": [-1.6304436, -1.6640834, -3.695218, -3.4366248, -0.99901986, -1.8795468, -0.027348367, 1.984558, 0.9542722, -0.0023871649, -1.2934885, -0.0040639318, -0.026461773, 0.008401626, 0.0276543, 0.013798305, -0.02350712, 0.86439383, -0.027114643, 0.02597649, -0.011283297, 0.00081638736, -0.015583386], "split_indices": [16, 6, 13, 2, 4, 9, 0, 1, 20, 0, 14, 19, 0, 0, 0, 0, 0, 21, 0, 0, 0, 0, 0], "split_type": [0, 0, 0, 0, 0, 0, 0, 0, 0, 0, 0, 0, 0, 0, 0, 0, 0, 0, 0, 0, 0, 0, 0], "sum_hessian": [10094.603, 42.35874, 10052.244, 19.549955, 22.808788, 20.442446, 10031.801, 16.005985, 3.5439703, 1.8541241, 20.954664, 3.1613042, 17.281141, 1.158001, 14.847984, 2.100974, 1.4429963, 2.197528, 18.757135, 1.7393634, 1.4219407, 1.1171453, 1.0803825], "tree_param": {"num_deleted": "0", "num_feature": "29", "num_nodes": "23", "size_leaf_vector": "0"}}, {"base_weights": [-1.3647363, -0.6949822, -0.027349032, 1.0188304, -1.2230644, 0.025463786, -0.0022476313, -1.2933043, -0.3281889, -0.008694592, -0.026357431, -0.018029489, 0.011502966], "categories": [], "categories_nodes": [], "categories_segments": [], "categories_sizes": [], "default_left": [0, 0, 0, 0, 0, 0, 0, 0, 0, 0, 0, 0, 0], "id": 32, "left_children": [1, 3, -1, 5, 7, -1, -1, 9, 11, -1, -1, -1, -1], "loss_changes": [17.396484, 39.95564, 0.0, 3.1989374, 1.6592865, 0.0, 0.0, 0.06826782, 2.4619122, 0.0, 0.0, 0.0, 0.0], "parents": [2147483647, 0, 0, 1, 1, 3, 3, 4, 4, 7, 7, 8, 8], "right_children": [2, 4, -1, 6, 8, -1, -1, 10, 12, -1, -1, -1, -1], "split_conditions": [-3.3195264, -2.1530278, -0.027349032, -3.6524289, 0.19141732, 0.025463786, -0.0022476313, -1.8893243, 2.134272, -0.008694592, -0.026357431, -0.018029489, 0.011502966], "split_indices": [13, 9, 0, 2, 20, 0, 0, 11, 3, 0, 0, 0, 0], "split_type": [0, 0, 0, 0, 0, 0, 0, 0, 0, 0, 0, 0, 0], "sum_hessian": [10087.589, 41.77137, 10045.817, 9.62042, 32.15095, 7.751864, 1.8685564, 29.398212, 2.7527373, 1.3378732, 28.060339, 1.6852733, 1.067464], "tree_param": {"num_deleted": "0", "num_feature": "29", "num_nodes": "13", "size_leaf_vector": "0"}}, {"base_weights": [-1.3634473, -0.5701506, -0.027334103, 1.11843, -1.200776, 0.028211681, -0.011334698, -0.58659315, -1.3188988, 0.014576005, -0.022730926, -0.008737862, -0.02706991], "categories": [], "categories_nodes": [], "categories_segments": [], "categories_sizes": [], "default_left": [0, 0, 0, 0, 0, 0, 0, 0, 0, 0, 0, 0, 0], "id": 33, "left_children": [1, 3, -1, 5, 7, -1, -1, 9, 11, -1, -1, -1, -1], "loss_changes": [25.294922, 47.111057, 0.0, 6.8081484, 1.5316315, 0.0, 0.0, 5.838981, 0.19743729, 0.0, 0.0, 0.0, 0.0], "parents": [2147483647, 0, 0, 1, 1, 3, 3, 4, 4, 7, 7, 8, 8], "right_children": [2, 4, -1, 6, 8, -1, -1, 10, 12, -1, -1, -1, -1], "split_conditions": [-3.1088288, -0.6800448, -0.027334103, 0.5311686, 0.2978831, 0.028211681, -0.011334698, -0.3947316, -1.3532219, 0.014576005, -0.022730926, -0.008737862, -0.02706991], "split_indices": [13, 6, 0, 15, 6, 0, 0, 5, 14, 0, 0, 0, 0], "split_type": [0, 0, 0, 0, 0, 0, 0, 0, 0, 0, 0, 0, 0], "sum_hessian": [10088.192, 41.98029, 10046.212, 11.204711, 30.775578, 9.68805, 1.5166605, 5.926503, 24.849075, 1.6514102, 4.2750926, 1.4523048, 23.39677], "tree_param": {"num_deleted": "0", "num_feature": "29", "num_nodes": "13", "size_leaf_vector": "0"}}, {"base_weights": [-1.3604184, 0.08792006, -1.3666816, -1.1269937, 0.989559, -0.8457845, -0.027345931, 0.5424546, -0.031706717, 1.2445446, -0.017602889, -1.1600696, 0.016115202, -0.015587528, 0.022488877, 0.57201546, 1.3568553, -0.0013158092, -1.2854726, 0.8285167, -0.0038019894, 0.008441174, 0.027858308, -0.008499139, -0.027043378, 0.019036574, 0.005006303], "categories": [], "categories_nodes": [], "categories_segments": [], "categories_sizes": [], "default_left": [0, 0, 0, 0, 0, 0, 0, 0, 0, 0, 0, 0, 0, 0, 0, 0, 0, 0, 0, 0, 0, 0, 0, 0, 0, 0, 0], "id": 34, "left_children": [1, 3, 5, 7, 9, 11, -1, 13, -1, 15, -1, 17, -1, -1, -1, 19, 21, -1, 23, 25, -1, -1, -1, -1, -1, -1, -1], "loss_changes": [91.703125, 49.76369, 2.0644531, 15.694025, 13.502571, 8.44897, 0.0, 4.6620765, 0.0, 0.9849434, 0.0, 1.6406536, 0.0, 0.0, 0.0, 1.1476843, 0.061016083, 0.0, 0.06966019, 0.045258284, 0.0, 0.0, 0.0, 0.0, 0.0, 0.0, 0.0], "parents": [2147483647, 0, 0, 1, 1, 2, 2, 3, 3, 4, 4, 5, 5, 7, 7, 9, 9, 11, 11, 15, 15, 16, 16, 18, 18, 19, 19], "right_children": [2, 4, 6, 8, 10, 12, -1, 14, -1, 16, -1, 18, -1, -1, -1, 20, 22, -1, 24, 26, -1, -1, -1, -1, -1, -1, -1], "split_conditions": [-4.463014, -0.2375338, -1.8226626, 0.27726558, -1.8171622, 0.5972433, -0.027345931, -2.8816736, -0.031706717, -0.19724247, -0.017602889, -0.15087545, 0.016115202, -0.015587528, 0.022488877, -0.2096727, -0.76675147, -0.0013158092, -0.36500925, 0.779264, -0.0038019894, 0.008441174, 0.027858308, -0.008499139, -0.027043378, 0.019036574, 0.005006303], "split_indices": [13, 25, 16, 19, 9, 20, 0, 1, 0, 25, 0, 24, 0, 0, 0, 25, 21, 0, 28, 12, 0, 0, 0, 0, 0, 0, 0], "split_type": [0, 0, 0, 0, 0, 0, 0, 0, 0, 0, 0, 0, 0, 0, 0, 0, 0, 0, 0, 0, 0, 0, 0, 0, 0, 0, 0], "sum_hessian": [10095.229, 43.411053, 10051.817, 18.38638, 25.024672, 13.476728, 10038.341, 3.9210367, 14.4653425, 22.315678, 2.7089953, 11.572158, 1.9045702, 1.0949637, 2.8260732, 4.065307, 18.25037, 1.3465612, 10.225596, 2.9764197, 1.0888872, 1.1497352, 17.100634, 1.2657982, 8.959799, 1.9206235, 1.0557961], "tree_param": {"num_deleted": "0", "num_feature": "29", "num_nodes": "27", "size_leaf_vector": "0"}}, {"base_weights": [-1.3133786, 0.055983435, -1.3194491, -1.205855, 0.89088905, -0.7974745, -0.026401656, 0.58817357, -1.6769539, 1.1637825, -0.8945484, -1.1125423, 0.015894359, -0.009093236, 0.020960841, -0.023330394, -0.040201295, 0.5098045, 1.307555, -0.005583196, -0.020314975, -0.0005825527, -1.2430514, -0.023517901, 0.022702783, 0.026864514, 0.007780708, -0.0078370385, -0.026223885], "categories": [], "categories_nodes": [], "categories_segments": [], "categories_sizes": [], "default_left": [0, 0, 0, 0, 0, 0, 0, 0, 0, 0, 0, 0, 0, 0, 0, 0, 0, 0, 0, 0, 0, 0, 0, 0, 0, 0, 0, 0, 0], "id": 35, "left_children": [1, 3, 5, 7, 9, 11, -1, 13, 15, 17, 19, 21, -1, -1, -1, -1, -1, 23, 25, -1, -1, -1, 27, -1, -1, -1, -1, -1, -1], "loss_changes": [78.603516, 46.010838, 2.0585938, 15.700073, 13.82832, 7.8722534, 0.0, 2.5679474, 0.04385376, 1.5147324, 0.018134356, 1.6670084, 0.0, 0.0, 0.0, 0.0, 0.0, 7.4699817, 0.07962608, 0.0, 0.0, 0.0, 0.10839081, 0.0, 0.0, 0.0, 0.0, 0.0, 0.0], "parents": [2147483647, 0, 0, 1, 1, 2, 2, 3, 3, 4, 4, 5, 5, 7, 7, 8, 8, 9, 9, 10, 10, 11, 11, 17, 17, 18, 18, 22, 22], "right_children": [2, 4, 6, 8, 10, 12, -1, 14, 16, 18, 20, 22, -1, -1, -1, -1, -1, 24, 26, -1, -1, -1, 28, -1, -1, -1, -1, -1, -1], "split_conditions": [-4.463014, -0.2750671, -1.8226626, 0.27726558, -1.8171622, 0.5972433, -0.026401656, -1.3072995, 1.4425915, -0.19724247, -0.11833675, -0.15087545, 0.015894359, -0.009093236, 0.020960841, -0.023330394, -0.040201295, -0.3636115, 0.018150927, -0.005583196, -0.020314975, -0.0005825527, -0.36500925, -0.023517901, 0.022702783, 0.026864514, 0.007780708, -0.0078370385, -0.026223885], "split_indices": [13, 25, 16, 19, 9, 20, 0, 19, 3, 25, 12, 24, 0, 0, 0, 0, 0, 28, 5, 0, 0, 0, 28, 0, 0, 0, 0, 0, 0], "split_type": [0, 0, 0, 0, 0, 0, 0, 0, 0, 0, 0, 0, 0, 0, 0, 0, 0, 0, 0, 0, 0, 0, 0, 0, 0, 0, 0, 0, 0], "sum_hessian": [9445.879, 41.65389, 9404.226, 16.409306, 25.244583, 12.9302635, 9391.295, 3.3611047, 13.048202, 22.199675, 3.0449073, 11.045749, 1.8845141, 1.0320548, 2.3290498, 6.93043, 6.117771, 4.8201537, 17.37952, 1.0445503, 2.000357, 1.3190352, 9.726714, 1.0660374, 3.7541163, 16.284723, 1.0947981, 1.2213091, 8.505404], "tree_param": {"num_deleted": "0", "num_feature": "29", "num_nodes": "29", "size_leaf_vector": "0"}}, {"base_weights": [-1.3156376, -0.4437493, -0.026383853, 1.1387367, -1.2546422, 1.2956719, -0.008364128, -0.025632588, -0.006071996, 0.027115025, 0.008934962], "categories": [], "categories_nodes": [], "categories_segments": [], "categories_sizes": [], "default_left": [0, 0, 0, 0, 0, 0, 0, 0, 0, 0, 0], "id": 36, "left_children": [1, 3, -1, 5, 7, 9, -1, -1, -1, -1, -1], "loss_changes": [28.668945, 52.544518, 0.0, 3.967537, 0.29909515, 0.05635643, 0.0, 0.0, 0.0, 0.0, 0.0], "parents": [2147483647, 0, 0, 1, 1, 3, 3, 4, 4, 5, 5], "right_children": [2, 4, -1, 6, 8, 10, -1, -1, -1, -1, -1], "split_conditions": [-1.8355584, -3.1679533, -0.026383853, -0.09417177, 1.4123433, 2.9789374, -0.008364128, -0.025632588, -0.006071996, 0.027115025, 0.008934962], "split_indices": [11, 13, 0, 8, 18, 7, 0, 0, 0, 0, 0], "split_type": [0, 0, 0, 0, 0, 0, 0, 0, 0, 0, 0], "sum_hessian": [9437.236, 38.83381, 9398.402, 13.020177, 25.813633, 11.980399, 1.0397775, 24.763332, 1.0502999, 10.631007, 1.3493924], "tree_param": {"num_deleted": "0", "num_feature": "29", "num_nodes": "11", "size_leaf_vector": "0"}}, {"base_weights": [-1.314546, -0.13810843, -1.3195856, 1.032318, -1.1550484, -0.9733005, -0.026404, 1.2969636, -0.15513931, -0.0018084956, -1.2438717, 0.5246835, -0.025508808, 0.007958222, 0.026764872, 0.01378047, -0.023178888, -0.44358224, -0.026233276, 0.025440594, -0.010870721, 0.0012762526, -0.014914016], "categories": [], "categories_nodes": [], "categories_segments": [], "categories_sizes": [], "default_left": [0, 0, 0, 0, 0, 0, 0, 0, 0, 0, 0, 0, 0, 0, 0, 0, 0, 0, 0, 0, 0, 0, 0], "id": 37, "left_children": [1, 3, 5, 7, 9, 11, -1, 13, 15, -1, 17, 19, -1, -1, -1, -1, -1, 21, -1, -1, -1, -1, -1], "loss_changes": [55.82129, 50.478813, 0.71777344, 6.4170017, 2.0273933, 9.932636, 0.0, 0.071746826, 4.61, 0.0, 0.54706955, 3.999523, 0.0, 0.0, 0.0, 0.0, 0.0, 0.5283093, 0.0, 0.0, 0.0, 0.0, 0.0], "parents": [2147483647, 0, 0, 1, 1, 2, 2, 3, 3, 4, 4, 5, 5, 7, 7, 8, 8, 10, 10, 11, 11, 17, 17], "right_children": [2, 4, 6, 8, 10, 12, -1, 14, 16, -1, 18, 20, -1, -1, -1, -1, -1, 22, -1, -1, -1, -1, -1], "split_conditions": [-1.6304436, -1.6640834, -3.695218, -3.4366248, -0.99901986, -1.8795468, -0.026404, 1.984558, 0.9542722, -0.0018084956, -1.2934885, -0.0040639318, -0.025508808, 0.007958222, 0.026764872, 0.01378047, -0.023178888, -1.0852275, -0.026233276, 0.025440594, -0.010870721, 0.0012762526, -0.014914016], "split_indices": [16, 6, 13, 2, 4, 9, 0, 1, 20, 0, 14, 19, 0, 0, 0, 0, 0, 13, 0, 0, 0, 0, 0], "split_type": [0, 0, 0, 0, 0, 0, 0, 0, 0, 0, 0, 0, 0, 0, 0, 0, 0, 0, 0, 0, 0, 0, 0], "sum_hessian": [9445.0, 40.40836, 9404.592, 18.77943, 21.628927, 19.467121, 9385.124, 15.281469, 3.4979613, 1.8209777, 19.807951, 3.1438115, 16.323309, 1.1379064, 14.143563, 2.0704112, 1.4275502, 2.1359744, 17.671976, 1.7374588, 1.4063528, 1.0915489, 1.0444255], "tree_param": {"num_deleted": "0", "num_feature": "29", "num_nodes": "23", "size_leaf_vector": "0"}}, {"base_weights": [-1.3176023, -0.6540281, -0.026406819, 0.92612743, -1.1924495, 1.2655796, -0.017541382, -0.004577826, -1.2458507, 0.027099917, 0.0059146127, -0.025550026, -0.005112779], "categories": [], "categories_nodes": [], "categories_segments": [], "categories_sizes": [], "default_left": [0, 0, 0, 0, 0, 0, 0, 0, 0, 0, 0, 0, 0], "id": 38, "left_children": [1, 3, -1, 5, 7, 9, -1, -1, 11, -1, -1, -1, -1], "loss_changes": [16.291016, 35.797565, 0.0, 7.79792, 1.3023033, 0.43219662, 0.0, 0.0, 0.5825081, 0.0, 0.0, 0.0, 0.0], "parents": [2147483647, 0, 0, 1, 1, 3, 3, 4, 4, 5, 5, 8, 8], "right_children": [2, 4, -1, 6, 8, 10, -1, -1, 12, -1, -1, -1, -1], "split_conditions": [-3.3195264, -1.8893243, -0.026406819, 1.1077638, -1.2672509, 0.5452034, -0.017541382, -0.004577826, 0.7391185, 0.027099917, 0.0059146127, -0.025550026, -0.005112779], "split_indices": [13, 11, 0, 6, 24, 25, 0, 0, 23, 0, 0, 0, 0], "split_type": [0, 0, 0, 0, 0, 0, 0, 0, 0, 0, 0, 0, 0], "sum_hessian": [9437.535, 39.777657, 9397.758, 9.9262085, 29.85145, 8.6045475, 1.3216612, 1.8451037, 28.006346, 7.5146093, 1.089938, 26.857746, 1.1485988], "tree_param": {"num_deleted": "0", "num_feature": "29", "num_nodes": "13", "size_leaf_vector": "0"}}, {"base_weights": [-1.3162643, -0.532715, -0.026390787, 1.0883093, -1.1490016, 0.027384812, -0.010579553, -0.52859664, -1.2715272, 0.014840581, -0.021763256, -0.007932646, -0.026147451], "categories": [], "categories_nodes": [], "categories_segments": [], "categories_sizes": [], "default_left": [0, 0, 0, 0, 0, 0, 0, 0, 0, 0, 0, 0, 0], "id": 39, "left_children": [1, 3, -1, 5, 7, -1, -1, 9, 11, -1, -1, -1, -1], "loss_changes": [23.518555, 42.17766, 0.0, 6.0848694, 1.6211929, 0.0, 0.0, 5.5619373, 0.24923706, 0.0, 0.0, 0.0, 0.0], "parents": [2147483647, 0, 0, 1, 1, 3, 3, 4, 4, 7, 7, 8, 8], "right_children": [2, 4, -1, 6, 8, -1, -1, 10, 12, -1, -1, -1, -1], "split_conditions": [-3.1088288, -0.6800448, -0.026390787, 0.5311686, 0.2978831, 0.027384812, -0.010579553, -0.3947316, -1.3532219, 0.014840581, -0.021763256, -0.007932646, -0.026147451], "split_indices": [13, 6, 0, 15, 6, 0, 0, 5, 14, 0, 0, 0, 0], "split_type": [0, 0, 0, 0, 0, 0, 0, 0, 0, 0, 0, 0, 0], "sum_hessian": [9438.102, 39.967525, 9398.135, 10.798422, 29.169104, 9.330957, 1.4674646, 5.687053, 23.48205, 1.6390737, 4.04798, 1.3990831, 22.082968], "tree_param": {"num_deleted": "0", "num_feature": "29", "num_nodes": "13", "size_leaf_vector": "0"}}, {"base_weights": [-1.2777808, -0.6170622, -0.025611093, 0.887224, -1.1427325, 1.2209791, -0.017077548, -0.0036662288, -1.1986823, 0.026277518, 0.0050254446, -0.024633491, -0.0043317745], "categories": [], "categories_nodes": [], "categories_segments": [], "categories_sizes": [], "default_left": [0, 0, 0, 0, 0, 0, 0, 0, 0, 0, 0, 0, 0], "id": 40, "left_children": [1, 3, -1, 5, 7, 9, -1, -1, 11, -1, -1, -1, -1], "loss_changes": [15.327148, 31.609867, 0.0, 7.1920547, 1.3428535, 0.5068846, 0.0, 0.0, 0.61860275, 0.0, 0.0, 0.0, 0.0], "parents": [2147483647, 0, 0, 1, 1, 3, 3, 4, 4, 5, 5, 8, 8], "right_children": [2, 4, -1, 6, 8, 10, -1, -1, 12, -1, -1, -1, -1], "split_conditions": [-3.3195264, -1.8893243, -0.025611093, 1.1077638, -1.2672509, 0.43328103, -0.017077548, -0.0036662288, 0.7391185, 0.026277518, 0.0050254446, -0.024633491, -0.0043317745], "split_indices": [13, 11, 0, 6, 24, 23, 0, 0, 23, 0, 0, 0, 0], "split_type": [0, 0, 0, 0, 0, 0, 0, 0, 0, 0, 0, 0, 0], "sum_hessian": [8792.139, 37.69198, 8754.446, 9.582471, 28.109509, 8.291742, 1.2907281, 1.7845523, 26.324955, 7.2429547, 1.0487874, 25.223473, 1.1014835], "tree_param": {"num_deleted": "0", "num_feature": "29", "num_nodes": "13", "size_leaf_vector": "0"}}, {"base_weights": [-1.276393, -0.5002195, -0.02559386, 1.0547328, -1.1015768, 0.026494898, -0.009869098, -0.47625312, -1.2281185, 0.014870742, -0.020851895, -0.007123524, -0.02531285], "categories": [], "categories_nodes": [], "categories_segments": [], "categories_sizes": [], "default_left": [0, 0, 0, 0, 0, 0, 0, 0, 0, 0, 0, 0, 0], "id": 41, "left_children": [1, 3, -1, 5, 7, -1, -1, 9, 11, -1, -1, -1, -1], "loss_changes": [21.88379, 37.508957, 0.0, 5.398823, 1.6718216, 0.0, 0.0, 5.2194715, 0.304554, 0.0, 0.0, 0.0, 0.0], "parents": [2147483647, 0, 0, 1, 1, 3, 3, 4, 4, 7, 7, 8, 8], "right_children": [2, 4, -1, 6, 8, -1, -1, 10, 12, -1, -1, -1, -1], "split_conditions": [-3.1088288, -0.6800448, -0.02559386, 0.5311686, 0.2978831, 0.026494898, -0.009869098, -0.3947316, -1.3532219, 0.014870742, -0.020851895, -0.007123524, -0.02531285], "split_indices": [13, 6, 0, 15, 6, 0, 0, 5, 14, 0, 0, 0, 0], "split_type": [0, 0, 0, 0, 0, 0, 0, 0, 0, 0, 0, 0, 0], "sum_hessian": [8792.727, 37.870476, 8754.856, 10.351163, 27.519312, 8.936853, 1.4143087, 5.433335, 22.085978, 1.6235802, 3.8097546, 1.3441436, 20.741835], "tree_param": {"num_deleted": "0", "num_feature": "29", "num_nodes": "13", "size_leaf_vector": "0"}}, {"base_weights": [-1.2737405, 0.015050098, -1.2796118, -1.2293152, 0.8472723, -0.7579338, -0.025605228, 0.5730088, -1.7005655, 1.1147912, -0.8621082, -1.0268435, 0.020956576, 0.019710053, -0.0070983386, -0.022492465, -0.041437514, 0.4402096, 1.2672771, -0.0050511705, -0.019695878, 0.072308436, -1.259434, -0.024678396, 0.021754647, 0.0073462264, 0.02610093, -0.0058780513, 0.008136636, -0.0072749346, -0.026724476], "categories": [], "categories_nodes": [], "categories_segments": [], "categories_sizes": [], "default_left": [0, 0, 0, 0, 0, 0, 0, 0, 0, 0, 0, 0, 0, 0, 0, 0, 0, 0, 0, 0, 0, 0, 0, 0, 0, 0, 0, 0, 0, 0, 0], "id": 42, "left_children": [1, 3, 5, 7, 9, 11, -1, 13, 15, 17, 19, 21, -1, -1, -1, -1, -1, 23, 25, -1, -1, 27, 29, -1, -1, -1, -1, -1, -1, -1, -1], "loss_changes": [66.62988, 43.40846, 2.0, 15.2465515, 12.442417, 7.5577474, 0.0, 1.9692115, 0.57250214, 1.7201424, 0.047534227, 3.1904058, 0.0, 0.0, 0.0, 0.0, 0.0, 7.429328, 0.11652374, 0.0, 0.0, 0.49481082, 0.2058897, 0.0, 0.0, 0.0, 0.0, 0.0, 0.0, 0.0, 0.0], "parents": [2147483647, 0, 0, 1, 1, 2, 2, 3, 3, 4, 4, 5, 5, 7, 7, 8, 8, 9, 9, 10, 10, 11, 11, 17, 17, 18, 18, 21, 21, 22, 22], "right_children": [2, 4, 6, 8, 10, 12, -1, 14, 16, 18, 20, 22, -1, -1, -1, -1, -1, 24, 26, -1, -1, 28, 30, -1, -1, -1, -1, -1, -1, -1, -1], "split_conditions": [-4.463014, -0.2750671, -1.8226626, 0.27726558, -1.8171622, 0.6451978, -0.025605228, -0.7696252, 1.4425915, -0.19724247, -0.11833675, -0.014253433, 0.020956576, 0.019710053, -0.0070983386, -0.022492465, -0.041437514, -0.3636115, -0.76675147, -0.0050511705, -0.019695878, -0.41126218, -0.36500925, -0.024678396, 0.021754647, 0.0073462264, 0.02610093, -0.0058780513, 0.008136636, -0.0072749346, -0.026724476], "split_indices": [13, 25, 16, 19, 9, 20, 0, 5, 3, 25, 12, 24, 0, 0, 0, 0, 0, 28, 21, 0, 0, 20, 28, 0, 0, 0, 0, 0, 0, 0, 0], "split_type": [0, 0, 0, 0, 0, 0, 0, 0, 0, 0, 0, 0, 0, 0, 0, 0, 0, 0, 0, 0, 0, 0, 0, 0, 0, 0, 0, 0, 0, 0, 0], "sum_hessian": [8802.091, 39.910942, 8762.181, 15.8036585, 24.107283, 12.348354, 8749.832, 3.2309132, 12.572745, 21.145794, 2.9614873, 11.123258, 1.2250967, 2.1936939, 1.0372192, 6.507584, 6.065161, 4.615263, 16.53053, 1.00866, 1.9528272, 2.0630457, 9.060212, 1.0346471, 3.580616, 1.0977824, 15.432749, 1.0428456, 1.0202, 1.1684273, 7.8917847], "tree_param": {"num_deleted": "0", "num_feature": "29", "num_nodes": "31", "size_leaf_vector": "0"}}, {"base_weights": [-1.2757779, -0.41721967, -0.025586447, 1.0461825, -0.024853313, 1.2620116, -0.010761925, 0.026516747, 0.007965969], "categories": [], "categories_nodes": [], "categories_segments": [], "categories_sizes": [], "default_left": [0, 0, 0, 0, 0, 0, 0, 0, 0], "id": 43, "left_children": [1, 3, -1, 5, -1, 7, -1, -1, -1], "loss_changes": [26.223633, 46.760723, 0.0, 5.5055676, 0.0, 0.17323685, 0.0, 0.0, 0.0], "parents": [2147483647, 0, 0, 1, 1, 3, 3, 5, 5], "right_children": [2, 4, -1, 6, -1, 8, -1, -1, -1], "split_conditions": [-1.8355584, -2.752758, -0.025586447, 0.26322308, -0.024853313, 2.9789374, -0.010761925, 0.026516747, 0.007965969], "split_indices": [11, 13, 0, 6, 0, 7, 0, 0, 0], "split_type": [0, 0, 0, 0, 0, 0, 0, 0, 0], "sum_hessian": [8791.811, 36.63427, 8755.177, 13.115275, 23.518993, 11.7218075, 1.3934672, 10.416982, 1.3048264], "tree_param": {"num_deleted": "0", "num_feature": "29", "num_nodes": "9", "size_leaf_vector": "0"}}, {"base_weights": [-1.2747153, -0.12671521, -1.2797256, 0.9931689, -1.1117287, -0.9190981, -0.025607638, 1.2560033, -0.15159132, -0.0013075351, -1.2035078, 0.55343235, -0.024668148, 0.0075541525, 0.025953714, 0.01375529, -0.022934107, -0.4033936, -0.025491694, 0.025473041, -0.010161108, -0.014258326, 0.0019047437], "categories": [], "categories_nodes": [], "categories_segments": [], "categories_sizes": [], "default_left": [0, 0, 0, 0, 0, 0, 0, 0, 0, 0, 0, 0, 0, 0, 0, 0, 0, 0, 0, 0, 0, 0, 0], "id": 44, "left_children": [1, 3, 5, 7, 9, 11, -1, 13, 15, -1, 17, 19, -1, -1, -1, -1, -1, 21, -1, -1, -1, -1, -1], "loss_changes": [50.463867, 44.518837, 0.89746094, 5.8908386, 1.9775085, 9.692581, 0.0, 0.07788086, 4.488814, 0.0, 0.6020298, 3.792706, 0.0, 0.0, 0.0, 0.0, 0.0, 0.5408386, 0.0, 0.0, 0.0, 0.0, 0.0], "parents": [2147483647, 0, 0, 1, 1, 2, 2, 3, 3, 4, 4, 5, 5, 7, 7, 8, 8, 10, 10, 11, 11, 17, 17], "right_children": [2, 4, 6, 8, 10, 12, -1, 14, 16, -1, 18, 20, -1, -1, -1, -1, -1, 22, -1, -1, -1, -1, -1], "split_conditions": [-1.6304436, -1.6640834, -3.695218, -3.4366248, -0.99901986, -1.8795468, -0.025607638, 1.984558, 0.9542722, -0.0013075351, -1.2934885, -0.0040639318, -0.024668148, 0.0075541525, 0.025953714, 0.01375529, -0.022934107, -0.2653136, -0.025491694, 0.025473041, -0.010161108, -0.014258326, 0.0019047437], "split_indices": [16, 6, 13, 2, 4, 9, 0, 1, 20, 0, 14, 19, 0, 0, 0, 0, 0, 25, 0, 0, 0, 0, 0], "split_type": [0, 0, 0, 0, 0, 0, 0, 0, 0, 0, 0, 0, 0, 0, 0, 0, 0, 0, 0, 0, 0, 0, 0], "sum_hessian": [8800.919, 38.356964, 8762.562, 17.945751, 20.411213, 18.467134, 8744.095, 14.515785, 3.4299667, 1.7840465, 18.627165, 3.1145875, 15.352547, 1.1135526, 13.402232, 2.0281377, 1.4018289, 2.064338, 16.562828, 1.7364985, 1.3780891, 1.0085422, 1.0557958], "tree_param": {"num_deleted": "0", "num_feature": "29", "num_nodes": "23", "size_leaf_vector": "0"}}, {"base_weights": [-1.2417688, -0.39093208, -0.02490663, 1.0122864, -0.024135284, 1.2213563, -0.0101389345, 0.025757696, 0.0072019207], "categories": [], "categories_nodes": [], "categories_segments": [], "categories_sizes": [], "default_left": [0, 0, 0, 0, 0, 0, 0, 0, 0], "id": 45, "left_children": [1, 3, -1, 5, -1, 7, -1, -1, -1], "loss_changes": [24.25586, 41.854324, 0.0, 4.936652, 0.0, 0.23768616, 0.0, 0.0, 0.0], "parents": [2147483647, 0, 0, 1, 1, 3, 3, 5, 5], "right_children": [2, 4, -1, 6, -1, 8, -1, -1, -1], "split_conditions": [-1.8355584, -2.752758, -0.02490663, 0.26322308, -0.024135284, 2.9789374, -0.0101389345, 0.025757696, 0.0072019207], "split_indices": [11, 13, 0, 6, 0, 7, 0, 0, 0], "split_type": [0, 0, 0, 0, 0, 0, 0, 0, 0], "sum_hessian": [8161.516, 34.493587, 8127.023, 12.593007, 21.90058, 11.242006, 1.3510015, 9.97605, 1.2659554], "tree_param": {"num_deleted": "0", "num_feature": "29", "num_nodes": "9", "size_leaf_vector": "0"}}, {"base_weights": [-1.2407088, -0.11891103, -1.2457174, 0.9564954, -1.0769651, -0.87406087, -0.024928223, 1.2227671, -0.16442871, -0.13261005, -1.1850342, 0.5561148, -0.023945404, 0.007695015, 0.025398273, 0.013450206, -0.022906296, 0.01006659, -0.013998482, -0.0026463117, -0.025071707, 0.025120093, -0.009815969], "categories": [], "categories_nodes": [], "categories_segments": [], "categories_sizes": [], "default_left": [0, 0, 0, 0, 0, 0, 0, 0, 0, 0, 0, 0, 0, 0, 0, 0, 0, 0, 0, 0, 0, 0, 0], "id": 46, "left_children": [1, 3, 5, 7, 9, 11, -1, 13, 15, 17, 19, 21, -1, -1, -1, -1, -1, -1, -1, -1, -1, -1, -1], "loss_changes": [45.76953, 39.595394, 1.0087891, 5.6228104, 1.9111156, 9.220669, 0.0, 0.09602165, 4.356322, 1.5093212, 1.1373634, 3.6164632, 0.0, 0.0, 0.0, 0.0, 0.0, 0.0, 0.0, 0.0, 0.0, 0.0, 0.0], "parents": [2147483647, 0, 0, 1, 1, 2, 2, 3, 3, 4, 4, 5, 5, 7, 7, 8, 8, 9, 9, 10, 10, 11, 11], "right_children": [2, 4, 6, 8, 10, 12, -1, 14, 16, 18, 20, 22, -1, -1, -1, -1, -1, -1, -1, -1, -1, -1, -1], "split_conditions": [-1.6304436, -1.6640834, -3.695218, -3.4366248, -1.2934885, -1.8795468, -0.024928223, -0.7633482, 0.9542722, 0.63862437, -1.186029, -0.0040639318, -0.023945404, 0.007695015, 0.025398273, 0.013450206, -0.022906296, 0.01006659, -0.013998482, -0.0026463117, -0.025071707, 0.025120093, -0.009815969], "split_indices": [16, 6, 13, 2, 14, 9, 0, 25, 20, 4, 24, 19, 0, 0, 0, 0, 0, 0, 0, 0, 0, 0, 0], "split_type": [0, 0, 0, 0, 0, 0, 0, 0, 0, 0, 0, 0, 0, 0, 0, 0, 0, 0, 0, 0, 0, 0, 0], "sum_hessian": [8171.418, 36.431206, 8134.9863, 17.165134, 19.266071, 17.507124, 8117.4795, 13.796878, 3.3682578, 2.2070425, 17.059029, 3.0943353, 14.412787, 1.2227947, 12.574082, 1.987129, 1.3811288, 1.09376, 1.1132823, 1.2220829, 15.8369465, 1.7348316, 1.3595039], "tree_param": {"num_deleted": "0", "num_feature": "29", "num_nodes": "23", "size_leaf_vector": "0"}}, {"base_weights": [-1.2438322, -0.5820288, -0.024933288, 0.8613506, -1.0992509, 1.1883385, -0.016515689, -0.3609411, -1.1921989, 0.025701689, 0.004343125, 0.013977133, -0.01831702, -0.02457626, -0.0047791027], "categories": [], "categories_nodes": [], "categories_segments": [], "categories_sizes": [], "default_left": [0, 0, 0, 0, 0, 0, 0, 0, 0, 0, 0, 0, 0, 0, 0], "id": 47, "left_children": [1, 3, -1, 5, 7, 9, -1, 11, 13, -1, -1, -1, -1, -1, -1], "loss_changes": [14.574219, 28.315676, 0.0, 6.6260304, 1.4519501, 0.56476116, 0.0, 3.2871473, 0.54149246, 0.0, 0.0, 0.0, 0.0, 0.0, 0.0], "parents": [2147483647, 0, 0, 1, 1, 3, 3, 4, 4, 5, 5, 7, 7, 8, 8], "right_children": [2, 4, -1, 6, 8, 10, -1, 12, 14, -1, -1, -1, -1, -1, -1], "split_conditions": [-3.3195264, -1.8893243, -0.024933288, 1.1077638, 0.22919208, 0.43328103, -0.016515689, -0.3710671, 0.23558784, 0.025701689, 0.004343125, 0.013977133, -0.01831702, -0.02457626, -0.0047791027], "split_indices": [13, 11, 0, 6, 6, 23, 0, 28, 20, 0, 0, 0, 0, 0, 0], "split_type": [0, 0, 0, 0, 0, 0, 0, 0, 0, 0, 0, 0, 0, 0, 0], "sum_hessian": [8161.926, 35.660534, 8126.2656, 9.232007, 26.428526, 7.980862, 1.2511444, 3.501162, 22.927364, 6.9639225, 1.0169396, 1.1140609, 2.387101, 21.800903, 1.1264601], "tree_param": {"num_deleted": "0", "num_feature": "29", "num_nodes": "15", "size_leaf_vector": "0"}}, {"base_weights": [-1.2423841, -0.46902043, -0.02491469, 1.028807, -1.0583205, 0.025780734, -0.009163387, -0.42100543, -1.1909921, 0.015142302, -0.020023458, -0.0063798022, -0.024610022], "categories": [], "categories_nodes": [], "categories_segments": [], "categories_sizes": [], "default_left": [0, 0, 0, 0, 0, 0, 0, 0, 0, 0, 0, 0, 0], "id": 48, "left_children": [1, 3, -1, 5, 7, -1, -1, 9, 11, -1, -1, -1, -1], "loss_changes": [20.566406, 33.586155, 0.0, 4.809328, 1.7743206, 0.0, 0.0, 4.9850025, 0.35614014, 0.0, 0.0, 0.0, 0.0], "parents": [2147483647, 0, 0, 1, 1, 3, 3, 4, 4, 7, 7, 8, 8], "right_children": [2, 4, -1, 6, 8, -1, -1, 10, 12, -1, -1, -1, -1], "split_conditions": [-3.1088288, -0.6800448, -0.02491469, 0.5311686, 0.2978831, 0.025780734, -0.009163387, -0.3947316, -1.3532219, 0.015142302, -0.020023458, -0.0063798022, -0.024610022], "split_indices": [13, 6, 0, 15, 6, 0, 0, 5, 14, 0, 0, 0, 0], "split_type": [0, 0, 0, 0, 0, 0, 0, 0, 0, 0, 0, 0, 0], "sum_hessian": [8162.4785, 35.817104, 8126.6616, 9.902372, 25.914732, 8.540798, 1.3615746, 5.18428, 20.730453, 1.6099765, 3.5743032, 1.2918547, 19.438599], "tree_param": {"num_deleted": "0", "num_feature": "29", "num_nodes": "13", "size_leaf_vector": "0"}}, {"base_weights": [-1.2398605, -0.015520972, -1.245613, -1.2264421, 0.8082111, -0.7208432, -0.024925739, 0.55331165, -1.6877613, 1.069885, -0.8274793, -0.9938746, 0.020596113, 0.018983362, -0.006678855, -0.021740267, -0.041024785, 0.38360113, 1.2297766, -0.018774046, -0.0050924486, 0.09693303, -1.2326883, -0.025016192, 0.020934727, 0.025362315, 0.0065554627, -0.0051019117, 0.00801462, -0.0067758732, -0.026227484], "categories": [], "categories_nodes": [], "categories_segments": [], "categories_sizes": [], "default_left": [0, 0, 0, 0, 0, 0, 0, 0, 0, 0, 0, 0, 0, 0, 0, 0, 0, 0, 0, 0, 0, 0, 0, 0, 0, 0, 0, 0, 0, 0, 0], "id": 49, "left_children": [1, 3, 5, 7, 9, 11, -1, 13, 15, 17, 19, 21, -1, -1, -1, -1, -1, 23, 25, -1, -1, 27, 29, -1, -1, -1, -1, -1, -1, -1, -1], "loss_changes": [57.54883, 40.12933, 1.9794922, 14.302319, 11.138358, 7.144945, 0.0, 1.7586801, 0.64772797, 1.8421745, 0.0074079037, 3.1381226, 0.0, 0.0, 0.0, 0.0, 0.0, 7.20308, 0.16011047, 0.0, 0.0, 0.4239594, 0.22950459, 0.0, 0.0, 0.0, 0.0, 0.0, 0.0, 0.0, 0.0], "parents": [2147483647, 0, 0, 1, 1, 2, 2, 3, 3, 4, 4, 5, 5, 7, 7, 8, 8, 9, 9, 10, 10, 11, 11, 17, 17, 18, 18, 21, 21, 22, 22], "right_children": [2, 4, 6, 8, 10, 12, -1, 14, 16, 18, 20, 22, -1, -1, -1, -1, -1, 24, 26, -1, -1, 28, 30, -1, -1, -1, -1, -1, -1, -1, -1], "split_conditions": [-4.463014, -0.2750671, -1.8226626, 0.27726558, -1.8171622, 0.6451978, -0.024925739, -0.7696252, 1.4425915, -0.19724247, -0.3304153, -0.014253433, 0.020596113, 0.018983362, -0.006678855, -0.021740267, -0.041024785, -0.3636115, 0.018150927, -0.018774046, -0.0050924486, -0.27526328, -0.36500925, -0.025016192, 0.020934727, 0.025362315, 0.0065554627, -0.0051019117, 0.00801462, -0.0067758732, -0.026227484], "split_indices": [13, 25, 16, 19, 9, 20, 0, 5, 3, 25, 28, 24, 0, 0, 0, 0, 0, 28, 5, 0, 0, 22, 28, 0, 0, 0, 0, 0, 0, 0, 0], "split_type": [0, 0, 0, 0, 0, 0, 0, 0, 0, 0, 0, 0, 0, 0, 0, 0, 0, 0, 0, 0, 0, 0, 0, 0, 0, 0, 0, 0, 0, 0, 0], "sum_hessian": [8172.869, 38.237198, 8134.6323, 15.282455, 22.954744, 11.806856, 8122.825, 3.1048062, 12.177649, 20.087158, 2.8675847, 10.587855, 1.2190012, 2.09868, 1.0061262, 6.0948367, 6.0828123, 4.4379215, 15.649238, 1.8665512, 1.0010335, 2.0083957, 8.579459, 1.0251232, 3.4127982, 14.621855, 1.0273821, 1.0046085, 1.0037873, 1.1233634, 7.4560957], "tree_param": {"num_deleted": "0", "num_feature": "29", "num_nodes": "31", "size_leaf_vector": "0"}}, {"base_weights": [-1.2107346, -0.0490461, -1.2163653, -1.2300547, 0.7705384, -0.68130815, -0.024341524, 0.54026127, -1.6854949, 1.0269673, -0.015893662, -0.96261317, 0.02061048, -0.005177012, 0.018591136, -0.021051912, -0.040906742, 0.31845558, 1.1966791, 0.002530109, -1.2104099, -0.025427593, 0.020051293, 0.024715655, 0.006193806, -0.0063111, -0.025829908], "categories": [], "categories_nodes": [], "categories_segments": [], "categories_sizes": [], "default_left": [0, 0, 0, 0, 0, 0, 0, 0, 0, 0, 0, 0, 0, 0, 0, 0, 0, 0, 0, 0, 0, 0, 0, 0, 0, 0, 0], "id": 50, "left_children": [1, 3, 5, 7, 9, 11, -1, 13, 15, 17, -1, 19, -1, -1, -1, -1, -1, 21, 23, -1, 25, -1, -1, -1, -1, -1, -1], "loss_changes": [49.43164, 37.28319, 2.0341797, 13.620533, 9.957365, 6.896352, 0.0, 1.4796594, 0.7578583, 2.0244236, 0.0, 3.1346912, 0.0, 0.0, 0.0, 0.0, 0.0, 6.9613285, 0.164505, 0.0, 0.25237083, 0.0, 0.0, 0.0, 0.0, 0.0, 0.0], "parents": [2147483647, 0, 0, 1, 1, 2, 2, 3, 3, 4, 4, 5, 5, 7, 7, 8, 8, 9, 9, 11, 11, 17, 17, 18, 18, 20, 20], "right_children": [2, 4, 6, 8, 10, 12, -1, 14, 16, 18, -1, 20, -1, -1, -1, -1, -1, 22, 24, -1, 26, -1, -1, -1, -1, -1, -1], "split_conditions": [-4.463014, -0.2750671, -1.8226626, 0.27726558, -1.8171622, 0.6451978, -0.024341524, -0.64448065, 1.4425915, -0.19724247, -0.015893662, -0.014253433, 0.02061048, -0.005177012, 0.018591136, -0.021051912, -0.040906742, -0.3636115, 0.018150927, 0.002530109, -0.36500925, -0.025427593, 0.020051293, 0.024715655, 0.006193806, -0.0063111, -0.025829908], "split_indices": [13, 25, 16, 19, 9, 20, 0, 25, 3, 25, 0, 24, 0, 0, 0, 0, 0, 28, 5, 0, 28, 0, 0, 0, 0, 0, 0], "split_type": [0, 0, 0, 0, 0, 0, 0, 0, 0, 0, 0, 0, 0, 0, 0, 0, 0, 0, 0, 0, 0, 0, 0, 0, 0, 0, 0], "sum_hessian": [7565.1724, 36.53903, 7528.6333, 14.763798, 21.775232, 11.261226, 7517.372, 2.9828992, 11.780898, 19.005466, 2.769766, 10.047752, 1.213474, 1.0868951, 1.896004, 5.6930256, 6.087873, 4.2285576, 14.776908, 1.9530711, 8.094681, 1.0138876, 3.21467, 13.776334, 1.000574, 1.0789623, 7.0157185], "tree_param": {"num_deleted": "0", "num_feature": "29", "num_nodes": "27", "size_leaf_vector": "0"}}, {"base_weights": [-1.2125103, -0.36352724, -0.024322368, 0.9871833, -0.023494126, 1.1871618, -0.009290307, 0.025156246, 0.006305615], "categories": [], "categories_nodes": [], "categories_segments": [], "categories_sizes": [], "default_left": [0, 0, 0, 0, 0, 0, 0, 0, 0], "id": 51, "left_children": [1, 3, -1, 5, -1, 7, -1, -1, -1], "loss_changes": [22.698242, 37.749935, 0.0, 4.346924, 0.0, 0.3285942, 0.0, 0.0, 0.0], "parents": [2147483647, 0, 0, 1, 1, 3, 3, 5, 5], "right_children": [2, 4, -1, 6, -1, 8, -1, -1, -1], "split_conditions": [-1.8355584, -2.752758, -0.024322368, 0.26322308, -0.023494126, 2.9789374, -0.009290307, 0.025156246, 0.006305615], "split_indices": [11, 13, 0, 6, 0, 7, 0, 0, 0], "split_type": [0, 0, 0, 0, 0, 0, 0, 0, 0], "sum_hessian": [7553.4097, 32.39541, 7521.014, 12.073916, 20.321491, 10.772218, 1.3016993, 9.555287, 1.2169298], "tree_param": {"num_deleted": "0", "num_feature": "29", "num_nodes": "9", "size_leaf_vector": "0"}}, {"base_weights": [-1.2114439, -0.11224186, -1.2164677, 0.922349, -1.0450108, -0.833445, -0.024344057, -0.0053232503, 0.02509934, -0.00043975102, -1.1438752, 0.5578625, -0.02332295, 0.016528444, -0.7111064, -0.0071352837, -0.024385476, 0.024721023, -0.009431605, 0.0015575638, -0.022887757], "categories": [], "categories_nodes": [], "categories_segments": [], "categories_sizes": [], "default_left": [0, 0, 0, 0, 0, 0, 0, 0, 0, 0, 0, 0, 0, 0, 0, 0, 0, 0, 0, 0, 0], "id": 52, "left_children": [1, 3, 5, 7, 9, 11, -1, 13, -1, -1, 15, 17, -1, -1, 19, -1, -1, -1, -1, -1, -1], "loss_changes": [41.63672, 35.23952, 1.1054688, 5.366637, 1.9113598, 8.795509, 0.0, 3.8634999, 0.0, 0.0, 0.6000099, 3.425853, 0.0, 0.0, 1.3048333, 0.0, 0.0, 0.0, 0.0, 0.0, 0.0], "parents": [2147483647, 0, 0, 1, 1, 2, 2, 3, 3, 4, 4, 5, 5, 7, 7, 10, 10, 11, 11, 14, 14], "right_children": [2, 4, 6, 8, 10, 12, -1, 14, -1, -1, 16, 18, -1, -1, 20, -1, -1, -1, -1, -1, -1], "split_conditions": [-1.6304436, -1.6640834, -3.695218, 2.396671, -0.99901986, -1.8795468, -0.024344057, -0.27735728, 0.02509934, -0.00043975102, -1.2934885, -0.0040639318, -0.02332295, 0.016528444, -0.27806604, -0.0071352837, -0.024385476, 0.024721023, -0.009431605, 0.0015575638, -0.022887757], "split_indices": [16, 6, 13, 1, 4, 9, 0, 23, 0, 0, 14, 19, 0, 0, 25, 0, 0, 0, 0, 0, 0], "split_type": [0, 0, 0, 0, 0, 0, 0, 0, 0, 0, 0, 0, 0, 0, 0, 0, 0, 0, 0, 0, 0], "sum_hessian": [7563.463, 34.51756, 7528.9453, 16.370838, 18.14672, 16.595829, 7512.3496, 4.5803194, 11.790518, 1.7068713, 16.43985, 3.07209, 13.52374, 2.024075, 2.5562441, 1.9381862, 14.501664, 1.7310131, 1.3410769, 1.1969377, 1.3593066], "tree_param": {"num_deleted": "0", "num_feature": "29", "num_nodes": "21", "size_leaf_vector": "0"}}, {"base_weights": [-1.2146604, -0.5513021, -0.024351183, 0.83627063, -1.060475, 1.1559674, -0.015963398, -0.3128468, -1.1580184, 0.0058057634, 0.025061132, 0.01440729, -0.017658453, -0.023939583, -0.004009119], "categories": [], "categories_nodes": [], "categories_segments": [], "categories_sizes": [], "default_left": [0, 0, 0, 0, 0, 0, 0, 0, 0, 0, 0, 0, 0, 0, 0], "id": 53, "left_children": [1, 3, -1, 5, 7, 9, -1, 11, 13, -1, -1, -1, -1, -1, -1], "loss_changes": [13.857422, 25.400684, 0.0, 6.081718, 1.5209293, 0.3646555, 0.0, 3.1985183, 0.5984669, 0.0, 0.0, 0.0, 0.0, 0.0, 0.0], "parents": [2147483647, 0, 0, 1, 1, 3, 3, 4, 4, 5, 5, 7, 7, 8, 8], "right_children": [2, 4, -1, 6, 8, 10, -1, 12, 14, -1, -1, -1, -1, -1, -1], "split_conditions": [-3.3195264, -1.8893243, -0.024351183, 1.1077638, 0.22919208, 1.4848547, -0.015963398, -0.3710671, 0.23558784, 0.0058057634, 0.025061132, 0.01440729, -0.017658453, -0.023939583, -0.004009119], "split_indices": [13, 11, 0, 6, 6, 3, 0, 28, 20, 0, 0, 0, 0, 0, 0], "split_type": [0, 0, 0, 0, 0, 0, 0, 0, 0, 0, 0, 0, 0, 0, 0], "sum_hessian": [7553.858, 33.696865, 7520.161, 8.873322, 24.823544, 7.666498, 1.2068232, 3.3505144, 21.473028, 1.1754776, 6.4910207, 1.0975944, 2.25292, 20.39325, 1.0797788], "tree_param": {"num_deleted": "0", "num_feature": "29", "num_nodes": "15", "size_leaf_vector": "0"}}, {"base_weights": [-1.2131379, -0.44115672, -0.024331035, 1.0050726, -1.0197929, 0.02514909, -0.008572493, -0.37245142, -1.1584753, 0.015300444, -0.01929753, -0.0056767645, -0.024005499], "categories": [], "categories_nodes": [], "categories_segments": [], "categories_sizes": [], "default_left": [0, 0, 0, 0, 0, 0, 0, 0, 0, 0, 0, 0, 0], "id": 54, "left_children": [1, 3, -1, 5, 7, -1, -1, 9, 11, -1, -1, -1, -1], "loss_changes": [19.375977, 30.174757, 0.0, 4.322998, 1.8465977, 0.0, 0.0, 4.7483125, 0.40602493, 0.0, 0.0, 0.0, 0.0], "parents": [2147483647, 0, 0, 1, 1, 3, 3, 4, 4, 7, 7, 8, 8], "right_children": [2, 4, -1, 6, 8, -1, -1, 10, 12, -1, -1, -1, -1], "split_conditions": [-3.1088288, -0.6800448, -0.024331035, 0.5311686, 0.2978831, 0.02514909, -0.008572493, -0.3947316, -1.3532219, 0.015300444, -0.01929753, -0.0056767645, -0.024005499], "split_indices": [13, 6, 0, 15, 6, 0, 0, 5, 14, 0, 0, 0, 0], "split_type": [0, 0, 0, 0, 0, 0, 0, 0, 0, 0, 0, 0, 0], "sum_hessian": [7554.3887, 33.83314, 7520.555, 9.457737, 24.375406, 8.146577, 1.3111598, 4.9509583, 19.424448, 1.5957435, 3.3552146, 1.2413014, 18.183146], "tree_param": {"num_deleted": "0", "num_feature": "29", "num_nodes": "13", "size_leaf_vector": "0"}}, {"base_weights": [-1.1894162, -0.51972497, -0.023848044, 0.8130695, -1.0222836, 1.1260318, -0.015412367, -0.26428223, -1.1252512, 0.0052682785, 0.024524895, 0.014802204, -0.016990613, -0.023337577, -0.0032630481], "categories": [], "categories_nodes": [], "categories_segments": [], "categories_sizes": [], "default_left": [0, 0, 0, 0, 0, 0, 0, 0, 0, 0, 0, 0, 0, 0, 0], "id": 55, "left_children": [1, 3, -1, 5, 7, 9, -1, 11, 13, -1, -1, -1, -1, -1, -1], "loss_changes": [13.326172, 22.754694, 0.0, 5.5859113, 1.5923214, 0.39924145, 0.0, 3.0990827, 0.6510353, 0.0, 0.0, 0.0, 0.0, 0.0, 0.0], "parents": [2147483647, 0, 0, 1, 1, 3, 3, 4, 4, 5, 5, 7, 7, 8, 8], "right_children": [2, 4, -1, 6, 8, 10, -1, 12, 14, -1, -1, -1, -1, -1, -1], "split_conditions": [-3.3195264, -1.8893243, -0.023848044, 1.1077638, 0.22919208, 1.4848547, -0.015412367, -0.3710671, 0.23558784, 0.0052682785, 0.024524895, 0.014802204, -0.016990613, -0.023337577, -0.0032630481], "split_indices": [13, 11, 0, 6, 6, 3, 0, 28, 20, 0, 0, 0, 0, 0, 0], "split_type": [0, 0, 0, 0, 0, 0, 0, 0, 0, 0, 0, 0, 0, 0, 0], "sum_hessian": [6972.932, 31.731066, 6941.201, 8.519456, 23.211609, 7.354975, 1.1644806, 3.2025452, 20.009064, 1.1431828, 6.2117925, 1.0816423, 2.120903, 18.975204, 1.0338596], "tree_param": {"num_deleted": "0", "num_feature": "29", "num_nodes": "15", "size_leaf_vector": "0"}}, {"base_weights": [-1.1878235, -0.4147385, -0.023826191, 0.98010963, -0.9822, 0.024509244, -0.008019453, -0.328538, -1.1265479, 0.015296285, -0.01861738, -0.004981387, -0.02341859], "categories": [], "categories_nodes": [], "categories_segments": [], "categories_sizes": [], "default_left": [0, 0, 0, 0, 0, 0, 0, 0, 0, 0, 0, 0, 0], "id": 56, "left_children": [1, 3, -1, 5, 7, -1, -1, 9, 11, -1, -1, -1, -1], "loss_changes": [18.301758, 26.958385, 0.0, 3.8792171, 1.8797455, 0.0, 0.0, 4.482092, 0.45295906, 0.0, 0.0, 0.0, 0.0], "parents": [2147483647, 0, 0, 1, 1, 3, 3, 4, 4, 7, 7, 8, 8], "right_children": [2, 4, -1, 6, 8, -1, -1, 10, 12, -1, -1, -1, -1], "split_conditions": [-3.1088288, -0.6800448, -0.023826191, 0.5311686, 0.2978831, 0.024509244, -0.008019453, -0.3947316, -1.3532219, 0.015296285, -0.01861738, -0.004981387, -0.02341859], "split_indices": [13, 6, 0, 15, 6, 0, 0, 5, 14, 0, 0, 0, 0], "split_type": [0, 0, 0, 0, 0, 0, 0, 0, 0, 0, 0, 0, 0], "sum_hessian": [6973.4907, 31.842674, 6941.648, 8.997992, 22.844683, 7.736299, 1.261692, 4.7248387, 18.119844, 1.5825089, 3.14233, 1.190678, 16.929167], "tree_param": {"num_deleted": "0", "num_feature": "29", "num_nodes": "13", "size_leaf_vector": "0"}}, {"base_weights": [-1.185625, -0.09101507, -1.1910973, -1.2607234, 0.73554313, -0.64573693, -0.023836901, 0.5286355, -1.7178192, 0.9882052, -0.015344595, 0.27532697, -0.024992824, 0.01804328, -0.0049673505, -0.020419654, -0.04196135, 0.25464392, 1.1690392, -0.015094406, 0.02349478, -0.009833027, 0.013198356, 0.005847384, 0.024220565], "categories": [], "categories_nodes": [], "categories_segments": [], "categories_sizes": [], "default_left": [0, 0, 0, 0, 0, 0, 0, 0, 0, 0, 0, 0, 0, 0, 0, 0, 0, 0, 0, 0, 0, 0, 0, 0, 0], "id": 57, "left_children": [1, 3, 5, 7, 9, 11, -1, 13, 15, 17, -1, 19, -1, -1, -1, -1, -1, 21, 23, -1, -1, -1, -1, -1, -1], "loss_changes": [41.737305, 35.573654, 2.0654297, 13.3452015, 8.9705515, 6.8523207, 0.0, 1.3439913, 1.1295776, 2.2164688, 0.0, 5.9384694, 0.0, 0.0, 0.0, 0.0, 0.0, 1.8447883, 0.19537735, 0.0, 0.0, 0.0, 0.0, 0.0, 0.0], "parents": [2147483647, 0, 0, 1, 1, 2, 2, 3, 3, 4, 4, 5, 5, 7, 7, 8, 8, 9, 9, 11, 11, 17, 17, 18, 18], "right_children": [2, 4, 6, 8, 10, 12, -1, 14, 16, 18, -1, 20, -1, -1, -1, -1, -1, 22, 24, -1, -1, -1, -1, -1, -1], "split_conditions": [-4.463014, -0.2750671, -1.8226626, 0.27726558, -1.8171622, 0.15940943, -0.023836901, 0.15199958, 1.4425915, -0.19724247, -0.015344595, 1.1436439, -0.024992824, 0.01804328, -0.0049673505, -0.020419654, -0.04196135, 0.0022067046, -0.76675147, -0.015094406, 0.02349478, -0.009833027, 0.013198356, 0.005847384, 0.024220565], "split_indices": [13, 25, 16, 19, 9, 24, 0, 21, 3, 25, 0, 3, 0, 0, 0, 0, 0, 12, 21, 0, 0, 0, 0, 0, 0], "split_type": [0, 0, 0, 0, 0, 0, 0, 0, 0, 0, 0, 0, 0, 0, 0, 0, 0, 0, 0, 0, 0, 0, 0, 0, 0], "sum_hessian": [6985.11, 34.834915, 6950.2754, 14.205979, 20.628937, 10.700572, 6939.5747, 2.8587065, 11.347273, 17.952915, 2.6760223, 4.4530096, 6.247563, 1.8218211, 1.0368854, 5.30693, 6.040343, 4.026678, 13.926236, 2.1507487, 2.3022609, 1.3421078, 2.68457, 1.0004901, 12.925746], "tree_param": {"num_deleted": "0", "num_feature": "29", "num_nodes": "25", "size_leaf_vector": "0"}}, {"base_weights": [-1.1871992, -0.3418079, -0.023816895, 0.9584741, -0.02292663, 1.1517488, -0.008588094, 0.024526805, 0.0054757628], "categories": [], "categories_nodes": [], "categories_segments": [], "categories_sizes": [], "default_left": [0, 0, 0, 0, 0, 0, 0, 0, 0], "id": 58, "left_children": [1, 3, -1, 5, -1, 7, -1, -1, -1], "loss_changes": [21.08496, 33.88945, 0.0, 3.8545237, 0.0, 0.4020567, 0.0, 0.0, 0.0], "parents": [2147483647, 0, 0, 1, 1, 3, 3, 5, 5], "right_children": [2, 4, -1, 6, -1, 8, -1, -1, -1], "split_conditions": [-1.8355584, -2.752758, -0.023816895, 0.26322308, -0.02292663, 2.9789374, -0.008588094, 0.024526805, 0.0054757628], "split_indices": [11, 13, 0, 6, 0, 7, 0, 0, 0], "split_type": [0, 0, 0, 0, 0, 0, 0, 0, 0], "sum_hessian": [6972.5205, 30.345457, 6942.1753, 11.525857, 18.819601, 10.266317, 1.2595395, 9.096659, 1.1696583], "tree_param": {"num_deleted": "0", "num_feature": "29", "num_nodes": "9", "size_leaf_vector": "0"}}, {"base_weights": [-1.1861298, -0.10447587, -1.1911805, 0.8925359, -1.0138019, -0.78845674, -0.023839537, -0.021243986, 0.024604842, -0.061692733, -1.1329421, 0.58279157, -0.022740705, 0.016048465, -0.7129479, 0.010736234, -0.01282541, -0.0021321645, -0.024109883, 0.024716599, -0.008810059, 0.0013960863, -0.022678342], "categories": [], "categories_nodes": [], "categories_segments": [], "categories_sizes": [], "default_left": [0, 0, 0, 0, 0, 0, 0, 0, 0, 0, 0, 0, 0, 0, 0, 0, 0, 0, 0, 0, 0, 0, 0], "id": 59, "left_children": [1, 3, 5, 7, 9, 11, -1, 13, -1, 15, 17, 19, -1, -1, 21, -1, -1, -1, -1, -1, -1, -1, -1], "loss_changes": [38.030273, 31.32708, 1.2900391, 5.129616, 1.9739628, 8.633263, 0.0, 3.6747055, 0.0, 1.4062061, 1.0596447, 3.24474, 0.0, 0.0, 1.2289954, 0.0, 0.0, 0.0, 0.0, 0.0, 0.0, 0.0, 0.0], "parents": [2147483647, 0, 0, 1, 1, 2, 2, 3, 3, 4, 4, 5, 5, 7, 7, 9, 9, 10, 10, 11, 11, 14, 14], "right_children": [2, 4, 6, 8, 10, 12, -1, 14, -1, 16, 18, 20, -1, -1, 22, -1, -1, -1, -1, -1, -1, -1, -1], "split_conditions": [-1.6304436, -1.6640834, -3.695218, 2.396671, -1.2934885, -1.8795468, -0.023839537, -0.27735728, 0.024604842, 0.63862437, -1.186029, -0.0040639318, -0.022740705, 0.016048465, -0.27806604, 0.010736234, -0.01282541, -0.0021321645, -0.024109883, 0.024716599, -0.008810059, 0.0013960863, -0.022678342], "split_indices": [16, 6, 13, 1, 14, 9, 0, 23, 0, 4, 24, 19, 0, 0, 25, 0, 0, 0, 0, 0, 0, 0, 0], "split_type": [0, 0, 0, 0, 0, 0, 0, 0, 0, 0, 0, 0, 0, 0, 0, 0, 0, 0, 0, 0, 0, 0, 0], "sum_hessian": [6983.1064, 32.556065, 6950.5503, 15.5381, 17.017965, 15.675336, 6934.875, 4.4457345, 11.092366, 2.0614767, 14.956489, 3.0409298, 12.634406, 1.9562285, 2.4895058, 1.0504802, 1.0109963, 1.150516, 13.805973, 1.7295082, 1.3114218, 1.1623704, 1.3271353], "tree_param": {"num_deleted": "0", "num_feature": "29", "num_nodes": "23", "size_leaf_vector": "0"}}, {"base_weights": [-1.165117, -0.31512636, -0.02337702, 0.939118, -0.022417521, 1.1251329, -0.007925612, 0.024038384, 0.0050591193], "categories": [], "categories_nodes": [], "categories_segments": [], "categories_sizes": [], "default_left": [0, 0, 0, 0, 0, 0, 0, 0, 0], "id": 60, "left_children": [1, 3, -1, 5, -1, 7, -1, -1, -1], "loss_changes": [20.016602, 30.827106, 0.0, 3.4435883, 0.0, 0.42280006, 0.0, 0.0, 0.0], "parents": [2147483647, 0, 0, 1, 1, 3, 3, 5, 5], "right_children": [2, 4, -1, 6, -1, 8, -1, -1, -1], "split_conditions": [-1.8355584, -2.752758, -0.02337702, 0.26322308, -0.022417521, 2.9789374, -0.007925612, 0.024038384, 0.0050591193], "split_indices": [11, 13, 0, 6, 0, 7, 0, 0, 0], "split_type": [0, 0, 0, 0, 0, 0, 0, 0, 0], "sum_hessian": [6422.0654, 28.461966, 6393.6035, 11.067922, 17.394045, 9.852912, 1.2150096, 8.708178, 1.1447351], "tree_param": {"num_deleted": "0", "num_feature": "29", "num_nodes": "9", "size_leaf_vector": "0"}}, {"base_weights": [-1.1640686, -0.09721171, -1.169185, 0.86266255, -0.98607665, -0.75003624, -0.023400774, -0.042275805, 0.024157997, -0.000734747, -1.1103184, 0.58532614, -0.022213997, 0.01553302, -0.72070265, -0.0020842198, -0.023686582, 0.024374481, -0.008493114, 0.0013197793, -0.022715287], "categories": [], "categories_nodes": [], "categories_segments": [], "categories_sizes": [], "default_left": [0, 0, 0, 0, 0, 0, 0, 0, 0, 0, 0, 0, 0, 0, 0, 0, 0, 0, 0, 0, 0], "id": 61, "left_children": [1, 3, 5, 7, 9, 11, -1, 13, -1, -1, 15, 17, -1, -1, 19, -1, -1, -1, -1, -1, -1], "loss_changes": [35.006836, 27.982616, 1.4140625, 4.994404, 1.9616642, 8.259811, 0.0, 3.5241363, 0.0, 0.0, 0.9919224, 3.0859215, 0.0, 0.0, 1.1971661, 0.0, 0.0, 0.0, 0.0, 0.0, 0.0], "parents": [2147483647, 0, 0, 1, 1, 2, 2, 3, 3, 4, 4, 5, 5, 7, 7, 10, 10, 11, 11, 14, 14], "right_children": [2, 4, 6, 8, 10, 12, -1, 14, -1, -1, 16, 18, -1, -1, 20, -1, -1, -1, -1, -1, -1], "split_conditions": [-1.6304436, -1.6640834, -3.695218, 2.396671, -1.2934885, -1.8795468, -0.023400774, -0.27735728, 0.024157997, -0.000734747, -1.186029, -0.0040639318, -0.022213997, 0.01553302, -0.27806604, -0.0020842198, -0.023686582, 0.024374481, -0.008493114, 0.0013197793, -0.022715287], "split_indices": [16, 6, 13, 1, 14, 9, 0, 23, 0, 0, 24, 19, 0, 0, 25, 0, 0, 0, 0, 0, 0], "split_type": [0, 0, 0, 0, 0, 0, 0, 0, 0, 0, 0, 0, 0, 0, 0, 0, 0, 0, 0, 0, 0], "sum_hessian": [6433.1396, 30.800293, 6402.3394, 14.822806, 15.977488, 14.800305, 6387.539, 4.3356695, 10.487137, 1.9989648, 13.978522, 3.0148532, 11.785452, 1.8988235, 2.4368458, 1.1228229, 12.8557, 1.7258365, 1.2890167, 1.1321077, 1.3047382], "tree_param": {"num_deleted": "0", "num_feature": "29", "num_nodes": "21", "size_leaf_vector": "0"}}, {"base_weights": [-1.1674426, -0.48729715, -0.02341092, 0.7976513, -0.98690975, 1.1053663, -0.0149569055, -0.20788576, -1.0967094, 0.024313468, 0.0050113113, 0.015705602, -0.016371202, -0.0040494353, -0.022808012], "categories": [], "categories_nodes": [], "categories_segments": [], "categories_sizes": [], "default_left": [0, 0, 0, 0, 0, 0, 0, 0, 0, 0, 0, 0, 0, 0, 0], "id": 62, "left_children": [1, 3, -1, 5, 7, 9, -1, 11, 13, -1, -1, -1, -1, -1, -1], "loss_changes": [12.988281, 20.618683, 0.0, 5.202609, 1.7128181, 0.45699406, 0.0, 3.091149, 0.53694916, 0.0, 0.0, 0.0, 0.0, 0.0, 0.0], "parents": [2147483647, 0, 0, 1, 1, 3, 3, 4, 4, 5, 5, 7, 7, 8, 8], "right_children": [2, 4, -1, 6, 8, 10, -1, 12, 14, -1, -1, -1, -1, -1, -1], "split_conditions": [-3.3195264, -1.8893243, -0.02341092, 1.1077638, 0.22919208, 0.26907164, -0.0149569055, -0.3710671, -1.2672509, 0.024313468, 0.0050113113, 0.015705602, -0.016371202, -0.0040494353, -0.022808012], "split_indices": [13, 11, 0, 6, 6, 25, 0, 28, 24, 0, 0, 0, 0, 0, 0], "split_type": [0, 0, 0, 0, 0, 0, 0, 0, 0, 0, 0, 0, 0, 0, 0], "sum_hessian": [6422.4907, 29.891277, 6392.5996, 8.2014675, 21.689808, 7.0771575, 1.1243105, 3.0368445, 18.652964, 5.8943534, 1.1828039, 1.0474343, 1.9894102, 1.1313595, 17.521605], "tree_param": {"num_deleted": "0", "num_feature": "29", "num_nodes": "15", "size_leaf_vector": "0"}}, {"base_weights": [-1.1657591, -0.3857824, -0.02338713, 0.9652387, -0.9467456, 0.024059296, -0.0074263816, -0.27886528, -1.0990777, 0.015526513, -0.017953949, -0.00432525, -0.022927321], "categories": [], "categories_nodes": [], "categories_segments": [], "categories_sizes": [], "default_left": [0, 0, 0, 0, 0, 0, 0, 0, 0, 0, 0, 0, 0], "id": 63, "left_children": [1, 3, -1, 5, 7, -1, -1, 9, 11, -1, -1, -1, -1], "loss_changes": [17.574219, 24.39803, 0.0, 3.4926567, 1.9725189, 0.0, 0.0, 4.2885017, 0.49936104, 0.0, 0.0, 0.0, 0.0], "parents": [2147483647, 0, 0, 1, 1, 3, 3, 4, 4, 7, 7, 8, 8], "right_children": [2, 4, -1, 6, 8, -1, -1, 10, 12, -1, -1, -1, -1], "split_conditions": [-3.1088288, -0.6800448, -0.02338713, 0.5311686, 0.2978831, 0.024059296, -0.0074263816, -0.3947316, -1.3532219, 0.015526513, -0.017953949, -0.00432525, -0.022927321], "split_indices": [13, 6, 0, 15, 6, 0, 0, 5, 14, 0, 0, 0, 0], "split_type": [0, 0, 0, 0, 0, 0, 0, 0, 0, 0, 0, 0, 0], "sum_hessian": [6423.0444, 29.986973, 6393.0576, 8.586531, 21.400442, 7.374774, 1.2117572, 4.500263, 16.900177, 1.569521, 2.9307425, 1.142596, 15.757582], "tree_param": {"num_deleted": "0", "num_feature": "29", "num_nodes": "13", "size_leaf_vector": "0"}}, {"base_weights": [-1.163691, -0.11926155, -1.1691076, -1.2591472, 0.7045773, -0.61243725, -0.023397936, 0.51618254, -1.7083199, 0.9518287, -0.73503584, 0.29996628, -0.024641559, 0.0174145, -0.0044562845, -0.019837152, -0.04138533, 0.2072395, 1.1417135, -0.01692957, -0.0044937446, -0.014566797, 0.023299485, -0.01044047, 0.62310666, 0.023668554, 0.0066419677, 0.003960064, 0.014791725], "categories": [], "categories_nodes": [], "categories_segments": [], "categories_sizes": [], "default_left": [0, 0, 0, 0, 0, 0, 0, 0, 0, 0, 0, 0, 0, 0, 0, 0, 0, 0, 0, 0, 0, 0, 0, 0, 0, 0, 0, 0, 0], "id": 64, "left_children": [1, 3, 5, 7, 9, 11, -1, 13, 15, 17, 19, 21, -1, -1, -1, -1, -1, 23, 25, -1, -1, -1, -1, -1, 27, -1, -1, -1, -1], "loss_changes": [36.27246, 33.117638, 2.0976562, 12.64991, 8.019201, 6.681457, 0.0, 1.1759568, 1.0533562, 2.3062706, 0.013325691, 5.580285, 0.0, 0.0, 0.0, 0.0, 0.0, 1.8041693, 0.08347893, 0.0, 0.0, 0.0, 0.0, 0.0, 0.0299021, 0.0, 0.0, 0.0, 0.0], "parents": [2147483647, 0, 0, 1, 1, 2, 2, 3, 3, 4, 4, 5, 5, 7, 7, 8, 8, 9, 9, 10, 10, 11, 11, 17, 17, 18, 18, 24, 24], "right_children": [2, 4, 6, 8, 10, 12, -1, 14, 16, 18, 20, 22, -1, -1, -1, -1, -1, 24, 26, -1, -1, -1, -1, -1, 28, -1, -1, -1, -1], "split_conditions": [-4.463014, -0.2750671, -1.8226626, 0.27726558, -1.8171622, 0.15940943, -0.023397936, 0.30592525, 1.4425915, -0.19724247, -2.9221926, 1.1436439, -0.024641559, 0.0174145, -0.0044562845, -0.019837152, -0.04138533, 0.0022067046, -0.0910815, -0.01692957, -0.0044937446, -0.014566797, 0.023299485, -0.01044047, 0.8238785, 0.023668554, 0.0066419677, 0.003960064, 0.014791725], "split_indices": [13, 25, 16, 19, 9, 24, 0, 27, 3, 25, 11, 3, 0, 0, 0, 0, 0, 12, 5, 0, 0, 0, 0, 0, 18, 0, 0, 0, 0], "split_type": [0, 0, 0, 0, 0, 0, 0, 0, 0, 0, 0, 0, 0, 0, 0, 0, 0, 0, 0, 0, 0, 0, 0, 0, 0, 0, 0, 0, 0], "sum_hessian": [6435.389, 33.32125, 6402.068, 13.757547, 19.563702, 10.164299, 6391.9033, 2.747808, 11.00974, 16.985329, 2.578374, 4.3196454, 5.844653, 1.7364655, 1.0113426, 4.9440207, 6.0657187, 3.8763843, 13.108944, 1.5756726, 1.0027013, 2.045723, 2.2739224, 1.3150511, 2.5613332, 12.027528, 1.0814165, 1.1315453, 1.4297879], "tree_param": {"num_deleted": "0", "num_feature": "29", "num_nodes": "29", "size_leaf_vector": "0"}}, {"base_weights": [-1.1444783, -0.14884745, -1.1498439, -1.2673433, 0.67670316, -0.57818025, -0.023013677, 0.5027833, -1.7094761, 0.9181513, -0.01404587, 0.32966122, -0.024380159, -0.0029163866, 0.016675737, -0.019286832, -0.041148927, 0.15159225, 1.1190345, -0.014041828, 0.023291562, -0.011177221, 0.581268, 0.023236517, 0.0063285627, 0.0032070768, 0.014128619], "categories": [], "categories_nodes": [], "categories_segments": [], "categories_sizes": [], "default_left": [0, 0, 0, 0, 0, 0, 0, 0, 0, 0, 0, 0, 0, 0, 0, 0, 0, 0, 0, 0, 0, 0, 0, 0, 0, 0, 0], "id": 65, "left_children": [1, 3, 5, 7, 9, 11, -1, 13, 15, 17, -1, 19, -1, -1, -1, -1, -1, 21, 23, -1, -1, -1, 25, -1, -1, -1, -1], "loss_changes": [31.443848, 31.20947, 2.1611328, 12.056414, 7.158699, 6.5953746, 0.0, 0.90133965, 1.0430031, 2.460826, 0.0, 5.290485, 0.0, 0.0, 0.0, 0.0, 0.0, 1.7607197, 0.09184456, 0.0, 0.0, 0.0, 0.066960335, 0.0, 0.0, 0.0, 0.0], "parents": [2147483647, 0, 0, 1, 1, 2, 2, 3, 3, 4, 4, 5, 5, 7, 7, 8, 8, 9, 9, 11, 11, 17, 17, 18, 18, 22, 22], "right_children": [2, 4, 6, 8, 10, 12, -1, 14, 16, 18, -1, 20, -1, -1, -1, -1, -1, 22, 24, -1, -1, -1, 26, -1, -1, -1, -1], "split_conditions": [-4.463014, -0.2750671, -1.8226626, 0.27726558, -1.8171622, 0.15940943, -0.023013677, -0.9338437, 1.4425915, -0.19724247, -0.01404587, 1.1436439, -0.024380159, -0.0029163866, 0.016675737, -0.019286832, -0.041148927, 0.0022067046, -0.0910815, -0.014041828, 0.023291562, -0.011177221, 0.8238785, 0.023236517, 0.0063285627, 0.0032070768, 0.014128619], "split_indices": [13, 25, 16, 19, 9, 24, 0, 19, 3, 25, 0, 3, 0, 0, 0, 0, 0, 12, 5, 0, 0, 0, 18, 0, 0, 0, 0], "split_type": [0, 0, 0, 0, 0, 0, 0, 0, 0, 0, 0, 0, 0, 0, 0, 0, 0, 0, 0, 0, 0, 0, 0, 0, 0, 0, 0], "sum_hessian": [5916.949, 31.870565, 5885.0786, 13.306767, 18.563799, 9.645987, 5875.4326, 2.6320188, 10.674748, 16.082167, 2.4816332, 4.192362, 5.4536247, 1.0783843, 1.5536344, 4.5986524, 6.076096, 3.7036958, 12.37847, 1.9463001, 2.2460616, 1.282489, 2.421207, 11.326998, 1.0514723, 1.0778006, 1.3434063], "tree_param": {"num_deleted": "0", "num_feature": "29", "num_nodes": "27", "size_leaf_vector": "0"}}, {"base_weights": [-1.145757, -0.2871742, -0.02299207, 0.92462105, -0.021951616, 1.1026453, -0.0071977465, 0.023658372, 0.00448493], "categories": [], "categories_nodes": [], "categories_segments": [], "categories_sizes": [], "default_left": [0, 0, 0, 0, 0, 0, 0, 0, 0], "id": 66, "left_children": [1, 3, -1, 5, -1, 7, -1, -1, -1], "loss_changes": [19.17041, 28.18647, 0.0, 3.056528, 0.0, 0.4723816, 0.0, 0.0, 0.0], "parents": [2147483647, 0, 0, 1, 1, 3, 3, 5, 5], "right_children": [2, 4, -1, 6, -1, 8, -1, -1, -1], "split_conditions": [-1.8355584, -2.752758, -0.02299207, 0.26322308, -0.021951616, 2.9789374, -0.0071977465, 0.023658372, 0.00448493], "split_indices": [11, 13, 0, 6, 0, 7, 0, 0, 0], "split_type": [0, 0, 0, 0, 0, 0, 0, 0, 0], "sum_hessian": [5903.537, 26.668356, 5876.8687, 10.630985, 16.03737, 9.461295, 1.16969, 8.351416, 1.1098791], "tree_param": {"num_deleted": "0", "num_feature": "29", "num_nodes": "9", "size_leaf_vector": "0"}}, {"base_weights": [-1.1447157, -0.08944897, -1.149919, 0.83599496, -0.9585185, -0.7145745, -0.023016691, -0.057358343, 0.02375616, -0.00016305495, -1.0894206, 0.5881934, -0.02175104, 0.015226076, -0.7286651, -0.0019606925, -0.023313422, 0.023997959, -0.008112584, 0.0012179125, -0.022711784], "categories": [], "categories_nodes": [], "categories_segments": [], "categories_sizes": [], "default_left": [0, 0, 0, 0, 0, 0, 0, 0, 0, 0, 0, 0, 0, 0, 0, 0, 0, 0, 0, 0, 0], "id": 67, "left_children": [1, 3, 5, 7, 9, 11, -1, 13, -1, -1, 15, 17, -1, -1, 19, -1, -1, -1, -1, -1, -1], "loss_changes": [32.37744, 25.017231, 1.5239258, 4.8188953, 1.9807615, 7.9238906, 0.0, 3.4261308, 0.0, 0.0, 0.9477825, 2.9096718, 0.0, 0.0, 1.1556629, 0.0, 0.0, 0.0, 0.0, 0.0, 0.0], "parents": [2147483647, 0, 0, 1, 1, 2, 2, 3, 3, 4, 4, 5, 5, 7, 7, 10, 10, 11, 11, 14, 14], "right_children": [2, 4, 6, 8, 10, 12, -1, 14, -1, -1, 16, 18, -1, -1, 20, -1, -1, -1, -1, -1, -1], "split_conditions": [-1.6304436, -1.6640834, -3.695218, 2.396671, -1.2934885, -1.8795468, -0.023016691, -0.27735728, 0.02375616, -0.00016305495, -1.186029, -0.0040639318, -0.02175104, 0.015226076, -0.27806604, -0.0019606925, -0.023313422, 0.023997959, -0.008112584, 0.0012179125, -0.022711784], "split_indices": [16, 6, 13, 1, 14, 9, 0, 23, 0, 0, 24, 19, 0, 0, 25, 0, 0, 0, 0, 0, 0], "split_type": [0, 0, 0, 0, 0, 0, 0, 0, 0, 0, 0, 0, 0, 0, 0, 0, 0, 0, 0, 0, 0], "sum_hessian": [5914.4365, 29.108994, 5885.3276, 14.115701, 14.993293, 13.991049, 5871.3364, 4.2247705, 9.890929, 1.943744, 13.049549, 2.9856153, 11.005433, 1.843072, 2.3816988, 1.0952418, 11.954308, 1.7197447, 1.2658707, 1.0992192, 1.2824795], "tree_param": {"num_deleted": "0", "num_feature": "29", "num_nodes": "21", 